{"learner":{"attributes":{"scikit_learn":"{\"_estimator_type\": \"regressor\"}"},"feature_names":["MagpieData minimum Number","MagpieData maximum Number","MagpieData range Number","MagpieData mean Number","MagpieData avg_dev Number","MagpieData mode Number","MagpieData minimum MendeleevNumber","MagpieData maximum MendeleevNumber","MagpieData range MendeleevNumber","MagpieData mean MendeleevNumber","MagpieData avg_dev MendeleevNumber","MagpieData mode MendeleevNumber","MagpieData minimum AtomicWeight","MagpieData maximum AtomicWeight","MagpieData range AtomicWeight","MagpieData mean AtomicWeight","MagpieData avg_dev AtomicWeight","MagpieData mode AtomicWeight","MagpieData minimum MeltingT","MagpieData maximum MeltingT","MagpieData range MeltingT","MagpieData mean MeltingT","MagpieData avg_dev MeltingT","MagpieData mode MeltingT","MagpieData minimum Column","MagpieData maximum Column","MagpieData range Column","MagpieData mean Column","MagpieData avg_dev Column","MagpieData mode Column","MagpieData minimum Row","MagpieData maximum Row","MagpieData range Row","MagpieData mean Row","MagpieData avg_dev Row","MagpieData mode Row","MagpieData minimum CovalentRadius","MagpieData maximum CovalentRadius","MagpieData range CovalentRadius","MagpieData mean CovalentRadius","MagpieData avg_dev CovalentRadius","MagpieData mode CovalentRadius","MagpieData minimum Electronegativity","MagpieData maximum Electronegativity","MagpieData range Electronegativity","MagpieData mean Electronegativity","MagpieData avg_dev Electronegativity","MagpieData mode Electronegativity","MagpieData minimum NsValence","MagpieData maximum NsValence","MagpieData range NsValence","MagpieData mean NsValence","MagpieData avg_dev NsValence","MagpieData mode NsValence","MagpieData minimum NpValence","MagpieData maximum NpValence","MagpieData range NpValence","MagpieData mean NpValence","MagpieData avg_dev NpValence","MagpieData mode NpValence","MagpieData minimum NdValence","MagpieData maximum NdValence","MagpieData range NdValence","MagpieData mean NdValence","MagpieData avg_dev NdValence","MagpieData mode NdValence","MagpieData minimum NfValence","MagpieData maximum NfValence","MagpieData range NfValence","MagpieData mean NfValence","MagpieData avg_dev NfValence","MagpieData mode NfValence","MagpieData minimum NValence","MagpieData maximum NValence","MagpieData range NValence","MagpieData mean NValence","MagpieData avg_dev NValence","MagpieData mode NValence","MagpieData minimum NsUnfilled","MagpieData maximum NsUnfilled","MagpieData range NsUnfilled","MagpieData mean NsUnfilled","MagpieData avg_dev NsUnfilled","MagpieData mode NsUnfilled","MagpieData minimum NpUnfilled","MagpieData maximum NpUnfilled","MagpieData range NpUnfilled","MagpieData mean NpUnfilled","MagpieData avg_dev NpUnfilled","MagpieData mode NpUnfilled","MagpieData minimum NdUnfilled","MagpieData maximum NdUnfilled","MagpieData range NdUnfilled","MagpieData mean NdUnfilled","MagpieData avg_dev NdUnfilled","MagpieData mode NdUnfilled","MagpieData minimum NfUnfilled","MagpieData maximum NfUnfilled","MagpieData range NfUnfilled","MagpieData mean NfUnfilled","MagpieData avg_dev NfUnfilled","MagpieData mode NfUnfilled","MagpieData minimum NUnfilled","MagpieData maximum NUnfilled","MagpieData range NUnfilled","MagpieData mean NUnfilled","MagpieData avg_dev NUnfilled","MagpieData mode NUnfilled","MagpieData minimum GSvolume_pa","MagpieData maximum GSvolume_pa","MagpieData range GSvolume_pa","MagpieData mean GSvolume_pa","MagpieData avg_dev GSvolume_pa","MagpieData mode GSvolume_pa","MagpieData minimum GSbandgap","MagpieData maximum GSbandgap","MagpieData range GSbandgap","MagpieData mean GSbandgap","MagpieData avg_dev GSbandgap","MagpieData mode GSbandgap","MagpieData minimum GSmagmom","MagpieData maximum GSmagmom","MagpieData range GSmagmom","MagpieData mean GSmagmom","MagpieData avg_dev GSmagmom","MagpieData mode GSmagmom","MagpieData minimum SpaceGroupNumber","MagpieData maximum SpaceGroupNumber","MagpieData range SpaceGroupNumber","MagpieData mean SpaceGroupNumber","MagpieData avg_dev SpaceGroupNumber","MagpieData mode SpaceGroupNumber","space_group_num","a","b","c","alpha","beta","gamma","chgnet_energy","chgnet_mag"],"feature_types":["float","float","float","float","float","float","float","float","float","float","float","float","float","float","float","float","float","float","float","float","float","float","float","float","float","float","float","float","float","float","float","float","float","float","float","float","float","float","float","float","float","float","float","float","float","float","float","float","float","float","float","float","float","float","float","float","float","float","float","float","float","float","float","float","float","float","float","float","float","float","float","float","float","float","float","float","float","float","float","float","float","float","float","float","float","float","float","float","float","float","float","float","float","float","float","float","float","float","float","float","float","float","float","float","float","float","float","float","float","float","float","float","float","float","float","float","float","float","float","float","float","float","float","float","float","float","float","float","float","float","float","float","int","float","float","float","float","float","float","float","float"],"gradient_booster":{"model":{"cats":{"enc":[],"feature_segments":[],"sorted_idx":[]},"gbtree_model_param":{"num_parallel_tree":"1","num_trees":"500"},"iteration_indptr":[0,1,2,3,4,5,6,7,8,9,10,11,12,13,14,15,16,17,18,19,20,21,22,23,24,25,26,27,28,29,30,31,32,33,34,35,36,37,38,39,40,41,42,43,44,45,46,47,48,49,50,51,52,53,54,55,56,57,58,59,60,61,62,63,64,65,66,67,68,69,70,71,72,73,74,75,76,77,78,79,80,81,82,83,84,85,86,87,88,89,90,91,92,93,94,95,96,97,98,99,100,101,102,103,104,105,106,107,108,109,110,111,112,113,114,115,116,117,118,119,120,121,122,123,124,125,126,127,128,129,130,131,132,133,134,135,136,137,138,139,140,141,142,143,144,145,146,147,148,149,150,151,152,153,154,155,156,157,158,159,160,161,162,163,164,165,166,167,168,169,170,171,172,173,174,175,176,177,178,179,180,181,182,183,184,185,186,187,188,189,190,191,192,193,194,195,196,197,198,199,200,201,202,203,204,205,206,207,208,209,210,211,212,213,214,215,216,217,218,219,220,221,222,223,224,225,226,227,228,229,230,231,232,233,234,235,236,237,238,239,240,241,242,243,244,245,246,247,248,249,250,251,252,253,254,255,256,257,258,259,260,261,262,263,264,265,266,267,268,269,270,271,272,273,274,275,276,277,278,279,280,281,282,283,284,285,286,287,288,289,290,291,292,293,294,295,296,297,298,299,300,301,302,303,304,305,306,307,308,309,310,311,312,313,314,315,316,317,318,319,320,321,322,323,324,325,326,327,328,329,330,331,332,333,334,335,336,337,338,339,340,341,342,343,344,345,346,347,348,349,350,351,352,353,354,355,356,357,358,359,360,361,362,363,364,365,366,367,368,369,370,371,372,373,374,375,376,377,378,379,380,381,382,383,384,385,386,387,388,389,390,391,392,393,394,395,396,397,398,399,400,401,402,403,404,405,406,407,408,409,410,411,412,413,414,415,416,417,418,419,420,421,422,423,424,425,426,427,428,429,430,431,432,433,434,435,436,437,438,439,440,441,442,443,444,445,446,447,448,449,450,451,452,453,454,455,456,457,458,459,460,461,462,463,464,465,466,467,468,469,470,471,472,473,474,475,476,477,478,479,480,481,482,483,484,485,486,487,488,489,490,491,492,493,494,495,496,497,498,499,500],"tree_info":[0,0,0,0,0,0,0,0,0,0,0,0,0,0,0,0,0,0,0,0,0,0,0,0,0,0,0,0,0,0,0,0,0,0,0,0,0,0,0,0,0,0,0,0,0,0,0,0,0,0,0,0,0,0,0,0,0,0,0,0,0,0,0,0,0,0,0,0,0,0,0,0,0,0,0,0,0,0,0,0,0,0,0,0,0,0,0,0,0,0,0,0,0,0,0,0,0,0,0,0,0,0,0,0,0,0,0,0,0,0,0,0,0,0,0,0,0,0,0,0,0,0,0,0,0,0,0,0,0,0,0,0,0,0,0,0,0,0,0,0,0,0,0,0,0,0,0,0,0,0,0,0,0,0,0,0,0,0,0,0,0,0,0,0,0,0,0,0,0,0,0,0,0,0,0,0,0,0,0,0,0,0,0,0,0,0,0,0,0,0,0,0,0,0,0,0,0,0,0,0,0,0,0,0,0,0,0,0,0,0,0,0,0,0,0,0,0,0,0,0,0,0,0,0,0,0,0,0,0,0,0,0,0,0,0,0,0,0,0,0,0,0,0,0,0,0,0,0,0,0,0,0,0,0,0,0,0,0,0,0,0,0,0,0,0,0,0,0,0,0,0,0,0,0,0,0,0,0,0,0,0,0,0,0,0,0,0,0,0,0,0,0,0,0,0,0,0,0,0,0,0,0,0,0,0,0,0,0,0,0,0,0,0,0,0,0,0,0,0,0,0,0,0,0,0,0,0,0,0,0,0,0,0,0,0,0,0,0,0,0,0,0,0,0,0,0,0,0,0,0,0,0,0,0,0,0,0,0,0,0,0,0,0,0,0,0,0,0,0,0,0,0,0,0,0,0,0,0,0,0,0,0,0,0,0,0,0,0,0,0,0,0,0,0,0,0,0,0,0,0,0,0,0,0,0,0,0,0,0,0,0,0,0,0,0,0,0,0,0,0,0,0,0,0,0,0,0,0,0,0,0,0,0,0,0,0,0,0,0,0,0,0,0,0,0,0,0,0,0,0,0,0,0,0,0,0,0,0,0,0,0,0,0,0,0,0,0,0,0,0,0,0,0,0,0,0,0,0,0,0,0,0,0,0,0,0,0,0,0,0,0,0,0,0,0,0,0,0,0,0],"trees":[{"base_weights":[4.3978132E-2,-1.6107851E0,9.276711E-1,-5.3921213E0,-3.090231E-1,-5.650179E0,1.1978829E0,-1.0006697E0,-7.448873E0,-1.0922697E0,2.0844073E0,-3.6522222E-1,-1.2675123E-1,2.5577087E0,6.994267E-1,-1.8448877E-1,-2.5869095E0,-9.306487E-2,-8.193945E0,-3.99281E0,-6.430507E-1,1.0744343E-1,1.3433397E-2,2.7137518E0,5.969995E-1,-2.1015282E0,1.0899497E0,-4.807651E-2,3.64287E-1,-3.4240365E-2,-1.4963374E-1,-5.9555102E-2,-4.2499128E-1,-2.9178888E-1,-2.3692844E0,-1.4612662E0,5.9861023E-2,3.5468888E-2,1.3680397E-1,4.1450474E-2,2.737422E-1,-9.308626E-1,-3.5684037E-1,1.3193709E0,-7.422443E-1,6.3545705E-4,3.558142E-2,-5.254078E-2,-1.3432543E-1,1.0020967E-1,-9.520719E-2,-9.3800925E-2,3.2929353E-2,-1.0384309E-2,2.5172353E-2,-8.869159E-3,-1.8560325E-1,8.25646E-2,2.1297513E-2,-7.1325235E-2,1.4569714E-2],"categories":[],"categories_nodes":[],"categories_segments":[],"categories_sizes":[],"default_left":[0,0,0,0,0,0,0,0,0,0,0,0,0,0,0,0,0,0,0,0,0,0,0,0,0,0,0,0,0,0,0,0,0,0,0,0,0,0,0,0,0,0,0,0,0,0,0,0,0,0,0,0,0,0,0,0,0,0,0,0,0],"id":0,"left_children":[1,3,5,7,9,11,13,15,17,19,21,-1,-1,23,25,27,29,-1,31,33,35,-1,-1,37,39,41,43,-1,45,-1,-1,-1,-1,-1,47,49,51,-1,-1,-1,53,55,-1,57,59,-1,-1,-1,-1,-1,-1,-1,-1,-1,-1,-1,-1,-1,-1,-1,-1],"loss_changes":[5.586316E2,6.530128E2,4.49344E2,2.9963843E2,1.8974135E2,3.301599E1,1.6088626E2,1.5058651E1,8.050098E1,9.645874E1,2.3487854E0,0E0,0E0,1.796103E1,1.9589973E2,4.1880665E0,1.0378189E0,0E0,3.2716553E1,1.6094421E1,3.8621403E1,0E0,0E0,6.995239E-1,2.2305846E-1,1.2303842E2,6.655298E1,0E0,7.2366124E-1,0E0,0E0,0E0,0E0,0E0,1.047287E-1,5.139427E1,4.4120796E1,0E0,0E0,0E0,5.469048E-1,3.915754E1,0E0,4.0516388E1,1.3146678E1,0E0,0E0,0E0,0E0,0E0,0E0,0E0,0E0,0E0,0E0,0E0,0E0,0E0,0E0,0E0,0E0],"parents":[2147483647,0,0,1,1,2,2,3,3,4,4,5,5,6,6,7,7,8,8,9,9,10,10,13,13,14,14,15,15,16,16,18,18,19,19,20,20,23,23,24,24,25,25,26,26,28,28,34,34,35,35,36,36,40,40,41,41,43,43,44,44],"right_children":[2,4,6,8,10,12,14,16,18,20,22,-1,-1,24,26,28,30,-1,32,34,36,-1,-1,38,40,42,44,-1,46,-1,-1,-1,-1,-1,48,50,52,-1,-1,-1,54,56,-1,58,60,-1,-1,-1,-1,-1,-1,-1,-1,-1,-1,-1,-1,-1,-1,-1,-1],"split_conditions":[9.80192E0,9.976744E1,5.34E0,1.6064258E0,2.36E0,6.3723927E1,1.28842E2,6.2784E0,3.094966E0,7.676576E-3,6.557895E1,-3.6522222E-1,-1.2675123E-1,2.2533981E1,1.256907E1,5.716942E0,2.3061225E0,-9.306487E-2,8.9E-1,6.2152E0,4E0,1.0744343E-1,1.3433397E-2,9.2E0,1.014516E1,9.017752E0,1.9442148E0,-4.807651E-2,8.8E1,-3.4240365E-2,-1.4963374E-1,-5.9555102E-2,-4.2499128E-1,-2.9178888E-1,8E0,3.73E1,3E0,3.5468888E-2,1.3680397E-1,4.1450474E-2,1.2789474E1,-5.989887E0,-3.5684037E-1,6.322314E-1,9.792263E-7,6.3545705E-4,3.558142E-2,-5.254078E-2,-1.3432543E-1,1.0020967E-1,-9.520719E-2,-9.3800925E-2,3.2929353E-2,-1.0384309E-2,2.5172353E-2,-8.869159E-3,-1.8560325E-1,8.25646E-2,2.1297513E-2,-7.1325235E-2,1.4569714E-2],"split_indices":[135,39,133,51,93,9,22,134,112,140,9,0,0,111,135,16,4,0,42,134,61,0,0,3,133,4,51,0,38,0,0,0,0,0,1,9,104,0,0,0,3,139,0,64,124,0,0,0,0,0,0,0,0,0,0,0,0,0,0,0,0],"split_type":[0,0,0,0,0,0,0,0,0,0,0,0,0,0,0,0,0,0,0,0,0,0,0,0,0,0,0,0,0,0,0,0,0,0,0,0,0,0,0,0,0,0,0,0,0,0,0,0,0,0,0,0,0,0,0,0,0,0,0,0,0],"sum_hessian":[3.8E2,1.32E2,2.48E2,3.3E1,9.9E1,9E0,2.39E2,1.1E1,2.2E1,7.5E1,2.4E1,5E0,4E0,6.3E1,1.76E2,8E0,3E0,3E0,1.9E1,9E0,6.6E1,2.3E1,1E0,5.8E1,5E0,2.1E1,1.55E2,3E0,5E0,1E0,2E0,1E0,1.8E1,3E0,6E0,3E1,3.6E1,1E0,5.7E1,2E0,3E0,1.8E1,3E0,1.38E2,1.7E1,3E0,2E0,2E0,4E0,3E0,2.7E1,8E0,2.8E1,1E0,2E0,1.5E1,3E0,1E2,3.8E1,1E1,7E0],"tree_param":{"num_deleted":"0","num_feature":"141","num_nodes":"61","size_leaf_vector":"1"}},{"base_weights":[-3.0286279E-2,-1.3962859E0,1.0472641E0,7.168902E-1,-3.902986E0,-4.981182E0,1.1864744E0,9.659363E-1,-3.8097E0,-2.0402725E0,-5.967736E0,-3.074651E-1,-1.07633404E-1,1.4778773E0,-1.1213336E0,1.5298111E0,-3.6466262E-1,-8.0821134E-2,-2.3665388E-1,-3.739574E0,-8.5071886E-1,-3.8502488E0,-7.87132E0,-3.5180075E0,1.5512999E0,-7.644291E-1,-2.3325348E-1,1.7002323E0,-3.7651848E-2,4.787623E-1,-1.1820402E0,-8.3125985E-1,-6.23238E0,-2.0067802E-1,-4.1991705E-1,-4.2828193E0,-8.9124374E-2,-4.1883096E-1,-1.276307E-1,-2.2876301E-1,-3.5087552E-2,1.8569164E0,1.483768E-1,6.378425E-1,-1.1893847E0,8.770854E-2,6.3317693E-3,-3.0113442E-2,4.1417032E-2,-9.833747E-2,-3.9461657E-2,-8.813878E-2,1.332539E-2,-1.3399448E-1,-3.432268E-1,-2.1353383E-3,-9.223875E-2,-1.385104E-1,-2.807887E-1,9.801978E-2,-4.85281E-2,-7.762805E-2,1.8153315E-2,6.353704E-3,4.307291E-2,-7.593482E-2,4.8170272E-2],"categories":[],"categories_nodes":[],"categories_segments":[],"categories_sizes":[],"default_left":[0,0,0,0,0,0,0,0,0,0,0,0,0,0,0,0,0,0,0,0,0,0,0,0,0,0,0,0,0,0,0,0,0,0,0,0,0,0,0,0,0,0,0,0,0,0,0,0,0,0,0,0,0,0,0,0,0,0,0,0,0,0,0,0,0,0,0],"id":1,"left_children":[1,3,5,7,9,11,13,15,17,19,21,-1,-1,23,25,27,29,-1,-1,31,33,35,37,39,41,43,-1,45,-1,47,49,51,53,-1,55,57,-1,-1,-1,-1,-1,59,61,63,65,-1,-1,-1,-1,-1,-1,-1,-1,-1,-1,-1,-1,-1,-1,-1,-1,-1,-1,-1,-1,-1,-1],"loss_changes":[5.6079694E2,8.9271063E2,1.8466438E2,1.0739428E2,2.83969E2,3.282814E0,1.4221005E2,6.658348E1,2.4754486E0,8.171788E1,1.1480286E2,0E0,0E0,7.368439E1,2.67885E1,2.5401184E1,1.9179625E1,0E0,0E0,1.18066925E2,3.3741135E1,9.360535E0,2.6993408E1,5.7217903E0,7.861569E1,1.4464414E1,0E0,4.70076E0,0E0,5.7895555E0,2.7631264E0,9.673084E0,1.8153687E0,0E0,1.2820522E1,1.4686768E1,0E0,0E0,0E0,0E0,0E0,4.6083008E1,1.2979581E1,5.758259E-1,1.4224016E1,0E0,0E0,0E0,0E0,0E0,0E0,0E0,0E0,0E0,0E0,0E0,0E0,0E0,0E0,0E0,0E0,0E0,0E0,0E0,0E0,0E0,0E0],"parents":[2147483647,0,0,1,1,2,2,3,3,4,4,5,5,6,6,7,7,8,8,9,9,10,10,13,13,14,14,15,15,16,16,19,19,20,20,21,21,22,22,23,23,24,24,25,25,27,27,29,29,30,30,31,31,32,32,34,34,35,35,41,41,42,42,43,43,44,44],"right_children":[2,4,6,8,10,12,14,16,18,20,22,-1,-1,24,26,28,30,-1,-1,32,34,36,38,40,42,44,-1,46,-1,48,50,52,54,-1,56,58,-1,-1,-1,-1,-1,60,62,64,66,-1,-1,-1,-1,-1,-1,-1,-1,-1,-1,-1,-1,-1,-1,-1,-1,-1,-1,-1,-1,-1,-1],"split_conditions":[1.0486707E2,9.042857E1,4.134834E-3,9.9867E1,6.39E0,1.02478E2,1.5E1,2.3601112E1,1.4E1,2.2644036E0,2.4171779E-2,-3.074651E-1,-1.07633404E-1,3.859E0,2.128E3,8.087574E-1,7.6666664E1,-8.0821134E-2,-2.3665388E-1,1.1088386E0,1.0485597E-2,1.76E2,6.305E1,5.8166668E1,4.012799E1,5.2908638E1,-2.3325348E-1,1.9442148E0,-3.7651848E-2,1.9139785E0,1.1851852E0,6.8583336E1,8E0,-2.0067802E-1,1.143644E1,6.316633E1,-8.9124374E-2,-4.1883096E-1,-1.276307E-1,-2.2876301E-1,-3.5087552E-2,1.5E0,2.141385E0,1.9780611E1,1.768E3,8.770854E-2,6.3317693E-3,-3.0113442E-2,4.1417032E-2,-9.833747E-2,-3.9461657E-2,-8.813878E-2,1.332539E-2,-1.3399448E-1,-3.432268E-1,-2.1353383E-3,-9.223875E-2,-1.385104E-1,-2.807887E-1,9.801978E-2,-4.85281E-2,-7.762805E-2,1.8153315E-2,6.353704E-3,4.307291E-2,-7.593482E-2,4.8170272E-2],"split_indices":[39,39,140,137,134,137,126,15,1,76,117,0,0,134,19,46,9,0,0,76,140,37,23,9,15,22,0,51,0,51,76,9,1,0,27,9,0,0,0,0,0,87,76,16,19,0,0,0,0,0,0,0,0,0,0,0,0,0,0,0,0,0,0,0,0,0,0],"split_type":[0,0,0,0,0,0,0,0,0,0,0,0,0,0,0,0,0,0,0,0,0,0,0,0,0,0,0,0,0,0,0,0,0,0,0,0,0,0,0,0,0,0,0,0,0,0,0,0,0,0,0,0,0,0,0,0,0,0,0,0,0,0,0,0,0,0,0],"sum_hessian":[3.79E2,1.67E2,2.12E2,9.1E1,7.6E1,4E0,2.08E2,8.7E1,4E0,4.1E1,3.5E1,2E0,2E0,1.85E2,2.3E1,6.1E1,2.6E1,2E0,2E0,1.6E1,2.5E1,1.8E1,1.7E1,2E0,1.83E2,2.2E1,1E0,5.7E1,4E0,1.3E1,1.3E1,8E0,8E0,2E0,2.3E1,1.4E1,4E0,1.5E1,2E0,1E0,1E0,1.5E2,3.3E1,5E0,1.7E1,5.5E1,2E0,3E0,1E1,3E0,1E1,4E0,4E0,2E0,6E0,1.9E1,4E0,8E0,6E0,1.45E2,5E0,3E0,3E1,2E0,3E0,1.5E1,2E0],"tree_param":{"num_deleted":"0","num_feature":"141","num_nodes":"67","size_leaf_vector":"1"}},{"base_weights":[1.0260069E-1,-1.7602829E0,9.1369545E-1,-4.9926324E0,-3.5884578E-2,-4.8325396E0,1.1121424E0,-9.7821563E-1,-6.6781607E0,1.6943971E0,-9.6951896E-1,-3.2062596E-1,-1.1430261E-1,2.4497702E0,6.441027E-1,1.5463299E-2,-2.5711946E0,-7.1674724E0,-9.752109E-2,-9.516334E-3,1.9911436E0,-4.9664018E-1,-3.3900526E0,2.5154843E0,2.3128207E-1,-1.6309388E0,1.044913E0,-4.596358E-2,4.1385493E-1,-3.557707E-2,-1.4291112E-1,-7.52778E-2,-7.594354E0,-3.31594E-1,3.1969856E-2,1.02898896E-1,1.3019705E-2,-1.9279277E0,-4.4946237E-3,-3.98433E-2,-1.823335E-1,5.892965E-2,1.280956E-1,2.6207983E-2,-8.861828E-3,-5.4821362E0,-7.9546165E-1,1.2173858E0,-8.776453E-1,2.276826E-3,2.7603751E-2,-5.583812E-2,-3.9190143E-1,-2.5599433E-2,5.239749E-3,-1.7437872E-2,-1.1200519E-1,2.2813652E-2,-8.905496E-2,-2.9761696E-2,-3.2775268E-1,3.0456735E-2,-8.862341E-2,6.5213494E-2,-5.426039E-2,1.0389606E-3,-1.03950396E-1],"categories":[],"categories_nodes":[],"categories_segments":[],"categories_sizes":[],"default_left":[0,0,0,0,0,0,0,0,0,0,0,0,0,0,0,0,0,0,0,0,0,0,0,0,0,0,0,0,0,0,0,0,0,0,0,0,0,0,0,0,0,0,0,0,0,0,0,0,0,0,0,0,0,0,0,0,0,0,0,0,0,0,0,0,0,0,0],"id":2,"left_children":[1,3,5,7,9,11,13,15,17,19,21,-1,-1,23,25,27,29,31,-1,33,35,37,39,41,43,45,47,-1,49,-1,-1,-1,51,53,-1,-1,-1,55,57,-1,-1,-1,-1,-1,-1,59,61,63,65,-1,-1,-1,-1,-1,-1,-1,-1,-1,-1,-1,-1,-1,-1,-1,-1,-1,-1],"loss_changes":[5.7275696E2,6.4081445E2,3.0641974E2,2.641239E2,1.24416985E2,2.1551224E1,1.5869421E2,2.0617586E1,5.0793823E1,1.3670967E1,5.5547314E1,0E0,0E0,9.040039E0,1.7586949E2,3.7319605E0,6.351166E-1,4.899048E1,0E0,1.257023E0,2.1246033E0,3.0280613E1,2.4177399E0,9.529724E-1,4.5183814E-1,8.89492E1,5.5117416E1,0E0,3.3122337E-1,0E0,0E0,0E0,2.7550415E1,3.6854282E-1,0E0,0E0,0E0,4.6415176E0,2.7826527E1,0E0,0E0,0E0,0E0,0E0,0E0,2.2314423E1,3.5387165E1,3.142418E1,1.5153869E1,0E0,0E0,0E0,0E0,0E0,0E0,0E0,0E0,0E0,0E0,0E0,0E0,0E0,0E0,0E0,0E0,0E0,0E0],"parents":[2147483647,0,0,1,1,2,2,3,3,4,4,5,5,6,6,7,7,8,8,9,9,10,10,13,13,14,14,15,15,16,16,17,17,19,19,20,20,21,21,22,22,23,23,24,24,25,25,26,26,28,28,32,32,33,33,37,37,38,38,45,45,46,46,47,47,48,48],"right_children":[2,4,6,8,10,12,14,16,18,20,22,-1,-1,24,26,28,30,32,-1,34,36,38,40,42,44,46,48,-1,50,-1,-1,-1,52,54,-1,-1,-1,56,58,-1,-1,-1,-1,-1,-1,60,62,64,66,-1,-1,-1,-1,-1,-1,-1,-1,-1,-1,-1,-1,-1,-1,-1,-1,-1,-1],"split_conditions":[9.80192E0,1.0071171E2,5.34E0,2.287966E0,4.05E0,6.527273E1,1.1710059E1,5.385E0,2.7561436E0,5.9E1,1.0668353E0,-3.2062596E-1,-1.1430261E-1,1.1249324E0,1.2713E1,4.007913E0,2.3061225E0,7.585E0,-9.752109E-2,1.4358122E1,6.5181816E1,5.7988167E-1,1.0227273E2,9.861E0,1.6E1,9.1947365E1,1.9442148E0,-4.596358E-2,3.8005672E0,-3.557707E-2,-1.4291112E-1,-7.52778E-2,5E-1,1.8133333E1,3.1969856E-2,1.02898896E-1,1.3019705E-2,1.1037037E1,4.9803945E-1,-3.98433E-2,-1.823335E-1,5.892965E-2,1.280956E-1,2.6207983E-2,-8.861828E-3,2.4E1,8.8248074E-1,2.224E1,1.3220921E1,2.276826E-3,2.7603751E-2,-5.583812E-2,-3.9190143E-1,-2.5599433E-2,5.239749E-3,-1.7437872E-2,-1.1200519E-1,2.2813652E-2,-8.905496E-2,-2.9761696E-2,-3.2775268E-1,3.0456735E-2,-8.862341E-2,6.5213494E-2,-5.426039E-2,1.0389606E-3,-1.03950396E-1],"split_indices":[135,39,133,45,133,9,40,135,94,132,46,0,0,88,135,112,4,110,0,111,9,106,39,135,1,129,51,0,4,0,0,0,106,3,0,0,0,3,52,0,0,0,0,0,0,1,46,135,111,0,0,0,0,0,0,0,0,0,0,0,0,0,0,0,0,0,0],"split_type":[0,0,0,0,0,0,0,0,0,0,0,0,0,0,0,0,0,0,0,0,0,0,0,0,0,0,0,0,0,0,0,0,0,0,0,0,0,0,0,0,0,0,0,0,0,0,0,0,0,0,0,0,0,0,0,0,0,0,0,0,0,0,0,0,0,0,0],"sum_hessian":[3.77E2,1.14E2,2.63E2,3.9E1,7.5E1,8E0,2.55E2,1.2E1,2.7E1,2.6E1,4.9E1,4E0,4E0,6.5E1,1.9E2,8E0,4E0,2.4E1,3E0,4E0,2.2E1,4.2E1,7E0,6.3E1,2E0,2.8E1,1.62E2,2E0,6E0,1E0,3E0,2E0,2.2E1,3E0,1E0,2.1E1,1E0,1E1,3.2E1,1E0,6E0,3E0,6E1,1E0,1E0,4E0,2.4E1,1.49E2,1.3E1,2E0,4E0,1E0,2.1E1,2E0,1E0,2E0,8E0,2.6E1,6E0,1E0,3E0,1E1,1.4E1,1.44E2,5E0,8E0,5E0],"tree_param":{"num_deleted":"0","num_feature":"141","num_nodes":"67","size_leaf_vector":"1"}},{"base_weights":[4.4380445E-2,-1.7596155E0,8.0414295E-1,7.5659615E-1,-3.4480553E0,9.5416665E-1,-5.0330687E0,1.5376011E0,-2.0080052E-1,-5.384313E0,-1.0409974E0,-2.417595E0,1.1223186E0,-3.131429E-1,5.8641728E-2,-5.87852E-1,1.7392161E0,6.3872136E-2,-9.758102E-1,-5.947299E0,-1.3905038E0,5.796438E-1,-1.8039999E0,-3.662501E0,-8.27318E-1,1.5438067E0,-2.1463308E-1,-8.996213E-3,-3.509269E-2,9.19536E-2,3.9008427E-2,1.662769E-2,-1.4818112E0,-5.6275713E-1,-6.466995E0,-5.3051966E-1,-1.422606E-1,1.1521671E0,-6.6557035E-2,-2.5777268E0,2.2223333E-1,-4.9661994E-3,-2.119905E-1,-1.0670737E-1,1.2224321E-1,1.7384821E0,9.241882E-2,5.4213144E-2,-2.7600068E-1,-2.5098564E-3,-8.099764E-2,1.55920265E-2,-7.966375E-2,-3.453717E-1,-9.386404E-2,-1.15919116E-4,-3.309952E-2,9.27791E-2,-9.549851E-3,-6.2462848E-2,-1.534004E-1,-1.9968644E-2,5.9208293E-2,-1.0534572E-2,1.2907487E-2,3.0418396E-2,9.506308E-2,-6.617101E-2,2.2087885E-2,1.21421395E-2,-1.8053488E-1],"categories":[],"categories_nodes":[],"categories_segments":[],"categories_sizes":[],"default_left":[0,0,0,0,0,0,0,0,0,0,0,0,0,0,0,0,0,0,0,0,0,0,0,0,0,0,0,0,0,0,0,0,0,0,0,0,0,0,0,0,0,0,0,0,0,0,0,0,0,0,0,0,0,0,0,0,0,0,0,0,0,0,0,0,0,0,0,0,0,0,0],"id":3,"left_children":[1,3,5,7,9,11,13,15,17,19,21,23,25,-1,-1,27,29,-1,31,33,35,37,39,41,43,45,47,-1,-1,-1,-1,-1,49,51,53,55,-1,57,-1,59,61,-1,-1,-1,63,65,67,69,-1,-1,-1,-1,-1,-1,-1,-1,-1,-1,-1,-1,-1,-1,-1,-1,-1,-1,-1,-1,-1,-1,-1],"loss_changes":[5.318405E2,4.9118304E2,2.43874E2,3.5452137E1,3.1598212E2,1.5409377E2,6.0768982E1,1.2164009E1,2.6450905E1,7.717163E1,4.0615383E1,2.2706642E1,1.4402618E2,0E0,0E0,1.3232946E-2,8.636093E-1,0E0,1.0423282E1,8.870532E1,5.9967146E0,1.356735E1,3.5063385E1,1.3978256E1,8.947287E0,5.465399E1,8.87318E1,0E0,0E0,0E0,0E0,0E0,2.0941048E0,4.102002E0,4.767749E1,3.4568024E-1,0E0,8.857624E0,0E0,6.5884476E0,4.6585264E0,0E0,0E0,0E0,2.8062993E-1,3.0300415E1,1.24552145E1,4.235548E1,0E0,0E0,0E0,0E0,0E0,0E0,0E0,0E0,0E0,0E0,0E0,0E0,0E0,0E0,0E0,0E0,0E0,0E0,0E0,0E0,0E0,0E0,0E0],"parents":[2147483647,0,0,1,1,2,2,3,3,4,4,5,5,6,6,7,7,8,8,9,9,10,10,11,11,12,12,15,15,16,16,18,18,19,19,20,20,21,21,22,22,23,23,24,24,25,25,26,26,32,32,33,33,34,34,35,35,37,37,39,39,40,40,44,44,45,45,46,46,47,47],"right_children":[2,4,6,8,10,12,14,16,18,20,22,24,26,-1,-1,28,30,-1,32,34,36,38,40,42,44,46,48,-1,-1,-1,-1,-1,50,52,54,56,-1,58,-1,60,62,-1,-1,-1,64,66,68,70,-1,-1,-1,-1,-1,-1,-1,-1,-1,-1,-1,-1,-1,-1,-1,-1,-1,-1,-1,-1,-1,-1,-1],"split_conditions":[8.383E0,1.0526316E-1,3.98E0,1.1340336E1,1.4E1,3.9375E-1,1.293217E1,1.1088386E0,5.387755E0,3.805668E-1,6.5289254E0,2.2644036E0,5.3333335E0,-3.131429E-1,5.8641728E-2,6E1,9E0,6.3872136E-2,1.1439252E1,9.060704E-1,3.2592592E0,6.547664E1,1.5397738E1,2.3061225E0,7E0,5.3301385E2,2.1888888E0,-8.996213E-3,-3.509269E-2,9.19536E-2,3.9008427E-2,1.662769E-2,5.628809E0,5.8E1,2.16E2,7E0,-1.422606E-1,3.9889E2,-6.6557035E-2,-5.989887E0,4.637838E1,-4.9661994E-3,-2.119905E-1,-1.0670737E-1,1.6E1,6.3E1,2.6958175E0,1E1,-2.7600068E-1,-2.5098564E-3,-8.099764E-2,1.55920265E-2,-7.966375E-2,-3.453717E-1,-9.386404E-2,-1.15919116E-4,-3.309952E-2,9.27791E-2,-9.549851E-3,-6.2462848E-2,-1.534004E-1,-1.9968644E-2,5.9208293E-2,-1.0534572E-2,1.2907487E-2,3.0418396E-2,9.506308E-2,-6.617101E-2,2.2087885E-2,1.21421395E-2,-1.8053488E-1],"split_indices":[133,81,43,27,131,34,4,76,4,81,28,76,75,0,0,1,104,0,27,76,76,9,110,4,5,21,87,0,0,0,0,0,4,1,132,5,0,20,0,139,9,0,0,0,1,132,33,97,0,0,0,0,0,0,0,0,0,0,0,0,0,0,0,0,0,0,0,0,0,0,0],"split_type":[0,0,0,0,0,0,0,0,0,0,0,0,0,0,0,0,0,0,0,0,0,0,0,0,0,0,0,0,0,0,0,0,0,0,0,0,0,0,0,0,0,0,0,0,0,0,0,0,0,0,0,0,0,0,0,0,0,0,0,0,0,0,0,0,0,0,0,0,0,0,0],"sum_hessian":[3.86E2,1.14E2,2.72E2,4.6E1,6.8E1,2.66E2,6E0,2.5E1,2.1E1,3.7E1,3.1E1,1.2E1,2.54E2,5E0,1E0,2E0,2.3E1,7E0,1.4E1,3.2E1,5E0,1E1,2.1E1,6E0,6E0,1.93E2,6.1E1,1E0,1E0,2E1,3E0,4E0,1E1,3E0,2.9E1,4E0,1E0,8E0,2E0,1.5E1,6E0,1E0,5E0,2E0,4E0,1.7E2,2.3E1,5.9E1,2E0,1E0,9E0,2E0,1E0,2.6E1,3E0,1E0,3E0,5E0,3E0,5E0,1E1,4E0,2E0,1E0,3E0,2.2E1,1.48E2,4E0,1.9E1,5.7E1,2E0],"tree_param":{"num_deleted":"0","num_feature":"141","num_nodes":"71","size_leaf_vector":"1"}},{"base_weights":[-7.149833E-2,-1.7708031E0,6.544379E-1,-4.451488E-1,-4.7325373E0,7.9094404E-1,-4.8017945E0,-3.184899E0,2.9754752E-1,-5.8274603E0,-1.6147681E0,8.903637E-1,-3.0836642E-1,-5.3216237E-1,-3.2016075E-1,-1.10667E0,-6.2925916E0,-4.026247E-1,1.5687988E0,-1.4407012E-1,-6.7145104E0,-3.8946167E-1,-3.0072436E0,-3.528649E0,1.0550016E0,-3.5070132E-2,-4.842043E-3,3.0771187E-2,-1.5126312E0,-1.4080328E-1,-3.5599944E-1,4.7429174E-1,-1.3856423E0,1.7413023E0,-2.1915992E-1,-7.223722E0,-7.105358E-2,-4.9535196E-2,3.0914605E-1,-1.7998274E-1,-1.594E-2,-2.635973E-1,-7.3096293E-1,1.929139E0,7.2796136E-1,-7.940591E-2,-2.083118E-2,6.1496694E-2,-7.6827206E-2,-1.1560438E-1,-6.767185E-3,9.29079E-2,3.7545603E-2,9.661031E-3,-2.6098026E-2,-3.8463676E-1,-1.1572059E-1,-3.6710102E-4,3.146526E-2,3.4914494E-3,-9.835327E-2,1.1256453E-1,3.8670283E-2,-4.5097925E-2,4.879389E-2],"categories":[],"categories_nodes":[],"categories_segments":[],"categories_sizes":[],"default_left":[0,0,0,0,0,0,0,0,0,0,0,0,0,0,0,0,0,0,0,0,0,0,0,0,0,0,0,0,0,0,0,0,0,0,0,0,0,0,0,0,0,0,0,0,0,0,0,0,0,0,0,0,0,0,0,0,0,0,0,0,0,0,0,0,0],"id":4,"left_children":[1,3,5,7,9,11,13,15,17,19,21,23,-1,25,-1,27,29,31,33,-1,35,37,39,41,43,-1,-1,-1,45,-1,-1,47,49,51,53,55,-1,-1,57,-1,-1,-1,59,61,63,-1,-1,-1,-1,-1,-1,-1,-1,-1,-1,-1,-1,-1,-1,-1,-1,-1,-1,-1,-1],"loss_changes":[4.9459363E2,4.6904163E2,2.1308934E2,1.7187106E2,1.1689746E2,1.9573312E2,4.445479E1,1.0928912E2,6.0267986E1,5.1212036E1,1.75971E1,2.0161276E2,0E0,1.5309739E-1,0E0,9.3201475E0,8.493042E-2,3.858627E1,7.783928E0,0E0,4.3644165E1,3.2464995E0,6.8157463E0,4.491839E1,7.378162E1,0E0,0E0,0E0,1.656971E-1,0E0,0E0,3.835718E1,2.4012074E1,1.1508102E0,4.754607E-1,2.3641418E1,0E0,0E0,4.0992647E-1,0E0,0E0,0E0,5.086663E0,2.4693665E1,7.886839E1,0E0,0E0,0E0,0E0,0E0,0E0,0E0,0E0,0E0,0E0,0E0,0E0,0E0,0E0,0E0,0E0,0E0,0E0,0E0,0E0],"parents":[2147483647,0,0,1,1,2,2,3,3,4,4,5,5,6,6,7,7,8,8,9,9,10,10,11,11,13,13,15,15,16,16,17,17,18,18,20,20,21,21,22,22,23,23,24,24,28,28,31,31,32,32,33,33,34,34,35,35,38,38,42,42,43,43,44,44],"right_children":[2,4,6,8,10,12,14,16,18,20,22,24,-1,26,-1,28,30,32,34,-1,36,38,40,42,44,-1,-1,-1,46,-1,-1,48,50,52,54,56,-1,-1,58,-1,-1,-1,60,62,64,-1,-1,-1,-1,-1,-1,-1,-1,-1,-1,-1,-1,-1,-1,-1,-1,-1,-1,-1,-1],"split_conditions":[8.383E0,9.422222E1,2.2234042E0,3.3E1,1.0345481E2,5.957279E2,1.5E1,2.4E0,2.25E0,4.1082582E0,5.533E0,8.145204E0,-3.0836642E-1,1.2E1,-3.2016075E-1,6.677778E-1,1.39E2,2.3333333E0,1.7231092E1,-1.4407012E-1,1.05067E2,5.716942E0,8.571428E0,2.2644036E0,1.1253741E2,-3.5070132E-2,-4.842043E-3,3.0771187E-2,1.8425657E0,-1.4080328E-1,-3.5599944E-1,2.2152052E1,1.64E0,1.05954544E2,1.768E1,1.8578571E0,-7.105358E-2,-4.9535196E-2,1.0869565E1,-1.7998274E-1,-1.594E-2,-2.635973E-1,3.8005672E0,4.616708E0,1.3697E3,-7.940591E-2,-2.083118E-2,6.1496694E-2,-7.6827206E-2,-1.1560438E-1,-6.767185E-3,9.29079E-2,3.7545603E-2,9.661031E-3,-2.6098026E-2,-3.8463676E-1,-1.1572059E-1,-3.6710102E-4,3.146526E-2,3.4914494E-3,-9.835327E-2,1.1256453E-1,3.8670283E-2,-4.5097925E-2,4.879389E-2],"split_indices":[133,130,87,132,130,21,2,57,93,112,133,16,0,2,0,46,37,105,3,0,137,16,3,76,22,0,0,0,58,0,0,111,93,39,3,51,0,0,3,0,0,0,4,112,20,0,0,0,0,0,0,0,0,0,0,0,0,0,0,0,0,0,0,0,0],"split_type":[0,0,0,0,0,0,0,0,0,0,0,0,0,0,0,0,0,0,0,0,0,0,0,0,0,0,0,0,0,0,0,0,0,0,0,0,0,0,0,0,0,0,0,0,0,0,0,0,0,0,0,0,0,0,0,0,0,0,0,0,0,0,0,0,0],"sum_hessian":[3.99E2,1.19E2,2.8E2,8.3E1,3.6E1,2.74E2,6E0,1.7E1,6.6E1,2.6E1,1E1,2.71E2,3E0,2E0,4E0,1.1E1,6E0,4.3E1,2.3E1,7E0,1.9E1,6E0,4E0,9E0,2.62E2,1E0,1E0,2E0,9E0,2E0,4E0,2.3E1,2E1,2.1E1,2E0,1.7E1,2E0,3E0,3E0,3E0,1E0,5E0,4E0,7E1,1.92E2,8E0,1E0,1.7E1,6E0,1.1E1,9E0,1.8E1,3E0,1E0,1E0,1.5E1,2E0,2E0,1E0,3E0,1E0,5.4E1,1.6E1,2.5E1,1.67E2],"tree_param":{"num_deleted":"0","num_feature":"141","num_nodes":"65","size_leaf_vector":"1"}},{"base_weights":[4.7669113E-2,-1.3978115E0,7.8932077E-1,-5.9027796E0,-5.238367E-1,9.9305224E-1,-4.0053015E0,-8.170341E-1,-6.987554E0,-1.7677274E0,4.6019816E-1,2.1345608E0,6.073773E-1,-8.62095E-1,-3.240479E-1,-6.2178254E-2,2.222724E-2,-7.272426E0,-5.361828E-2,-8.32467E-1,-5.0929956E0,-1.866936E-1,1.5026927E0,2.2310572E0,5.4969156E-1,-1.1891667E0,9.213553E-1,3.9135686E-1,-7.933301E-2,-9.9843755E-2,-3.7386718E-1,1.5006461E0,-1.1981951E0,-2.6249077E0,-3.3561254E-1,-1.1645835E-1,4.3742906E-2,8.5790776E-2,-4.5155168E-2,1.4819161E0,1.1844943E-1,4.2726133E-2,-1.6740823E-2,5.8388394E-1,-2.153082E0,1.0958704E0,-7.614012E-1,3.4072764E-2,-4.720998E-3,9.5065355E-2,-1.25664715E-2,-2.5074188E-2,-1.12860344E-1,-1.0358489E-2,-1.5335107E-1,2.1376936E-2,-7.244668E-2,1.3953368E-2,-2.544557E-2,7.898676E-2,1.0147643E-2,6.2171973E-2,1.4957805E-2,-2.728331E-1,-7.217227E-2,6.577944E-2,1.713138E-2,-6.82942E-2,1.0545866E-2],"categories":[],"categories_nodes":[],"categories_segments":[],"categories_sizes":[],"default_left":[0,0,0,0,0,0,0,0,0,0,0,0,0,0,0,0,0,0,0,0,0,0,0,0,0,0,0,0,0,0,0,0,0,0,0,0,0,0,0,0,0,0,0,0,0,0,0,0,0,0,0,0,0,0,0,0,0,0,0,0,0,0,0,0,0,0,0,0,0],"id":5,"left_children":[1,3,5,7,9,11,13,15,17,19,21,23,25,27,-1,-1,-1,29,-1,31,33,35,37,39,41,43,45,47,-1,-1,-1,49,51,53,-1,-1,55,-1,57,59,-1,-1,-1,61,63,65,67,-1,-1,-1,-1,-1,-1,-1,-1,-1,-1,-1,-1,-1,-1,-1,-1,-1,-1,-1,-1,-1,-1],"loss_changes":[4.299206E2,5.3237103E2,2.6283356E2,1.15662415E2,1.4157716E2,1.1096759E2,8.000929E1,3.2433326E0,2.2532593E1,1.5436983E2,4.4115314E1,8.561371E0,1.093981E2,6.070195E0,0E0,0E0,0E0,3.4465332E0,0E0,3.6782753E1,2.6342072E1,2.0343748E1,8.324516E0,2.689209E0,1.6342359E0,5.0820194E1,4.899568E1,4.871122E-1,0E0,0E0,0E0,4.6895437E0,2.5429771E1,5.7780952E0,0E0,0E0,2.2389027E1,0E0,7.4346143E-1,1.1806736E0,0E0,0E0,0E0,1.6937494E0,3.6666084E1,2.4208954E1,9.692087E0,0E0,0E0,0E0,0E0,0E0,0E0,0E0,0E0,0E0,0E0,0E0,0E0,0E0,0E0,0E0,0E0,0E0,0E0,0E0,0E0,0E0,0E0],"parents":[2147483647,0,0,1,1,2,2,3,3,4,4,5,5,6,6,7,7,8,8,9,9,10,10,11,11,12,12,13,13,17,17,19,19,20,20,21,21,22,22,23,23,24,24,25,25,26,26,27,27,31,31,32,32,33,33,36,36,38,38,39,39,43,43,44,44,45,45,46,46],"right_children":[2,4,6,8,10,12,14,16,18,20,22,24,26,28,-1,-1,-1,30,-1,32,34,36,38,40,42,44,46,48,-1,-1,-1,50,52,54,-1,-1,56,-1,58,60,-1,-1,-1,62,64,66,68,-1,-1,-1,-1,-1,-1,-1,-1,-1,-1,-1,-1,-1,-1,-1,-1,-1,-1,-1,-1,-1,-1],"split_conditions":[9.80192E0,9.551219E1,6.817995E2,8E0,2.7563026E0,1.1710059E1,2.7296E1,1.5E1,1.98E2,2.287966E0,2.36E0,1.1249324E0,1.2713E1,2.1E1,-3.240479E-1,-6.2178254E-2,2.222724E-2,2.4518518E1,-5.361828E-2,4.6435E0,2.5E0,3E0,7.119405E2,4.94E2,4.1679012E1,2.1107142E0,4.513889E-1,3E0,-7.933301E-2,-9.9843755E-2,-3.7386718E-1,2.1E1,-5.989887E0,1.6E1,-3.3561254E-1,-1.1645835E-1,1.4049587E0,8.5790776E-2,1.2544423E1,8.123077E0,1.1844943E-1,4.2726133E-2,-1.6740823E-2,3.2711113E1,7.70829E0,1.0194329E2,5.007407E-7,3.4072764E-2,-4.720998E-3,9.5065355E-2,-1.25664715E-2,-2.5074188E-2,-1.12860344E-1,-1.0358489E-2,-1.5335107E-1,2.1376936E-2,-7.244668E-2,1.3953368E-2,-2.544557E-2,7.898676E-2,1.0147643E-2,6.2171973E-2,1.4957805E-2,-2.728331E-1,-7.217227E-2,6.577944E-2,1.713138E-2,-6.82942E-2,1.0545866E-2],"split_indices":[135,39,22,5,33,40,10,1,37,45,93,88,135,1,0,0,0,40,0,133,33,104,22,19,10,45,118,0,0,0,0,1,139,1,0,0,34,0,4,4,0,0,0,10,133,130,123,0,0,0,0,0,0,0,0,0,0,0,0,0,0,0,0,0,0,0,0,0,0],"split_type":[0,0,0,0,0,0,0,0,0,0,0,0,0,0,0,0,0,0,0,0,0,0,0,0,0,0,0,0,0,0,0,0,0,0,0,0,0,0,0,0,0,0,0,0,0,0,0,0,0,0,0,0,0,0,0,0,0,0,0,0,0,0,0,0,0,0,0,0,0],"sum_hessian":[3.99E2,1.35E2,2.64E2,2.1E1,1.14E2,2.54E2,1E1,4E0,1.7E1,5E1,6.4E1,6.3E1,1.91E2,5E0,5E0,3E0,1E0,1.6E1,1E0,4E1,1E1,4E1,2.4E1,5.9E1,4E0,2.8E1,1.63E2,2E0,3E0,1E0,1.5E1,5E0,3.5E1,5E0,5E0,3E0,3.7E1,2.1E1,3E0,1.1E1,4.8E1,3E0,1E0,1E1,1.8E1,1.48E2,1.5E1,1E0,1E0,4E0,1E0,2.2E1,1.3E1,1E0,4E0,3E1,7E0,2E0,1E0,1E1,1E0,2E0,8E0,2E0,1.6E1,1.14E2,3.4E1,9E0,6E0],"tree_param":{"num_deleted":"0","num_feature":"141","num_nodes":"69","size_leaf_vector":"1"}},{"base_weights":[-1.1214074E-1,-1.608603E0,6.659898E-1,-4.684242E0,-4.0644437E-1,9.234251E-1,-4.6025734E0,-1.2143474E0,-6.301217E0,-1.9896681E0,5.7665104E-1,1.1102728E0,-1.9906788E0,-3.2875836E-1,-1.5341183E0,-3.0477905E-1,-2.2247138E0,-6.919568E-2,-6.668638E0,-8.018635E-1,-3.8837855E0,-2.4569154E-1,1.464179E0,2.0031605E0,7.593386E-1,-2.9520354E-1,-5.203248E-1,-4.6029687E-3,-9.0205915E-2,-6.942765E-1,2.5828755E-1,-2.8594272E0,2.3721313E-2,-5.2277815E-2,-6.8767076E0,9.824998E-2,-1.4534861E0,-1.013734E-1,-5.4504647E0,-1.565976E0,1.8662716E-1,8.101964E-2,2.9764686E-2,2.0978346E0,5.8588624E-2,-4.132919E-1,1.0316708E0,2.7610782E-1,-8.4527604E-2,-1.009953E-2,-3.8342517E-2,2.1671558E-2,2.7714649E-3,-5.8036145E-2,-1.8024945E-1,-9.7347654E-2,-3.509373E-1,-7.721569E-2,6.8059564E-3,-1.10003226E-1,-3.155306E-1,-1.22523075E-2,-8.5983686E-2,2.5678614E-2,-8.2911395E-2,8.573272E-2,1.2183162E-1,3.0035937E-2,-1.611805E-2,-4.9814307E-3,-1.7060803E-1,6.500729E-2,-1.3209931E-2,-2.7745962E-2,3.228017E-2],"categories":[],"categories_nodes":[],"categories_segments":[],"categories_sizes":[],"default_left":[0,0,0,0,0,0,0,0,0,0,0,0,0,0,0,0,0,0,0,0,0,0,0,0,0,0,0,0,0,0,0,0,0,0,0,0,0,0,0,0,0,0,0,0,0,0,0,0,0,0,0,0,0,0,0,0,0,0,0,0,0,0,0,0,0,0,0,0,0,0,0,0,0,0,0],"id":6,"left_children":[1,3,5,7,9,11,13,15,17,19,21,23,25,-1,27,29,31,-1,33,35,37,39,41,43,45,-1,47,-1,-1,49,51,53,-1,-1,55,-1,57,-1,59,61,63,-1,-1,65,67,69,71,73,-1,-1,-1,-1,-1,-1,-1,-1,-1,-1,-1,-1,-1,-1,-1,-1,-1,-1,-1,-1,-1,-1,-1,-1,-1,-1,-1],"loss_changes":[4.493819E2,4.861536E2,3.4875385E2,1.9994525E2,1.505675E2,1.3452216E2,6.2546738E1,1.1268919E1,3.593927E1,8.012985E1,4.4150856E1,7.023486E1,8.3239044E1,0E0,2.1700487E0,1.9338272E0,1.1635668E1,0E0,1.9719788E1,4.6126907E1,2.9664917E1,1.8557333E1,2.9716225E0,1.1659546E1,5.343766E1,0E0,1.1650861E1,0E0,0E0,2.3738861E-2,1.1809251E-1,2.1480522E0,0E0,0E0,1.739624E0,0E0,3.0978127E0,0E0,5.6869965E0,1.2027893E0,1.593078E1,0E0,0E0,3.7410889E0,1.0197453E0,2.9760372E1,4.731111E1,2.8147442E0,0E0,0E0,0E0,0E0,0E0,0E0,0E0,0E0,0E0,0E0,0E0,0E0,0E0,0E0,0E0,0E0,0E0,0E0,0E0,0E0,0E0,0E0,0E0,0E0,0E0,0E0,0E0],"parents":[2147483647,0,0,1,1,2,2,3,3,4,4,5,5,6,6,7,7,8,8,9,9,10,10,11,11,12,12,14,14,15,15,16,16,18,18,19,19,20,20,21,21,22,22,23,23,24,24,26,26,29,29,30,30,31,31,34,34,36,36,38,38,39,39,40,40,43,43,44,44,45,45,46,46,47,47],"right_children":[2,4,6,8,10,12,14,16,18,20,22,24,26,-1,28,30,32,-1,34,36,38,40,42,44,46,-1,48,-1,-1,50,52,54,-1,-1,56,-1,58,-1,60,62,64,-1,-1,66,68,70,72,74,-1,-1,-1,-1,-1,-1,-1,-1,-1,-1,-1,-1,-1,-1,-1,-1,-1,-1,-1,-1,-1,-1,-1,-1,-1,-1,-1],"split_conditions":[9.80192E0,9.962162E1,5.957279E2,2.317826E0,4.7272727E-1,1.1136189E-2,1.1470002E1,6.9135803E-1,1.669E1,9.295238E1,6.35E-6,1.1710059E1,1.20796E1,-3.2875836E-1,2.1E1,2.9074621E1,3.4E1,-6.919568E-2,8.9E-1,1.75E0,2.5E0,4E0,1.05954544E2,1.144376E0,1.28206E1,-2.9520354E-1,7.6741936E1,-4.6029687E-3,-9.0205915E-2,2.8698053E2,3E0,3E0,2.3721313E-2,-5.2277815E-2,2.4518518E1,9.824998E-2,6.5181816E1,-1.013734E-1,3E0,3.73E1,2.0661385E1,8.101964E-2,2.9764686E-2,1.2359E1,9.2E0,1.8028843E1,2.1058E1,8.5109E0,-8.4527604E-2,-1.009953E-2,-3.8342517E-2,2.1671558E-2,2.7714649E-3,-5.8036145E-2,-1.8024945E-1,-9.7347654E-2,-3.509373E-1,-7.721569E-2,6.8059564E-3,-1.10003226E-1,-3.155306E-1,-1.22523075E-2,-8.5983686E-2,2.5678614E-2,-8.2911395E-2,8.573272E-2,1.2183162E-1,3.0035937E-2,-1.611805E-2,-4.9814307E-3,-1.7060803E-1,6.500729E-2,-1.3209931E-2,-2.7745962E-2,3.228017E-2],"split_indices":[135,39,21,45,63,140,27,106,109,130,121,40,135,0,1,40,1,0,42,105,33,103,39,88,135,0,9,0,0,21,0,0,0,0,40,0,9,0,105,9,4,0,0,135,3,3,135,134,0,0,0,0,0,0,0,0,0,0,0,0,0,0,0,0,0,0,0,0,0,0,0,0,0,0,0],"split_type":[0,0,0,0,0,0,0,0,0,0,0,0,0,0,0,0,0,0,0,0,0,0,0,0,0,0,0,0,0,0,0,0,0,0,0,0,0,0,0,0,0,0,0,0,0,0,0,0,0,0,0,0,0,0,0,0,0,0,0,0,0,0,0,0,0,0,0,0,0,0,0,0,0,0,0],"sum_hessian":[3.84E2,1.31E2,2.53E2,3.6E1,9.5E1,2.42E2,1.1E1,1.2E1,2.4E1,3.6E1,5.9E1,2.28E2,1.4E1,6E0,5E0,7E0,5E0,2E0,2.2E1,2.3E1,1.3E1,3.1E1,2.8E1,6.3E1,1.65E2,3E0,1.1E1,1E0,4E0,4E0,3E0,4E0,1E0,1E0,2.1E1,4E0,1.9E1,7E0,6E0,7E0,2.4E1,2.3E1,5E0,6E1,3E0,3.1E1,1.34E2,7E0,4E0,1E0,3E0,1E0,2E0,2E0,2E0,1E0,2E1,1.8E1,1E0,2E0,4E0,1E0,6E0,2.1E1,3E0,3.1E1,2.9E1,1E0,2E0,2.9E1,2E0,1.11E2,2.3E1,2E0,5E0],"tree_param":{"num_deleted":"0","num_feature":"141","num_nodes":"75","size_leaf_vector":"1"}},{"base_weights":[-2.9517585E-2,-3.194266E0,2.9059607E-1,-6.115869E0,6.710715E-2,5.4624134E-1,-2.9751413E0,-6.6006207E0,-6.6515945E-2,4.7032964E-1,-1.461754E0,-6.461753E-1,1.0578595E0,-8.819927E-1,-5.7492537E0,-2.7582293E0,-6.9290576E0,-3.5106182E-2,8.111875E-1,-9.029797E-2,-1.0728443E-2,3.0592024E-2,-3.1935666E0,1.9487549E0,7.1421957E-1,-1.9959395E0,-1.9420418E-1,-7.326554E-2,-3.2692143E-1,-1.8382509E-1,-2.3042107E-2,-9.491396E-2,-3.576404E-1,3.4020352E-1,-2.0081967E-2,6.1861962E-2,-3.0686975E-2,1.094803E0,-8.2145655E-1,-1.3170017E0,-4.779807E0,2.0266962E0,-1.5580781E-2,-2.747072E-1,1.022993E0,-1.1091522E-1,-2.2102868E-2,-6.5558575E-2,3.8855502E-1,2.2361756E-3,2.1189451E-2,-2.231059E-2,3.039719E-2,6.44347E-2,-7.337819E-2,-7.8252934E-2,1.3542284E-3,5.6368172E-2,-9.927283E-2,-7.538934E-2,-2.9091707E-1,6.501434E-2,1.0627575E-1,-4.148861E-3,-1.9859765E-1,6.530779E-2,-4.7554593E-3,4.14399E-2,1.0363174E-2],"categories":[],"categories_nodes":[],"categories_segments":[],"categories_sizes":[],"default_left":[0,0,0,0,0,0,0,0,0,0,0,0,0,0,0,0,0,0,0,0,0,0,0,0,0,0,0,0,0,0,0,0,0,0,0,0,0,0,0,0,0,0,0,0,0,0,0,0,0,0,0,0,0,0,0,0,0,0,0,0,0,0,0,0,0,0,0,0,0],"id":7,"left_children":[1,3,5,7,9,11,13,15,-1,17,19,21,23,25,27,29,31,33,35,-1,-1,37,39,41,43,45,47,-1,-1,-1,-1,-1,-1,49,-1,-1,51,53,55,57,59,61,-1,63,65,-1,-1,-1,67,-1,-1,-1,-1,-1,-1,-1,-1,-1,-1,-1,-1,-1,-1,-1,-1,-1,-1,-1,-1],"loss_changes":[3.9704224E2,3.4343417E2,2.9883893E2,3.529535E1,1.1783988E1,2.026141E2,1.4590157E2,2.3417969E0,0E0,2.6127043E0,1.329648E0,1.7249681E2,6.963434E1,1.1870937E1,2.7607758E1,4.634596E0,3.3065186E0,1.0995833E0,3.2661066E0,0E0,0E0,7.344009E1,5.6215347E1,1.1906815E1,5.1885902E1,1.092556E0,7.6696153E0,0E0,0E0,0E0,0E0,0E0,0E0,7.983804E-2,0E0,0E0,1.3327394E0,1.9776764E1,2.8436348E1,2.0211758E1,2.8606354E1,1.6867371E0,0E0,2.8734203E1,4.0966263E1,0E0,0E0,0E0,4.6671903E-1,0E0,0E0,0E0,0E0,0E0,0E0,0E0,0E0,0E0,0E0,0E0,0E0,0E0,0E0,0E0,0E0,0E0,0E0,0E0,0E0],"parents":[2147483647,0,0,1,1,2,2,3,3,4,4,5,5,6,6,7,7,9,9,10,10,11,11,12,12,13,13,14,14,15,15,16,16,17,17,18,18,21,21,22,22,23,23,24,24,25,25,26,26,33,33,36,36,37,37,38,38,39,39,40,40,41,41,43,43,44,44,48,48],"right_children":[2,4,6,8,10,12,14,16,-1,18,20,22,24,26,28,30,32,34,36,-1,-1,38,40,42,44,46,48,-1,-1,-1,-1,-1,-1,50,-1,-1,52,54,56,58,60,62,-1,64,66,-1,-1,-1,68,-1,-1,-1,-1,-1,-1,-1,-1,-1,-1,-1,-1,-1,-1,-1,-1,-1,-1,-1,-1],"split_conditions":[-6.0907974E0,1.20796E1,6.367884E2,1.1178723E2,7.6741936E1,9.80192E0,9.422222E1,4.682707E1,-6.6515945E-2,1.28566E1,-6.6073713E0,7.86E0,1.1710059E1,7.735E0,9.4E1,2.2E1,4.859649E0,1.28427E1,2.0853E1,-9.029797E-2,-1.0728443E-2,9.64106E-1,1.05E3,1.37707E1,1.289E1,4.855E0,8.2388885E1,-7.326554E-2,-3.2692143E-1,-1.8382509E-1,-2.3042107E-2,-9.491396E-2,-3.576404E-1,1.27937E1,-2.0081967E-2,6.1861962E-2,8.5125E0,1.3769376E1,7.7722E0,3.9064E2,1.052071E1,9.9902E0,-1.5580781E-2,1.945E1,2.113E1,-1.1091522E-1,-2.2102868E-2,-6.5558575E-2,3E0,2.2361756E-3,2.1189451E-2,-2.231059E-2,3.039719E-2,6.44347E-2,-7.337819E-2,-7.8252934E-2,1.3542284E-3,5.6368172E-2,-9.927283E-2,-7.538934E-2,-2.9091707E-1,6.501434E-2,1.0627575E-1,-4.148861E-3,-1.9859765E-1,6.530779E-2,-4.7554593E-3,4.14399E-2,1.0363174E-2],"split_indices":[139,135,21,129,9,135,130,9,0,135,139,135,40,135,39,1,16,133,135,0,0,88,19,133,135,133,129,0,0,0,0,0,0,133,0,0,133,4,133,20,3,135,0,3,135,0,0,0,0,0,0,0,0,0,0,0,0,0,0,0,0,0,0,0,0,0,0,0,0],"split_type":[0,0,0,0,0,0,0,0,0,0,0,0,0,0,0,0,0,0,0,0,0,0,0,0,0,0,0,0,0,0,0,0,0,0,0,0,0,0,0,0,0,0,0,0,0,0,0,0,0,0,0,0,0,0,0,0,0,0,0,0,0,0,0,0,0,0,0,0,0],"sum_hessian":[3.9E2,3.5E1,3.55E2,1.8E1,1.7E1,3.3E2,2.5E1,1.6E1,2E0,1.4E1,3E0,9.9E1,2.31E2,1.5E1,1E1,2E0,1.4E1,6E0,8E0,2E0,1E0,7.9E1,2E1,6.3E1,1.68E2,5E0,1E1,2E0,8E0,1E0,1E0,1E0,1.3E1,3E0,3E0,5E0,3E0,3.5E1,4.4E1,1E1,1E1,6.1E1,2E0,4E1,1.28E2,4E0,1E0,3E0,7E0,1E0,2E0,2E0,1E0,3.3E1,2E0,2.3E1,2.1E1,2E0,8E0,3E0,7E0,9E0,5.2E1,3.9E1,1E0,1.02E2,2.6E1,1E0,6E0],"tree_param":{"num_deleted":"0","num_feature":"141","num_nodes":"69","size_leaf_vector":"1"}},{"base_weights":[-1.6356751E-2,-9.543228E-1,7.062043E-1,5.187105E-1,-2.9389253E0,-2.6567182E-1,8.1292737E-1,-2.7247043E0,6.8395644E-1,-1.6979401E0,-4.8727245E0,-2.3822123E-1,1.0785774E0,-4.1353162E-2,-1.8570553E-1,9.429038E-1,-6.535276E-1,-2.6952903E0,-3.8227138E-1,-3.006785E0,-3.2619473E-1,-1.7051575E0,6.2992144E-1,1.9538829E0,8.1320393E-1,-7.182706E-1,1.1120338E0,-1.1788788E0,1.9033511E-1,-1.6673679E0,-4.173229E0,-1.866099E0,1.9805597E-1,-4.2948675E0,-9.666284E-2,-9.217021E-1,-4.0209618E0,9.4091594E-1,-1.5490233E0,1.3794425E0,1.10507086E-1,-1.6884723E0,9.6204275E-1,2.1217982E-3,-4.8945606E-2,6.5820046E-2,2.5232047E-2,-2.9367346E-2,-6.742429E-2,-2.307659E-2,2.7169412E-2,-1.0318708E-1,6.839043E-3,-2.457732E-1,-4.014306E-2,-3.3424854E-2,-1.1488879E-1,3.3372976E-2,-2.5040714E-2,-2.6899755E-1,-7.082336E-2,2.790437E-2,-6.8800814E-2,-2.2466052E-2,-2.5308678E-1,4.670001E-3,7.781005E-2,1.0773159E-2,-1.1045033E-1,1.9627368E-2,7.1094796E-2,-1.4507936E-1,-1.9014306E-2,5.9002515E-2,6.675689E-3],"categories":[],"categories_nodes":[],"categories_segments":[],"categories_sizes":[],"default_left":[0,0,0,0,0,0,0,0,0,0,0,0,0,0,0,0,0,0,0,0,0,0,0,0,0,0,0,0,0,0,0,0,0,0,0,0,0,0,0,0,0,0,0,0,0,0,0,0,0,0,0,0,0,0,0,0,0,0,0,0,0,0,0,0,0,0,0,0,0,0,0,0,0,0,0],"id":8,"left_children":[1,3,5,7,9,-1,11,13,15,17,19,21,23,-1,-1,25,27,29,31,33,-1,35,37,39,41,43,45,47,49,51,53,55,57,59,-1,61,63,65,67,69,-1,71,73,-1,-1,-1,-1,-1,-1,-1,-1,-1,-1,-1,-1,-1,-1,-1,-1,-1,-1,-1,-1,-1,-1,-1,-1,-1,-1,-1,-1,-1,-1,-1,-1],"loss_changes":[2.6634714E2,5.0142334E2,1.4693996E2,5.4923725E1,1.6691302E2,0E0,6.140999E1,6.3158875E0,3.3518322E1,5.9330048E1,6.665161E1,5.838206E1,3.9060593E1,0E0,0E0,2.32751E1,7.317571E0,3.2541077E1,1.8452812E1,1.2438812E1,0E0,2.713747E1,2.1109058E1,2.8394623E0,5.226351E1,1.6277146E0,8.397255E0,2.112503E-1,1.8617965E0,1.2439262E1,2.1069595E1,1.5658054E0,5.5831075E0,1.1119301E1,0E0,1.0179989E1,1.2594727E1,1.341271E1,5.1340847E0,7.0295334E-2,0E0,1.1592407E1,2.3143143E1,0E0,0E0,0E0,0E0,0E0,0E0,0E0,0E0,0E0,0E0,0E0,0E0,0E0,0E0,0E0,0E0,0E0,0E0,0E0,0E0,0E0,0E0,0E0,0E0,0E0,0E0,0E0,0E0,0E0,0E0,0E0,0E0],"parents":[2147483647,0,0,1,1,2,2,3,3,4,4,6,6,7,7,8,8,9,9,10,10,11,11,12,12,15,15,16,16,17,17,18,18,19,19,21,21,22,22,23,23,24,24,25,25,26,26,27,27,28,28,29,29,30,30,31,31,32,32,33,33,35,35,36,36,37,37,38,38,39,39,41,41,42,42],"right_children":[2,4,6,8,10,-1,12,14,16,18,20,22,24,-1,-1,26,28,30,32,34,-1,36,38,40,42,44,46,48,50,52,54,56,58,60,-1,62,64,66,68,70,-1,72,74,-1,-1,-1,-1,-1,-1,-1,-1,-1,-1,-1,-1,-1,-1,-1,-1,-1,-1,-1,-1,-1,-1,-1,-1,-1,-1,-1,-1,-1,-1,-1,-1],"split_conditions":[1.0486707E2,9.042857E1,-7.772725E0,9.80192E0,7.7675E0,-2.6567182E-1,6.3E1,6.43604E0,1.9442148E0,1.4E1,2.4171779E-2,2.1406551E1,1.39E2,-4.1353162E-2,-1.8570553E-1,7.3702126E1,5.007407E-7,1.8131487E0,1.78125E0,2.7296E1,-3.2619473E-1,1.9968E0,1.1509E2,5.836E0,1.64E2,8.097561E0,1.1219512E1,5.507324E0,8.5093E0,1.7512712E1,5.5E1,1.7460318E0,5.2592E0,1.3333333E1,-9.666284E-2,1.05954544E2,4.682707E1,9.0043E1,1.3138686E1,7.735E0,1.10507086E-1,1.1523809E1,5.0805087E0,2.1217982E-3,-4.8945606E-2,6.5820046E-2,2.5232047E-2,-2.9367346E-2,-6.742429E-2,-2.307659E-2,2.7169412E-2,-1.0318708E-1,6.839043E-3,-2.457732E-1,-4.014306E-2,-3.3424854E-2,-1.1488879E-1,3.3372976E-2,-2.5040714E-2,-2.6899755E-1,-7.082336E-2,2.790437E-2,-6.8800814E-2,-2.2466052E-2,-2.5308678E-1,4.670001E-3,7.781005E-2,1.0773159E-2,-1.1045033E-1,1.9627368E-2,7.1094796E-2,-1.4507936E-1,-1.9014306E-2,5.9002515E-2,6.675689E-3],"split_indices":[39,39,139,135,134,0,132,3,51,73,117,111,132,0,0,9,123,58,58,10,0,58,137,133,132,3,3,112,133,3,2,58,135,3,0,39,9,137,3,135,0,3,75,0,0,0,0,0,0,0,0,0,0,0,0,0,0,0,0,0,0,0,0,0,0,0,0,0,0,0,0,0,0,0,0],"split_type":[0,0,0,0,0,0,0,0,0,0,0,0,0,0,0,0,0,0,0,0,0,0,0,0,0,0,0,0,0,0,0,0,0,0,0,0,0,0,0,0,0,0,0,0,0,0,0,0,0,0,0,0,0,0,0,0,0,0,0,0,0,0,0,0,0,0,0,0,0,0,0,0,0,0,0],"sum_hessian":[3.91E2,1.7E2,2.21E2,9.8E1,7.2E1,3E0,2.18E2,4E0,9.4E1,4.5E1,2.7E1,4.4E1,1.74E2,2E0,2E0,7.9E1,1.5E1,2.5E1,2E1,1.4E1,1.3E1,1.6E1,2.8E1,3.9E1,1.35E2,7E0,7.2E1,9E0,6E0,1.6E1,9E0,5E0,1.5E1,5E0,9E0,1.3E1,3E0,2.5E1,3E0,1.4E1,2.5E1,7E0,1.28E2,2E0,5E0,5.3E1,1.9E1,3E0,6E0,2E0,4E0,1.3E1,3E0,7E0,2E0,2E0,3E0,9E0,6E0,3E0,2E0,3E0,1E1,1E0,2E0,1.1E1,1.4E1,1E0,2E0,1E0,1.3E1,3E0,4E0,1.01E2,2.7E1],"tree_param":{"num_deleted":"0","num_feature":"141","num_nodes":"75","size_leaf_vector":"1"}},{"base_weights":[6.842959E-2,9.147678E-1,-7.8684825E-1,-4.7183803E-1,1.2239068E0,-2.2801135E0,4.6482503E-1,5.470395E-3,-2.9388433E0,-2.881964E-1,1.4495572E0,-2.9730604E0,-9.9311256E-1,6.767921E-1,-2.2693624E0,5.464261E-1,-5.6963694E-1,-6.6199325E-2,-1.7076376E-1,6.2576E-1,-1.4475201E0,1.7772521E0,1.1154723E0,-3.614932E0,-8.9203227E-1,6.259063E-1,-1.5362349E0,-2.6627443E0,7.7115387E-1,-2.334427E-1,-6.913898E-1,5.988696E-2,8.227909E-2,-1.0722115E0,2.2970343E-1,4.7340553E-2,-7.728386E-2,-1.0082497E-1,-9.1560066E-1,1.8598057E0,-4.9835086E-2,1.3310357E0,5.1831377E-1,-4.374256E0,-1.4677548E0,-1.3017105E0,1.8766642E-1,7.304583E-2,1.786296E-1,-1.3039854E-1,-2.318868E0,-1.6699433E-1,-3.2711495E-2,8.4810066E-1,-1.6924074E-1,1.147519E-2,-6.0460627E-2,-4.275092E-2,1.3075533E-2,5.500305E-3,-6.0789596E-2,-2.2752618E-3,3.0590836E-2,-1.9309253E-2,2.8958023E-2,-5.967111E-2,-2.8289381E-2,1.1048291E-1,7.759859E-2,1.6005361E-2,-1.399258E-2,2.0487005E-2,6.8905935E-2,-2.6160097E-2,2.9827481E-2,7.864654E-3,-2.4242306E-1,-1.1800142E-1,5.649338E-2,-2.8392449E-2,-9.093102E-2,-4.8000216E-3,1.4129162E-2,2.2524202E-2,-6.8941116E-3,-2.3288805E-2,7.2199985E-2,-1.6090499E-1,-1.4189911E-2,5.919662E-2,1.1841836E-2],"categories":[],"categories_nodes":[],"categories_segments":[],"categories_sizes":[],"default_left":[0,0,0,0,0,0,0,0,0,0,0,0,0,0,0,0,0,0,0,0,0,0,0,0,0,0,0,0,0,0,0,0,0,0,0,0,0,0,0,0,0,0,0,0,0,0,0,0,0,0,0,0,0,0,0,0,0,0,0,0,0,0,0,0,0,0,0,0,0,0,0,0,0,0,0,0,0,0,0,0,0,0,0,0,0,0,0,0,0,0,0],"id":9,"left_children":[1,3,5,7,9,11,13,15,17,19,21,23,25,27,29,31,33,-1,-1,35,37,39,41,43,45,47,49,51,53,-1,55,-1,57,59,61,-1,63,-1,65,67,69,71,73,75,77,79,81,-1,83,85,87,-1,-1,89,-1,-1,-1,-1,-1,-1,-1,-1,-1,-1,-1,-1,-1,-1,-1,-1,-1,-1,-1,-1,-1,-1,-1,-1,-1,-1,-1,-1,-1,-1,-1,-1,-1,-1,-1,-1,-1],"loss_changes":[2.8664224E2,8.587961E1,3.6926862E2,4.3584408E1,5.6034454E1,7.7311554E1,6.412811E1,1.0266708E1,9.4436646E-2,2.4216372E1,1.3563416E1,7.424902E1,2.997927E1,3.3880974E1,2.7062656E1,5.0406356E0,6.6739407E0,0E0,0E0,3.0074415E0,1.1802044E0,1.065097E1,8.707069E0,6.5317444E1,6.8792257E0,3.1003628E0,2.7203976E1,1.8950977E0,3.452971E1,0E0,3.1386766E0,0E0,2.071523E0,1.8311768E0,7.6396716E-1,0E0,1.2375454E0,0E0,5.0754547E-3,3.7863312E0,4.2995384E-1,1.7343292E0,2.0232778E0,6.9526855E1,3.2797787E1,3.1400394E0,1.617519E-1,0E0,6.644298E-1,5.9527583E0,2.8366692E1,0E0,0E0,1.9837227E1,0E0,0E0,0E0,0E0,0E0,0E0,0E0,0E0,0E0,0E0,0E0,0E0,0E0,0E0,0E0,0E0,0E0,0E0,0E0,0E0,0E0,0E0,0E0,0E0,0E0,0E0,0E0,0E0,0E0,0E0,0E0,0E0,0E0,0E0,0E0,0E0,0E0],"parents":[2147483647,0,0,1,1,2,2,3,3,4,4,5,5,6,6,7,7,8,8,9,9,10,10,11,11,12,12,13,13,14,14,15,15,16,16,19,19,20,20,21,21,22,22,23,23,24,24,25,25,26,26,27,27,28,28,30,30,32,32,33,33,34,34,36,36,38,38,39,39,40,40,41,41,42,42,43,43,44,44,45,45,46,46,48,48,49,49,50,50,53,53],"right_children":[2,4,6,8,10,12,14,16,18,20,22,24,26,28,30,32,34,-1,-1,36,38,40,42,44,46,48,50,52,54,-1,56,-1,58,60,62,-1,64,-1,66,68,70,72,74,76,78,80,82,-1,84,86,88,-1,-1,90,-1,-1,-1,-1,-1,-1,-1,-1,-1,-1,-1,-1,-1,-1,-1,-1,-1,-1,-1,-1,-1,-1,-1,-1,-1,-1,-1,-1,-1,-1,-1,-1,-1,-1,-1,-1,-1],"split_conditions":[8.097507E-1,9.80192E0,2.07E2,1.0927E2,3.5625877E0,1.1595744E2,2.975E0,9.0378E2,1.0086957E1,1.1428572E1,1.1710059E1,4.1454569E-1,5.2592E0,3.8617E0,9E0,4.877778E1,4.2126736E1,-6.6199325E-2,-1.7076376E-1,2.5571834E2,9.952741E-1,6.4377385E-1,1.962963E0,5.3E1,8.809E0,2.1E1,1.5E1,1.6297873E1,1.4223E1,-2.334427E-1,1.4049587E0,5.988696E-2,4.0504756E0,3.6E-1,8.2304E2,4.7340553E-2,8.5125E0,-1.0082497E-1,8.2828E0,8.787E0,1.6E1,5.141095E-1,2.1208162E0,1.6129032E0,1.5341713E1,1.3136518E0,6.8E0,7.304583E-2,1.8614959E0,1.0869565E1,1.018054E1,-1.6699433E-1,-3.2711495E-2,1.0194329E2,-1.6924074E-1,1.147519E-2,-6.0460627E-2,-4.275092E-2,1.3075533E-2,5.500305E-3,-6.0789596E-2,-2.2752618E-3,3.0590836E-2,-1.9309253E-2,2.8958023E-2,-5.967111E-2,-2.8289381E-2,1.1048291E-1,7.759859E-2,1.6005361E-2,-1.399258E-2,2.0487005E-2,6.8905935E-2,-2.6160097E-2,2.9827481E-2,7.864654E-3,-2.4242306E-1,-1.1800142E-1,5.649338E-2,-2.8392449E-2,-9.093102E-2,-4.8000216E-3,1.4129162E-2,2.2524202E-2,-6.8941116E-3,-2.3288805E-2,7.2199985E-2,-1.6090499E-1,-1.4189911E-2,5.919662E-2,1.1841836E-2],"split_indices":[46,135,37,137,28,129,33,19,3,3,40,118,135,133,104,9,10,0,0,22,76,106,76,1,133,1,132,3,135,0,34,0,4,34,20,0,133,0,133,134,1,34,76,51,111,76,3,0,58,3,135,0,0,130,0,0,0,0,0,0,0,0,0,0,0,0,0,0,0,0,0,0,0,0,0,0,0,0,0,0,0,0,0,0,0,0,0,0,0,0,0],"split_type":[0,0,0,0,0,0,0,0,0,0,0,0,0,0,0,0,0,0,0,0,0,0,0,0,0,0,0,0,0,0,0,0,0,0,0,0,0,0,0,0,0,0,0,0,0,0,0,0,0,0,0,0,0,0,0,0,0,0,0,0,0,0,0,0,0,0,0,0,0,0,0,0,0,0,0,0,0,0,0,0,0,0,0,0,0,0,0,0,0,0,0],"sum_hessian":[3.94E2,1.98E2,1.96E2,3.6E1,1.62E2,8.9E1,1.07E2,3.1E1,5E0,2.1E1,1.41E2,5.7E1,3.2E1,1E2,7E0,1.6E1,1.5E1,2E0,3E0,1.2E1,9E0,6.9E1,7.2E1,4.3E1,1.4E1,8E0,2.4E1,2E0,9.8E1,2E0,5E0,6E0,1E1,9E0,6E0,8E0,4E0,3E0,6E0,6.6E1,3E0,5.2E1,2E1,3.1E1,1.2E1,1E1,4E0,2E0,6E0,9E0,1.5E1,1E0,1E0,9.7E1,1E0,2E0,3E0,1E0,9E0,1E0,8E0,4E0,2E0,3E0,1E0,2E0,4E0,2.8E1,3.8E1,1E0,2E0,3E0,4.9E1,1E0,1.9E1,3E0,2.8E1,9E0,3E0,5E0,5E0,1E0,3E0,3E0,3E0,8E0,1E0,1E1,5E0,6.2E1,3.5E1],"tree_param":{"num_deleted":"0","num_feature":"141","num_nodes":"91","size_leaf_vector":"1"}},{"base_weights":[-1.7520686E-3,-9.4790554E-1,7.0787054E-1,4.430799E-1,-2.665568E0,-2.1125932E-1,7.9094636E-1,1.0083996E0,-6.838554E-1,-3.3807669E0,-6.9139045E-1,9.1404295E-1,-1.7316993E0,1.1420588E0,-4.962596E-1,-2.9695482E0,-2.6618922E-1,-5.203421E0,-1.8975209E0,-1.8041451E0,2.1775858E-1,1.0808965E0,-1.3271056E-1,-3.9838548E0,-3.8915914E-1,1.2044501E0,-3.253138E-2,-3.6879845E-2,-9.056727E-3,-3.8585175E-2,-1.6630417E-1,-6.061867E-1,8.889724E-1,-2.7031947E-2,-5.375177E0,-3.4607056E-1,-2.7675846E0,-1.0960823E-1,-3.370374E-2,-2.3691768E-2,4.726203E-1,1.6039803E0,7.0695513E-1,7.781957E-2,-3.6927116E-1,-4.168215E-2,-2.3780222E-1,-4.3375194E-2,7.134847E-2,6.008935E-3,6.2084656E-2,-2.0991476E-2,2.8234078E-2,4.0007713E-3,-4.680026E-3,-4.532565E-2,1.979117E-2,4.7519907E-2,1.3010454E-2,-2.7750444E-1,-3.380517E-2,-6.171679E-2,9.293122E-3,-5.3384274E-2,-1.8657732E-1,-7.4978354E-3,2.7922869E-2,8.599997E-2,9.074982E-3,-7.701709E-2,4.3572243E-2,-4.622669E-2,2.864553E-2,1.1230147E-2,-1.3541735E-2],"categories":[],"categories_nodes":[],"categories_segments":[],"categories_sizes":[],"default_left":[0,0,0,0,0,0,0,0,0,0,0,0,0,0,0,0,0,0,0,0,0,0,0,0,0,0,0,0,0,0,0,0,0,0,0,0,0,0,0,0,0,0,0,0,0,0,0,0,0,0,0,0,0,0,0,0,0,0,0,0,0,0,0,0,0,0,0,0,0,0,0,0,0,0,0],"id":10,"left_children":[1,3,5,7,9,-1,11,13,15,17,19,21,23,25,27,29,31,33,35,37,39,41,43,45,47,49,51,-1,53,-1,-1,55,57,-1,59,61,63,-1,-1,-1,65,67,69,-1,71,-1,-1,-1,73,-1,-1,-1,-1,-1,-1,-1,-1,-1,-1,-1,-1,-1,-1,-1,-1,-1,-1,-1,-1,-1,-1,-1,-1,-1,-1],"loss_changes":[2.725928E2,4.1690942E2,9.8419586E1,6.248624E1,1.0779315E2,0E0,7.2694016E1,1.3639015E1,3.0713203E1,1.4422272E2,2.2649384E1,3.839279E1,3.1709347E1,4.436241E0,6.9880104E-1,1.3512955E0,1.1928692E1,1.7115479E1,4.3587624E1,2.907215E0,2.5153348E0,3.5834946E1,1.2961555E1,5.7654037E0,1.8241464E0,2.1525116E0,1.1622679E0,0E0,3.0080974E-2,0E0,0E0,7.2802095E0,2.3053646E-2,0E0,1.5973755E1,6.3718853E0,3.0427277E1,0E0,0E0,0E0,6.1814666E-1,1.2560562E1,4.274394E1,0E0,1.517811E1,0E0,0E0,0E0,3.2303575E-1,0E0,0E0,0E0,0E0,0E0,0E0,0E0,0E0,0E0,0E0,0E0,0E0,0E0,0E0,0E0,0E0,0E0,0E0,0E0,0E0,0E0,0E0,0E0,0E0,0E0,0E0],"parents":[2147483647,0,0,1,1,2,2,3,3,4,4,6,6,7,7,8,8,9,9,10,10,11,11,12,12,13,13,14,14,15,15,16,16,17,17,18,18,19,19,20,20,21,21,22,22,23,23,24,24,25,25,26,26,28,28,31,31,32,32,34,34,35,35,36,36,40,40,41,41,42,42,44,44,48,48],"right_children":[2,4,6,8,10,-1,12,14,16,18,20,22,24,26,28,30,32,34,36,38,40,42,44,46,48,50,52,-1,54,-1,-1,56,58,-1,60,62,64,-1,-1,-1,66,68,70,-1,72,-1,-1,-1,74,-1,-1,-1,-1,-1,-1,-1,-1,-1,-1,-1,-1,-1,-1,-1,-1,-1,-1,-1,-1,-1,-1,-1,-1,-1,-1],"split_conditions":[1.0486707E2,8.914286E1,4.134834E-3,5.5E0,4.7147143E-1,-2.1125932E-1,1.123071E-2,8.087574E-1,9.952741E-1,2.6170213E0,4.7737644E1,1.4E1,9.79685E-1,2.7734807E0,8.8E1,7.677778E1,8.831E0,1.1088386E0,9.126E-1,9.0333E1,1.8036883E0,1.8234515E0,1.13875E2,4.0504756E0,1.7E1,3.8005672E0,8.5125E0,-3.6879845E-2,1.4E1,-3.8585175E-2,-1.6630417E-1,6.35E-6,2.8471823E0,-2.7031947E-2,8.3E1,6.8583336E1,7.735E0,-1.0960823E-1,-3.370374E-2,-2.3691768E-2,3.0547845E0,2.2533981E1,2.826087E-1,7.781957E-2,3.205E1,-4.168215E-2,-2.3780222E-1,-4.3375194E-2,1.28206E1,6.008935E-3,6.2084656E-2,-2.0991476E-2,2.8234078E-2,4.0007713E-3,-4.680026E-3,-4.532565E-2,1.979117E-2,4.7519907E-2,1.3010454E-2,-2.7750444E-1,-3.380517E-2,-6.171679E-2,9.293122E-3,-5.3384274E-2,-1.8657732E-1,-7.4978354E-3,2.7922869E-2,8.599997E-2,9.074982E-3,-7.701709E-2,4.3572243E-2,-4.622669E-2,2.864553E-2,1.1230147E-2,-1.3541735E-2],"split_indices":[39,39,140,4,52,0,140,46,76,105,9,126,88,105,7,9,133,76,46,137,58,105,39,4,1,4,133,0,1,0,0,122,45,0,1,9,135,0,0,0,4,111,63,0,109,0,0,0,135,0,0,0,0,0,0,0,0,0,0,0,0,0,0,0,0,0,0,0,0,0,0,0,0,0,0],"split_type":[0,0,0,0,0,0,0,0,0,0,0,0,0,0,0,0,0,0,0,0,0,0,0,0,0,0,0,0,0,0,0,0,0,0,0,0,0,0,0,0,0,0,0,0,0,0,0,0,0,0,0,0,0,0,0,0,0,0,0,0,0,0,0,0,0,0,0,0,0,0,0,0,0,0,0],"sum_hessian":[4.04E2,1.73E2,2.31E2,9.6E1,7.7E1,3E0,2.28E2,6.4E1,3.2E1,5.6E1,2.1E1,2.18E2,1E1,5.9E1,5E0,4E0,2.8E1,2.4E1,3.2E1,9E0,1.2E1,1.88E2,3E1,3E0,7E0,5.6E1,3E0,3E0,2E0,1E0,3E0,2.2E1,6E0,1E0,2.3E1,1.2E1,2E1,6E0,3E0,3E0,9E0,7.7E1,1.11E2,3E0,2.7E1,1E0,2E0,3E0,4E0,2E0,5.4E1,2E0,1E0,1E0,1E0,1.7E1,5E0,5E0,1E0,2.2E1,1E0,4E0,8E0,8E0,1.2E1,1E0,8E0,7.1E1,6E0,7E0,1.04E2,1.7E1,1E1,3E0,1E0],"tree_param":{"num_deleted":"0","num_feature":"141","num_nodes":"75","size_leaf_vector":"1"}},{"base_weights":[-7.619521E-3,-1.2279776E0,6.0259E-1,-4.754541E0,-5.5100363E-1,7.7188367E-1,-3.5376463E0,-5.801593E0,-4.530674E-1,8.629353E-1,-1.2306823E0,-1.0471987E0,9.058949E-1,-4.5206672E-1,-4.7954564E0,-8.47032E-2,-2.9812452E-1,-3.9886218E-2,2.3139013E-2,1.3119432E0,2.1571196E-3,-3.3300692E-1,-2.4071882E0,-1.7394997E-1,-4.9102518E-1,9.424794E-1,-1.8222575E-1,3.688552E-2,-5.4728128E-2,-2.591243E-1,-6.183199E-2,2.4931937E-2,1.409007E0,-4.1310586E-2,3.3328894E-1,1.8220997E-1,-1.8015465E0,-4.251668E0,-1.692062E0,9.185416E-2,-8.898175E-1,5.757258E-1,1.3381283E0,7.204402E-2,2.0085229E-2,7.7107013E-3,3.4986284E-2,-5.24834E-2,2.5343066E-2,-1.09748505E-1,-1.0379712E-3,-4.7677517E-2,-2.293303E-1,-1.2901115E-1,-9.53071E-3,-1.0630627E-2,2.8434029E-2,-1.3133319E-2,-5.1573988E-2,6.0669035E-2,6.0571344E-3,7.256673E-2,1.0910375E-2],"categories":[],"categories_nodes":[],"categories_segments":[],"categories_sizes":[],"default_left":[0,0,0,0,0,0,0,0,0,0,0,0,0,0,0,0,0,0,0,0,0,0,0,0,0,0,0,0,0,0,0,0,0,0,0,0,0,0,0,0,0,0,0,0,0,0,0,0,0,0,0,0,0,0,0,0,0,0,0,0,0,0,0],"id":11,"left_children":[1,3,5,7,9,11,13,15,17,19,21,23,25,27,29,-1,-1,-1,-1,31,33,35,37,-1,39,41,-1,-1,-1,-1,-1,-1,43,-1,45,47,49,51,53,55,57,59,61,-1,-1,-1,-1,-1,-1,-1,-1,-1,-1,-1,-1,-1,-1,-1,-1,-1,-1,-1,-1],"loss_changes":[2.792481E2,2.958042E2,1.779596E2,8.744879E1,1.0293056E2,5.9699005E1,3.6642883E1,4.734497E-1,1.9474375E0,1.3524536E1,7.523905E1,2.1284275E1,4.0891617E1,3.8651772E0,3.2326965E0,0E0,0E0,0E0,0E0,1.1130905E0,3.8412576E0,3.2106148E1,3.3696014E1,0E0,3.5684497E0,3.1733261E1,0E0,0E0,0E0,0E0,0E0,0E0,6.332016E-2,0E0,5.482888E-1,1.33298235E1,7.6610794E0,4.463745E0,3.1512833E1,1.137153E0,5.2865744E-1,3.405733E1,1.3248993E1,0E0,0E0,0E0,0E0,0E0,0E0,0E0,0E0,0E0,0E0,0E0,0E0,0E0,0E0,0E0,0E0,0E0,0E0,0E0,0E0],"parents":[2147483647,0,0,1,1,2,2,3,3,4,4,5,5,6,6,7,7,8,8,9,9,10,10,11,11,12,12,13,13,14,14,19,19,20,20,21,21,22,22,24,24,25,25,32,32,34,34,35,35,36,36,37,37,38,38,39,39,40,40,41,41,42,42],"right_children":[2,4,6,8,10,12,14,16,18,20,22,24,26,28,30,-1,-1,-1,-1,32,34,36,38,-1,40,42,-1,-1,-1,-1,-1,-1,44,-1,46,48,50,52,54,56,58,60,62,-1,-1,-1,-1,-1,-1,-1,-1,-1,-1,-1,-1,-1,-1,-1,-1,-1,-1,-1,-1],"split_conditions":[9.80192E0,9.551219E1,6.817995E2,3.7638888E-1,1.52E0,6.1233413E-1,9.4E1,4.859649E0,1.3E1,1.2048067E1,1.9310344E0,8.3806E0,1.4285715E0,3E0,5.5E1,-8.47032E-2,-2.9812452E-1,-3.9886218E-2,2.3139013E-2,9.8E-1,1.1739544E0,-5.989887E0,9.976744E1,-1.7394997E-1,6.2222223E0,1.09652176E2,-1.8222575E-1,3.688552E-2,-5.4728128E-2,-2.591243E-1,-6.183199E-2,2.4931937E-2,7.791E0,-4.1310586E-2,1.2369193E0,5.7988167E-1,9.409576E0,9.659524E1,3E0,2.08621E1,5.2444446E-1,1.0803324E0,2.8333333E0,7.204402E-2,2.0085229E-2,7.7107013E-3,3.4986284E-2,-5.24834E-2,2.5343066E-2,-1.09748505E-1,-1.0379712E-3,-4.7677517E-2,-2.293303E-1,-1.2901115E-1,-9.53071E-3,-1.0630627E-2,2.8434029E-2,-1.3133319E-2,-5.1573988E-2,6.0669035E-2,6.0571344E-3,7.256673E-2,1.0910375E-2],"split_indices":[135,39,22,117,76,88,39,16,2,4,105,133,99,0,2,0,0,0,0,42,34,139,39,0,4,39,0,0,0,0,0,0,135,0,76,106,4,39,61,135,88,76,33,0,0,0,0,0,0,0,0,0,0,0,0,0,0,0,0,0,0,0,0],"split_type":[0,0,0,0,0,0,0,0,0,0,0,0,0,0,0,0,0,0,0,0,0,0,0,0,0,0,0,0,0,0,0,0,0,0,0,0,0,0,0,0,0,0,0,0,0,0,0,0,0,0,0,0,0,0,0,0,0,0,0,0,0,0,0],"sum_hessian":[3.73E2,1.24E2,2.49E2,1.9E1,1.05E2,2.4E2,9E0,1.5E1,4E0,3.4E1,7.1E1,1.6E1,2.24E2,3E0,6E0,1E0,1.4E1,3E0,1E0,2.2E1,1.2E1,4.1E1,3E1,2E0,1.4E1,2.23E2,1E0,1E0,2E0,5E0,1E0,3E0,1.9E1,3E0,9E0,3.1E1,1E1,7E0,2.3E1,6E0,8E0,1.17E2,1.06E2,1.8E1,1E0,7E0,2E0,6E0,2.5E1,8E0,2E0,1E0,6E0,1.4E1,9E0,4E0,2E0,2E0,6E0,4.8E1,6.9E1,9.6E1,1E1],"tree_param":{"num_deleted":"0","num_feature":"141","num_nodes":"63","size_leaf_vector":"1"}},{"base_weights":[-1.6394177E-2,-2.5843854E0,2.1383584E-1,-4.996072E0,-4.310697E-1,4.0529233E-1,-2.2391407E0,-2.9105747E-1,-2.1816878E0,-1.9684217E0,1.4877531E-1,-6.475487E-1,7.311551E-1,-5.086642E-1,-3.9304895E0,-1.3268696E-1,-7.3370575E-3,-1.3642918E-1,-1.0962355E0,-2.4703903E-2,4.5532447E-1,-2.9319745E-1,-2.0244815E0,8.064404E-1,-2.0878935E-1,1.4070201E-1,-1.0132766E0,-4.7011313E0,2.0536129E-1,-6.8358585E-2,-7.085681E-3,6.212403E-1,-2.5947953E-2,-1.3615613E0,3.3933735E-1,-1.202784E0,-3.1935136E0,1.0012432E0,2.2875655E-2,-2.4122468E-1,3.651729E-2,-1.3646837E0,2.7296385E-2,-5.290386E-2,-2.6965675E-1,-4.80374E-2,6.3439496E-2,4.891791E-2,6.9937184E-3,-1.0427747E-1,-2.9426455E-2,6.1068952E-2,7.7042275E-4,8.374333E-3,-6.7827985E-2,-1.7852211E-1,-3.272177E-2,6.0158707E-2,1.8367425E-2,2.0655215E-2,-3.577469E-2,-1.9094039E-2,-1.0080178E-3,-8.77718E-2,-3.6522426E-2,-3.1948208E-3,5.2420497E-3],"categories":[],"categories_nodes":[],"categories_segments":[],"categories_sizes":[],"default_left":[0,0,0,0,0,0,0,0,0,0,0,0,0,0,0,0,0,0,0,0,0,0,0,0,0,0,0,0,0,0,0,0,0,0,0,0,0,0,0,0,0,0,0,0,0,0,0,0,0,0,0,0,0,0,0,0,0,0,0,0,0,0,0,0,0,0,0],"id":12,"left_children":[1,3,5,7,9,11,13,-1,15,17,19,21,23,25,27,-1,-1,-1,29,-1,31,33,35,37,-1,39,41,43,45,-1,-1,47,-1,49,51,53,55,57,59,61,-1,63,65,-1,-1,-1,-1,-1,-1,-1,-1,-1,-1,-1,-1,-1,-1,-1,-1,-1,-1,-1,-1,-1,-1,-1,-1],"loss_changes":[2.2994936E2,1.6402629E2,1.6856839E2,2.2131317E1,1.6338518E1,1.1437657E2,7.4098526E1,0E0,4.4135838E0,3.23843E-1,2.983892E0,3.7951935E1,9.720036E1,4.7300663E0,4.2399826E1,0E0,0E0,0E0,8.407111E-1,0E0,1.938889E0,4.3711773E1,1.1528351E1,3.8289886E1,0E0,1.7525823E0,2.9625692E0,2.202472E1,4.939209E0,0E0,0E0,1.4102924E0,0E0,1.2204578E1,1.1695652E1,2.545062E0,3.4056854E0,2.5286621E1,1.4990351E1,1.4777136E-1,0E0,2.0471764E-1,2.7913494E-2,0E0,0E0,0E0,0E0,0E0,0E0,0E0,0E0,0E0,0E0,0E0,0E0,0E0,0E0,0E0,0E0,0E0,0E0,0E0,0E0,0E0,0E0,0E0,0E0],"parents":[2147483647,0,0,1,1,2,2,3,3,4,4,5,5,6,6,8,8,9,9,10,10,11,11,12,12,13,13,14,14,18,18,20,20,21,21,22,22,23,23,25,25,26,26,27,27,28,28,31,31,33,33,34,34,35,35,36,36,37,37,38,38,39,39,41,41,42,42],"right_children":[2,4,6,8,10,12,14,-1,16,18,20,22,24,26,28,-1,-1,-1,30,-1,32,34,36,38,-1,40,42,44,46,-1,-1,48,-1,50,52,54,56,58,60,62,-1,64,66,-1,-1,-1,-1,-1,-1,-1,-1,-1,-1,-1,-1,-1,-1,-1,-1,-1,-1,-1,-1,-1,-1,-1,-1],"split_conditions":[-6.0907974E0,1.42E2,6.367884E2,1.09553E2,1.294E3,8.2E1,9.422222E1,-2.9105747E-1,1.2444445E1,1.1473684E1,1.68E2,1.5384616E0,7.15E0,5.9E1,2.2571428E1,-1.3268696E-1,-7.3370575E-3,-1.3642918E-1,8.2828E0,-2.4703903E-2,1.29727E1,4.1463413E0,8.6333334E-1,5.3333335E0,-2.0878935E-1,7.3544635E2,5.534E0,3.576E1,2.3792208E1,-6.8358585E-2,-7.085681E-3,7.3E1,-2.5947953E-2,1.3303671E0,1.4E1,2.61554E2,6.2E1,5.3301385E2,4.503879E-1,8E0,3.651729E-2,2.01E2,2.1E1,-5.290386E-2,-2.6965675E-1,-4.80374E-2,6.3439496E-2,4.891791E-2,6.9937184E-3,-1.0427747E-1,-2.9426455E-2,6.1068952E-2,7.7042275E-4,8.374333E-3,-6.7827985E-2,-1.7852211E-1,-3.272177E-2,6.0158707E-2,1.8367425E-2,2.0655215E-2,-3.577469E-2,-1.9094039E-2,-1.0080178E-3,-8.77718E-2,-3.6522426E-2,-3.1948208E-3,5.2420497E-3],"split_indices":[139,132,21,137,19,132,130,0,3,3,132,87,75,132,3,0,0,0,134,0,134,75,46,75,0,21,134,40,3,0,0,1,0,87,132,21,1,21,118,1,0,37,1,0,0,0,0,0,0,0,0,0,0,0,0,0,0,0,0,0,0,0,0,0,0,0,0],"split_type":[0,0,0,0,0,0,0,0,0,0,0,0,0,0,0,0,0,0,0,0,0,0,0,0,0,0,0,0,0,0,0,0,0,0,0,0,0,0,0,0,0,0,0,0,0,0,0,0,0,0,0,0,0,0,0,0,0,0,0,0,0,0,0,0,0,0,0],"sum_hessian":[3.87E2,3.1E1,3.56E2,1.4E1,1.7E1,3.31E2,2.5E1,1E1,4E0,4E0,1.3E1,7.8E1,2.53E2,1.3E1,1.2E1,3E0,1E0,1E0,3E0,4E0,9E0,6.3E1,1.5E1,2.5E2,3E0,6E0,7E0,1E1,2E0,2E0,1E0,8E0,1E0,2.3E1,4E1,1E1,5E0,2E2,5E1,4E0,2E0,5E0,2E0,2E0,8E0,1E0,1E0,4E0,4E0,1.1E1,1.2E1,1E1,3E1,1E0,9E0,4E0,1E0,1.51E2,4.9E1,3.3E1,1.7E1,2E0,2E0,2E0,3E0,1E0,1E0],"tree_param":{"num_deleted":"0","num_feature":"141","num_nodes":"67","size_leaf_vector":"1"}},{"base_weights":[3.7009366E-2,-7.954041E-1,6.1953056E-1,4.3176123E-1,-2.3953316E0,7.497266E-1,-1.6996777E0,-1.250234E0,6.882831E-1,-5.567912E-1,-3.0092995E0,8.060126E-1,-2.336434E0,-4.1232243E0,2.7498782E-2,-5.563315E-1,-1.5732488E-1,8.391892E-1,-4.0670678E-1,-1.1390405E-1,-6.0661156E-2,-4.348983E0,-1.4956567E0,1.2209578E0,5.540372E-1,-5.341774E-2,-1.535168E-1,-3.7002016E-2,-2.3920052E-1,-2.7332434E-2,3.0998936E-1,-5.2675076E-2,1.5153876E-1,9.2112845E-1,-3.7747154E-1,-6.1615896E-1,3.695907E-2,-6.009354E-1,3.6629227E-1,-4.583547E0,-5.1140405E-2,-3.5661745E-1,-3.4809914E0,1.3812551E0,-5.7933843E-1,-1.0782493E0,7.291702E-1,1.685038E-2,4.372454E-3,2.0636296E-2,-8.008067E-3,5.3475976E-2,2.2397898E-2,-3.1866036E-2,4.10072E-4,1.5306341E-2,-3.8485527E-2,8.540618E-3,-3.790144E-2,2.8503094E-2,4.4632102E-3,-2.548314E-1,-1.0974336E-1,-6.2263913E-2,2.8583378E-2,-7.408858E-2,-2.1168196E-1,4.057743E-3,7.3925905E-2,-3.692868E-2,9.401822E-3,-2.8867716E-2,-1.7722474E-1,1.1435933E-2,5.172673E-2],"categories":[],"categories_nodes":[],"categories_segments":[],"categories_sizes":[],"default_left":[0,0,0,0,0,0,0,0,0,0,0,0,0,0,0,0,0,0,0,0,0,0,0,0,0,0,0,0,0,0,0,0,0,0,0,0,0,0,0,0,0,0,0,0,0,0,0,0,0,0,0,0,0,0,0,0,0,0,0,0,0,0,0,0,0,0,0,0,0,0,0,0,0,0,0],"id":13,"left_children":[1,3,5,7,9,11,13,15,17,19,21,23,25,27,29,31,-1,33,35,-1,37,39,41,43,45,-1,-1,-1,-1,-1,47,-1,49,51,53,55,-1,57,59,61,-1,63,65,67,69,71,73,-1,-1,-1,-1,-1,-1,-1,-1,-1,-1,-1,-1,-1,-1,-1,-1,-1,-1,-1,-1,-1,-1,-1,-1,-1,-1,-1,-1],"loss_changes":[1.8135991E2,3.0339404E2,6.770366E1,3.8829742E1,7.395438E1,3.8188087E1,5.0344097E1,1.4039366E1,1.3064831E1,1.5233513E1,9.48855E1,2.086206E1,4.4237328E-1,7.6374435E0,1.4669852E0,3.6789641E0,0E0,7.1267776E0,2.855541E0,0E0,3.680197E0,1.5597168E1,5.529296E1,2.3021088E1,3.794896E1,0E0,0E0,0E0,0E0,0E0,6.60491E-3,0E0,4.7316304E-1,4.014614E0,5.063109E-1,1.5101953E0,0E0,9.781358E-1,4.5716298E-1,1.822763E1,0E0,1.4735703E1,7.2690964E0,8.858078E0,9.9423075E-1,1.4012859E1,1.779615E1,0E0,0E0,0E0,0E0,0E0,0E0,0E0,0E0,0E0,0E0,0E0,0E0,0E0,0E0,0E0,0E0,0E0,0E0,0E0,0E0,0E0,0E0,0E0,0E0,0E0,0E0,0E0,0E0],"parents":[2147483647,0,0,1,1,2,2,3,3,4,4,5,5,6,6,7,7,8,8,9,9,10,10,11,11,12,12,13,13,14,14,15,15,17,17,18,18,20,20,21,21,22,22,23,23,24,24,30,30,32,32,33,33,34,34,35,35,37,37,38,38,39,39,41,41,42,42,43,43,44,44,45,45,46,46],"right_children":[2,4,6,8,10,12,14,16,18,20,22,24,26,28,30,32,-1,34,36,-1,38,40,42,44,46,-1,-1,-1,-1,-1,48,-1,50,52,54,56,-1,58,60,62,-1,64,66,68,70,72,74,-1,-1,-1,-1,-1,-1,-1,-1,-1,-1,-1,-1,-1,-1,-1,-1,-1,-1,-1,-1,-1,-1,-1,-1,-1,-1,-1,-1],"split_conditions":[1.0486707E2,9.042857E1,1.123071E-2,8.9581656E-1,1.6129032E0,1.4264373E0,9.79685E-1,8.402674E1,1.9442148E0,7.0670187E-3,1.1214954E0,1.7674419E0,1.1657692E2,4.0504756E0,1.4E1,8.333333E-1,-1.5732488E-1,7.017792E1,1.68E2,-1.1390405E-1,1.5E1,2.7557895E0,8.3766E0,2.25E2,1.1523809E1,-5.341774E-2,-1.535168E-1,-3.7002016E-2,-2.3920052E-1,-2.7332434E-2,2E1,-5.2675076E-2,1.1259962E1,5.1955266E0,8.7E1,2.8526273E2,3.695907E-2,1.3622547E1,9.955556E1,1.5999369E1,-5.1140405E-2,3.5675E1,9.485714E1,1.8778E2,4.2709454E2,3.1E1,2.6510336E0,1.685038E-2,4.372454E-3,2.0636296E-2,-8.008067E-3,5.3475976E-2,2.2397898E-2,-3.1866036E-2,4.10072E-4,1.5306341E-2,-3.8485527E-2,8.540618E-3,-3.790144E-2,2.8503094E-2,4.4632102E-3,-2.548314E-1,-1.0974336E-1,-6.2263913E-2,2.8583378E-2,-7.408858E-2,-2.1168196E-1,4.057743E-3,7.3925905E-2,-3.692868E-2,9.401822E-3,-2.8867716E-2,-1.7722474E-1,1.1435933E-2,5.172673E-2],"split_indices":[39,39,140,58,51,34,88,39,51,140,93,105,39,4,2,58,0,130,132,0,132,45,135,132,3,0,0,0,0,0,3,0,3,4,8,21,0,111,39,111,0,109,130,20,21,2,94,0,0,0,0,0,0,0,0,0,0,0,0,0,0,0,0,0,0,0,0,0,0,0,0,0,0,0,0],"split_type":[0,0,0,0,0,0,0,0,0,0,0,0,0,0,0,0,0,0,0,0,0,0,0,0,0,0,0,0,0,0,0,0,0,0,0,0,0,0,0,0,0,0,0,0,0,0,0,0,0,0,0,0,0,0,0,0,0,0,0,0,0,0,0,0,0,0,0,0,0,0,0,0,0,0,0],"sum_hessian":[3.72E2,1.53E2,2.19E2,8.7E1,6.6E1,2.08E2,1.1E1,1.1E1,7.6E1,1.7E1,4.9E1,2.05E2,3E0,4E0,7E0,9E0,2E0,6.7E1,9E0,3E0,1.4E1,2.5E1,2.4E1,7.6E1,1.29E2,2E0,1E0,1E0,3E0,2E0,5E0,5E0,4E0,6.3E1,4E0,8E0,1E0,6E0,8E0,2.3E1,2E0,1.6E1,8E0,7E1,6E0,1.2E1,1.17E2,4E0,1E0,2E0,2E0,4.7E1,1.6E1,2E0,2E0,1E0,7E0,1E0,5E0,4E0,4E0,1.8E1,5E0,8E0,8E0,3E0,5E0,5E0,6.5E1,5E0,1E0,1.1E1,1E0,4.5E1,7.2E1],"tree_param":{"num_deleted":"0","num_feature":"141","num_nodes":"75","size_leaf_vector":"1"}},{"base_weights":[-7.7315696E-2,-2.3901863E0,1.3995461E-1,-4.2738605E0,-2.3939592E-1,3.2332355E-1,-2.1907618E0,-4.6971226E0,-3.664652E-2,-1.0102E0,6.5768313E-1,-6.1383075E-1,7.454923E-1,-5.818033E-1,-3.6312E0,-2.066455E0,-2.5912926E-1,-4.796114E-1,-6.693743E-2,4.685032E-2,1.441083E-1,1.0702709E0,-1.1670135E0,1.4050124E0,4.7014114E-1,-2.0436206E0,5.8728516E-1,-7.230991E-1,-2.4216726E-1,-8.4468005E-3,-1.3213247E-1,-2.70863E-2,-5.7788254E-3,1.8907707E-2,-1.395073E-2,1.2617507E0,-3.7724886E-2,-2.9425955E0,-7.820996E-1,1.5179929E0,2.681721E-1,-9.6321476E-1,5.7491356E-1,-1.0995579E-2,-2.3643801E0,-6.491785E-2,1.2557175E0,3.371355E-2,-6.205047E-2,6.644887E-2,-5.430925E-3,-1.7391887E-1,1.4019012E-4,-8.212368E-2,2.8434922E-6,6.290335E-2,8.947571E-2,3.0201176E-2,-1.9048547E-2,1.356253E-2,-7.300228E-2,3.8131993E-2,-3.2954775E-3,-1.3575305E-1,-2.4041427E-2,1.066916E-2,-1.607898E-2,1.7185045E-2,7.225781E-2],"categories":[],"categories_nodes":[],"categories_segments":[],"categories_sizes":[],"default_left":[0,0,0,0,0,0,0,0,0,0,0,0,0,0,0,0,0,0,0,0,0,0,0,0,0,0,0,0,0,0,0,0,0,0,0,0,0,0,0,0,0,0,0,0,0,0,0,0,0,0,0,0,0,0,0,0,0,0,0,0,0,0,0,0,0,0,0,0,0],"id":14,"left_children":[1,3,5,7,9,11,13,15,-1,17,19,21,23,25,27,29,-1,31,-1,-1,33,35,37,39,41,43,45,47,-1,-1,-1,-1,-1,-1,-1,49,-1,51,53,55,57,59,61,-1,63,65,67,-1,-1,-1,-1,-1,-1,-1,-1,-1,-1,-1,-1,-1,-1,-1,-1,-1,-1,-1,-1,-1,-1],"loss_changes":[1.8727126E2,1.2862128E2,1.4644525E2,2.203595E1,1.1727946E1,1.258746E2,5.58275E1,8.446747E0,0E0,9.2683697E-1,1.0125971E0,9.347901E1,3.9109764E1,2.3417107E1,4.2323288E1,3.92692E0,0E0,5.0448656E-2,0E0,0E0,5.016311E-1,9.687143E0,4.895706E1,7.8131332E0,2.3981247E1,2.9898777E0,3.569147E0,4.4553385E0,0E0,0E0,0E0,0E0,0E0,0E0,0E0,2.2632408E0,0E0,2.0524948E1,4.2395763E1,1.842041E0,1.7562246E0,7.142564E0,1.7613964E1,0E0,1.9971485E0,4.257659E-1,1.9438314E-1,0E0,0E0,0E0,0E0,0E0,0E0,0E0,0E0,0E0,0E0,0E0,0E0,0E0,0E0,0E0,0E0,0E0,0E0,0E0,0E0,0E0,0E0],"parents":[2147483647,0,0,1,1,2,2,3,3,4,4,5,5,6,6,7,7,9,9,10,10,11,11,12,12,13,13,14,14,15,15,17,17,20,20,21,21,22,22,23,23,24,24,25,25,26,26,27,27,35,35,37,37,38,38,39,39,40,40,41,41,42,42,44,44,45,45,46,46],"right_children":[2,4,6,8,10,12,14,16,-1,18,20,22,24,26,28,30,-1,32,-1,-1,34,36,38,40,42,44,46,48,-1,-1,-1,-1,-1,-1,-1,50,-1,52,54,56,58,60,62,-1,64,66,68,-1,-1,-1,-1,-1,-1,-1,-1,-1,-1,-1,-1,-1,-1,-1,-1,-1,-1,-1,-1,-1,-1],"split_conditions":[-6.0907974E0,1.20796E1,6.367884E2,6.143263E2,1.68E2,9.80192E0,7.984E0,2.270421E0,-3.664652E-2,7.6741936E1,5.8E1,3.915E0,1.1710059E1,4.541399E1,8.6333334E-1,4E1,-2.5912926E-1,2.08537E1,-6.693743E-2,4.685032E-2,1.28427E1,1.2444445E1,5.504E0,6.4E-1,6.2E1,1.5E1,7.3544635E2,3E0,-2.4216726E-1,-8.4468005E-3,-1.3213247E-1,-2.70863E-2,-5.7788254E-3,1.8907707E-2,-1.395073E-2,5.8E1,-3.7724886E-2,1.39668E1,4.642857E-1,1.2504E1,7.1640816E0,8.1422496E-1,2.455681E0,-1.0995579E-2,4.519391E1,6.9607117E2,5.8E1,3.371355E-2,-6.205047E-2,6.644887E-2,-5.430925E-3,-1.7391887E-1,1.4019012E-4,-8.212368E-2,2.8434922E-6,6.290335E-2,8.947571E-2,3.0201176E-2,-1.9048547E-2,1.356253E-2,-7.300228E-2,3.8131993E-2,-3.2954775E-3,-1.3575305E-1,-2.4041427E-2,1.066916E-2,-1.607898E-2,1.7185045E-2,7.225781E-2],"split_indices":[139,135,21,22,132,135,135,45,0,9,1,133,40,40,46,1,0,135,0,0,133,4,28,106,132,132,21,0,0,0,0,0,0,0,0,1,0,133,63,135,28,46,76,0,40,21,1,0,0,0,0,0,0,0,0,0,0,0,0,0,0,0,0,0,0,0,0,0,0],"split_type":[0,0,0,0,0,0,0,0,0,0,0,0,0,0,0,0,0,0,0,0,0,0,0,0,0,0,0,0,0,0,0,0,0,0,0,0,0,0,0,0,0,0,0,0,0,0,0,0,0,0,0,0,0,0,0,0,0,0,0,0,0,0,0,0,0,0,0,0,0],"sum_hessian":[3.71E2,3.1E1,3.4E2,1.6E1,1.5E1,3.16E2,2.4E1,1.4E1,2E0,8E0,7E0,9.8E1,2.18E2,1.2E1,1.2E1,3E0,1.1E1,4E0,4E0,4E0,3E0,2.4E1,7.4E1,6.3E1,1.55E2,5E0,7E0,4E0,8E0,1E0,2E0,3E0,1E0,2E0,1E0,2.2E1,2E0,1.2E1,6.2E1,5.7E1,6E0,1E1,1.45E2,1E0,4E0,4E0,3E0,1E0,3E0,2.1E1,1E0,1E1,2E0,2.9E1,3.3E1,3.2E1,2.5E1,4E0,2E0,3E0,7E0,1.12E2,3.3E1,3E0,1E0,2E0,2E0,1E0,2E0],"tree_param":{"num_deleted":"0","num_feature":"141","num_nodes":"69","size_leaf_vector":"1"}},{"base_weights":[-1.02702454E-1,7.128636E-1,-8.227526E-1,-5.15696E-1,9.209293E-1,-2.6399376E0,2.3777269E-1,-2.3799199E-1,-1.3289988E-1,1.0843195E0,-1.8107015E-1,-1.9805565E0,-4.654579E0,-1.4151374E0,5.483433E-1,-1.094409E0,4.0591332E-1,1.3719361E0,7.93539E-1,3.881241E-2,-9.6374625E-1,-8.5720545E-1,-2.492718E0,-2.88267E-1,-2.5911757E-1,5.276185E-1,-2.4242024E0,6.393922E-1,-2.0470629E0,-1.3130603E0,-7.3652424E-2,8.854248E-1,-1.2141545E-2,1.0423309E0,1.6799437E0,9.5887035E-1,2.9928797E-1,1.17166996E-1,-1.1916456E0,-2.0412273E0,-3.264497E-1,-3.5172076E0,-7.36158E-1,2.9289841E-3,-2.4549007E-2,1.3405683E0,-2.282649E-1,-2.4201126E-1,-1.3252667E0,-2.2673416E0,7.1562624E-1,-1.4637557E-1,-3.8887143E-2,-7.050913E-2,-1.3402069E-2,-1.2441814E-2,6.9178822E-3,4.8779413E-2,8.611107E-3,-2.6088392E-2,5.8391364E-3,5.456059E-2,-1.5490579E-2,2.3907227E-2,8.7102756E-2,1.2209713E-2,4.9882125E-2,-4.024779E-3,3.6510684E-2,-4.5601367E-3,1.3347662E-2,-8.961482E-2,-4.087229E-2,-1.1742534E-1,-1.2620759E-2,6.4875707E-3,-3.2250028E-2,-4.131334E-2,-1.857639E-1,-5.3065967E-2,9.573035E-3,9.473382E-2,-8.043897E-3,-2.1910531E-2,1.5287948E-2,-2.9326443E-2,-1.235713E-1,-1.3729115E-1,-3.2759476E-2,4.864737E-2,9.412668E-3],"categories":[],"categories_nodes":[],"categories_segments":[],"categories_sizes":[],"default_left":[0,0,0,0,0,0,0,0,0,0,0,0,0,0,0,0,0,0,0,0,0,0,0,0,0,0,0,0,0,0,0,0,0,0,0,0,0,0,0,0,0,0,0,0,0,0,0,0,0,0,0,0,0,0,0,0,0,0,0,0,0,0,0,0,0,0,0,0,0,0,0,0,0,0,0,0,0,0,0,0,0,0,0,0,0,0,0,0,0,0,0],"id":15,"left_children":[1,3,5,7,9,11,13,15,-1,17,19,21,23,25,27,29,31,33,35,-1,37,39,41,43,-1,45,47,49,51,53,55,57,59,61,63,65,67,69,71,73,75,77,79,-1,-1,81,83,-1,85,87,89,-1,-1,-1,-1,-1,-1,-1,-1,-1,-1,-1,-1,-1,-1,-1,-1,-1,-1,-1,-1,-1,-1,-1,-1,-1,-1,-1,-1,-1,-1,-1,-1,-1,-1,-1,-1,-1,-1,-1,-1],"loss_changes":[2.2785168E2,4.6997955E1,3.9762482E2,1.5430412E1,2.828505E1,9.174103E1,6.8024216E1,1.4230522E1,0E0,1.0285446E1,1.648278E1,3.1808136E1,3.9985626E1,4.2446766E1,2.7539158E1,2.3583765E0,3.0176818E0,5.0508347E0,5.4330864E0,0E0,3.0956945E0,1.1902172E1,6.9393875E1,2.3969261E-1,0E0,5.2219663E0,3.0756157E1,2.555452E1,2.1934319E0,5.354643E-1,1.4585063E-1,2.8211546E-1,6.522623E-1,2.6513634E0,1.6303406E0,1.1972733E0,3.1682901E0,1.17979616E-1,7.825279E-1,2.7051907E0,2.2635388E0,1.0255096E1,5.029212E0,0E0,0E0,3.6326656E0,6.945669E-1,0E0,7.8642597E0,5.151186E-1,1.4201485E1,0E0,0E0,0E0,0E0,0E0,0E0,0E0,0E0,0E0,0E0,0E0,0E0,0E0,0E0,0E0,0E0,0E0,0E0,0E0,0E0,0E0,0E0,0E0,0E0,0E0,0E0,0E0,0E0,0E0,0E0,0E0,0E0,0E0,0E0,0E0,0E0,0E0,0E0,0E0,0E0],"parents":[2147483647,0,0,1,1,2,2,3,3,4,4,5,5,6,6,7,7,9,9,10,10,11,11,12,12,13,13,14,14,15,15,16,16,17,17,18,18,20,20,21,21,22,22,23,23,25,25,26,26,27,27,28,28,29,29,30,30,31,31,32,32,33,33,34,34,35,35,36,36,37,37,38,38,39,39,40,40,41,41,42,42,45,45,46,46,48,48,49,49,50,50],"right_children":[2,4,6,8,10,12,14,16,-1,18,20,22,24,26,28,30,32,34,36,-1,38,40,42,44,-1,46,48,50,52,54,56,58,60,62,64,66,68,70,72,74,76,78,80,-1,-1,82,84,-1,86,88,90,-1,-1,-1,-1,-1,-1,-1,-1,-1,-1,-1,-1,-1,-1,-1,-1,-1,-1,-1,-1,-1,-1,-1,-1,-1,-1,-1,-1,-1,-1,-1,-1,-1,-1,-1,-1,-1,-1,-1,-1],"split_conditions":[8.097507E-1,9.256E0,1.04E2,5.1E1,7.677778E1,9.80192E0,3.5675E1,1.7E1,-1.3289988E-1,1.1710059E1,1.1259962E1,1.6129032E0,1.2384035E1,4.736961E0,1.4264373E0,2.0393333E0,7.77114E1,1.2504E1,6.9753084E0,3.881241E-2,2.4922166E2,1.0485597E-2,2.7444444E0,2.1E1,-2.5911757E-1,3.20049E2,6.3265305E0,3.8617E0,1.9159193E1,7.885714E1,1.5E1,2.0703352E1,3.4E1,5.0884445E2,9.3E-1,3.8005672E0,2.1957E1,3.4E1,9.952741E-1,9.0043E1,5.1371E0,1.669E1,5.5721326E0,2.9289841E-3,-2.4549007E-2,1.6012875E1,1.2340659E1,-2.4201126E-1,1.6495726E1,1.6297873E1,1.01973335E2,-1.4637557E-1,-3.8887143E-2,-7.050913E-2,-1.3402069E-2,-1.2441814E-2,6.9178822E-3,4.8779413E-2,8.611107E-3,-2.6088392E-2,5.8391364E-3,5.456059E-2,-1.5490579E-2,2.3907227E-2,8.7102756E-2,1.2209713E-2,4.9882125E-2,-4.024779E-3,3.6510684E-2,-4.5601367E-3,1.3347662E-2,-8.961482E-2,-4.087229E-2,-1.1742534E-1,-1.2620759E-2,6.4875707E-3,-3.2250028E-2,-4.131334E-2,-1.857639E-1,-5.3065967E-2,9.573035E-3,9.473382E-2,-8.043897E-3,-2.1910531E-2,1.5287948E-2,-2.9326443E-2,-1.235713E-1,-1.3729115E-1,-3.2759476E-2,4.864737E-2,9.412668E-3],"split_indices":[46,135,39,1,9,134,109,1,0,40,3,51,111,112,34,45,130,135,4,0,21,140,45,1,0,21,4,133,3,130,1,3,1,21,42,4,135,1,76,137,135,109,112,0,0,3,3,0,3,3,130,0,0,0,0,0,0,0,0,0,0,0,0,0,0,0,0,0,0,0,0,0,0,0,0,0,0,0,0,0,0,0,0,0,0,0,0,0,0,0,0],"split_type":[0,0,0,0,0,0,0,0,0,0,0,0,0,0,0,0,0,0,0,0,0,0,0,0,0,0,0,0,0,0,0,0,0,0,0,0,0,0,0,0,0,0,0,0,0,0,0,0,0,0,0,0,0,0,0,0,0,0,0,0,0,0,0,0,0,0,0,0,0,0,0,0,0,0,0,0,0,0,0,0,0,0,0,0,0,0,0,0,0,0,0],"sum_hessian":[3.86E2,1.81E2,2.05E2,2.6E1,1.55E2,7.5E1,1.3E2,2.4E1,2E0,1.35E2,2E1,5.8E1,1.7E1,2E1,1.1E2,1E1,1.4E1,6.6E1,6.9E1,9E0,1.1E1,1.9E1,3.9E1,2E0,1.5E1,7E0,1.3E1,1.07E2,3E0,8E0,2E0,6E0,8E0,3.4E1,3.2E1,5.1E1,1.8E1,2E0,9E0,5E0,1.4E1,2.4E1,1.5E1,1E0,1E0,3E0,4E0,3E0,1E1,2E0,1.05E2,1E0,2E0,7E0,1E0,1E0,1E0,5E0,1E0,1E0,7E0,3.3E1,1E0,2E0,3E1,3E0,4.8E1,1E1,8E0,1E0,1E0,2E0,7E0,4E0,1E0,6E0,8E0,2E0,2.2E1,1.1E1,4E0,2E0,1E0,3E0,1E0,7E0,3E0,1E0,1E0,7E1,3.5E1],"tree_param":{"num_deleted":"0","num_feature":"141","num_nodes":"91","size_leaf_vector":"1"}},{"base_weights":[-7.159163E-2,6.118543E-1,-7.8919166E-1,-6.1058587E-1,8.4009075E-1,-2.1529179E0,3.71785E-1,7.9158224E-2,-1.518648E0,1.0496161E0,-1.7019211E-1,-9.8966634E-1,-2.6457531E0,5.287467E-1,-2.0969253E0,5.516673E-1,-7.4216557E-1,-1.8603515E-2,-2.1832674E0,8.8299793E-1,1.4647754E0,6.1861545E-1,-8.950664E-1,2.0127909E-1,-1.357014E0,-3.1269095E0,-7.16275E-2,-2.210658E0,6.141853E-1,-3.4178543E-1,-1.8690683E-1,7.533058E-1,-1.5217519E-2,-4.505993E-2,5.30082E-3,-2.123595E-2,3.9371315E-1,-2.431723E0,-4.8905374E-3,-2.172924E-1,9.331985E-1,1.5566127E0,5.8406144E-1,8.105912E-1,1.1094084E-1,-7.919537E-2,-5.0058717E-1,-2.2615416E-1,4.1748324E-1,-6.8303645E-1,-1.7494125E0,-3.488948E0,-5.0797695E-1,-3.4914486E-2,6.946927E-1,-1.3385887E-1,-3.1940486E-2,1.6973313E-2,8.43621E-1,-2.819469E-2,8.113491E-3,3.2157023E-3,4.5875724E-2,1.3810516E-3,2.8147435E-2,-6.2458664E-2,-1.4457093E-1,7.891285E-3,-1.7526418E-2,5.1844563E-2,2.5403012E-2,7.892043E-2,2.2023553E-2,6.2317373E-3,3.338797E-2,4.7106627E-2,1.8887306E-2,-1.8946076E-2,2.8191147E-2,5.7118894E-3,-3.24954E-2,2.743721E-4,-1.7235935E-2,-6.804955E-3,2.949518E-2,-1.1329612E-2,-5.9847184E-2,-3.709348E-2,-1.08022526E-1,-1.1707872E-2,-1.8666564E-1,-4.9733542E-2,6.030465E-2,1.2381971E-2,6.2072642E-2,-6.3730287E-3,2.136084E-2,5.238458E-2,1.6603885E-2],"categories":[],"categories_nodes":[],"categories_segments":[],"categories_sizes":[],"default_left":[0,0,0,0,0,0,0,0,0,0,0,0,0,0,0,0,0,0,0,0,0,0,0,0,0,0,0,0,0,0,0,0,0,0,0,0,0,0,0,0,0,0,0,0,0,0,0,0,0,0,0,0,0,0,0,0,0,0,0,0,0,0,0,0,0,0,0,0,0,0,0,0,0,0,0,0,0,0,0,0,0,0,0,0,0,0,0,0,0,0,0,0,0,0,0,0,0,0,0],"id":16,"left_children":[1,3,5,7,9,11,13,15,17,19,21,23,25,27,29,31,33,35,37,39,41,43,45,47,49,51,53,55,57,59,-1,61,-1,-1,-1,-1,63,65,-1,67,69,71,73,75,77,-1,79,81,83,85,87,89,91,-1,93,-1,-1,95,97,-1,-1,-1,-1,-1,-1,-1,-1,-1,-1,-1,-1,-1,-1,-1,-1,-1,-1,-1,-1,-1,-1,-1,-1,-1,-1,-1,-1,-1,-1,-1,-1,-1,-1,-1,-1,-1,-1,-1,-1],"loss_changes":[1.7900333E2,5.268696E1,2.8261966E2,1.891013E1,3.3624077E1,4.439151E1,3.869556E1,7.394921E0,1.29198475E1,7.76828E0,1.6563719E1,1.1647902E1,7.037375E1,2.2890417E1,1.600569E1,2.3005426E0,1.0397646E0,1.0044584E0,4.4254456E0,5.505356E0,2.0026016E0,1.274529E0,3.2831173E0,7.413055E-1,4.0944443E0,4.3739105E1,5.287336E0,4.89686E-1,1.2317646E1,5.3932256E-1,0E0,1.0723753E0,0E0,0E0,0E0,0E0,1.7031816E-1,7.370224E-1,0E0,3.052185E-1,3.5289078E0,8.3236694E-2,1.09039545E-1,2.1348333E-1,1.322894E0,0E0,1.0841119E0,8.4285066E-2,5.575297E-1,1.8399115E0,3.3668861E0,3.253076E1,7.039257E0,0E0,9.147217E-1,0E0,0E0,1.5950329E0,6.4375E0,0E0,0E0,0E0,0E0,0E0,0E0,0E0,0E0,0E0,0E0,0E0,0E0,0E0,0E0,0E0,0E0,0E0,0E0,0E0,0E0,0E0,0E0,0E0,0E0,0E0,0E0,0E0,0E0,0E0,0E0,0E0,0E0,0E0,0E0,0E0,0E0,0E0,0E0,0E0,0E0],"parents":[2147483647,0,0,1,1,2,2,3,3,4,4,5,5,6,6,7,7,8,8,9,9,10,10,11,11,12,12,13,13,14,14,15,15,16,16,17,17,18,18,19,19,20,20,21,21,22,22,23,23,24,24,25,25,26,26,27,27,28,28,29,29,31,31,36,36,37,37,39,39,40,40,41,41,42,42,43,43,44,44,46,46,47,47,48,48,49,49,50,50,51,51,52,52,54,54,57,57,58,58],"right_children":[2,4,6,8,10,12,14,16,18,20,22,24,26,28,30,32,34,36,38,40,42,44,46,48,50,52,54,56,58,60,-1,62,-1,-1,-1,-1,64,66,-1,68,70,72,74,76,78,-1,80,82,84,86,88,90,92,-1,94,-1,-1,96,98,-1,-1,-1,-1,-1,-1,-1,-1,-1,-1,-1,-1,-1,-1,-1,-1,-1,-1,-1,-1,-1,-1,-1,-1,-1,-1,-1,-1,-1,-1,-1,-1,-1,-1,-1,-1,-1,-1,-1,-1],"split_conditions":[8.097507E-1,9.80192E0,2.07E2,1.7916666E0,1.3656509E1,2.287966E0,8.95116E0,1.5351506E2,6.0773E0,1.1682E0,1.1384615E1,5.2592E0,2.9E0,3.8617E0,1.8966667E1,1.78125E0,3.4E1,1.0332183E1,1.8425657E0,4.4071064E1,5.1E1,2.0853E1,1.1851852E0,1.0030864E1,1.27790695E2,1.9090909E0,3.031915E0,1.6297873E1,2.2204082E0,5.8E1,-1.8690683E-1,5.037037E0,-1.5217519E-2,-4.505993E-2,5.30082E-3,-2.123595E-2,1.7E1,1.0086957E1,-4.8905374E-3,5.1E1,1.08E2,1.36233E1,3E0,1.1E1,8.5125E0,-7.919537E-2,2.5898328E2,7.714286E0,4.822222E1,6.1866E0,3.1284E0,6.923077E0,2.49E0,-3.4914486E-2,1.5714286E1,-1.3385887E-1,-3.1940486E-2,1.2922E1,1.2528746E0,-2.819469E-2,8.113491E-3,3.2157023E-3,4.5875724E-2,1.3810516E-3,2.8147435E-2,-6.2458664E-2,-1.4457093E-1,7.891285E-3,-1.7526418E-2,5.1844563E-2,2.5403012E-2,7.892043E-2,2.2023553E-2,6.2317373E-3,3.338797E-2,4.7106627E-2,1.8887306E-2,-1.8946076E-2,2.8191147E-2,5.7118894E-3,-3.24954E-2,2.743721E-4,-1.7235935E-2,-6.804955E-3,2.949518E-2,-1.1329612E-2,-5.9847184E-2,-3.709348E-2,-1.08022526E-1,-1.1707872E-2,-1.8666564E-1,-4.9733542E-2,6.030465E-2,1.2381971E-2,6.2072642E-2,-6.3730287E-3,2.136084E-2,5.238458E-2,1.6603885E-2],"split_indices":[46,135,37,105,27,45,112,22,134,117,3,135,57,133,3,58,1,16,58,22,1,135,76,16,129,51,57,3,106,1,0,40,0,0,0,0,1,3,0,1,38,133,0,3,133,0,22,3,9,134,112,3,44,0,3,0,0,133,34,0,0,0,0,0,0,0,0,0,0,0,0,0,0,0,0,0,0,0,0,0,0,0,0,0,0,0,0,0,0,0,0,0,0,0,0,0,0,0,0],"split_type":[0,0,0,0,0,0,0,0,0,0,0,0,0,0,0,0,0,0,0,0,0,0,0,0,0,0,0,0,0,0,0,0,0,0,0,0,0,0,0,0,0,0,0,0,0,0,0,0,0,0,0,0,0,0,0,0,0,0,0,0,0,0,0,0,0,0,0,0,0,0,0,0,0,0,0,0,0,0,0,0,0,0,0,0,0,0,0,0,0,0,0,0,0,0,0,0,0,0,0],"sum_hessian":[3.63E2,1.86E2,1.77E2,2.9E1,1.57E2,8.1E1,9.6E1,1.7E1,1.2E1,1.3E2,2.7E1,2.5E1,5.6E1,9.1E1,5E0,1.1E1,6E0,4E0,8E0,9.5E1,3.5E1,1.3E1,1.4E1,6E0,1.9E1,4.7E1,9E0,2E0,8.9E1,3E0,2E0,9E0,2E0,5E0,1E0,2E0,2E0,7E0,1E0,4E0,9.1E1,3.1E1,4E0,9E0,4E0,4E0,1E1,2E0,4E0,8E0,1.1E1,4.1E1,6E0,5E0,4E0,1E0,1E0,2.5E1,6.4E1,2E0,1E0,2E0,7E0,1E0,1E0,3E0,4E0,1E0,3E0,7.2E1,1.9E1,3E1,1E0,1E0,3E0,6E0,3E0,2E0,2E0,2E0,8E0,1E0,1E0,1E0,3E0,5E0,3E0,4E0,7E0,3E0,3.8E1,5E0,1E0,3E0,1E0,1.9E1,6E0,4.5E1,1.9E1],"tree_param":{"num_deleted":"0","num_feature":"141","num_nodes":"99","size_leaf_vector":"1"}},{"base_weights":[-3.3517867E-2,-2.0471435E0,1.4910175E-1,-3.6102023E0,-1.3920034E-1,-5.3954625E-1,5.6870335E-1,-4.193689E0,-3.3272445E-2,-9.7018784E-1,3.7331218E-1,4.996491E-1,-2.058748E0,7.8381723E-1,-7.920268E-2,-1.882499E0,-4.6528773E0,-4.2415297E-1,-6.874192E-2,5.494112E-1,-3.0289471E-2,6.820403E-1,-6.732825E-1,-9.535027E-1,-3.4589157E0,2.4570332E-1,1.1400005E0,-1.5902062E-1,3.9318483E-2,-7.219231E-3,-1.2068712E-1,-5.8723547E-2,-2.4416354E-1,-6.40775E-3,-2.4005031E-2,8.6454636E-1,-6.064439E-2,-4.2308092E-1,7.7646387E-1,8.283055E-3,-7.73743E-1,-5.8333033E-1,-1.3808666E-1,-1.2451632E0,-3.8594341E0,4.4156986E-1,-1.0220851E0,6.4935946E-1,1.2605723E0,-9.5209576E-2,8.555448E-2,4.6890076E-2,1.2456763E-2,5.458625E-3,-1.4252377E-2,-3.8050022E-2,8.425268E-3,4.1239534E-2,-2.3250086E-2,-4.838031E-2,-1.2052327E-2,-7.915233E-2,-3.953945E-3,-7.105818E-2,-1.352905E-2,-2.0943801E-1,-3.5338674E-2,-2.7760852E-3,4.979751E-2,1.0359204E-2,-6.008209E-2,6.1056763E-2,5.9383153E-3,-1.1616982E-2,6.417879E-2,-6.463302E-2,4.87289E-3],"categories":[],"categories_nodes":[],"categories_segments":[],"categories_sizes":[],"default_left":[0,0,0,0,0,0,0,0,0,0,0,0,0,0,0,0,0,0,0,0,0,0,0,0,0,0,0,0,0,0,0,0,0,0,0,0,0,0,0,0,0,0,0,0,0,0,0,0,0,0,0,0,0,0,0,0,0,0,0,0,0,0,0,0,0,0,0,0,0,0,0,0,0,0,0,0,0],"id":17,"left_children":[1,3,5,7,9,11,13,15,-1,17,19,21,23,25,27,29,31,33,-1,35,-1,37,39,41,43,45,47,-1,49,-1,-1,-1,-1,-1,-1,51,53,55,57,-1,59,61,-1,63,65,67,69,71,73,75,-1,-1,-1,-1,-1,-1,-1,-1,-1,-1,-1,-1,-1,-1,-1,-1,-1,-1,-1,-1,-1,-1,-1,-1,-1,-1,-1],"loss_changes":[1.3709988E2,9.19465E1,9.913041E1,2.6419128E1,6.7505555E0,2.0626584E2,2.9748657E1,6.09877E0,0E0,7.425785E-1,2.0570154E0,1.7145927E1,7.872095E1,3.0386642E1,1.9973236E1,3.3449392E0,3.0801544E0,4.71431E-3,0E0,1.7826796E0,0E0,7.4242764E0,1.0552664E0,1.913906E1,1.558728E1,1.6591948E1,4.8605576E0,0E0,1.2082619E1,0E0,0E0,0E0,0E0,0E0,0E0,3.6853313E-2,1.8354914E-1,1.3276838E0,4.1632805E0,0E0,7.994647E-1,1.3485741E1,0E0,4.73094E-1,1.6766327E1,1.5763229E1,2.2354727E0,6.225956E0,2.9082184E0,1.1661465E1,0E0,0E0,0E0,0E0,0E0,0E0,0E0,0E0,0E0,0E0,0E0,0E0,0E0,0E0,0E0,0E0,0E0,0E0,0E0,0E0,0E0,0E0,0E0,0E0,0E0,0E0,0E0],"parents":[2147483647,0,0,1,1,2,2,3,3,4,4,5,5,6,6,7,7,9,9,10,10,11,11,12,12,13,13,14,14,15,15,16,16,17,17,19,19,21,21,22,22,23,23,24,24,25,25,26,26,28,28,35,35,36,36,37,37,38,38,40,40,41,41,43,43,44,44,45,45,46,46,47,47,48,48,49,49],"right_children":[2,4,6,8,10,12,14,16,-1,18,20,22,24,26,28,30,32,34,-1,36,-1,38,40,42,44,46,48,-1,50,-1,-1,-1,-1,-1,-1,52,54,56,58,-1,60,62,-1,64,66,68,70,72,74,76,-1,-1,-1,-1,-1,-1,-1,-1,-1,-1,-1,-1,-1,-1,-1,-1,-1,-1,-1,-1,-1,-1,-1,-1,-1,-1,-1],"split_conditions":[-6.276149E0,1.42E2,1.04E2,6.143263E2,1.68E2,8.957609E1,5.084112E0,2.270421E0,-3.3272445E-2,7.6741936E1,1.29727E1,2.2027E1,7.1099E0,7E0,2.5E1,4E1,4.859649E0,2.3E1,-6.874192E-2,7.3E1,-3.0289471E-2,7.3702126E1,2.61554E2,1.29E2,3.033E2,1.5E0,1.8384615E0,-1.5902062E-1,2.3792208E1,-7.219231E-3,-1.2068712E-1,-5.8723547E-2,-2.4416354E-1,-6.40775E-3,-2.4005031E-2,1.296891E1,1.282E1,9.3E1,7.3E1,8.283055E-3,1.4347826E1,1.3422447E1,-1.3808666E-1,3.2E1,2.7561436E0,2.1838036E0,1.8286474E0,1.0762331E0,2E0,5.714286E-1,8.555448E-2,4.6890076E-2,1.2456763E-2,5.458625E-3,-1.4252377E-2,-3.8050022E-2,8.425268E-3,4.1239534E-2,-2.3250086E-2,-4.838031E-2,-1.2052327E-2,-7.915233E-2,-3.953945E-3,-7.105818E-2,-1.352905E-2,-2.0943801E-1,-3.5338674E-2,-2.7760852E-3,4.979751E-2,1.0359204E-2,-6.008209E-2,6.1056763E-2,5.9383153E-3,-1.1616982E-2,6.417879E-2,-6.463302E-2,4.87289E-3],"split_indices":[139,132,39,22,132,39,75,45,0,9,133,135,134,73,1,1,16,1,0,1,0,9,21,132,21,87,45,0,3,0,0,0,0,0,0,133,133,7,1,0,3,111,0,1,94,57,105,87,103,106,0,0,0,0,0,0,0,0,0,0,0,0,0,0,0,0,0,0,0,0,0,0,0,0,0,0,0],"split_type":[0,0,0,0,0,0,0,0,0,0,0,0,0,0,0,0,0,0,0,0,0,0,0,0,0,0,0,0,0,0,0,0,0,0,0,0,0,0,0,0,0,0,0,0,0,0,0,0,0,0,0,0,0,0,0,0,0,0,0,0,0,0,0,0,0,0,0,0,0,0,0,0,0,0,0,0,0],"sum_hessian":[3.71E2,3E1,3.41E2,1.6E1,1.4E1,1.29E2,2.12E2,1.3E1,3E0,5E0,9E0,7.7E1,5.2E1,1.59E2,5.3E1,3E0,1E1,3E0,2E0,8E0,1E0,6.7E1,1E1,3E1,2.2E1,6.4E1,9.5E1,1E0,5.2E1,1E0,2E0,1E0,9E0,1E0,2E0,5E0,3E0,5E0,6.2E1,1E0,9E0,2.6E1,4E0,4E0,1.8E1,5.6E1,8E0,2E1,7.5E1,4.9E1,3E0,4E0,1E0,2E0,1E0,3E0,2E0,6E1,2E0,6E0,3E0,8E0,1.8E1,3E0,1E0,1.6E1,2E0,3E1,2.6E1,1E0,7E0,9E0,1.1E1,1E0,7.4E1,6E0,4.3E1],"tree_param":{"num_deleted":"0","num_feature":"141","num_nodes":"77","size_leaf_vector":"1"}},{"base_weights":[-9.815158E-2,-8.0587834E-1,4.822456E-1,3.552106E-1,-2.2181387E0,6.247557E-1,-6.315216E-1,7.1053994E-1,-5.5848914E-1,-1.6504623E0,-4.385691E0,7.8342205E-1,2.1291023E-2,-3.9942646E-1,-1.550451E-1,-3.248747E-2,7.801078E-1,-1.9167696E0,-1.0092315E-1,-1.0080185E0,-2.575358E0,-2.2996378E-1,-2.9547978E-2,-8.9159775E-1,8.464608E-1,-7.5036013E-1,1.2499277E-1,-7.1902686E-1,3.2965276E-1,8.249435E-1,-2.3315605E-2,-1.4001481E-1,-1.0033E0,-6.107191E-1,3.7480006E-1,-6.506077E-1,-2.3563359E0,-3.162207E0,-1.1155092E0,2.0972022E-1,-1.599547E-1,-7.4515104E-1,9.07751E-1,-9.534717E-4,-4.642077E-2,2.263255E-2,4.4093207E-1,-1.0437874E0,-1.0597086E-1,5.7498015E-2,-1.3544314E-1,4.2805605E-2,1.3673198E-2,-1.3506281E-2,-5.5953104E-2,-3.7059523E-2,1.7349863E-2,-1.9709682E-3,2.934186E-2,-7.030486E-2,-9.962999E-4,-1.7099519E-1,-5.1710725E-2,-2.0037368E-1,-4.0188055E-2,-7.033939E-2,-1.9985694E-2,3.5124026E-2,-1.7647339E-2,-2.3707033E-3,-7.135417E-2,5.2256133E-2,1.6821837E-2,2.6083568E-2,-2.7506568E-3,3.7500143E-2,1.2274142E-2,9.473054E-3,-6.694469E-2,1.659258E-2,-2.5865031E-2,-3.0201016E-2,1.2492525E-2],"categories":[],"categories_nodes":[],"categories_segments":[],"categories_sizes":[],"default_left":[0,0,0,0,0,0,0,0,0,0,0,0,0,0,0,0,0,0,0,0,0,0,0,0,0,0,0,0,0,0,0,0,0,0,0,0,0,0,0,0,0,0,0,0,0,0,0,0,0,0,0,0,0,0,0,0,0,0,0,0,0,0,0,0,0,0,0,0,0,0,0,0,0,0,0,0,0,0,0,0,0,0,0],"id":18,"left_children":[1,3,5,7,9,11,13,15,17,19,21,23,25,27,-1,-1,29,31,33,35,37,-1,-1,39,41,43,45,47,49,51,-1,-1,53,55,57,59,61,63,65,67,-1,69,71,-1,-1,73,75,77,79,-1,81,-1,-1,-1,-1,-1,-1,-1,-1,-1,-1,-1,-1,-1,-1,-1,-1,-1,-1,-1,-1,-1,-1,-1,-1,-1,-1,-1,-1,-1,-1,-1,-1],"loss_changes":[1.6140758E2,2.9102542E2,3.4678722E1,3.2213932E1,9.1199066E1,1.8367233E1,1.3089698E1,7.2257843E0,1.720864E1,3.6026566E1,1.02499695E1,1.6804565E1,3.3746738E0,5.8293657E0,0E0,0E0,4.1847954E0,2.839983E0,5.5643764E0,1.7743076E1,1.874701E1,0E0,0E0,1.5918636E1,1.5016289E1,6.3334656E-1,1.1865864E0,3.2740269E0,3.2079277E0,9.0034485E-1,0E0,0E0,1.2208176E-1,1.6316905E0,1.0770915E0,1.5695608E1,7.712414E0,3.266223E1,1.3141499E0,1.6342378E0,0E0,2.7871926E0,1.0792885E1,0E0,0E0,1.1523968E0,3.5955596E-1,4.2570047E0,1.4322928E0,0E0,1.2341536E0,0E0,0E0,0E0,0E0,0E0,0E0,0E0,0E0,0E0,0E0,0E0,0E0,0E0,0E0,0E0,0E0,0E0,0E0,0E0,0E0,0E0,0E0,0E0,0E0,0E0,0E0,0E0,0E0,0E0,0E0,0E0,0E0],"parents":[2147483647,0,0,1,1,2,2,3,3,4,4,5,5,6,6,7,7,8,8,9,9,10,10,11,11,12,12,13,13,16,16,17,17,18,18,19,19,20,20,23,23,24,24,25,25,26,26,27,27,28,28,29,29,32,32,33,33,34,34,35,35,36,36,37,37,38,38,39,39,41,41,42,42,45,45,46,46,47,47,48,48,50,50],"right_children":[2,4,6,8,10,12,14,16,18,20,22,24,26,28,-1,-1,30,32,34,36,38,-1,-1,40,42,44,46,48,50,52,-1,-1,54,56,58,60,62,64,66,68,-1,70,72,-1,-1,74,76,78,80,-1,82,-1,-1,-1,-1,-1,-1,-1,-1,-1,-1,-1,-1,-1,-1,-1,-1,-1,-1,-1,-1,-1,-1,-1,-1,-1,-1,-1,-1,-1,-1,-1,-1],"split_conditions":[1.0486707E2,8.2903045E-1,1.5E1,1.1384615E1,1.04612E1,1.6527273E1,1.3211E2,1.5E1,1.1851852E0,7.984E0,1.0285714E2,2.5555556E0,6.0555E0,4.2E1,-1.550451E-1,-3.248747E-2,8.087574E-1,4.8E-1,2.3195E1,7.1099E0,1.0432734E0,-2.2996378E-1,-2.9547978E-2,3.8E1,1.68E0,1.2292415E1,1.29237E1,7.2E1,7.70829E0,7.857414E-1,-2.3315605E-2,-1.4001481E-1,6.775E1,6.35E-6,8.824E0,3.2E1,1.78125E0,2.6784112E0,1.0283348E1,1.6E1,-1.599547E-1,6.5985E0,3.724E1,-9.534717E-4,-4.642077E-2,1.293217E1,5.107751E-1,5.444E2,6.16E1,5.7498015E-2,1.3088235E1,4.2805605E-2,1.3673198E-2,-1.3506281E-2,-5.5953104E-2,-3.7059523E-2,1.7349863E-2,-1.9709682E-3,2.934186E-2,-7.030486E-2,-9.962999E-4,-1.7099519E-1,-5.1710725E-2,-2.0037368E-1,-4.0188055E-2,-7.033939E-2,-1.9985694E-2,3.5124026E-2,-1.7647339E-2,-2.3707033E-3,-7.135417E-2,5.2256133E-2,1.6821837E-2,2.6083568E-2,-2.7506568E-3,3.7500143E-2,1.2274142E-2,9.473054E-3,-6.694469E-2,1.659258E-2,-2.5865031E-2,-3.0201016E-2,1.2492525E-2],"split_indices":[39,46,126,3,134,3,138,1,76,135,39,33,135,38,0,0,46,88,109,134,46,0,0,1,58,4,135,132,133,46,0,0,9,122,134,1,58,45,27,1,0,135,109,0,0,4,64,19,9,0,3,0,0,0,0,0,0,0,0,0,0,0,0,0,0,0,0,0,0,0,0,0,0,0,0,0,0,0,0,0,0,0,0],"split_type":[0,0,0,0,0,0,0,0,0,0,0,0,0,0,0,0,0,0,0,0,0,0,0,0,0,0,0,0,0,0,0,0,0,0,0,0,0,0,0,0,0,0,0,0,0,0,0,0,0,0,0,0,0,0,0,0,0,0,0,0,0,0,0,0,0,0,0,0,0,0,0,0,0,0,0,0,0,0,0,0,0,0,0],"sum_hessian":[3.91E2,1.76E2,2.15E2,9.7E1,7.9E1,1.91E2,2.4E1,7E1,2.7E1,6.4E1,1.5E1,1.51E2,4E1,2.3E1,1E0,3E0,6.7E1,6E0,2.1E1,3.9E1,2.5E1,1.4E1,1E0,5E0,1.46E2,4E0,3.6E1,1.6E1,7E0,6.5E1,2E0,2E0,4E0,1E1,1.1E1,3.2E1,7E0,1.7E1,8E0,4E0,1E0,5E0,1.41E2,1E0,3E0,2.8E1,8E0,1E1,6E0,2E0,5E0,6.1E1,4E0,1E0,3E0,9E0,1E0,4E0,7E0,1.4E1,1.8E1,3E0,4E0,1.2E1,5E0,5E0,3E0,2E0,2E0,3E0,2E0,1.13E2,2.8E1,3E0,2.5E1,2E0,6E0,2E0,8E0,3E0,3E0,2E0,3E0],"tree_param":{"num_deleted":"0","num_feature":"141","num_nodes":"83","size_leaf_vector":"1"}},{"base_weights":[2.1575948E-2,-8.5302615E-1,4.368442E-1,-3.051779E0,-3.9645487E-1,-2.6026096E0,5.693629E-1,-3.863198E0,-3.793653E-1,7.5975245E-1,-8.820161E-1,-2.0511125E-1,-6.692261E-1,1.1527822E0,3.4380874E-1,-4.0989275E0,-8.181489E-3,-3.195912E-2,2.2993004E-2,-4.579195E-1,1.0115324E0,-2.0397413E-1,-6.867035E-1,-8.974671E-3,-6.63243E-2,1.2071581E0,2.1533951E-1,5.0728846E-1,-3.061471E-1,-5.3534936E-2,-4.238751E0,6.775367E-2,-5.0308865E-2,-2.166648E-2,1.08666E0,-1.3493153E0,-1.5601178E-1,-1.3028002E-2,8.087023E-3,7.82742E-2,1.0683506E0,2.2276936E-2,-1.7636431E-2,-1.4820437E-1,6.6542524E-1,-1.5623187E0,-6.104783E-2,-6.237216E-2,-2.1864472E-1,8.774722E-3,-1.3329029E-3,5.795127E-2,-1.6252745E-2,-3.0880466E-2,-1.09685026E-1,-8.787404E-2,1.0668271E-3,4.3774724E-2,6.28341E-2,-1.0242858E-1,-3.5854193E-4,-3.3447456E-2,3.7179008E-2,-4.6934485E-3,-9.186174E-2,6.851089E-3,-4.710932E-2],"categories":[],"categories_nodes":[],"categories_segments":[],"categories_sizes":[],"default_left":[0,0,0,0,0,0,0,0,0,0,0,0,0,0,0,0,0,0,0,0,0,0,0,0,0,0,0,0,0,0,0,0,0,0,0,0,0,0,0,0,0,0,0,0,0,0,0,0,0,0,0,0,0,0,0,0,0,0,0,0,0,0,0,0,0,0,0],"id":19,"left_children":[1,3,5,7,9,11,13,15,17,19,21,-1,23,25,27,29,-1,-1,-1,31,33,-1,35,37,-1,39,41,43,45,-1,47,49,-1,-1,51,53,55,-1,-1,-1,57,-1,-1,59,61,63,65,-1,-1,-1,-1,-1,-1,-1,-1,-1,-1,-1,-1,-1,-1,-1,-1,-1,-1,-1,-1],"loss_changes":[1.3874973E2,1.22268265E2,1.0580299E2,4.407184E1,5.8495285E1,2.9147324E1,3.2370224E1,1.3282822E1,1.602205E0,9.967348E0,4.2787506E1,0E0,2.5918355E0,3.2572708E0,1.9387386E1,1.8128357E0,0E0,0E0,0E0,1.7973987E0,3.2931595E0,0E0,2.4404476E1,2.1394081E-1,0E0,1.5605087E0,8.109983E-1,1.512896E1,1.12964325E1,0E0,1.6275024E-1,4.536631E-2,0E0,0E0,2.9307327E0,1.7798248E1,1.1398211E1,0E0,0E0,0E0,7.158241E-1,0E0,0E0,7.75776E0,1.2699097E1,2.2497416E0,5.713957E0,0E0,0E0,0E0,0E0,0E0,0E0,0E0,0E0,0E0,0E0,0E0,0E0,0E0,0E0,0E0,0E0,0E0,0E0,0E0,0E0],"parents":[2147483647,0,0,1,1,2,2,3,3,4,4,5,5,6,6,7,7,8,8,9,9,10,10,12,12,13,13,14,14,15,15,19,19,20,20,22,22,23,23,25,25,26,26,27,27,28,28,30,30,31,31,34,34,35,35,36,36,40,40,43,43,44,44,45,45,46,46],"right_children":[2,4,6,8,10,12,14,16,18,20,22,-1,24,26,28,30,-1,-1,-1,32,34,-1,36,38,-1,40,42,44,46,-1,48,50,-1,-1,52,54,56,-1,-1,-1,58,-1,-1,60,62,64,66,-1,-1,-1,-1,-1,-1,-1,-1,-1,-1,-1,-1,-1,-1,-1,-1,-1,-1,-1,-1],"split_conditions":[9.80192E0,9.551219E1,7.70829E0,3.5511112E-1,4.1791E0,1.2444445E0,1.1710059E1,3.42E1,1.5E1,2.5555555E1,4.945E0,-2.0511125E-1,1.1526653E1,1.1249324E0,4.513889E-1,6.1639E0,-8.181489E-3,-3.195912E-2,2.2993004E-2,4.0315193E1,1.1088386E0,-2.0397413E-1,4.642857E-1,4.8E1,-6.63243E-2,8.7149E0,4.1679012E1,1.289E1,8.383E0,-5.3534936E-2,2.3588889E0,1.816842E1,-5.0308865E-2,-2.166648E-2,9.5E1,2.92E1,2.044E1,-1.3028002E-2,8.087023E-3,7.82742E-2,1.178048E1,2.2276936E-2,-1.7636431E-2,4.2E1,6.2E1,2.5898328E2,2.1995E1,-6.237216E-2,-2.1864472E-1,8.774722E-3,-1.3329029E-3,5.795127E-2,-1.6252745E-2,-3.0880466E-2,-1.09685026E-1,-8.787404E-2,1.0668271E-3,4.3774724E-2,6.28341E-2,-1.0242858E-1,-3.5854193E-4,-3.3447456E-2,3.7179008E-2,-4.6934485E-3,-9.186174E-2,6.851089E-3,-4.710932E-2],"split_indices":[135,39,133,117,134,64,40,40,1,10,133,0,27,88,118,134,0,0,0,15,76,0,63,1,0,134,10,135,134,0,45,3,0,0,7,40,109,0,0,0,3,0,0,1,132,22,135,0,0,0,0,0,0,0,0,0,0,0,0,0,0,0,0,0,0,0,0],"split_type":[0,0,0,0,0,0,0,0,0,0,0,0,0,0,0,0,0,0,0,0,0,0,0,0,0,0,0,0,0,0,0,0,0,0,0,0,0,0,0,0,0,0,0,0,0,0,0,0,0,0,0,0,0,0,0,0,0,0,0,0,0,0,0,0,0,0,0],"sum_hessian":[3.8E2,1.22E2,2.58E2,2E1,1.02E2,1E1,2.48E2,1.5E1,5E0,3E1,7.2E1,5E0,5E0,6.8E1,1.8E2,1.4E1,1E0,4E0,1E0,5E0,2.5E1,3E0,6.9E1,3E0,2E0,6.4E1,4E0,1.44E2,3.6E1,1E0,1.3E1,3E0,2E0,1E0,2.4E1,3E1,3.9E1,1E0,2E0,1.5E1,4.9E1,3E0,1E0,2.8E1,1.16E2,5E0,3.1E1,1E0,1.2E1,1E0,2E0,2.3E1,1E0,1.7E1,1.3E1,3E0,3.6E1,2.7E1,2.2E1,1E0,2.7E1,6E0,1.1E2,1E0,4E0,2.6E1,5E0],"tree_param":{"num_deleted":"0","num_feature":"141","num_nodes":"67","size_leaf_vector":"1"}},{"base_weights":[-7.140879E-2,-7.750344E-1,2.971742E-1,-3.0329537E0,-3.523034E-1,-3.073907E0,4.3245208E-1,-3.6189142E-1,-3.8450425E0,6.7061263E-1,-7.25614E-1,-1.948611E-1,-8.646295E-1,5.2785236E-1,-9.778799E-1,-6.1361516E-1,2.2418177E-2,-4.7514465E-2,-3.9746735E0,9.70529E-1,-3.1296325E-1,-1.4091938E0,-2.3259592E-1,-1.2702298E-2,-4.917377E-2,5.9289837E-1,-1.3675492E0,-1.2097245E-1,-1.7591797E-1,-3.3772495E-2,-9.156907E-3,-5.2196573E-2,-4.1094456E0,1.1046575E0,-3.3658934E-1,3.2226723E-1,-5.143803E-2,-2.0527852E0,-8.238608E-1,-1.9462954E0,4.532436E-2,1.0462314E0,4.1790116E-1,-1.9396294E0,2.3246114E-1,-5.06407E-1,4.131024E-1,-6.0812857E-2,-2.1192203E-1,5.864094E-2,1.4101498E-2,-4.1193846E-3,-2.1124816E-2,2.8144082E-2,-1.2884777E-3,-1.2295574E-1,-3.3351865E-2,7.3262537E-3,-4.699109E-2,-2.2820553E-2,-1.2254834E-1,2.0681046E-2,-3.471452E-2,6.717427E-2,3.7214827E-2,-8.174854E-3,3.003027E-2,-7.488978E-3,-1.13382176E-1,-4.9279927E-4,1.7927384E-2,-3.139967E-2,-1.1391115E-2,3.963697E-2,8.931356E-3],"categories":[],"categories_nodes":[],"categories_segments":[],"categories_sizes":[],"default_left":[0,0,0,0,0,0,0,0,0,0,0,0,0,0,0,0,0,0,0,0,0,0,0,0,0,0,0,0,0,0,0,0,0,0,0,0,0,0,0,0,0,0,0,0,0,0,0,0,0,0,0,0,0,0,0,0,0,0,0,0,0,0,0,0,0,0,0,0,0,0,0,0,0,0,0],"id":20,"left_children":[1,3,5,7,9,11,13,15,17,19,21,-1,23,25,27,29,-1,-1,31,33,35,37,39,-1,-1,41,43,45,-1,-1,-1,-1,47,49,51,53,-1,55,57,59,61,63,65,67,69,71,73,-1,-1,-1,-1,-1,-1,-1,-1,-1,-1,-1,-1,-1,-1,-1,-1,-1,-1,-1,-1,-1,-1,-1,-1,-1,-1,-1,-1],"loss_changes":[1.0111531E2,1.2683348E2,1.180737E2,4.416046E1,4.4019264E1,1.4819649E1,3.3749046E1,1.4988849E0,2.2269135E0,9.448447E0,2.7981667E1,0E0,4.041338E-2,2.9413727E1,3.4405663E1,9.391546E-3,0E0,0E0,1.6347504E0,4.5795364E0,3.9691062E0,1.1493828E1,2.3901806E1,0E0,0E0,1.7412476E1,7.7735643E0,2.8852596E0,0E0,0E0,0E0,0E0,6.983948E-2,9.027996E-1,3.0704618E-2,4.3321848E-1,0E0,7.368805E0,2.3882456E0,4.1446667E0,1.2272666E1,4.564636E0,1.7518919E1,3.182928E0,9.5192626E-2,1.2790585E-1,3.9248824E-1,0E0,0E0,0E0,0E0,0E0,0E0,0E0,0E0,0E0,0E0,0E0,0E0,0E0,0E0,0E0,0E0,0E0,0E0,0E0,0E0,0E0,0E0,0E0,0E0,0E0,0E0,0E0,0E0],"parents":[2147483647,0,0,1,1,2,2,3,3,4,4,5,5,6,6,7,7,8,8,9,9,10,10,12,12,13,13,14,14,15,15,18,18,19,19,20,20,21,21,22,22,25,25,26,26,27,27,32,32,33,33,34,34,35,35,37,37,38,38,39,39,40,40,41,41,42,42,43,43,44,44,45,45,46,46],"right_children":[2,4,6,8,10,12,14,16,18,20,22,-1,24,26,28,30,-1,-1,32,34,36,38,40,-1,-1,42,44,46,-1,-1,-1,-1,48,50,52,54,-1,56,58,60,62,64,66,68,70,72,74,-1,-1,-1,-1,-1,-1,-1,-1,-1,-1,-1,-1,-1,-1,-1,-1,-1,-1,-1,-1,-1,-1,-1,-1,-1,-1,-1,-1],"split_conditions":[9.80192E0,9.45E1,5.2943E0,2.253012E0,4.1791E0,1.1470002E1,7.876408E0,1.5E1,4.859649E0,1.1351352E1,3E1,-1.948611E-1,1.3526316E1,1.4910948E-2,6.16E1,1.4E1,2.2418177E-2,-4.7514465E-2,6.1639E0,2E0,9.126E-1,1.3043479E0,8.424195E-3,-1.2702298E-2,-4.917377E-2,1.1710059E1,4.1E1,4.7222076E1,-1.7591797E-1,-3.3772495E-2,-9.156907E-3,-5.2196573E-2,2.3588889E0,7.785E0,6E1,6.926667E1,-5.143803E-2,2.16E2,3.3427078E2,4.682707E1,3.1480158E1,9.85E0,1.28566E1,2.3E1,1.27937E1,1.7142857E0,7.2E1,-6.0812857E-2,-2.1192203E-1,5.864094E-2,1.4101498E-2,-4.1193846E-3,-2.1124816E-2,2.8144082E-2,-1.2884777E-3,-1.2295574E-1,-3.3351865E-2,7.3262537E-3,-4.699109E-2,-2.2820553E-2,-1.2254834E-1,2.0681046E-2,-3.471452E-2,6.717427E-2,3.7214827E-2,-8.174854E-3,3.003027E-2,-7.488978E-3,-1.13382176E-1,-4.9279927E-4,1.7927384E-2,-3.139967E-2,-1.1391115E-2,3.963697E-2,8.931356E-3],"split_indices":[135,39,133,57,134,27,112,1,16,27,1,0,3,140,9,1,0,0,134,97,46,87,140,0,0,40,1,16,0,0,0,0,45,135,1,9,0,132,21,9,16,134,135,1,133,94,1,0,0,0,0,0,0,0,0,0,0,0,0,0,0,0,0,0,0,0,0,0,0,0,0,0,0,0,0],"split_type":[0,0,0,0,0,0,0,0,0,0,0,0,0,0,0,0,0,0,0,0,0,0,0,0,0,0,0,0,0,0,0,0,0,0,0,0,0,0,0,0,0,0,0,0,0,0,0,0,0,0,0,0,0,0,0,0,0,0,0,0,0,0,0,0,0,0,0,0,0,0,0,0,0,0,0],"sum_hessian":[3.88E2,1.33E2,2.55E2,2E1,1.13E2,9E0,2.46E2,5E0,1.5E1,3E1,8.3E1,6E0,3E0,2.31E2,1.5E1,4E0,1E0,1E0,1.4E1,2.3E1,7E0,3.4E1,4.9E1,1E0,2E0,2.24E2,7E0,1.2E1,3E0,3E0,1E0,1E0,1.3E1,2.1E1,2E0,4E0,3E0,1.5E1,1.9E1,6E0,4.3E1,6.1E1,1.63E2,5E0,2E0,7E0,5E0,1E0,1.2E1,1.9E1,2E0,1E0,1E0,2E0,2E0,1.1E1,4E0,2E0,1.7E1,2E0,4E0,2.9E1,1.4E1,2.9E1,3.2E1,3.9E1,1.24E2,1E0,4E0,1E0,1E0,4E0,3E0,1E0,4E0],"tree_param":{"num_deleted":"0","num_feature":"141","num_nodes":"75","size_leaf_vector":"1"}},{"base_weights":[-7.1853146E-2,-1.9686421E0,1.2069968E-1,-3.4910207E0,-6.180598E-2,2.3752633E-1,-1.5004314E0,-3.9841537E0,-2.6122486E-2,-6.6654664E-1,3.286477E-1,-5.263417E-1,4.3993407E-1,-8.063277E-1,-1.7241773E-1,-4.150985E0,-3.287139E-2,-4.491459E-2,-5.8122475E-2,4.9158794E-1,-3.2518864E-2,-1.3535206E-1,-3.1694877E-1,5.319195E-1,-2.215201E0,-1.7039111E0,1.3611533E-3,-4.632659E-2,-2.1520899E-1,-7.301748E-3,2.942562E-3,7.469979E-1,8.677836E-2,-1.9710852E-1,-1.3639723E-1,5.642469E-1,-2.3716662E0,-1.7244768E-1,-1.6039182E-1,-7.197544E-1,-2.3472855E0,6.8773615E-1,-4.799181E-2,4.1156393E-2,9.158707E-3,1.2556905E-2,-1.4266515E-2,-3.004822E-2,2.0036174E-2,5.185131E-2,1.9933272E-2,-2.8015316E-2,-1.4985965E-1,3.6433697E-2,-3.578564E-2,-5.674577E-3,-4.2147364E-2,-1.5241142E-1,-4.319571E-2,1.3752918E-2,5.7314355E-2],"categories":[],"categories_nodes":[],"categories_segments":[],"categories_sizes":[],"default_left":[0,0,0,0,0,0,0,0,0,0,0,0,0,0,0,0,0,0,0,0,0,0,0,0,0,0,0,0,0,0,0,0,0,0,0,0,0,0,0,0,0,0,0,0,0,0,0,0,0,0,0,0,0,0,0,0,0,0,0,0,0],"id":21,"left_children":[1,3,5,7,9,11,13,15,-1,17,19,21,23,25,-1,27,-1,-1,29,31,-1,-1,33,35,37,39,41,-1,-1,-1,-1,43,45,47,-1,49,51,53,-1,55,57,59,-1,-1,-1,-1,-1,-1,-1,-1,-1,-1,-1,-1,-1,-1,-1,-1,-1,-1,-1],"loss_changes":[1.4267812E2,1.042896E2,6.759031E1,2.7196503E1,4.233154E0,5.1563004E1,2.9668953E1,6.706024E0,0E0,9.347842E-1,2.0744655E0,3.1105612E1,6.5411766E1,1.3776711E1,0E0,3.9155579E0,0E0,0E0,3.944469E-2,9.691007E-1,0E0,0E0,1.8243032E1,2.5273903E1,1.7696198E1,4.009165E0,7.9172735E0,0E0,0E0,0E0,0E0,1.06767654E-1,3.7745574E-1,1.5451411E1,0E0,1.9392296E1,1.7198143E0,2.4797134E0,0E0,2.7776885E-1,2.565382E0,1.0093408E0,0E0,0E0,0E0,0E0,0E0,0E0,0E0,0E0,0E0,0E0,0E0,0E0,0E0,0E0,0E0,0E0,0E0,0E0,0E0],"parents":[2147483647,0,0,1,1,2,2,3,3,4,4,5,5,6,6,7,7,9,9,10,10,11,11,12,12,13,13,15,15,18,18,19,19,22,22,23,23,24,24,25,25,26,26,31,31,32,32,33,33,35,35,36,36,37,37,39,39,40,40,41,41],"right_children":[2,4,6,8,10,12,14,16,-1,18,20,22,24,26,-1,28,-1,-1,30,32,-1,-1,34,36,38,40,42,-1,-1,-1,-1,44,46,48,-1,50,52,54,-1,56,58,60,-1,-1,-1,-1,-1,-1,-1,-1,-1,-1,-1,-1,-1,-1,-1,-1,-1,-1,-1],"split_conditions":[-6.0907974E0,1.20796E1,6.300067E2,6.143263E2,1.68E2,8.8E1,1.8875545E0,1.1178723E2,-2.6122486E-2,2.0475E1,1.29727E1,7.676576E-3,1.4285715E0,6.8835645E2,-1.7241773E-1,4.859649E0,-3.287139E-2,-4.491459E-2,2.3E1,7.3E1,-3.2518864E-2,-1.3535206E-1,2.4196599E0,1.4285715E0,7E0,3.576E1,1.9230769E0,-4.632659E-2,