{"learner":{"attributes":{"scikit_learn":"{\"_estimator_type\": \"regressor\"}"},"feature_names":["MagpieData minimum Number","MagpieData maximum Number","MagpieData range Number","MagpieData mean Number","MagpieData avg_dev Number","MagpieData mode Number","MagpieData minimum MendeleevNumber","MagpieData maximum MendeleevNumber","MagpieData range MendeleevNumber","MagpieData mean MendeleevNumber","MagpieData avg_dev MendeleevNumber","MagpieData mode MendeleevNumber","MagpieData minimum AtomicWeight","MagpieData maximum AtomicWeight","MagpieData range AtomicWeight","MagpieData mean AtomicWeight","MagpieData avg_dev AtomicWeight","MagpieData mode AtomicWeight","MagpieData minimum MeltingT","MagpieData maximum MeltingT","MagpieData range MeltingT","MagpieData mean MeltingT","MagpieData avg_dev MeltingT","MagpieData mode MeltingT","MagpieData minimum Column","MagpieData maximum Column","MagpieData range Column","MagpieData mean Column","MagpieData avg_dev Column","MagpieData mode Column","MagpieData minimum Row","MagpieData maximum Row","MagpieData range Row","MagpieData mean Row","MagpieData avg_dev Row","MagpieData mode Row","MagpieData minimum CovalentRadius","MagpieData maximum CovalentRadius","MagpieData range CovalentRadius","MagpieData mean CovalentRadius","MagpieData avg_dev CovalentRadius","MagpieData mode CovalentRadius","MagpieData minimum Electronegativity","MagpieData maximum Electronegativity","MagpieData range Electronegativity","MagpieData mean Electronegativity","MagpieData avg_dev Electronegativity","MagpieData mode Electronegativity","MagpieData minimum NsValence","MagpieData maximum NsValence","MagpieData range NsValence","MagpieData mean NsValence","MagpieData avg_dev NsValence","MagpieData mode NsValence","MagpieData minimum NpValence","MagpieData maximum NpValence","MagpieData range NpValence","MagpieData mean NpValence","MagpieData avg_dev NpValence","MagpieData mode NpValence","MagpieData minimum NdValence","MagpieData maximum NdValence","MagpieData range NdValence","MagpieData mean NdValence","MagpieData avg_dev NdValence","MagpieData mode NdValence","MagpieData minimum NfValence","MagpieData maximum NfValence","MagpieData range NfValence","MagpieData mean NfValence","MagpieData avg_dev NfValence","MagpieData mode NfValence","MagpieData minimum NValence","MagpieData maximum NValence","MagpieData range NValence","MagpieData mean NValence","MagpieData avg_dev NValence","MagpieData mode NValence","MagpieData minimum NsUnfilled","MagpieData maximum NsUnfilled","MagpieData range NsUnfilled","MagpieData mean NsUnfilled","MagpieData avg_dev NsUnfilled","MagpieData mode NsUnfilled","MagpieData minimum NpUnfilled","MagpieData maximum NpUnfilled","MagpieData range NpUnfilled","MagpieData mean NpUnfilled","MagpieData avg_dev NpUnfilled","MagpieData mode NpUnfilled","MagpieData minimum NdUnfilled","MagpieData maximum NdUnfilled","MagpieData range NdUnfilled","MagpieData mean NdUnfilled","MagpieData avg_dev NdUnfilled","MagpieData mode NdUnfilled","MagpieData minimum NfUnfilled","MagpieData maximum NfUnfilled","MagpieData range NfUnfilled","MagpieData mean NfUnfilled","MagpieData avg_dev NfUnfilled","MagpieData mode NfUnfilled","MagpieData minimum NUnfilled","MagpieData maximum NUnfilled","MagpieData range NUnfilled","MagpieData mean NUnfilled","MagpieData avg_dev NUnfilled","MagpieData mode NUnfilled","MagpieData minimum GSvolume_pa","MagpieData maximum GSvolume_pa","MagpieData range GSvolume_pa","MagpieData mean GSvolume_pa","MagpieData avg_dev GSvolume_pa","MagpieData mode GSvolume_pa","MagpieData minimum GSbandgap","MagpieData maximum GSbandgap","MagpieData range GSbandgap","MagpieData mean GSbandgap","MagpieData avg_dev GSbandgap","MagpieData mode GSbandgap","MagpieData minimum GSmagmom","MagpieData maximum GSmagmom","MagpieData range GSmagmom","MagpieData mean GSmagmom","MagpieData avg_dev GSmagmom","MagpieData mode GSmagmom","MagpieData minimum SpaceGroupNumber","MagpieData maximum SpaceGroupNumber","MagpieData range SpaceGroupNumber","MagpieData mean SpaceGroupNumber","MagpieData avg_dev SpaceGroupNumber","MagpieData mode SpaceGroupNumber","space_group_num","a","b","c","alpha","beta","gamma"],"feature_types":["float","float","float","float","float","float","float","float","float","float","float","float","float","float","float","float","float","float","float","float","float","float","float","float","float","float","float","float","float","float","float","float","float","float","float","float","float","float","float","float","float","float","float","float","float","float","float","float","float","float","float","float","float","float","float","float","float","float","float","float","float","float","float","float","float","float","float","float","float","float","float","float","float","float","float","float","float","float","float","float","float","float","float","float","float","float","float","float","float","float","float","float","float","float","float","float","float","float","float","float","float","float","float","float","float","float","float","float","float","float","float","float","float","float","float","float","float","float","float","float","float","float","float","float","float","float","float","float","float","float","float","float","int","float","float","float","float","float","float"],"gradient_booster":{"model":{"cats":{"enc":[],"feature_segments":[],"sorted_idx":[]},"gbtree_model_param":{"num_parallel_tree":"1","num_trees":"700"},"iteration_indptr":[0,1,2,3,4,5,6,7,8,9,10,11,12,13,14,15,16,17,18,19,20,21,22,23,24,25,26,27,28,29,30,31,32,33,34,35,36,37,38,39,40,41,42,43,44,45,46,47,48,49,50,51,52,53,54,55,56,57,58,59,60,61,62,63,64,65,66,67,68,69,70,71,72,73,74,75,76,77,78,79,80,81,82,83,84,85,86,87,88,89,90,91,92,93,94,95,96,97,98,99,100,101,102,103,104,105,106,107,108,109,110,111,112,113,114,115,116,117,118,119,120,121,122,123,124,125,126,127,128,129,130,131,132,133,134,135,136,137,138,139,140,141,142,143,144,145,146,147,148,149,150,151,152,153,154,155,156,157,158,159,160,161,162,163,164,165,166,167,168,169,170,171,172,173,174,175,176,177,178,179,180,181,182,183,184,185,186,187,188,189,190,191,192,193,194,195,196,197,198,199,200,201,202,203,204,205,206,207,208,209,210,211,212,213,214,215,216,217,218,219,220,221,222,223,224,225,226,227,228,229,230,231,232,233,234,235,236,237,238,239,240,241,242,243,244,245,246,247,248,249,250,251,252,253,254,255,256,257,258,259,260,261,262,263,264,265,266,267,268,269,270,271,272,273,274,275,276,277,278,279,280,281,282,283,284,285,286,287,288,289,290,291,292,293,294,295,296,297,298,299,300,301,302,303,304,305,306,307,308,309,310,311,312,313,314,315,316,317,318,319,320,321,322,323,324,325,326,327,328,329,330,331,332,333,334,335,336,337,338,339,340,341,342,343,344,345,346,347,348,349,350,351,352,353,354,355,356,357,358,359,360,361,362,363,364,365,366,367,368,369,370,371,372,373,374,375,376,377,378,379,380,381,382,383,384,385,386,387,388,389,390,391,392,393,394,395,396,397,398,399,400,401,402,403,404,405,406,407,408,409,410,411,412,413,414,415,416,417,418,419,420,421,422,423,424,425,426,427,428,429,430,431,432,433,434,435,436,437,438,439,440,441,442,443,444,445,446,447,448,449,450,451,452,453,454,455,456,457,458,459,460,461,462,463,464,465,466,467,468,469,470,471,472,473,474,475,476,477,478,479,480,481,482,483,484,485,486,487,488,489,490,491,492,493,494,495,496,497,498,499,500,501,502,503,504,505,506,507,508,509,510,511,512,513,514,515,516,517,518,519,520,521,522,523,524,525,526,527,528,529,530,531,532,533,534,535,536,537,538,539,540,541,542,543,544,545,546,547,548,549,550,551,552,553,554,555,556,557,558,559,560,561,562,563,564,565,566,567,568,569,570,571,572,573,574,575,576,577,578,579,580,581,582,583,584,585,586,587,588,589,590,591,592,593,594,595,596,597,598,599,600,601,602,603,604,605,606,607,608,609,610,611,612,613,614,615,616,617,618,619,620,621,622,623,624,625,626,627,628,629,630,631,632,633,634,635,636,637,638,639,640,641,642,643,644,645,646,647,648,649,650,651,652,653,654,655,656,657,658,659,660,661,662,663,664,665,666,667,668,669,670,671,672,673,674,675,676,677,678,679,680,681,682,683,684,685,686,687,688,689,690,691,692,693,694,695,696,697,698,699,700],"tree_info":[0,0,0,0,0,0,0,0,0,0,0,0,0,0,0,0,0,0,0,0,0,0,0,0,0,0,0,0,0,0,0,0,0,0,0,0,0,0,0,0,0,0,0,0,0,0,0,0,0,0,0,0,0,0,0,0,0,0,0,0,0,0,0,0,0,0,0,0,0,0,0,0,0,0,0,0,0,0,0,0,0,0,0,0,0,0,0,0,0,0,0,0,0,0,0,0,0,0,0,0,0,0,0,0,0,0,0,0,0,0,0,0,0,0,0,0,0,0,0,0,0,0,0,0,0,0,0,0,0,0,0,0,0,0,0,0,0,0,0,0,0,0,0,0,0,0,0,0,0,0,0,0,0,0,0,0,0,0,0,0,0,0,0,0,0,0,0,0,0,0,0,0,0,0,0,0,0,0,0,0,0,0,0,0,0,0,0,0,0,0,0,0,0,0,0,0,0,0,0,0,0,0,0,0,0,0,0,0,0,0,0,0,0,0,0,0,0,0,0,0,0,0,0,0,0,0,0,0,0,0,0,0,0,0,0,0,0,0,0,0,0,0,0,0,0,0,0,0,0,0,0,0,0,0,0,0,0,0,0,0,0,0,0,0,0,0,0,0,0,0,0,0,0,0,0,0,0,0,0,0,0,0,0,0,0,0,0,0,0,0,0,0,0,0,0,0,0,0,0,0,0,0,0,0,0,0,0,0,0,0,0,0,0,0,0,0,0,0,0,0,0,0,0,0,0,0,0,0,0,0,0,0,0,0,0,0,0,0,0,0,0,0,0,0,0,0,0,0,0,0,0,0,0,0,0,0,0,0,0,0,0,0,0,0,0,0,0,0,0,0,0,0,0,0,0,0,0,0,0,0,0,0,0,0,0,0,0,0,0,0,0,0,0,0,0,0,0,0,0,0,0,0,0,0,0,0,0,0,0,0,0,0,0,0,0,0,0,0,0,0,0,0,0,0,0,0,0,0,0,0,0,0,0,0,0,0,0,0,0,0,0,0,0,0,0,0,0,0,0,0,0,0,0,0,0,0,0,0,0,0,0,0,0,0,0,0,0,0,0,0,0,0,0,0,0,0,0,0,0,0,0,0,0,0,0,0,0,0,0,0,0,0,0,0,0,0,0,0,0,0,0,0,0,0,0,0,0,0,0,0,0,0,0,0,0,0,0,0,0,0,0,0,0,0,0,0,0,0,0,0,0,0,0,0,0,0,0,0,0,0,0,0,0,0,0,0,0,0,0,0,0,0,0,0,0,0,0,0,0,0,0,0,0,0,0,0,0,0,0,0,0,0,0,0,0,0,0,0,0,0,0,0,0,0,0,0,0,0,0,0,0,0,0,0,0,0,0,0,0,0,0,0,0,0,0,0,0,0,0,0,0,0,0,0,0,0,0,0,0,0,0,0,0,0,0,0,0,0,0,0,0,0,0,0,0,0,0,0,0,0,0,0,0,0,0,0,0,0,0,0,0,0,0,0,0,0,0,0,0,0,0,0,0,0,0,0,0,0,0,0,0,0,0,0,0,0,0,0,0,0,0,0,0,0,0,0,0,0,0,0,0,0,0,0,0,0,0,0,0,0],"trees":[{"base_weights":[-1.1124212E-2,-3.748121E0,4.8417392E-1,-8.0697435E-1,-6.1654525E0,-2.1405218E0,9.138121E-1,2.562755E-1,-1.2833948E-1,-7.6098104E0,-2.8203866E-2,-4.115676E-1,-4.8134214E-1,1.0920849E0,-2.0578615E-1,4.5140445E-2,-1.7073784E-2,-2.1465118E-1,-4.2438665E-1,-1.9408727E-1,4.1170838E-1,1.1938882E0,-1.8525086E-1,9.4124806E-1,-9.7579084E-2,2.1244218E0,8.353836E-1,2.405136E-2,8.147494E-2,1.0224587E-2,1.2256074E-1,-3.155399E-2,6.1712302E-2],"categories":[],"categories_nodes":[],"categories_segments":[],"categories_sizes":[],"default_left":[0,0,0,0,0,0,0,0,0,0,0,0,0,0,0,0,0,0,0,0,0,0,0,0,0,0,0,0,0,0,0,0,0],"id":0,"left_children":[1,3,5,7,9,11,13,15,-1,17,-1,-1,19,21,-1,-1,-1,-1,-1,-1,23,25,-1,27,-1,29,31,-1,-1,-1,-1,-1,-1],"loss_changes":[6.9591266E2,3.078526E2,3.763423E2,3.9951397E1,1.8987671E2,4.7100967E2,2.6093057E2,5.718813E0,0E0,1.8887817E1,0E0,0E0,1.1699395E2,1.3969946E2,0E0,0E0,0E0,0E0,0E0,0E0,4.0632053E1,8.896469E1,0E0,7.451597E0,0E0,4.6555176E1,1.1659253E2,0E0,0E0,0E0,0E0,0E0,0E0],"parents":[2147483647,0,0,1,1,2,2,3,3,4,4,5,5,6,6,7,7,9,9,12,12,13,13,20,20,21,21,23,23,25,25,26,26],"right_children":[2,4,6,8,10,12,14,16,-1,18,-1,-1,20,22,-1,-1,-1,-1,-1,-1,24,26,-1,28,-1,30,32,-1,-1,-1,-1,-1,-1],"split_conditions":[4.4444445E-1,1.6129032E0,1E0,4.9382716E-1,1.6E1,9.073724E-1,3.888889E-1,9.07563E0,-1.2833948E-1,1.2504073E1,-2.8203866E-2,-4.115676E-1,4.9E1,2.2707183E0,-2.0578615E-1,4.5140445E-2,-1.7073784E-2,-2.1465118E-1,-4.2438665E-1,-1.9408727E-1,1.4022148E0,1.0347576E2,-1.8525086E-1,6.9056E0,-9.7579084E-2,8.2234E0,8E0,2.405136E-2,8.147494E-2,1.0224587E-2,1.2256074E-1,-3.155399E-2,6.1712302E-2],"split_indices":[34,51,102,52,5,88,99,27,0,111,0,0,1,87,0,0,0,0,0,0,34,22,0,28,0,134,91,0,0,0,0,0,0],"split_type":[0,0,0,0,0,0,0,0,0,0,0,0,0,0,0,0,0,0,0,0,0,0,0,0,0,0,0,0,0,0,0,0,0],"sum_hessian":[3.74E2,4.3E1,3.31E2,2E1,2.3E1,4.6E1,2.85E2,1.3E1,7E0,1.8E1,5E0,9E0,3.7E1,2.76E2,9E0,6E0,7E0,5E0,1.3E1,7E0,3E1,2.71E2,5E0,2.5E1,5E0,7.4E1,1.97E2,1.6E1,9E0,1.1E1,6.3E1,4.2E1,1.55E2],"tree_param":{"num_deleted":"0","num_feature":"139","num_nodes":"33","size_leaf_vector":"1"}},{"base_weights":[1.5901423E-3,-1.4195586E0,9.938265E-1,-4.372089E0,9.384202E-1,-2.081375E0,1.1794636E0,-6.07177E0,-9.3219656E-1,1.5786011E0,-6.242582E-1,3.4012947E-2,-2.7083287E-1,-1.6167818E-1,1.302872E0,-2.9443018E0,-7.64161E0,-1.817564E0,2.7937987E-1,5.174329E-3,1.7061815E0,-1.05357766E-1,-1.708468E-1,-5.8198166E-1,1.521154E0,-1.8384604E-1,-4.941733E-2,-4.2319965E-1,-1.4707063E-1,-1.2369954E-1,-2.6499836E-2,-1.2486151E-2,3.8095977E-2,1.1500466E0,9.387096E-2,-5.379478E-1,4.182818E-2,-1.1944646E0,6.2519185E-2,1.9435927E0,3.8139054E-1,2.6788158E-2,6.902803E-2,-4.5200832E-2,1.1141821E-2,3.226117E-2,-1.2733842E-1,1.1840468E-1,7.725801E-2,2.9392121E-2,-4.0088415E-2],"categories":[],"categories_nodes":[],"categories_segments":[],"categories_sizes":[],"default_left":[0,0,0,0,0,0,0,0,0,0,0,0,0,0,0,0,0,0,0,0,0,0,0,0,0,0,0,0,0,0,0,0,0,0,0,0,0,0,0,0,0,0,0,0,0,0,0,0,0,0,0],"id":1,"left_children":[1,3,5,7,9,11,13,15,17,19,21,-1,-1,-1,23,25,27,29,31,-1,33,-1,35,37,39,-1,-1,-1,-1,-1,-1,-1,-1,41,-1,43,-1,45,-1,47,49,-1,-1,-1,-1,-1,-1,-1,-1,-1,-1],"loss_changes":[5.316142E2,1.0832134E3,1.2918834E2,3.9776367E2,8.801999E1,1.234255E2,1.1857977E2,2.0334338E2,2.6252361E1,1.1491562E1,1.7121422E1,0E0,0E0,0E0,8.522839E1,2.072644E1,9.106482E1,1.05215E1,2.998713E0,0E0,3.2690735E0,0E0,8.216276E0,2.6183971E1,8.7851135E1,0E0,0E0,0E0,0E0,0E0,0E0,0E0,0E0,1.5259628E0,0E0,4.6574383E0,0E0,4.3936127E1,0E0,1.9004974E1,1.2928844E1,0E0,0E0,0E0,0E0,0E0,0E0,0E0,0E0,0E0,0E0],"parents":[2147483647,0,0,1,1,2,2,3,3,4,4,5,5,6,6,7,7,8,8,9,9,10,10,14,14,15,15,16,16,17,17,18,18,20,20,22,22,23,23,24,24,33,33,35,35,37,37,39,39,40,40],"right_children":[2,4,6,8,10,12,14,16,18,20,22,-1,-1,-1,24,26,28,30,32,-1,34,-1,36,38,40,-1,-1,-1,-1,-1,-1,-1,-1,42,-1,44,-1,46,-1,48,50,-1,-1,-1,-1,-1,-1,-1,-1,-1,-1],"split_conditions":[1.0309612E2,1.82009E1,2.5786875E1,3.805668E-1,5.5E0,1.768E3,3.867E0,3.83E-1,9.4601E0,5.5670105E-2,1.082206E0,3.4012947E-2,-2.7083287E-1,-1.6167818E-1,7.885714E1,1.768E1,5.6777775E-1,1.0662648E2,4.6443667E0,5.174329E-3,1.2244898E0,-1.05357766E-1,8.837E0,3.205E1,3.7578228E1,-1.8384604E-1,-4.941733E-2,-4.2319965E-1,-1.4707063E-1,-1.2369954E-1,-2.6499836E-2,-1.2486151E-2,3.8095977E-2,2.9E1,9.387096E-2,3.5082873E-8,4.182818E-2,6.1126E0,6.2519185E-2,1.1699248E1,1.4049587E0,2.6788158E-2,6.902803E-2,-4.5200832E-2,1.1141821E-2,3.226117E-2,-1.2733842E-1,1.1840468E-1,7.725801E-2,2.9392121E-2,-4.0088415E-2],"split_indices":[39,135,109,81,4,19,133,115,133,81,76,0,0,0,130,3,118,130,4,0,94,0,133,109,15,0,0,0,0,0,0,0,0,2,0,123,0,134,0,40,34,0,0,0,0,0,0,0,0,0,0],"split_type":[0,0,0,0,0,0,0,0,0,0,0,0,0,0,0,0,0,0,0,0,0,0,0,0,0,0,0,0,0,0,0,0,0,0,0,0,0,0,0,0,0,0,0,0,0,0,0,0,0,0,0],"sum_hessian":[3.75E2,1.54E2,2.21E2,6.8E1,8.6E1,1.2E1,2.09E2,4.5E1,2.3E1,6.1E1,2.5E1,7E0,5E0,5E0,2.04E2,1.6E1,2.9E1,1.3E1,1E1,5E0,5.6E1,5E0,2E1,2.1E1,1.83E2,1.1E1,5E0,2.4E1,5E0,8E0,5E0,5E0,5E0,1.5E1,4.1E1,1.5E1,5E0,1.6E1,5E0,1.33E2,5E1,5E0,1E1,1E1,5E0,7E0,9E0,6.2E1,7.1E1,4.3E1,7E0],"tree_param":{"num_deleted":"0","num_feature":"139","num_nodes":"51","size_leaf_vector":"1"}},{"base_weights":[-2.4600814E-1,-1.7631644E0,8.407918E-1,5.9544086E-1,-4.7456875E0,-5.509307E-1,1.3137714E0,1.2670411E0,-1.2482865E0,-6.496846E-1,-6.072272E0,1.3387781E0,-4.301352E0,2.2835984E0,9.0113795E-1,-3.3034462E-2,1.5110894E0,-1.4955162E-1,-1.8997407E-1,-7.8567535E-2,-5.7905715E-2,-7.582939E0,-2.5160186E0,1.782471E0,4.5084244E-1,-1.7449548E0,-3.4739545E-1,1.2271605E-1,4.6651818E-2,1.0186008E0,-7.110582E-2,8.474249E-2,1.6114986E-2,-4.2285483E-2,2.0700512E-2,-2.539568E-2,1.6804378E-2,-2.2748044E-1,-7.925424E0,-2.1170318E-1,-1.1939883E0,9.947922E-2,3.9750706E-2,-1.429081E-4,5.2812647E-2,-1.2488919E-1,-3.5065018E-2,1.3121943E0,2.5278598E-1,-2.2362602E-1,-4.2087123E-1,-1.18588746E-1,9.139814E-3,4.2703796E-2,9.107595E-2,-5.3275707E-3,1.7883128E-2],"categories":[],"categories_nodes":[],"categories_segments":[],"categories_sizes":[],"default_left":[0,0,0,0,0,0,0,0,0,0,0,0,0,0,0,0,0,0,0,0,0,0,0,0,0,0,0,0,0,0,0,0,0,0,0,0,0,0,0,0,0,0,0,0,0,0,0,0,0,0,0,0,0,0,0,0,0],"id":2,"left_children":[1,3,5,7,9,11,13,15,17,19,21,23,25,27,29,-1,31,-1,33,-1,35,37,39,41,43,45,-1,-1,-1,47,-1,-1,-1,-1,-1,-1,-1,-1,49,-1,51,-1,-1,-1,-1,-1,-1,53,55,-1,-1,-1,-1,-1,-1,-1,-1],"loss_changes":[6.165017E2,1.1002227E3,1.4422368E2,1.1054743E2,3.7097986E2,4.0264197E2,6.3171997E1,3.1578217E1,4.369665E1,9.726616E0,2.602815E2,1.4167267E1,1.16423584E2,8.777435E0,3.3104546E1,0E0,1.2123978E1,0E0,6.6869974E0,0E0,2.2983043E0,1.3417969E0,3.35568E1,3.5311508E0,3.8484702E0,6.8909264E0,0E0,0E0,0E0,2.462535E1,0E0,0E0,0E0,0E0,0E0,0E0,0E0,0E0,1.5016602E1,0E0,1.827069E1,0E0,0E0,0E0,0E0,0E0,0E0,1.7110764E1,1.2440634E0,0E0,0E0,0E0,0E0,0E0,0E0,0E0,0E0],"parents":[2147483647,0,0,1,1,2,2,3,3,4,4,5,5,6,6,7,7,8,8,9,9,10,10,11,11,12,12,13,13,14,14,16,16,18,18,20,20,21,21,22,22,23,23,24,24,25,25,29,29,38,38,40,40,47,47,48,48],"right_children":[2,4,6,8,10,12,14,16,18,20,22,24,26,28,30,-1,32,-1,34,-1,36,38,40,42,44,46,-1,-1,-1,48,-1,-1,-1,-1,-1,-1,-1,-1,50,-1,52,-1,-1,-1,-1,-1,-1,54,56,-1,-1,-1,-1,-1,-1,-1,-1],"split_conditions":[1.042173E2,7.822222E1,8.071E0,1.1428572E1,1.6129032E0,6.48E0,1.00617E1,1.62E2,6.0774655E0,1.07041664E2,2.6170213E0,4.6435E0,3.8220334E2,3.6E1,1.5E0,-3.3034462E-2,2.8815556E0,-1.4955162E-1,1.3220921E1,-7.8567535E-2,1.5E1,1.2504073E1,4.5714286E-1,4.985447E0,5E0,6.8934E0,-3.4739545E-1,1.2271605E-1,4.6651818E-2,5.0666666E0,-7.110582E-2,8.474249E-2,1.6114986E-2,-4.2285483E-2,2.0700512E-2,-2.539568E-2,1.6804378E-2,-2.2748044E-1,3.83E-1,-2.1170318E-1,6.8583336E1,9.947922E-2,3.9750706E-2,-1.429081E-4,5.2812647E-2,-1.2488919E-1,-3.5065018E-2,1.7088187E0,1.28216E1,-2.2362602E-1,-4.2087123E-1,-1.18588746E-1,9.139814E-3,4.2703796E-2,9.107595E-2,-5.3275707E-3,1.7883128E-2],"split_indices":[39,130,133,3,51,28,133,132,75,130,105,133,22,38,87,0,45,0,111,0,132,111,63,75,61,133,0,0,0,75,0,0,0,0,0,0,0,0,115,0,9,0,0,0,0,0,0,51,133,0,0,0,0,0,0,0,0],"split_type":[0,0,0,0,0,0,0,0,0,0,0,0,0,0,0,0,0,0,0,0,0,0,0,0,0,0,0,0,0,0,0,0,0,0,0,0,0,0,0,0,0,0,0,0,0,0,0,0,0,0,0,0,0,0,0,0,0],"sum_hessian":[3.72E2,1.55E2,2.17E2,8.7E1,6.8E1,5.5E1,1.62E2,6.4E1,2.3E1,1.7E1,5.1E1,3.7E1,1.8E1,4.7E1,1.15E2,7E0,5.7E1,8E0,1.5E1,6E0,1.1E1,3.5E1,1.6E1,2.4E1,1.3E1,1E1,8E0,4.1E1,6E0,1.1E2,5E0,4.9E1,8E0,7E0,8E0,5E0,6E0,5E0,3E1,6E0,1E1,1.9E1,5E0,8E0,5E0,5E0,5E0,7.9E1,3.1E1,5E0,2.5E1,5E0,5E0,4.3E1,3.6E1,7E0,2.4E1],"tree_param":{"num_deleted":"0","num_feature":"139","num_nodes":"57","size_leaf_vector":"1"}},{"base_weights":[-1.7242299E-1,-1.5265958E0,8.060266E-1,5.1966274E-1,-4.2624717E0,-1.8796641E0,1.1093343E0,-1.8865896E0,1.0065906E0,-5.5547156E0,-5.694776E-1,-2.3563826E-1,-5.449255E-2,-1.5064315E-1,1.2298641E0,-8.666537E-1,-1.7210203E-1,-7.8730977E-1,1.411308E0,-6.8338532E0,-1.6860049E0,-9.386021E-2,1.7848884E-1,-5.355812E-2,3.7115265E-2,-8.478343E-2,1.3153267E0,-2.0455092E-2,-5.898816E-2,1.2191464E-2,-8.6001754E-2,1.5601681E0,6.36234E-1,-1.5210856E-1,-3.7959525E-1,-1.320146E-1,1.3213237E-3,-8.605194E-3,2.0956114E-2,2.0576985E0,9.068927E-1,5.860284E-2,8.285014E-2,4.7010772E-2,8.777499E-3,1.16617896E-1,2.2369975E-2,5.8607657E-2,-3.173366E-2],"categories":[],"categories_nodes":[],"categories_segments":[],"categories_sizes":[],"default_left":[0,0,0,0,0,0,0,0,0,0,0,0,0,0,0,0,0,0,0,0,0,0,0,0,0,0,0,0,0,0,0,0,0,0,0,0,0,0,0,0,0,0,0,0,0,0,0,0,0],"id":3,"left_children":[1,3,5,7,9,11,13,15,17,19,21,-1,23,-1,25,27,-1,29,31,33,35,-1,37,-1,-1,-1,39,-1,-1,-1,-1,41,43,-1,-1,-1,-1,-1,-1,45,47,-1,-1,-1,-1,-1,-1,-1,-1],"loss_changes":[5.0870154E2,9.03543E2,1.837389E2,1.1086447E2,3.261217E2,1.1867379E2,1.0357187E2,2.240031E1,5.7740913E1,2.4085754E2,1.8919636E1,0E0,1.2946334E1,0E0,5.1234894E1,1.0932589E0,0E0,1.4845939E1,6.3915253E0,8.6127075E1,2.2947884E1,0E0,1.168869E0,0E0,0E0,0E0,5.6046967E1,0E0,0E0,0E0,0E0,4.978943E-2,1.5154176E0,0E0,0E0,0E0,0E0,0E0,0E0,2.8589539E1,5.185849E1,0E0,0E0,0E0,0E0,0E0,0E0,0E0,0E0],"parents":[2147483647,0,0,1,1,2,2,3,3,4,4,5,5,6,6,7,7,8,8,9,9,10,10,12,12,14,14,15,15,17,17,18,18,19,19,20,20,22,22,26,26,31,31,32,32,39,39,40,40],"right_children":[2,4,6,8,10,12,14,16,18,20,22,-1,24,-1,26,28,-1,30,32,34,36,-1,38,-1,-1,-1,40,-1,-1,-1,-1,42,44,-1,-1,-1,-1,-1,-1,46,48,-1,-1,-1,-1,-1,-1,-1,-1],"split_conditions":[1.042173E2,7.822222E1,1.0084034E0,1.62E2,3.805668E-1,1.018054E1,3.8654E0,1.1088386E0,6.1233413E-1,2.1463754E0,4.7687023E1,-2.3563826E-1,3.7905483E1,-1.5064315E-1,1.1062295E1,8.47E0,-1.7210203E-1,1.8875E3,5.8E1,8.7918365E-1,2.01E2,-9.386021E-2,4.0828404E-1,-5.355812E-2,3.7115265E-2,-8.478343E-2,6.355004E-1,-2.0455092E-2,-5.898816E-2,1.2191464E-2,-8.6001754E-2,2.7015457E1,4.5836067E1,-1.5210856E-1,-3.7959525E-1,-1.320146E-1,1.3213237E-3,-8.605194E-3,2.0956114E-2,1.1699248E1,3.86775E1,5.860284E-2,8.285014E-2,4.7010772E-2,8.777499E-3,1.16617896E-1,2.2369975E-2,5.8607657E-2,-3.173366E-2],"split_indices":[39,130,87,132,81,134,134,106,88,94,9,0,10,0,16,133,0,20,1,46,37,0,81,0,0,0,106,0,0,0,0,40,129,0,0,0,0,0,0,40,10,0,0,0,0,0,0,0,0],"split_type":[0,0,0,0,0,0,0,0,0,0,0,0,0,0,0,0,0,0,0,0,0,0,0,0,0,0,0,0,0,0,0,0,0,0,0,0,0,0,0,0,0,0,0,0,0,0,0,0,0],"sum_hessian":[3.82E2,1.6E2,2.22E2,9.2E1,6.8E1,2.2E1,2E2,1.5E1,7.7E1,5E1,1.8E1,8E0,1.4E1,5E0,1.95E2,1E1,5E0,1.4E1,6.3E1,3.7E1,1.3E1,6E0,1.2E1,6E0,8E0,5E0,1.9E2,5E0,5E0,7E0,7E0,5.2E1,1.1E1,7E0,3E1,8E0,5E0,5E0,7E0,6.6E1,1.24E2,1.3E1,3.9E1,6E0,5E0,5.6E1,1E1,1.06E2,1.8E1],"tree_param":{"num_deleted":"0","num_feature":"139","num_nodes":"49","size_leaf_vector":"1"}},{"base_weights":[-7.1155867E-3,-1.1565208E0,9.80435E-1,-3.6579485E0,2.195238E-1,1.1539938E0,-2.311645E0,-1.5981934E0,-5.3777905E0,-2.2722778E0,9.755121E-1,1.3764958E0,-3.4737083E-1,-2.4067307E-1,2.8772255E-2,-1.8634342E-1,-8.2204366E-1,-1.3115169E-1,-6.7010098E0,-5.094986E-1,-4.9502554E0,-8.7226816E-2,1.1855682E0,1.1181818E0,1.2150233E-1,-1.1335387E0,3.5713273E-1,-3.1433782E-1,-1.0050692E-1,-3.791016E-1,-1.8020488E-1,-1.3948197E0,7.468068E-2,-1.3092795E-1,-3.2284543E-1,2.0659555E-1,1.4986733E0,2.0100363E-1,1.3680184E0,-7.885697E-2,-2.64002E-2,-1.4052789E-2,4.0691007E-2,-4.8522785E-2,9.57075E-3,-9.6688196E-2,-3.2830782E-2,-1.0963912E-2,6.8940274E-2,8.29868E-2,1.5604514E-2,-1.3317722E-2,2.1277307E-2,7.4119434E-2,-1.5919471E-2],"categories":[],"categories_nodes":[],"categories_segments":[],"categories_sizes":[],"default_left":[0,0,0,0,0,0,0,0,0,0,0,0,0,0,0,0,0,0,0,0,0,0,0,0,0,0,0,0,0,0,0,0,0,0,0,0,0,0,0,0,0,0,0,0,0,0,0,0,0,0,0,0,0,0,0],"id":4,"left_children":[1,3,5,7,9,11,13,15,17,19,21,23,25,-1,-1,-1,27,-1,29,31,33,-1,35,37,-1,39,41,43,-1,-1,-1,45,-1,-1,-1,47,49,51,53,-1,-1,-1,-1,-1,-1,-1,-1,-1,-1,-1,-1,-1,-1,-1,-1],"loss_changes":[4.494968E2,6.3070294E2,1.24369354E2,2.2166467E2,2.263856E2,6.829166E1,8.2222534E1,4.8153633E1,1.1000311E2,1.29657E2,5.463365E1,4.545276E1,1.5358992E1,0E0,0E0,0E0,1.3844999E1,0E0,3.542798E1,3.400448E1,2.173584E1,0E0,2.6051216E1,3.2721832E1,0E0,2.6592674E0,4.600519E0,6.158762E0,0E0,0E0,0E0,3.9023209E0,0E0,0E0,0E0,1.1285039E1,1.1904434E1,3.4714823E0,2.226683E1,0E0,0E0,0E0,0E0,0E0,0E0,0E0,0E0,0E0,0E0,0E0,0E0,0E0,0E0,0E0,0E0],"parents":[2147483647,0,0,1,1,2,2,3,3,4,4,5,5,6,6,7,7,8,8,9,9,10,10,11,11,12,12,16,16,18,18,19,19,20,20,22,22,23,23,25,25,26,26,27,27,31,31,35,35,36,36,37,37,38,38],"right_children":[2,4,6,8,10,12,14,16,18,20,22,24,26,-1,-1,-1,28,-1,30,32,34,-1,36,38,-1,40,42,44,-1,-1,-1,46,-1,-1,-1,48,50,52,54,-1,-1,-1,-1,-1,-1,-1,-1,-1,-1,-1,-1,-1,-1,-1,-1],"split_conditions":[1.2167E1,1.026E2,6.3560016E2,6.4803E0,6.186088E-1,2.12868E1,3.2352E3,4.97031E0,1.0833333E1,4.3903155E0,7.3130196E-1,1.1543529E0,7.1428573E-1,-2.4067307E-1,2.8772255E-2,-1.8634342E-1,6.5E1,-1.3115169E-1,1.5E1,6.2735043E0,6.22238E0,-8.7226816E-2,6.5E1,1.2891E1,1.2150233E-1,9.792263E-7,8.831E0,4.1463413E0,-1.0050692E-1,-3.791016E-1,-1.8020488E-1,4.101194E2,7.468068E-2,-1.3092795E-1,-3.2284543E-1,1.104499E1,9E0,9.469504E0,4.513889E-1,-7.885697E-2,-2.64002E-2,-1.4052789E-2,4.0691007E-2,-4.8522785E-2,9.57075E-3,-9.6688196E-2,-3.2830782E-2,-1.0963912E-2,6.8940274E-2,8.29868E-2,1.5604514E-2,-1.3317722E-2,2.1277307E-2,7.4119434E-2,-1.5919471E-2],"split_indices":[135,39,22,134,64,135,20,135,27,112,88,117,34,0,0,0,132,0,73,4,135,0,132,135,0,124,134,75,0,0,0,21,0,0,0,27,104,27,118,0,0,0,0,0,0,0,0,0,0,0,0,0,0,0,0],"split_type":[0,0,0,0,0,0,0,0,0,0,0,0,0,0,0,0,0,0,0,0,0,0,0,0,0,0,0,0,0,0,0,0,0,0,0,0,0,0,0,0,0,0,0,0,0,0,0,0,0,0,0,0,0,0,0],"sum_hessian":[3.94E2,1.82E2,2.12E2,6.4E1,1.18E2,2.02E2,1E1,3E1,3.4E1,2.7E1,9.1E1,1.76E2,2.6E1,5E0,5E0,7E0,2.3E1,1.2E1,2.2E1,1.7E1,1E1,6E0,8.5E1,1.43E2,3.3E1,1.2E1,1.4E1,1.7E1,6E0,1.6E1,6E0,1.2E1,5E0,5E0,5E0,2.1E1,6.4E1,3.1E1,1.12E2,6E0,6E0,6E0,8E0,7E0,1E1,6E0,6E0,1.6E1,5E0,5.6E1,8E0,1E1,2.1E1,1.05E2,7E0],"tree_param":{"num_deleted":"0","num_feature":"139","num_nodes":"55","size_leaf_vector":"1"}},{"base_weights":[-8.884738E-2,-1.3623617E0,8.30684E-1,6.4534783E-1,-3.4771845E0,-7.3691684E-1,1.0785862E0,1.3416063E0,-8.448163E-1,-5.572129E-1,-4.696871E0,2.1497184E-1,-2.0836149E-1,1.4440987E0,-1.043235E-2,1.628474E-2,1.4296408E0,-1.5386285E-1,-2.2570935E-1,-1.5731736E0,2.2497255E-1,-6.6029205E0,-1.8009304E0,9.3244934E-1,-7.5795434E-2,1.1399201E-1,1.5597724E0,-7.8352064E-1,3.991565E-1,7.557784E-2,3.3184852E-2,-5.322816E-2,1.3297808E-1,-4.3126773E-2,-1.0108081E-1,-2.2481786E-2,3.6233544E-2,-1.9401489E-1,-3.645704E-1,-2.6805742E0,-1.8507772E-3,1.530024E0,-3.0864988E-2,-5.3791583E-2,4.9605537E-2,1.6889149E0,1.980342E-1,5.3375047E-2,-1.7979898E0,1.8666126E-1,8.264956E-1,3.78364E-2,-2.527736E-2,-8.731676E-2,-1.973292E-1,9.9505335E-2,4.6809938E-2,8.987281E-2,2.0031387E-2,-8.37684E-3,3.2622825E-2,-1.6813252E-2,-1.6018353E-1,-4.6234815E-3,2.6247477E-2,2.6357492E-2,4.9404602E-2],"categories":[],"categories_nodes":[],"categories_segments":[],"categories_sizes":[],"default_left":[0,0,0,0,0,0,0,0,0,0,0,0,0,0,0,0,0,0,0,0,0,0,0,0,0,0,0,0,0,0,0,0,0,0,0,0,0,0,0,0,0,0,0,0,0,0,0,0,0,0,0,0,0,0,0,0,0,0,0,0,0,0,0,0,0,0,0],"id":5,"left_children":[1,3,5,7,9,11,13,15,17,19,21,23,-1,25,27,-1,29,-1,31,33,35,37,39,41,-1,43,45,47,49,-1,-1,-1,51,-1,-1,-1,-1,-1,-1,53,-1,55,-1,-1,-1,57,59,-1,61,63,65,-1,-1,-1,-1,-1,-1,-1,-1,-1,-1,-1,-1,-1,-1,-1,-1],"loss_changes":[4.6369104E2,7.070718E2,9.017554E1,9.03618E1,2.8586023E2,1.0538467E2,7.9227005E1,4.8110504E0,3.8004784E1,2.0220665E1,3.0273755E2,3.3702076E1,0E0,2.274704E1,1.6461813E1,0E0,2.384903E0,0E0,7.061949E0,1.7617664E0,5.382348E0,3.543994E1,3.7139587E1,1.8540209E1,0E0,1.4649828E1,2.3758179E1,3.5719833E1,2.9331822E0,0E0,0E0,0E0,7.153322E0,0E0,0E0,0E0,0E0,0E0,0E0,1.2032021E1,0E0,1.9617882E0,0E0,0E0,0E0,1.6758911E1,2.2689173E0,0E0,2.3579338E1,2.3147826E0,1.1232376E-2,0E0,0E0,0E0,0E0,0E0,0E0,0E0,0E0,0E0,0E0,0E0,0E0,0E0,0E0,0E0,0E0],"parents":[2147483647,0,0,1,1,2,2,3,3,4,4,5,5,6,6,7,7,8,8,9,9,10,10,11,11,13,13,14,14,16,16,18,18,19,19,20,20,21,21,22,22,23,23,25,25,26,26,27,27,28,28,32,32,39,39,41,41,45,45,46,46,48,48,49,49,50,50],"right_children":[2,4,6,8,10,12,14,16,18,20,22,24,-1,26,28,-1,30,-1,32,34,36,38,40,42,-1,44,46,48,50,-1,-1,-1,52,-1,-1,-1,-1,-1,-1,54,-1,56,-1,-1,-1,58,60,-1,62,64,66,-1,-1,-1,-1,-1,-1,-1,-1,-1,-1,-1,-1,-1,-1,-1,-1],"split_conditions":[1.0435107E2,7.529187E-1,6.32E0,5.5E0,1.6129032E0,5.33293E2,1.6527273E1,1.2575631E1,1E0,1.5E1,2.6170213E0,1.5E0,-2.0836149E-1,1.0084034E0,1.46E2,1.628474E-2,2.767313E0,-1.5386285E-1,1.9139785E0,1.5E1,6.1771E0,1.2920309E1,1.7553191E0,6.1719847E0,-7.5795434E-2,9E0,9E0,1.3769376E1,1.8016877E0,7.557784E-2,3.3184852E-2,-5.322816E-2,7.6666664E1,-4.3126773E-2,-1.0108081E-1,-2.2481786E-2,3.6233544E-2,-1.9401489E-1,-3.645704E-1,1.918919E0,-1.8507772E-3,6.0425E0,-3.0864988E-2,-5.3791583E-2,4.9605537E-2,2.2533981E1,1.1781399E0,5.3375047E-2,4.9243904E1,2.49E0,1.28206E1,3.78364E-2,-2.527736E-2,-8.731676E-2,-1.973292E-1,9.9505335E-2,4.6809938E-2,8.987281E-2,2.0031387E-2,-8.37684E-3,3.2622825E-2,-1.6813252E-2,-1.6018353E-1,-4.6234815E-3,2.6247477E-2,2.6357492E-2,4.9404602E-2],"split_indices":[39,88,4,4,51,21,3,111,76,2,105,87,0,87,132,0,105,0,51,132,134,111,93,4,0,91,104,4,93,0,0,0,9,0,0,0,0,0,0,51,0,134,0,0,0,111,34,0,9,44,134,0,0,0,0,0,0,0,0,0,0,0,0,0,0,0,0],"split_type":[0,0,0,0,0,0,0,0,0,0,0,0,0,0,0,0,0,0,0,0,0,0,0,0,0,0,0,0,0,0,0,0,0,0,0,0,0,0,0,0,0,0,0,0,0,0,0,0,0,0,0,0,0,0,0,0,0,0,0,0,0,0,0,0,0,0,0],"sum_hessian":[3.94E2,1.65E2,2.29E2,8.5E1,8E1,3.1E1,1.98E2,5.8E1,2.7E1,2.4E1,5.6E1,2.5E1,6E0,1.48E2,5E1,5E0,5.3E1,5E0,2.2E1,1E1,1.4E1,3.3E1,2.3E1,1.8E1,7E0,1.2E1,1.36E2,1.7E1,3.3E1,4.7E1,6E0,6E0,1.6E1,5E0,5E0,6E0,8E0,8E0,2.5E1,1.5E1,8E0,1.3E1,5E0,5E0,7E0,1.24E2,1.2E1,6E0,1.1E1,2.3E1,1E1,8E0,8E0,1E1,5E0,6E0,7E0,1.14E2,1E1,7E0,5E0,6E0,5E0,1.3E1,1E1,5E0,5E0],"tree_param":{"num_deleted":"0","num_feature":"139","num_nodes":"67","size_leaf_vector":"1"}},{"base_weights":[4.4802245E-2,9.61618E-1,-7.981537E-1,1.243038E0,-1.5180928E0,-2.6488369E0,7.0647323E-1,1.4583068E0,-2.9228258E-1,-1.6112874E-1,1.690993E-2,-3.5222147E0,-6.2032753E-1,9.667954E-1,-1.9834551E-1,1.583644E0,-5.237319E-2,4.065602E-2,-1.0350783E0,-4.5031204E0,-1.0652641E0,-9.308066E-2,6.5629534E-2,1.4006692E0,4.976419E-1,1.6998414E0,3.8029617E-1,-4.3129653E-2,3.2479145E-2,-8.0826275E-2,-1.52881285E-2,-2.9159083E0,-3.4262314E-1,7.780179E-3,-1.5124029E0,-4.2941317E-1,6.0489547E-2,7.844938E-2,1.1835763E-2,-3.2587748E-2,6.3378525E-1,7.061141E-2,1.0042299E-1,-2.052691E-2,4.6294246E-2,-2.00452E-1,-4.3103244E-2,-1.2095574E-1,-3.699417E-2,2.33886E-3,-5.360649E-2,6.2300332E-2,1.9414032E-2],"categories":[],"categories_nodes":[],"categories_segments":[],"categories_sizes":[],"default_left":[0,0,0,0,0,0,0,0,0,0,0,0,0,0,0,0,0,0,0,0,0,0,0,0,0,0,0,0,0,0,0,0,0,0,0,0,0,0,0,0,0,0,0,0,0,0,0,0,0,0,0,0,0],"id":6,"left_children":[1,3,5,7,9,11,13,15,17,-1,-1,19,21,23,-1,25,27,-1,29,31,33,-1,35,37,39,41,43,-1,-1,-1,-1,45,-1,-1,47,49,-1,-1,-1,-1,51,-1,-1,-1,-1,-1,-1,-1,-1,-1,-1,-1,-1],"loss_changes":[2.936721E2,1.28894E2,5.532197E2,5.4629303E1,6.120617E1,1.5549243E2,1.3765956E2,2.7348541E1,1.8084503E1,0E0,0E0,1.4462524E2,2.3963299E1,2.0676079E1,0E0,1.7950409E1,7.3851905E0,0E0,5.01849E0,1.440907E2,1.0607384E1,0E0,1.1281266E1,1.0208E1,8.550177E0,7.9038696E0,5.9892254E0,0E0,0E0,0E0,0E0,5.940735E1,0E0,0E0,8.016468E0,4.3349285E0,0E0,0E0,0E0,0E0,6.580448E0,0E0,0E0,0E0,0E0,0E0,0E0,0E0,0E0,0E0,0E0,0E0,0E0],"parents":[2147483647,0,0,1,1,2,2,3,3,4,4,5,5,6,6,7,7,8,8,11,11,12,12,13,13,15,15,16,16,18,18,19,19,20,20,22,22,23,23,24,24,25,25,26,26,31,31,34,34,35,35,40,40],"right_children":[2,4,6,8,10,12,14,16,18,-1,-1,20,22,24,-1,26,28,-1,30,32,34,-1,36,38,40,42,44,-1,-1,-1,-1,46,-1,-1,48,50,-1,-1,-1,-1,52,-1,-1,-1,-1,-1,-1,-1,-1,-1,-1,-1,-1],"split_conditions":[8.097507E-1,1.9395162E0,2.07E2,1.4E1,3.5082873E-8,7.0049314E0,9.239637E0,2.2515972E1,3.9889E2,-1.6112874E-1,1.690993E-2,2.4387194E-1,4.1463413E0,1.6285715E1,-1.9834551E-1,5.9473686E0,5.901249E-1,4.065602E-2,4.7E1,5.4714285E-2,3.9693878E0,-9.308066E-2,3.8E1,2.8135E1,3.734057E1,1.8071625E0,1.3205111E1,-4.3129653E-2,3.2479145E-2,-8.0826275E-2,-1.52881285E-2,1.42E2,-3.4262314E-1,7.780179E-3,9.285714E-1,7.1755104E0,6.0489547E-2,7.844938E-2,1.1835763E-2,-3.2587748E-2,1.2539679E0,7.061141E-2,1.0042299E-1,-2.052691E-2,4.6294246E-2,-2.00452E-1,-4.3103244E-2,-1.2095574E-1,-3.699417E-2,2.33886E-3,-5.360649E-2,6.2300332E-2,1.9414032E-2],"split_indices":[46,51,37,126,123,28,112,111,20,0,0,117,75,3,0,75,106,0,132,117,28,0,1,110,15,58,111,0,0,0,0,132,0,0,94,28,0,0,0,0,34,0,0,0,0,0,0,0,0,0,0,0,0],"split_type":[0,0,0,0,0,0,0,0,0,0,0,0,0,0,0,0,0,0,0,0,0,0,0,0,0,0,0,0,0,0,0,0,0,0,0,0,0,0,0,0,0,0,0,0,0,0,0,0,0,0,0,0,0],"sum_hessian":[3.78E2,1.81E2,1.97E2,1.63E2,1.8E1,8.8E1,1.09E2,1.43E2,2E1,9E0,9E0,6.1E1,2.7E1,1.04E2,5E0,1.32E2,1.1E1,8E0,1.2E1,4.3E1,1.8E1,9E0,1.8E1,5.3E1,5.1E1,1.2E2,1.2E1,5E0,6E0,6E0,6E0,2.7E1,1.6E1,5E0,1.3E1,1.3E1,5E0,4.6E1,7E0,5E0,4.6E1,6.5E1,5.5E1,5E0,7E0,1.7E1,1E1,5E0,8E0,8E0,5E0,1.2E1,3.4E1],"tree_param":{"num_deleted":"0","num_feature":"139","num_nodes":"53","size_leaf_vector":"1"}},{"base_weights":[-8.568619E-2,8.462978E-1,-9.748745E-1,1.074309E0,-1.3794926E0,-3.3281617E0,6.1535954E-1,1.346995E0,-5.0873554E-1,-1.5774824E-1,-2.288428E-1,-1.2871659E0,-4.343628E0,-1.6388552E-1,8.148601E-1,-3.5974286E-2,1.4711053E0,3.6017634E-2,-1.201803E0,4.574757E-3,-2.8221497E-2,-2.3842635E0,-4.3702838E-1,-5.1511917E0,8.840696E-3,1.236359E0,1.8769436E-1,1.8639828E0,1.1491227E0,-8.565008E-2,1.0447263E-3,-2.8074233E-2,-1.8030183E-1,-7.417539E-2,1.2263032E-1,-6.2931137E0,-1.8562201E0,-1.4280327E-2,1.3616834E0,-5.8476865E-2,4.544483E-1,3.759533E-2,9.749242E-2,6.625231E-2,2.81948E-2,-9.592938E-3,2.3454793E-2,-1.6613089E-1,-3.4150824E-1,-1.5712978E-2,-1.3903315E-1,2.8517453E-2,7.332083E-2,1.583495E-2,4.1801322E-2],"categories":[],"categories_nodes":[],"categories_segments":[],"categories_sizes":[],"default_left":[0,0,0,0,0,0,0,0,0,0,0,0,0,0,0,0,0,0,0,0,0,0,0,0,0,0,0,0,0,0,0,0,0,0,0,0,0,0,0,0,0,0,0,0,0,0,0,0,0,0,0,0,0,0,0],"id":7,"left_children":[1,3,5,7,9,11,13,15,17,-1,19,21,23,-1,25,-1,27,-1,29,-1,-1,31,33,35,-1,37,39,41,43,-1,-1,-1,-1,-1,45,47,49,-1,51,-1,53,-1,-1,-1,-1,-1,-1,-1,-1,-1,-1,-1,-1,-1,-1],"loss_changes":[3.2070682E2,9.740048E1,7.430189E2,7.493323E1,3.605105E1,1.6021411E2,9.509454E1,3.8759705E1,2.3013588E1,0E0,1.3416579E0,2.5073158E1,1.9438959E2,0E0,2.9903801E1,0E0,1.5441528E1,0E0,1.0661495E1,0E0,0E0,2.4699524E1,1.0138333E1,1.5763562E2,0E0,1.3359184E1,1.75477E1,4.358719E0,7.3862686E0,0E0,0E0,0E0,0E0,0E0,1.3975158E0,2.9951172E1,1.7657059E1,0E0,4.385002E0,0E0,1.8377161E0,0E0,0E0,0E0,0E0,0E0,0E0,0E0,0E0,0E0,0E0,0E0,0E0,0E0,0E0],"parents":[2147483647,0,0,1,1,2,2,3,3,4,4,5,5,6,6,7,7,8,8,10,10,11,11,12,12,14,14,16,16,18,18,21,21,22,22,23,23,25,25,26,26,27,27,28,28,34,34,35,35,36,36,38,38,40,40],"right_children":[2,4,6,8,10,12,14,16,18,-1,20,22,24,-1,26,-1,28,-1,30,-1,-1,32,34,36,-1,38,40,42,44,-1,-1,-1,-1,-1,46,48,50,-1,52,-1,54,-1,-1,-1,-1,-1,-1,-1,-1,-1,-1,-1,-1,-1,-1],"split_conditions":[8.097507E-1,1.9395162E0,9E0,1.4E1,2.8637362E0,2.340044E0,4.888889E1,3.7755334E0,5.444E2,-1.5774824E-1,6.1666665E0,6.2E1,2.9130435E0,-1.6388552E-1,1.2444445E0,-3.5974286E-2,1.1699248E1,3.6017634E-2,4.217284E1,4.574757E-3,-2.8221497E-2,1.5E1,9.3347E2,1.2795699E0,8.840696E-3,1.6555556E0,9.9E1,8.65173E0,1.5E1,-8.565008E-2,1.0447263E-3,-2.8074233E-2,-1.8030183E-1,-7.417539E-2,3.8193005E2,2.1538463E0,5.4163E0,-1.4280327E-2,2.7578948E0,-5.8476865E-2,2.8410423E0,3.759533E-2,9.749242E-2,6.625231E-2,2.81948E-2,-9.592938E-3,2.3454793E-2,-1.6613089E-1,-3.4150824E-1,-1.5712978E-2,-1.3903315E-1,2.8517453E-2,7.332083E-2,1.583495E-2,4.1801322E-2],"split_indices":[46,51,91,126,45,45,9,112,19,0,75,132,57,0,34,0,40,0,10,0,0,132,19,93,0,51,132,133,73,0,0,0,0,0,21,33,133,0,33,0,94,0,0,0,0,0,0,0,0,0,0,0,0,0,0],"split_type":[0,0,0,0,0,0,0,0,0,0,0,0,0,0,0,0,0,0,0,0,0,0,0,0,0,0,0,0,0,0,0,0,0,0,0,0,0,0,0,0,0,0,0,0,0,0,0,0,0,0,0,0,0,0,0],"sum_hessian":[3.85E2,1.88E2,1.97E2,1.71E2,1.7E1,7.9E1,1.18E2,1.46E2,2.5E1,6E0,1.1E1,2.7E1,5.2E1,5E0,1.13E2,8E0,1.38E2,9E0,1.6E1,6E0,5E0,1.1E1,1.6E1,4.4E1,8E0,6.7E1,4.6E1,6E1,7.8E1,1.1E1,5E0,5E0,6E0,5E0,1.1E1,3.2E1,1.2E1,5E0,6.2E1,7E0,3.9E1,5E0,5.5E1,5.9E1,1.9E1,6E0,5E0,6E0,2.6E1,5E0,7E0,8E0,5.4E1,3E1,9E0],"tree_param":{"num_deleted":"0","num_feature":"139","num_nodes":"55","size_leaf_vector":"1"}},{"base_weights":[1.099734E-1,-1.4284922E0,5.981686E-1,-2.7888882E-1,-9.235353E-1,7.080029E-1,-1.7221828E-1,-2.0557392E0,4.0158758E-1,1.0112218E0,-2.5508484E-1,-2.6379578E0,3.1546615E-2,1.1346038E-2,7.146874E-2,-6.6952795E-2,1.1178168E0,-3.2830288E0,3.6509162E-1,-2.169579E-2,-3.1216474E0,-3.7634772E-1,6.24249E-1,1.4153239E0,1.80914E-1,-6.2267758E-2,-2.5565717E-1,7.279698E-2,-1.4932789E-1,-5.067422E-2,-2.1152313E-1,6.3371833E-4,-6.1067063E-2,6.116699E-2,-8.936588E-3,8.715234E-2,5.4514557E-2,4.6889078E-2,-1.8102689E-2,-8.5347E-2,1.4000024E-2],"categories":[],"categories_nodes":[],"categories_segments":[],"categories_sizes":[],"default_left":[0,0,0,0,0,0,0,0,0,0,0,0,0,0,0,0,0,0,0,0,0,0,0,0,0,0,0,0,0,0,0,0,0,0,0,0,0,0,0,0,0],"id":8,"left_children":[1,3,5,-1,7,9,-1,11,13,15,17,19,-1,21,-1,-1,23,25,27,-1,29,31,33,35,37,-1,-1,-1,39,-1,-1,-1,-1,-1,-1,-1,-1,-1,-1,-1,-1],"loss_changes":[2.9302133E2,1.9179845E2,1.3386522E2,0E0,1.2835184E2,8.4653564E1,0E0,7.361893E1,1.6027195E1,5.6612946E1,1.3264879E2,3.915622E1,0E0,7.363494E0,0E0,0E0,5.8557068E1,3.838243E1,3.3325466E1,0E0,6.817697E1,6.261182E0,5.9913507E0,1.5142883E1,2.1709171E1,0E0,0E0,0E0,2.7895752E1,0E0,0E0,0E0,0E0,0E0,0E0,0E0,0E0,0E0,0E0,0E0,0E0],"parents":[2147483647,0,0,1,1,2,2,4,4,5,5,7,7,8,8,9,9,10,10,11,11,13,13,16,16,17,17,18,18,20,20,21,21,22,22,23,23,24,24,28,28],"right_children":[2,4,6,-1,8,10,-1,12,14,16,18,20,-1,22,-1,-1,24,26,28,-1,30,32,34,36,38,-1,-1,-1,40,-1,-1,-1,-1,-1,-1,-1,-1,-1,-1,-1,-1],"split_conditions":[9.9E1,2.4609564E2,7.428571E0,-2.7888882E-1,9E0,5.408291E2,-1.7221828E-1,1.12217E1,1.1039231E0,4.759072E-1,2.6421667E1,6.6666665E0,3.1546615E-2,1.6E1,7.146874E-2,-6.6952795E-2,5.3333335E0,1.0036364E2,1.4746609E1,-2.169579E-2,1.271929E0,8.8306E0,9.7996216E1,4.676807E0,1.1384615E1,-6.2267758E-2,-2.5565717E-1,7.279698E-2,1.5416326E1,-5.067422E-2,-2.1152313E-1,6.3371833E-4,-6.1067063E-2,6.116699E-2,-8.936588E-3,8.715234E-2,5.4514557E-2,4.6889078E-2,-1.8102689E-2,-8.5347E-2,1.4000024E-2],"split_indices":[132,21,75,0,73,22,0,133,117,34,110,3,0,73,0,0,75,39,111,0,76,134,130,112,3,0,0,0,111,0,0,0,0,0,0,0,0,0,0,0,0],"split_type":[0,0,0,0,0,0,0,0,0,0,0,0,0,0,0,0,0,0,0,0,0,0,0,0,0,0,0,0,0,0,0,0,0,0,0,0,0,0,0,0,0],"sum_hessian":[3.88E2,9.3E1,2.95E2,9E0,8.4E1,2.88E2,7E0,4.5E1,3.9E1,2.19E2,6.9E1,3.7E1,8E0,2.9E1,1E1,9E0,2.1E2,1.1E1,5.8E1,7E0,3E1,1.8E1,1.1E1,1.59E2,5.1E1,6E0,5E0,1.8E1,4E1,1.1E1,1.9E1,1.3E1,5E0,6E0,5E0,7.7E1,8.2E1,2.1E1,3E1,8E0,3.2E1],"tree_param":{"num_deleted":"0","num_feature":"139","num_nodes":"41","size_leaf_vector":"1"}},{"base_weights":[-6.688893E-2,-1.032933E0,7.369556E-1,-7.7530086E-2,-3.2253852E0,8.75296E-1,-1.8956263E0,5.2894974E-1,-2.9410014E0,-3.759692E-1,-4.7614694E0,6.5545726E-1,9.776058E-2,-1.9671695E-1,2.2951212E-2,8.884729E-1,-8.5147625E-1,-1.3319672E0,-2.558583E-1,-3.3214886E-3,-6.224635E-2,-5.2167206E0,-8.458173E-2,8.843022E-1,-8.5555786E-1,-5.838162E-1,1.0981538E0,6.531914E-2,-1.5629867E0,-9.371205E-2,-3.454909E-2,1.4629833E-2,-2.4798242E-2,-1.0090198E-1,-2.8878674E-1,6.3727344E-3,1.069829E0,-1.6612697E0,2.145042E-2,-5.563994E-2,2.1234592E-3,7.29215E-2,-4.185693E-3,-3.7013616E-2,-1.106018E-1,-1.6000094E-2,1.4440293E-2,5.8327395E-2,-3.497958E-2,-1.4991732E-2,-1.2954448E-1,1.3124548E-2,-9.411005E-3],"categories":[],"categories_nodes":[],"categories_segments":[],"categories_sizes":[],"default_left":[0,0,0,0,0,0,0,0,0,0,0,0,0,0,0,0,0,0,0,0,0,0,0,0,0,0,0,0,0,0,0,0,0,0,0,0,0,0,0,0,0,0,0,0,0,0,0,0,0,0,0,0,0],"id":9,"left_children":[1,3,5,7,9,11,13,15,17,19,21,23,-1,-1,-1,25,27,29,-1,31,-1,33,-1,35,37,39,41,-1,43,-1,-1,-1,-1,-1,-1,45,47,49,51,-1,-1,-1,-1,-1,-1,-1,-1,-1,-1,-1,-1,-1,-1],"loss_changes":[3.0439194E2,3.726021E2,7.959642E1,2.1863535E2,2.3456464E2,4.7149536E1,5.4610977E1,5.23712E1,7.0217636E1,6.472167E0,4.0089355E1,5.9886337E1,0E0,0E0,0E0,2.626413E1,3.5819324E1,3.571186E0,0E0,2.3318496E0,0E0,4.198767E1,0E0,2.4262222E1,1.6287802E1,3.691495E0,3.120539E1,0E0,7.4401894E0,0E0,0E0,0E0,0E0,0E0,0E0,2.5812514E0,2.1865875E1,1.4410572E1,6.558752E-1,0E0,0E0,0E0,0E0,0E0,0E0,0E0,0E0,0E0,0E0,0E0,0E0,0E0,0E0],"parents":[2147483647,0,0,1,1,2,2,3,3,4,4,5,5,6,6,7,7,8,8,9,9,10,10,11,11,15,15,16,16,17,17,19,19,21,21,23,23,24,24,25,25,26,26,28,28,35,35,36,36,37,37,38,38],"right_children":[2,4,6,8,10,12,14,16,18,20,22,24,-1,-1,-1,26,28,30,-1,32,-1,34,-1,36,38,40,42,-1,44,-1,-1,-1,-1,-1,-1,46,48,50,52,-1,-1,-1,-1,-1,-1,-1,-1,-1,-1,-1,-1,-1,-1],"split_conditions":[1.2167E1,9.422222E1,6.333996E2,1.5384616E0,1.6129032E0,1.1543529E0,3.29E3,6.4E1,4.571687E0,1.8614959E0,1.5685595E1,4.513889E-1,9.776058E-2,-1.9671695E-1,2.2951212E-2,4.4071064E1,3.796359E0,6.648649E1,-2.558583E-1,9.290322E0,-6.224635E-2,1.253713E1,-8.458173E-2,1.28859E1,4E0,1.2492308E1,5.0805087E0,6.531914E-2,4.086858E-1,-9.371205E-2,-3.454909E-2,1.4629833E-2,-2.4798242E-2,-1.0090198E-1,-2.8878674E-1,3.0851064E0,2.224E1,2.289E1,6.6735536E-1,-5.563994E-2,2.1234592E-3,7.29215E-2,-4.185693E-3,-3.7013616E-2,-1.106018E-1,-1.6000094E-2,1.4440293E-2,5.8327395E-2,-3.497958E-2,-1.4991732E-2,-1.2954448E-1,1.3124548E-2,-9.411005E-3],"split_indices":[135,130,22,87,51,117,19,126,112,58,111,118,0,0,0,22,112,130,0,27,0,111,0,135,85,3,75,0,52,0,0,0,0,0,0,105,135,109,106,0,0,0,0,0,0,0,0,0,0,0,0,0,0],"split_type":[0,0,0,0,0,0,0,0,0,0,0,0,0,0,0,0,0,0,0,0,0,0,0,0,0,0,0,0,0,0,0,0,0,0,0,0,0,0,0,0,0,0,0,0,0,0,0,0,0,0,0,0,0],"sum_hessian":[3.9E2,1.77E2,2.13E2,1.24E2,5.3E1,2.03E2,1E1,1.03E2,2.1E1,1.9E1,3.4E1,1.7E2,3.3E1,5E0,5E0,8.2E1,2.1E1,1.3E1,8E0,1.4E1,5E0,2.9E1,5E0,1.48E2,2.2E1,1E1,7.2E1,5E0,1.6E1,6E0,7E0,9E0,5E0,5E0,2.4E1,2.6E1,1.22E2,1.1E1,1.1E1,5E0,5E0,5.5E1,1.7E1,8E0,8E0,1.2E1,1.4E1,1.16E2,6E0,5E0,6E0,5E0,6E0],"tree_param":{"num_deleted":"0","num_feature":"139","num_nodes":"53","size_leaf_vector":"1"}},{"base_weights":[1.1475576E-3,-1.3652449E0,4.5660785E-1,-2.9559755E-1,-9.5945024E-1,6.227129E-1,-1.8999984E0,-1.8597302E0,1.3063645E-1,7.203097E-1,-1.6502029E-1,3.5186613E-1,-2.3456867E-1,-1.1379405E0,-3.1197922E0,-6.8246774E-2,4.100518E-1,-1.2302493E-1,7.883265E-1,4.5555215E-2,-1.796114E-2,-1.9934449E0,-1.6517472E-1,-2.1903813E-1,-6.860354E-2,7.118329E-2,1.2045425E0,1.0035732E0,5.0021864E-2,-1.3117819E-1,-4.389255E-2,-5.736963E-2,2.3744447E-2,-1.8877115E-2,2.276666E-2,9.16641E-2,1.8752297E-2,6.589785E-2,1.661537E-2,3.7879396E-2,-1.5247609E-2],"categories":[],"categories_nodes":[],"categories_segments":[],"categories_sizes":[],"default_left":[0,0,0,0,0,0,0,0,0,0,0,0,0,0,0,0,0,0,0,0,0,0,0,0,0,0,0,0,0,0,0,0,0,0,0,0,0,0,0,0,0],"id":10,"left_children":[1,3,5,-1,7,9,11,13,15,17,-1,19,-1,21,23,-1,25,-1,27,-1,-1,29,31,-1,-1,33,35,37,39,-1,-1,-1,-1,-1,-1,-1,-1,-1,-1,-1,-1],"loss_changes":[2.4893604E2,1.7883066E2,1.1861642E2,0E0,9.151159E1,1.0996764E2,1.27366714E2,4.283432E1,1.8528782E1,6.1435516E1,0E0,5.099307E0,0E0,2.7965714E1,3.3658142E1,0E0,9.875689E0,0E0,4.285756E1,0E0,0E0,1.0350121E1,1.1232478E1,0E0,0E0,4.8261104E0,5.049343E0,4.366838E1,1.5803419E1,0E0,0E0,0E0,0E0,0E0,0E0,0E0,0E0,0E0,0E0,0E0,0E0],"parents":[2147483647,0,0,1,1,2,2,4,4,5,5,6,6,7,7,8,8,9,9,11,11,13,13,14,14,16,16,18,18,21,21,22,22,25,25,26,26,27,27,28,28],"right_children":[2,4,6,-1,8,10,12,14,16,18,-1,20,-1,22,24,-1,26,-1,28,-1,-1,30,32,-1,-1,34,36,38,40,-1,-1,-1,-1,-1,-1,-1,-1,-1,-1,-1,-1],"split_conditions":[9.9E1,2.4609564E2,6.055672E2,-2.9559755E-1,8E0,6.932077E0,2.7616581E1,2.18E3,3E0,7.4280624E0,-1.6502029E-1,6.905462E1,-2.3456867E-1,2.0851064E0,4.9363723E-1,-6.8246774E-2,9.00355E1,-1.2302493E-1,5.3333335E0,4.5555215E-2,-1.796114E-2,2.25E0,3.887157E2,-2.1903813E-1,-6.860354E-2,1.0309612E2,1.0986395E0,1.0342149E0,1.1384615E1,-1.3117819E-1,-4.389255E-2,-5.736963E-2,2.3744447E-2,-1.8877115E-2,2.276666E-2,9.16641E-2,1.8752297E-2,6.589785E-2,1.661537E-2,3.7879396E-2,-1.5247609E-2],"split_indices":[132,21,21,0,74,75,10,19,104,16,0,9,0,57,34,0,137,0,75,0,0,76,21,0,0,39,88,46,3,0,0,0,0,0,0,0,0,0,0,0,0],"split_type":[0,0,0,0,0,0,0,0,0,0,0,0,0,0,0,0,0,0,0,0,0,0,0,0,0,0,0,0,0,0,0,0,0,0,0,0,0,0,0,0,0],"sum_hessian":[3.98E2,9.9E1,2.99E2,7E0,9.2E1,2.8E2,1.9E1,5E1,4.2E1,2.74E2,6E0,1.1E1,8E0,3.3E1,1.7E1,6E0,3.6E1,5E0,2.69E2,6E0,5E0,1.7E1,1.6E1,9E0,8E0,2.6E1,1E1,2.08E2,6.1E1,1E1,7E0,6E0,1E1,1.2E1,1.4E1,5E0,5E0,1.41E2,6.7E1,2E1,4.1E1],"tree_param":{"num_deleted":"0","num_feature":"139","num_nodes":"41","size_leaf_vector":"1"}},{"base_weights":[1.0014076E-3,-4.151113E0,1.5177372E-1,-2.721252E-1,-1.13335304E-1,-5.1861423E-1,7.148088E-1,-2.2900238E0,1.7049041E-1,9.2101365E-1,-7.242246E-1,-2.4446629E-1,-1.4321808E0,-1.7614906E0,7.566315E-1,1.1427789E0,-3.5970682E-1,1.4838721E-1,-1.7561133E-1,-2.2472045E0,-3.8908324E-1,-3.496279E-1,-2.1339405E-1,1.1252388E0,-4.673572E-1,9.6716833E-1,8.9478366E-2,-8.7091196E-1,3.0927515E-1,1.9971475E-2,-5.226012E-2,2.782456E-3,-1.5092663E-1,-7.228365E-2,8.581758E-3,5.9157398E-2,-5.7403713E-2,6.465187E-2,9.623813E-3,2.1878151E-2,-9.115412E-2,4.3953448E-3,5.381154E-2,-6.560271E-2,-8.965655E-3,3.8758527E-2,-1.4290767E-2,-1.154451E-2,8.242584E-3],"categories":[],"categories_nodes":[],"categories_segments":[],"categories_sizes":[],"default_left":[0,0,0,0,0,0,0,0,0,0,0,0,0,0,0,0,0,0,0,0,0,0,0,0,0,0,0,0,0,0,0,0,0,0,0,0,0,0,0,0,0,0,0,0,0,0,0,0,0],"id":11,"left_children":[1,3,5,-1,-1,7,9,11,13,15,17,-1,19,21,23,25,27,29,-1,31,33,35,-1,37,39,41,-1,43,45,-1,47,-1,-1,-1,-1,-1,-1,-1,-1,-1,-1,-1,-1,-1,-1,-1,-1,-1,-1],"loss_changes":[2.322589E2,1.9299042E1,1.354985E2,0E0,0E0,2.0058301E2,5.8530487E1,9.556807E1,1.3609E2,4.8978348E1,6.1342255E1,0E0,2.9731026E1,9.7590836E1,4.2033634E1,1.4852295E1,9.161015E0,1.0282937E0,0E0,3.5693092E1,1.0319764E1,2.4611286E1,0E0,1.0863777E1,2.7787819E1,1.11250305E1,0E0,4.341131E0,3.5485544E0,0E0,5.03455E-1,0E0,0E0,0E0,0E0,0E0,0E0,0E0,0E0,0E0,0E0,0E0,0E0,0E0,0E0,0E0,0E0,0E0,0E0],"parents":[2147483647,0,0,1,1,2,2,5,5,6,6,7,7,8,8,9,9,10,10,12,12,13,13,14,14,15,15,16,16,17,17,19,19,20,20,21,21,23,23,24,24,25,25,27,27,28,28,30,30],"right_children":[2,4,6,-1,-1,8,10,12,14,16,18,-1,20,22,24,26,28,30,-1,32,34,36,-1,38,40,42,-1,44,46,-1,48,-1,-1,-1,-1,-1,-1,-1,-1,-1,-1,-1,-1,-1,-1,-1,-1,-1,-1],"split_conditions":[2.4609564E2,4.3753085E0,1.2167E1,-2.721252E-1,-1.13335304E-1,1.0309612E2,5.38293E2,2.55E-1,6.186088E-1,2.1058E1,1.299726E1,-2.4446629E-1,3.805668E-1,9.255556E1,1.4E1,1.1543529E0,1.0943653E1,3.7664437E-1,-1.7561133E-1,5.2546E0,4.7687023E1,2.658E2,-2.1339405E-1,9E0,7.594E0,1.28582E1,8.9478366E-2,5.007407E-7,1.5810526E1,1.9971475E-2,1.7913044E1,2.782456E-3,-1.5092663E-1,-7.228365E-2,8.581758E-3,5.9157398E-2,-5.7403713E-2,6.465187E-2,9.623813E-3,2.1878151E-2,-9.115412E-2,4.3953448E-3,5.381154E-2,-6.560271E-2,-8.965655E-3,3.8758527E-2,-1.4290767E-2,-1.154451E-2,8.242584E-3],"split_indices":[21,4,135,0,0,39,21,52,64,135,135,0,81,130,126,117,4,52,0,134,9,18,0,104,135,135,0,123,3,0,3,0,0,0,0,0,0,0,0,0,0,0,0,0,0,0,0,0,0],"split_type":[0,0,0,0,0,0,0,0,0,0,0,0,0,0,0,0,0,0,0,0,0,0,0,0,0,0,0,0,0,0,0,0,0,0,0,0,0,0,0,0,0,0,0,0,0,0,0,0,0],"sum_hessian":[3.69E2,1.2E1,3.57E2,6E0,6E0,1.63E2,1.94E2,4.5E1,1.18E2,1.7E2,2.4E1,1E1,3.5E1,2.7E1,9.1E1,1.45E2,2.5E1,1.9E1,5E0,1.9E1,1.6E1,1.8E1,9E0,7E1,2.1E1,1.16E2,2.9E1,1.4E1,1.1E1,8E0,1.1E1,5E0,1.4E1,5E0,1.1E1,6E0,1.2E1,5.9E1,1.1E1,1.3E1,8E0,1.3E1,1.03E2,8E0,6E0,6E0,5E0,6E0,5E0],"tree_param":{"num_deleted":"0","num_feature":"139","num_nodes":"49","size_leaf_vector":"1"}},{"base_weights":[5.631083E-2,-6.682256E-1,7.024349E-1,-3.0944085E-1,-3.7299347E0,9.050058E-1,-6.0318935E-1,-8.7648964E-1,9.2875063E-1,-4.080441E-2,-2.6808354E-1,1.1097189E0,7.238703E-2,-1.0861927E-1,-1.676082E-1,-1.7467377E0,8.870721E-1,-3.1404447E-2,1.1077354E0,1.2214078E0,1.3207367E-3,-4.8033174E-2,2.699972E-1,-5.4492563E-1,3.0398885E-2,-5.2931255E-1,-3.4041564E0,1.0633497E0,-1.1515013E-2,7.031872E-2,5.936163E-1,1.7409004E0,1.0393142E0,2.0098394E-2,-1.3296205E-2,4.6233132E-1,-7.30594E-2,-4.642671E-2,4.046655E-3,-8.142914E-2,1.3192604E-2,-1.9822435E-1,-6.1380196E-2,6.667663E-2,1.5428794E-2,-8.505225E-3,7.3054776E-2,9.279693E-2,4.6653923E-2,5.4630455E-2,2.001264E-3,4.3194626E-2,1.1426355E-2,-1.4691631E-2,6.330592E-3],"categories":[],"categories_nodes":[],"categories_segments":[],"categories_sizes":[],"default_left":[0,0,0,0,0,0,0,0,0,0,0,0,0,0,0,0,0,0,0,0,0,0,0,0,0,0,0,0,0,0,0,0,0,0,0,0,0,0,0,0,0,0,0,0,0,0,0,0,0,0,0,0,0,0,0],"id":12,"left_children":[1,3,5,7,9,11,13,15,17,-1,-1,19,21,-1,23,25,27,-1,29,31,33,-1,35,37,-1,39,41,43,-1,-1,45,47,49,-1,-1,51,53,-1,-1,-1,-1,-1,-1,-1,-1,-1,-1,-1,-1,-1,-1,-1,-1,-1,-1],"loss_changes":[1.8070346E2,1.987718E2,5.4500114E1,1.1596089E2,8.596237E1,3.0088974E1,1.8774235E1,1.7497467E2,1.5185585E1,0E0,0E0,1.7577362E1,7.6084633E0,0E0,7.06207E0,1.5154967E2,7.729664E0,0E0,6.3813477E0,1.0393585E1,1.6058849E0,0E0,2.0792038E0,3.9165044E0,0E0,3.966531E1,3.4160004E1,6.318096E0,0E0,0E0,1.2836265E1,1.2420425E0,5.1754456E0,0E0,0E0,1.6803112E0,5.6618744E-1,0E0,0E0,0E0,0E0,0E0,0E0,0E0,0E0,0E0,0E0,0E0,0E0,0E0,0E0,0E0,0E0,0E0,0E0],"parents":[2147483647,0,0,1,1,2,2,3,3,4,4,5,5,6,6,7,7,8,8,11,11,12,12,14,14,15,15,16,16,18,18,19,19,20,20,22,22,23,23,25,25,26,26,27,27,30,30,31,31,32,32,35,35,36,36],"right_children":[2,4,6,8,10,12,14,16,18,-1,-1,20,22,-1,24,26,28,-1,30,32,34,-1,36,38,-1,40,42,44,-1,-1,46,48,50,-1,-1,52,54,-1,-1,-1,-1,-1,-1,-1,-1,-1,-1,-1,-1,-1,-1,-1,-1,-1,-1],"split_conditions":[1.2167E1,1.7368422E0,2.146E1,9.4E1,2.4775E0,5.3301385E2,1.8918918E0,1.9086021E0,4.8E-1,-4.080441E-2,-2.6808354E-1,8.75E-1,2.01E2,-1.0861927E-1,2.9866667E1,2.289468E0,9.0702945E-1,-3.1404447E-2,4.6281943E0,3.6E1,1.5523187E0,-4.8033174E-2,1.1022727E2,5.007407E-7,3.0398885E-2,6.2E1,4.056E-6,9E0,-1.1515013E-2,7.031872E-2,5.5855E0,2.3304E1,2.8815556E0,2.0098394E-2,-1.3296205E-2,4.602E1,2.8043478E0,-4.642671E-2,4.046655E-3,-8.142914E-2,1.3192604E-2,-1.9822435E-1,-6.1380196E-2,6.667663E-2,1.5428794E-2,-8.505225E-3,7.3054776E-2,9.279693E-2,4.6653923E-2,5.4630455E-2,2.001264E-3,4.3194626E-2,1.1426355E-2,-1.4691631E-2,6.330592E-3],"split_indices":[135,87,135,7,45,21,51,51,34,0,0,63,132,0,40,45,64,0,112,38,76,0,129,123,0,132,123,104,0,0,112,134,45,0,0,40,33,0,0,0,0,0,0,0,0,0,0,0,0,0,0,0,0,0,0],"split_type":[0,0,0,0,0,0,0,0,0,0,0,0,0,0,0,0,0,0,0,0,0,0,0,0,0,0,0,0,0,0,0,0,0,0,0,0,0,0,0,0,0,0,0,0,0,0,0,0,0,0,0,0,0,0,0],"sum_hessian":[3.84E2,1.81E2,2.03E2,1.63E2,1.8E1,1.76E2,2.7E1,1.12E2,5.1E1,7E0,1.1E1,1.41E2,3.5E1,5E0,2.2E1,7.5E1,3.7E1,5E0,4.6E1,1.28E2,1.3E1,5E0,3E1,1.5E1,7E0,4.4E1,3.1E1,3.2E1,5E0,2.8E1,1.8E1,3.1E1,9.7E1,5E0,8E0,1.9E1,1.1E1,9E0,6E0,1.8E1,2.6E1,2.4E1,7E0,2.3E1,9E0,1E1,8E0,2.6E1,5E0,9.2E1,5E0,6E0,1.3E1,5E0,6E0],"tree_param":{"num_deleted":"0","num_feature":"139","num_nodes":"55","size_leaf_vector":"1"}},{"base_weights":[-3.8269453E-2,-4.2995853E0,1.0427668E-1,-1.1405682E-1,-2.707729E-1,2.852006E-1,-2.8213177E0,-7.135652E-1,7.120447E-1,-1.1206067E-2,-4.4023523E0,-2.4592324E-1,-3.5195714E-1,9.0845114E-1,-5.3558445E-1,-1.0905474E-1,-2.759001E-1,1.0496935E0,-1.0472832E0,1.0603017E0,1.7026894E-2,-1.8847267E-1,1.765155E-1,6.3672E-2,3.4339342E-3,-1.2502511E-1,-2.342243E-2,-7.6002865E-3,5.67124E-2,1.4078875E-2,-4.6511456E-2,-9.193767E-3,1.9347398E-2],"categories":[],"categories_nodes":[],"categories_segments":[],"categories_sizes":[],"default_left":[0,0,0,0,0,0,0,0,0,0,0,0,0,0,0,0,0,0,0,0,0,0,0,0,0,0,0,0,0,0,0,0,0],"id":13,"left_children":[1,3,5,-1,-1,7,9,11,13,-1,15,-1,17,19,21,-1,-1,23,25,27,29,-1,31,-1,-1,-1,-1,-1,-1,-1,-1,-1,-1],"loss_changes":[2.2519896E2,1.4674576E1,1.9082693E2,0E0,0E0,1.4502966E2,8.524472E1,1.5336252E2,5.8806656E1,0E0,2.0180603E1,0E0,9.3686714E1,2.7866776E1,7.665902E1,0E0,0E0,6.9364967E0,5.2663742E1,1.5950027E1,8.030443E0,0E0,2.1946123E0,0E0,0E0,0E0,0E0,0E0,0E0,0E0,0E0,0E0,0E0],"parents":[2147483647,0,0,1,1,2,2,5,5,6,6,7,7,8,8,10,10,12,12,13,13,14,14,17,17,18,18,19,19,20,20,22,22],"right_children":[2,4,6,-1,-1,8,10,12,14,-1,16,-1,18,20,22,-1,-1,24,26,28,30,-1,32,-1,-1,-1,-1,-1,-1,-1,-1,-1,-1],"split_conditions":[2.4609564E2,9.173333E1,7.736903E2,-1.1405682E-1,-2.707729E-1,9.80192E0,7.984E0,9.431579E1,5.3301385E2,-1.1206067E-2,1.3660281E0,-2.4592324E-1,1.52E0,2.0981E1,2.348E3,-1.0905474E-1,-2.759001E-1,5.037815E0,2.4421052E-3,1.0084034E0,2.7777777E0,-1.8847267E-1,1.28216E1,6.3672E-2,3.4339342E-3,-1.2502511E-1,-2.342243E-2,-7.6002865E-3,5.67124E-2,1.4078875E-2,-4.6511456E-2,-9.193767E-3,1.9347398E-2],"split_indices":[21,39,22,0,0,135,135,39,21,0,76,0,76,135,19,0,0,75,117,87,105,0,134,0,0,0,0,0,0,0,0,0,0],"split_type":[0,0,0,0,0,0,0,0,0,0,0,0,0,0,0,0,0,0,0,0,0,0,0,0,0,0,0,0,0,0,0,0,0],"sum_hessian":[3.69E2,1.1E1,3.58E2,5E0,6E0,3.38E2,2E1,1.01E2,2.37E2,8E0,1.2E1,7E0,9.4E1,2.05E2,3.2E1,5E0,7E0,3.1E1,6.3E1,1.75E2,3E1,5E0,2.7E1,2.5E1,6E0,1.7E1,4.6E1,1E1,1.65E2,2.4E1,6E0,1E1,1.7E1],"tree_param":{"num_deleted":"0","num_feature":"139","num_nodes":"33","size_leaf_vector":"1"}},{"base_weights":[8.150122E-3,-7.9116327E-1,5.8977187E-1,4.1291174E-1,-2.4646966E0,-6.325323E-1,7.483318E-1,-9.0417355E-1,7.277039E-1,-1.7693372E0,-2.5550157E-1,9.14541E-2,-1.4701991E-1,-7.628169E-2,8.3122486E-1,-9.6363865E-2,-7.790056E-2,-2.6975391E-2,8.2734984E-1,-2.4481769E0,1.136016E-1,-4.7279127E-2,8.616104E-1,1.3272569E0,6.0771686E-1,6.651497E-3,-1.3792383E-2,9.5847166E-1,3.6989075E-1,-3.6546972E-1,-3.3602884E0,5.373096E-2,-7.53514E-2,6.164152E-2,1.4245932E-2,9.216047E-3,1.4356954E0,4.8863087E-2,7.3621327E-1,2.9885788E-2,5.1936198E-2,-4.4508278E-4,3.179678E-2,-4.262438E-2,2.2738725E-3,-2.2794051E-1,-8.5944764E-2,8.640021E-2,5.771787E-2,-4.1934468E-2,2.2030812E-2,4.664761E-2,1.4232764E-2],"categories":[],"categories_nodes":[],"categories_segments":[],"categories_sizes":[],"default_left":[0,0,0,0,0,0,0,0,0,0,0,0,0,0,0,0,0,0,0,0,0,0,0,0,0,0,0,0,0,0,0,0,0,0,0,0,0,0,0,0,0,0,0,0,0,0,0,0,0,0,0,0,0],"id":14,"left_children":[1,3,5,7,9,11,13,15,17,19,-1,21,-1,-1,23,-1,25,-1,27,29,31,-1,33,35,37,-1,-1,39,41,43,45,-1,-1,-1,-1,-1,47,49,51,-1,-1,-1,-1,-1,-1,-1,-1,-1,-1,-1,-1,-1,-1],"loss_changes":[1.7108418E2,3.1335193E2,4.1754555E1,3.838732E1,1.1052344E2,4.2040504E1,3.6893867E1,1.5066396E1,9.790516E0,6.802342E1,0E0,1.678833E1,0E0,0E0,1.9482086E1,0E0,4.9597982E-1,0E0,3.7842941E0,7.285872E1,2.4981285E1,0E0,2.217699E0,6.675911E0,9.155796E0,0E0,0E0,9.135666E-1,1.7188487E0,2.6405716E0,4.527951E1,0E0,0E0,0E0,0E0,0E0,2.199379E0,9.062076E0,8.97369E0,0E0,0E0,0E0,0E0,0E0,0E0,0E0,0E0,0E0,0E0,0E0,0E0,0E0,0E0],"parents":[2147483647,0,0,1,1,2,2,3,3,4,4,5,5,6,6,7,7,8,8,9,9,11,11,14,14,16,16,18,18,19,19,20,20,22,22,23,23,24,24,27,27,28,28,29,29,30,30,36,36,37,37,38,38],"right_children":[2,4,6,8,10,12,14,16,18,20,-1,22,-1,-1,24,-1,26,-1,28,30,32,-1,34,36,38,-1,-1,40,42,44,46,-1,-1,-1,-1,-1,48,50,52,-1,-1,-1,-1,-1,-1,-1,-1,-1,-1,-1,-1,-1,-1],"split_conditions":[1.0435107E2,7.529187E-1,6.32E0,6.158677E-1,3.777E1,6.2222223E0,3.8688E0,2.5037036E-7,6.2E1,9.6E1,-2.5550157E-1,6.7908E0,-1.4701991E-1,-7.628169E-2,1.7471947E1,-9.6363865E-2,2.7518415E1,-2.6975391E-2,5.9473686E0,1.6129032E0,1.06899396E-1,-4.7279127E-2,1.1453658E2,2.1257751E1,5.5855E0,6.651497E-3,-1.3792383E-2,4.4250485E-1,6E0,9.4601E0,2.3888888E0,5.373096E-2,-7.53514E-2,6.164152E-2,1.4245932E-2,9.216047E-3,8.752E0,3.1961591E0,1.2644628E0,2.9885788E-2,5.1936198E-2,-4.4508278E-4,3.179678E-2,-4.262438E-2,2.2738725E-3,-2.2794051E-1,-8.5944764E-2,8.640021E-2,5.771787E-2,-4.1934468E-2,2.2030812E-2,4.664761E-2,1.4232764E-2],"split_indices":[39,88,4,88,109,4,133,123,132,38,0,135,0,0,16,0,40,0,75,51,100,0,39,111,112,0,0,118,61,133,105,0,0,0,0,0,133,76,34,0,0,0,0,0,0,0,0,0,0,0,0,0,0],"split_type":[0,0,0,0,0,0,0,0,0,0,0,0,0,0,0,0,0,0,0,0,0,0,0,0,0,0,0,0,0,0,0,0,0,0,0,0,0,0,0,0,0,0,0,0,0,0,0,0,0,0,0,0,0],"sum_hessian":[3.66E2,1.54E2,2.12E2,9E1,6.4E1,2.4E1,1.88E2,1.7E1,7.3E1,5.2E1,1.2E1,1.9E1,5E0,6E0,1.82E2,7E0,1E1,5E0,6.8E1,3.8E1,1.4E1,8E0,1.1E1,5.5E1,1.27E2,5E0,5E0,5.2E1,1.6E1,1.2E1,2.6E1,9E0,5E0,6E0,5E0,5E0,5E1,2.4E1,1.03E2,1.1E1,4.1E1,7E0,9E0,5E0,7E0,1.4E1,1.2E1,2.2E1,2.8E1,7E0,1.7E1,7.1E1,3.2E1],"tree_param":{"num_deleted":"0","num_feature":"139","num_nodes":"53","size_leaf_vector":"1"}},{"base_weights":[-5.78051E-2,-9.0430397E-1,5.018716E-1,3.1504437E-1,-2.6318762E0,6.658776E-1,-9.335914E-1,7.047634E-1,-8.5086596E-1,-1.147133E0,-3.8645356E0,-9.696718E-2,7.3996395E-1,-1.5153694E-1,1.08218625E-1,-2.7003312E-2,8.5646623E-1,-2.5621718E-1,-9.669026E-2,-2.2379472E0,-2.95593E-1,-2.4302426E-1,-1.6335875E0,-2.199941E-1,8.9570427E-1,-3.977288E-2,5.510385E-1,1.1331285E0,6.9387174E-1,-5.9013035E-2,2.7109897E-1,-3.800264E-2,-1.6980675E-1,-4.9543988E-2,1.3462369E-1,1.1342415E-2,-1.4974385E-1,5.983163E-2,-5.649843E-1,1.0678197E0,2.0626663E-1,6.310733E-2,-6.8601216E-3,3.7031557E-2,6.382375E-2,7.6771206E-3,3.9105635E-2,-1.1341997E-2,3.6192738E-2,-1.6114753E-2,2.5351817E-2,-9.0007916E-2,2.475416E-3,5.6899518E-2,1.151746E-2,-2.8123328E-2,1.7419998E-2],"categories":[],"categories_nodes":[],"categories_segments":[],"categories_sizes":[],"default_left":[0,0,0,0,0,0,0,0,0,0,0,0,0,0,0,0,0,0,0,0,0,0,0,0,0,0,0,0,0,0,0,0,0,0,0,0,0,0,0,0,0,0,0,0,0,0,0,0,0,0,0,0,0,0,0,0,0],"id":15,"left_children":[1,3,5,7,9,11,13,15,17,19,21,-1,23,-1,25,-1,27,29,-1,31,33,-1,35,37,39,-1,41,43,45,-1,47,-1,-1,-1,49,-1,-1,-1,51,53,55,-1,-1,-1,-1,-1,-1,-1,-1,-1,-1,-1,-1,-1,-1,-1,-1],"loss_changes":[1.8095857E2,3.2101904E2,5.4769295E1,4.1493626E1,1.1086841E2,4.1388412E1,5.2763885E1,1.3303959E1,1.43158E1,2.720464E1,6.760501E1,0E0,3.0396889E1,0E0,7.2411456E0,0E0,1.9577599E0,8.116177E0,0E0,1.9670586E1,5.5176272E0,0E0,3.107048E1,1.4849028E1,2.0427078E1,0E0,6.046133E0,2.3613167E-1,1.8347588E0,0E0,2.6440911E0,0E0,0E0,0E0,2.2053628E0,0E0,0E0,0E0,1.830525E1,7.906311E0,4.1294165E0,0E0,0E0,0E0,0E0,0E0,0E0,0E0,0E0,0E0,0E0,0E0,0E0,0E0,0E0,0E0,0E0],"parents":[2147483647,0,0,1,1,2,2,3,3,4,4,5,5,6,6,7,7,8,8,9,9,10,10,12,12,14,14,16,16,17,17,19,19,20,20,22,22,23,23,24,24,26,26,27,27,28,28,30,30,34,34,38,38,39,39,40,40],"right_children":[2,4,6,8,10,12,14,16,18,20,22,-1,24,-1,26,-1,28,30,-1,32,34,-1,36,38,40,-1,42,44,46,-1,48,-1,-1,-1,50,-1,-1,-1,52,54,56,-1,-1,-1,-1,-1,-1,-1,-1,-1,-1,-1,-1,-1,-1,-1,-1],"split_conditions":[1.042173E2,7.822222E1,2E0,4.513889E-1,2.5238094E0,3.859E0,1.018054E1,2.8079786E0,1.75E2,1.04E0,1.8353462E0,-9.696718E-2,1.7959183E0,-1.5153694E-1,3.724764E1,-2.7003312E-2,4.070523E0,8.2E1,-9.669026E-2,1.0175826E2,9.047837E0,-2.4302426E-1,2.5333334E1,6.0425E0,1.01973335E2,-3.977288E-2,1.2945E1,3.1195652E0,1.978022E-1,-5.9013035E-2,1.0207939E0,-3.800264E-2,-1.6980675E-1,-4.9543988E-2,6.1771E0,1.1342415E-2,-1.4974385E-1,5.983163E-2,4E0,7.384004E0,1.6555556E0,6.310733E-2,-6.8601216E-3,3.7031557E-2,6.382375E-2,7.6771206E-3,3.9105635E-2,-1.1341997E-2,3.6192738E-2,-1.6114753E-2,2.5351817E-2,-9.0007916E-2,2.475416E-3,5.6899518E-2,1.151746E-2,-2.8123328E-2,1.7419998E-2],"split_indices":[39,130,58,118,57,134,134,45,37,88,94,0,58,0,10,0,4,38,0,130,27,0,10,134,130,0,133,57,63,0,76,0,0,0,134,0,0,0,103,112,51,0,0,0,0,0,0,0,0,0,0,0,0,0,0,0,0],"split_type":[0,0,0,0,0,0,0,0,0,0,0,0,0,0,0,0,0,0,0,0,0,0,0,0,0,0,0,0,0,0,0,0,0,0,0,0,0,0,0,0,0,0,0,0,0,0,0,0,0,0,0,0,0,0,0,0,0],"sum_hessian":[3.8E2,1.51E2,2.29E2,8.9E1,6.2E1,2.06E2,2.3E1,6.7E1,2.2E1,2.9E1,3.3E1,5E0,2.01E2,7E0,1.6E1,7E0,6E1,1.5E1,7E0,1.2E1,1.7E1,2.2E1,1.1E1,2.8E1,1.73E2,5E0,1.1E1,2E1,4E1,5E0,1E1,6E0,6E0,6E0,1.1E1,5E0,6E0,5E0,2.3E1,1.38E2,3.5E1,5E0,6E0,7E0,1.3E1,6E0,3.4E1,5E0,5E0,5E0,6E0,7E0,1.6E1,1.27E2,1.1E1,5E0,3E1],"tree_param":{"num_deleted":"0","num_feature":"139","num_nodes":"57","size_leaf_vector":"1"}},{"base_weights":[5.6443203E-2,-6.819092E-1,5.4841685E-1,4.1722876E-1,-2.2724848E0,-4.065623E-1,7.6113296E-1,7.278413E-1,-5.19455E-1,-2.9612286E0,-2.3640874E-1,-1.4921436E0,6.4668477E-1,9.499144E-1,4.5592353E-2,8.410408E-1,-2.6273021E-2,1.1837585E-2,-8.1782955E-1,-4.1019835E0,-1.0855837E0,-3.944483E-2,8.698682E-3,-2.267964E0,1.3633017E-2,-1.8006137E-2,1.073416E0,1.1380548E0,4.5111188E-1,2.7475598E-1,-6.112032E-2,9.617915E-1,6.0497254E-1,-7.757034E-2,-1.1127126E-2,-1.0935219E-1,-4.437786E0,-1.213442E-1,-2.1269329E-1,-4.4904612E-2,-1.5915531E-1,3.3382904E-2,6.724985E-2,1.21182E0,4.2435706E-1,-6.9688275E-2,7.544877E-1,-1.7294336E-2,4.2548722E-1,6.570526E-2,3.9451644E-2,3.668792E-2,1.028911E-2,-1.2045262E-1,-2.4463816E-1,-5.240498E-2,3.986981E-2,7.705762E-2,5.0798953E-2,-7.1305814E-3,4.6029978E-2,5.4443903E-2,1.18021015E-2,3.359832E-2,3.0695538E-3],"categories":[],"categories_nodes":[],"categories_segments":[],"categories_sizes":[],"default_left":[0,0,0,0,0,0,0,0,0,0,0,0,0,0,0,0,0,0,0,0,0,0,0,0,0,0,0,0,0,0,0,0,0,0,0,0,0,0,0,0,0,0,0,0,0,0,0,0,0,0,0,0,0,0,0,0,0,0,0,0,0,0,0,0,0],"id":16,"left_children":[1,3,5,7,9,11,13,15,17,19,21,23,25,27,29,31,-1,-1,33,35,37,-1,-1,39,-1,-1,41,43,45,47,-1,49,51,-1,-1,-1,53,-1,55,-1,-1,-1,-1,57,59,-1,61,-1,63,-1,-1,-1,-1,-1,-1,-1,-1,-1,-1,-1,-1,-1,-1,-1,-1],"loss_changes":[1.307807E2,2.5269788E2,4.418756E1,2.5399418E1,8.203772E1,4.6700363E1,2.386599E1,9.663681E0,5.157544E0,8.969156E1,3.7649484E0,2.80018E1,9.408921E0,1.2624901E1,1.1377874E1,1.1284676E0,0E0,0E0,6.6417713E0,7.656494E0,2.0558363E1,0E0,0E0,1.4692062E1,0E0,0E0,7.5494385E-1,4.803009E0,2.3439222E1,3.2343276E0,0E0,1.2760048E0,1.0314369E0,0E0,0E0,0E0,8.519684E0,0E0,1.0961773E1,0E0,0E0,0E0,0E0,4.303421E0,3.2261815E0,0E0,5.81069E0,0E0,2.381785E0,0E0,0E0,0E0,0E0,0E0,0E0,0E0,0E0,0E0,0E0,0E0,0E0,0E0,0E0,0E0,0E0],"parents":[2147483647,0,0,1,1,2,2,3,3,4,4,5,5,6,6,7,7,8,8,9,9,10,10,11,11,12,12,13,13,14,14,15,15,18,18,19,19,20,20,23,23,26,26,27,27,28,28,29,29,31,31,32,32,36,36,38,38,43,43,44,44,46,46,48,48],"right_children":[2,4,6,8,10,12,14,16,18,20,22,24,26,28,30,32,-1,-1,34,36,38,-1,-1,40,-1,-1,42,44,46,48,-1,50,52,-1,-1,-1,54,-1,56,-1,-1,-1,-1,58,60,-1,62,-1,64,-1,-1,-1,-1,-1,-1,-1,-1,-1,-1,-1,-1,-1,-1,-1,-1],"split_conditions":[1.042173E2,7.822222E1,7.2E1,4.513889E-1,4.7147143E-1,1.12217E1,5E0,2.224E1,1.2628388E1,2.6170213E0,6.2E1,2.323913E0,1.7947369E0,5.3301385E2,7E0,3.3024878E2,-2.6273021E-2,1.1837585E-2,6.0774655E0,2.777778E-1,4.642857E-1,-3.944483E-2,8.698682E-3,1.9545E0,1.3633017E-2,-1.8006137E-2,1.1832802E0,2.2186255E1,1.52E1,3.887157E2,-6.112032E-2,4.676807E0,2.8571038E0,-7.757034E-2,-1.1127126E-2,-1.0935219E-1,8.695E2,-1.213442E-1,1.768E1,-4.4904612E-2,-1.5915531E-1,3.3382904E-2,6.724985E-2,7.45679E0,4.956426E1,-6.9688275E-2,6.8850827E0,-1.7294336E-2,9E0,6.570526E-2,3.9451644E-2,3.668792E-2,1.028911E-2,-1.2045262E-1,-2.4463816E-1,-5.240498E-2,3.986981E-2,7.705762E-2,5.0798953E-2,-7.1305814E-3,4.6029978E-2,5.4443903E-2,1.18021015E-2,3.359832E-2,3.0695538E-3],"split_indices":[39,130,132,118,52,133,75,135,111,105,132,45,45,21,97,21,0,0,75,34,63,0,0,45,0,0,117,111,3,21,0,112,45,0,0,0,20,0,3,0,0,0,0,4,22,0,112,0,104,0,0,0,0,0,0,0,0,0,0,0,0,0,0,0,0],"split_type":[0,0,0,0,0,0,0,0,0,0,0,0,0,0,0,0,0,0,0,0,0,0,0,0,0,0,0,0,0,0,0,0,0,0,0,0,0,0,0,0,0,0,0,0,0,0,0,0,0,0,0,0,0,0,0,0,0,0,0,0,0,0,0,0,0],"sum_hessian":[3.58E2,1.43E2,2.15E2,8.5E1,5.8E1,3.9E1,1.76E2,6.4E1,2.1E1,4.3E1,1.5E1,1.9E1,2E1,1.39E2,3.7E1,5.9E1,5E0,6E0,1.5E1,2.6E1,1.7E1,6E0,9E0,1.3E1,6E0,6E0,1.4E1,1E2,3.9E1,3.2E1,5E0,3.7E1,2.2E1,6E0,9E0,5E0,2.1E1,6E0,1.1E1,6E0,7E0,7E0,7E0,9E1,1E1,5E0,3.4E1,6E0,2.6E1,1E1,2.7E1,1.6E1,6E0,5E0,1.6E1,6E0,5E0,3.1E1,5.9E1,5E0,5E0,2E1,1.4E1,1.5E1,1.1E1],"tree_param":{"num_deleted":"0","num_feature":"139","num_nodes":"65","size_leaf_vector":"1"}},{"base_weights":[-3.9228622E-2,6.15558E-1,-6.659433E-1,-4.1070908E-1,8.235495E-1,-1.9690607E0,4.760395E-1,3.9422978E-2,-7.577061E-2,9.689728E-1,-6.6593975E-2,-2.571305E0,-2.5593758E-1,5.9393597E-1,-7.448222E-2,4.9184138E-1,-2.9895252E-2,7.9563236E-1,1.4117835E0,2.3502775E-2,-6.4597577E-1,1.8384846E-2,-3.0424922E0,2.8397053E-1,-8.038551E-2,8.020484E-1,8.5467726E-2,4.182377E-2,-5.354158E-3,3.225641E-3,8.530565E-1,1.5266552E0,3.0106364E-2,-4.3690775E-2,-1.5523672E-2,3.0013582E-2,-2.8328303E-2,-3.9424767E0,-1.6189276E0,3.8229983E-2,-1.4080702E-2,-8.82426E-3,8.9959174E-1,-6.743594E-2,4.4045317E-1,4.4866614E-2,4.9199327E-3,8.1520624E-2,4.199455E-2,-2.1256001E-1,-9.223438E-2,2.6394508E-3,-1.0431131E-1,4.874657E-2,1.7379956E-2,5.4706456E-3,4.10868E-2],"categories":[],"categories_nodes":[],"categories_segments":[],"categories_sizes":[],"default_left":[0,0,0,0,0,0,0,0,0,0,0,0,0,0,0,0,0,0,0,0,0,0,0,0,0,0,0,0,0,0,0,0,0,0,0,0,0,0,0,0,0,0,0,0,0,0,0,0,0,0,0,0,0,0,0,0,0],"id":17,"left_children":[1,3,5,7,9,11,13,15,-1,17,19,21,23,25,-1,27,-1,29,31,-1,33,35,37,39,-1,41,43,-1,-1,-1,45,47,-1,-1,-1,-1,-1,49,51,-1,-1,-1,53,-1,55,-1,-1,-1,-1,-1,-1,-1,-1,-1,-1,-1,-1],"loss_changes":[1.5101367E2,3.87601E1,2.807072E2,1.5474872E1,1.9481674E1,9.013318E1,2.429122E1,6.9258695E0,0E0,8.778397E0,7.1439934E0,7.937076E1,1.7972536E1,1.00900345E1,0E0,2.979309E0,0E0,3.9334373E0,2.335991E0,0E0,5.6955147E-1,4.084221E0,6.408264E1,5.1083775E0,0E0,6.6493263E0,1.5358392E1,0E0,0E0,0E0,2.8520508E0,7.6833344E-1,0E0,0E0,0E0,0E0,0E0,1.3529846E1,1.8077518E1,0E0,0E0,0E0,2.2395058E0,0E0,2.9393706E0,0E0,0E0,0E0,0E0,0E0,0E0,0E0,0E0,0E0,0E0,0E0,0E0],"parents":[2147483647,0,0,1,1,2,2,3,3,4,4,5,5,6,6,7,7,9,9,10,10,11,11,12,12,13,13,15,15,17,17,18,18,20,20,21,21,22,22,23,23,25,25,26,26,30,30,31,31,37,37,38,38,42,42,44,44],"right_children":[2,4,6,8,10,12,14,16,-1,18,20,22,24,26,-1,28,-1,30,32,-1,34,36,38,40,-1,42,44,-1,-1,-1,46,48,-1,-1,-1,-1,-1,50,52,-1,-1,-1,54,-1,56,-1,-1,-1,-1,-1,-1,-1,-1,-1,-1,-1,-1],"split_conditions":[8.097507E-1,9.677E0,2.07E2,1.8E0,1.3656509E1,7.043159E0,1.1883334E0,9.61173E-1,-7.577061E-2,1.1682E0,3.4E1,6.625E1,7.113E0,6.989896E0,-7.448222E-2,4.1407654E1,-2.9895252E-2,2.282E2,5.1E1,2.3502775E-2,6.9753084E0,1.75E2,2.6170213E0,4.8696855E-1,-8.038551E-2,1.7446809E0,1.5269485E1,4.182377E-2,-5.354158E-3,3.225641E-3,1.17831E1,1.266238E1,3.0106364E-2,-4.3690775E-2,-1.5523672E-2,3.0013582E-2,-2.8328303E-2,6.305E1,2.96E0,3.8229983E-2,-1.4080702E-2,-8.82426E-3,1.29697E1,-6.743594E-2,1.2891E1,4.4866614E-2,4.9199327E-3,8.1520624E-2,4.199455E-2,-2.1256001E-1,-9.223438E-2,2.6394508E-3,-1.0431131E-1,4.874657E-2,1.7379956E-2,5.4706456E-3,4.10868E-2],"split_indices":[46,135,37,105,27,28,46,118,0,117,1,129,135,112,0,15,0,20,1,0,4,37,105,52,0,93,111,0,0,0,133,133,0,0,0,0,0,23,105,0,0,0,133,0,133,0,0,0,0,0,0,0,0,0,0,0,0],"split_type":[0,0,0,0,0,0,0,0,0,0,0,0,0,0,0,0,0,0,0,0,0,0,0,0,0,0,0,0,0,0,0,0,0,0,0,0,0,0,0,0,0,0,0,0,0,0,0,0,0,0,0,0,0,0,0,0,0],"sum_hessian":[3.66E2,1.79E2,1.87E2,3E1,1.49E2,8.7E1,1E2,2.2E1,8E0,1.28E2,2.1E1,6.4E1,2.3E1,9.5E1,5E0,1.3E1,9E0,9.4E1,3.4E1,1.1E1,1E1,1E1,5.4E1,1.7E1,6E0,6.7E1,2.8E1,8E0,5E0,7E0,8.7E1,2.9E1,5E0,5E0,5E0,5E0,5E0,3.2E1,2.2E1,9E0,8E0,6E0,6.1E1,5E0,2.3E1,8.2E1,5E0,2.4E1,5E0,2.7E1,5E0,5E0,1.7E1,5.3E1,8E0,1.3E1,1E1],"tree_param":{"num_deleted":"0","num_feature":"139","num_nodes":"57","size_leaf_vector":"1"}},{"base_weights":[-3.5842057E-2,-1.1153535E0,2.9980284E-1,-2.1097367E-1,-3.1749725E0,-1.7088556E-1,4.149342E-1,7.2183806E-1,-1.5505545E0,3.057081E-2,-4.466217E0,-8.1779045E-1,6.287237E-1,-2.1553693E-2,9.875086E-1,-1.5280887E-1,-7.5575656E-1,-2.668986E-1,-9.800702E-2,-2.15008E0,-2.727535E-2,3.48153E-1,9.7244614E-1,5.3986546E-2,2.0396179E-2,-2.89388E-1,-8.5899524E-2,-1.6547333E-1,-1.3222256E0,3.23993E-1,-6.84629E-2,4.8576882E-1,-4.811881E-1,7.80526E-1,6.892437E-2,1.332322E-2,-5.3746767E-2,-9.275493E-2,-2.8449079E-2,4.9809525E-3,4.71558E-2,6.407067E-3,3.877007E-2,-1.866525E-4,-4.791349E-2,-1.2622218E-2,4.356874E-2],"categories":[],"categories_nodes":[],"categories_segments":[],"categories_sizes":[],"default_left":[0,0,0,0,0,0,0,0,0,0,0,0,0,0,0,0,0,0,0,0,0,0,0,0,0,0,0,0,0,0,0,0,0,0,0,0,0,0,0,0,0,0,0,0,0,0,0],"id":18,"left_children":[1,3,5,7,9,-1,11,13,15,-1,17,19,21,-1,23,-1,25,-1,-1,27,29,31,33,-1,-1,35,-1,-1,37,39,-1,41,43,45,-1,-1,-1,-1,-1,-1,-1,-1,-1,-1,-1,-1,-1],"loss_changes":[1.4055705E2,1.706965E2,1.2810683E2,8.234173E1,1.3962704E2,0E0,7.641473E1,1.2371183E1,3.0000252E1,0E0,3.541516E1,4.5228745E1,2.3385292E1,0E0,1.2699718E0,0E0,8.029191E0,0E0,0E0,1.0980988E1,1.3642719E1,1.5869623E1,7.496071E0,0E0,0E0,6.399509E0,0E0,0E0,3.3597012E0,3.1010947E0,0E0,1.2123142E1,4.552125E0,7.4459763E0,0E0,0E0,0E0,0E0,0E0,0E0,0E0,0E0,0E0,0E0,0E0,0E0,0E0],"parents":[2147483647,0,0,1,1,2,2,3,3,4,4,6,6,7,7,8,8,10,10,11,11,12,12,14,14,16,16,19,19,20,20,21,21,22,22,25,25,28,28,29,29,31,31,32,32,33,33],"right_children":[2,4,6,8,10,-1,12,14,16,-1,18,20,22,-1,24,-1,26,-1,-1,28,30,32,34,-1,-1,36,-1,-1,38,40,-1,42,44,46,-1,-1,-1,-1,-1,-1,-1,-1,-1,-1,-1,-1,-1],"split_conditions":[8.25247E0,7.984E0,5.48E1,3.0916666E1,7.7154887E-1,-1.7088556E-1,9.302E0,3.5675E1,1.1183898E2,3.057081E-2,7.9710144E-1,2.2623906E0,3.759167E1,-2.1553693E-2,4.1791E0,-1.5280887E-1,7.8518516E-1,-2.668986E-1,-9.800702E-2,9.5E1,6.5863E0,4.513889E-1,1.3529412E0,5.3986546E-2,2.0396179E-2,6.858E0,-8.5899524E-2,-1.6547333E-1,6.4222485E2,2.4E0,-6.84629E-2,1.9139785E0,2.128E3,1.46E2,6.892437E-2,1.332322E-2,-5.3746767E-2,-9.275493E-2,-2.8449079E-2,4.9809525E-3,4.71558E-2,6.407067E-3,3.877007E-2,-1.866525E-4,-4.791349E-2,-1.2622218E-2,4.356874E-2],"split_indices":[133,135,18,10,46,0,135,109,129,0,63,76,10,0,133,0,106,0,0,129,135,118,87,0,0,133,0,0,22,57,0,51,19,132,0,0,0,0,0,0,0,0,0,0,0,0,0],"split_type":[0,0,0,0,0,0,0,0,0,0,0,0,0,0,0,0,0,0,0,0,0,0,0,0,0,0,0,0,0,0,0,0,0,0,0,0,0,0,0,0,0,0,0,0,0,0,0],"sum_hessian":[3.86E2,9.1E1,2.95E2,6.4E1,2.7E1,8E0,2.87E2,3.8E1,2.6E1,7E0,2E1,4.2E1,2.45E2,7E0,3.1E1,8E0,1.8E1,1.4E1,6E0,1.5E1,2.7E1,1.36E2,1.09E2,2.6E1,5E0,1.3E1,5E0,5E0,1E1,2.2E1,5E0,1.17E2,1.9E1,7.6E1,3.3E1,8E0,5E0,5E0,5E0,1.7E1,5E0,5.3E1,6.4E1,1E1,9E0,6E0,7E1],"tree_param":{"num_deleted":"0","num_feature":"139","num_nodes":"47","size_leaf_vector":"1"}},{"base_weights":[-6.217767E-2,-6.4379907E-1,4.666163E-1,6.96893E-3,-2.1910396E0,-1.3593212E-1,5.6372535E-1,4.0376547E-1,-2.136081E0,-2.7510175E-1,-3.650755E0,6.211372E-1,-5.2116144E-2,-1.1630075E0,5.755077E-1,-7.0664275E-1,-1.7474274E-1,-4.5851603E-2,1.7119192E-1,-8.944961E-2,-4.139596E0,1.0533998E0,4.2682874E-1,-8.421012E-2,-2.2398902E-2,6.774059E-1,-5.49916E-2,-6.565726E-2,8.816719E-4,-2.5142988E-3,2.1574661E-2,-2.3978971E-1,-9.773012E-2,4.4016913E-1,1.2245778E0,5.289987E-1,-3.9174077E-1,3.910678E-2,-4.857653E-2,8.0224965E-3,3.4848347E-2,6.616263E-2,1.8954737E-2,3.574951E-4,3.4748014E-2,-3.9688658E-2,-5.567362E-3],"categories":[],"categories_nodes":[],"categories_segments":[],"categories_sizes":[],"default_left":[0,0,0,0,0,0,0,0,0,0,0,0,0,0,0,0,0,0,0,0,0,0,0,0,0,0,0,0,0,0,0,0,0,0,0,0,0,0,0,0,0,0,0,0,0,0,0],"id":19,"left_children":[1,3,5,7,9,-1,11,13,15,17,19,21,-1,23,25,27,-1,-1,29,-1,31,33,35,-1,-1,37,-1,-1,-1,-1,-1,-1,-1,39,41,43,45,-1,-1,-1,-1,-1,-1,-1,-1,-1,-1],"loss_changes":[1.1563462E2,1.8024939E2,6.2468082E1,1.08857544E2,1.4722205E2,0E0,1.8351032E1,2.9730072E1,3.6376045E1,7.032735E0,1.9897491E1,1.51729355E1,0E0,3.34488E0,1.747501E1,4.855182E0,0E0,0E0,8.864628E-1,0E0,2.3603241E1,5.4443626E0,1.1079548E1,0E0,0E0,1.6820286E1,0E0,0E0,0E0,0E0,0E0,0E0,0E0,8.9380956E-1,3.1691895E0,1.0041428E1,1.602525E0,0E0,0E0,0E0,0E0,0E0,0E0,0E0,0E0,0E0,0E0],"parents":[2147483647,0,0,1,1,2,2,3,3,4,4,6,6,7,7,8,8,9,9,10,10,11,11,13,13,14,14,15,15,18,18,20,20,21,21,22,22,25,25,33,33,34,34,35,35,36,36],"right_children":[2,4,6,8,10,-1,12,14,16,18,20,22,-1,24,26,28,-1,-1,30,-1,32,34,36,-1,-1,38,-1,-1,-1,-1,-1,-1,-1,40,42,44,46,-1,-1,-1,-1,-1,-1,-1,-1,-1,-1],"split_conditions":[1.2167E1,9.422222E1,8.07117E0,1.5986395E0,1.6129032E0,-1.3593212E-1,2.224E1,5.7988167E-1,2.4775E0,1.046401E1,1.2797434E1,5.4806054E-1,-5.2116144E-2,1.7E1,2.3336537E0,1.344E0,-1.7474274E-1,-4.5851603E-2,4.2666668E-1,-8.944961E-2,6.2E1,3.075367E2,7.6666664E1,-8.421012E-2,-2.2398902E-2,7E0,-5.49916E-2,-6.565726E-2,8.816719E-4,-2.5142988E-3,2.1574661E-2,-2.3978971E-1,-9.773012E-2,6.4833336E1,2.3304E1,1.28859E1,6E0,3.910678E-2,-4.857653E-2,8.0224965E-3,3.4848347E-2,6.616263E-2,1.8954737E-2,3.574951E-4,3.4748014E-2,-3.9688658E-2,-5.567362E-3],"split_indices":[135,130,133,87,51,0,135,106,45,133,111,34,0,1,58,58,0,0,34,0,1,21,9,0,0,98,0,0,0,0,0,0,0,130,134,135,75,0,0,0,0,0,0,0,0,0,0],"split_type":[0,0,0,0,0,0,0,0,0,0,0,0,0,0,0,0,0,0,0,0,0,0,0,0,0,0,0,0,0,0,0,0,0,0,0,0,0,0,0,0,0,0,0,0,0,0,0],"sum_hessian":[3.74E2,1.78E2,1.96E2,1.26E2,5.2E1,5E0,1.91E2,1.07E2,1.9E1,2.3E1,2.9E1,1.85E2,6E0,1E1,9.7E1,1E1,9E0,9E0,1.4E1,7E0,2.2E1,5.6E1,1.29E2,5E0,5E0,9.2E1,5E0,5E0,5E0,8E0,6E0,1.6E1,6E0,1.3E1,4.3E1,1.15E2,1.4E1,8.7E1,5E0,7E0,6E0,3.8E1,5E0,2.8E1,8.7E1,5E0,9E0],"tree_param":{"num_deleted":"0","num_feature":"139","num_nodes":"47","size_leaf_vector":"1"}},{"base_weights":[1.6661098E-2,-4.4559813E-1,6.066234E-1,5.5090263E-2,-1.6703775E0,-8.67505E-1,7.4447787E-1,-8.818041E-1,5.9395784E-1,-1.0264424E0,-1.9254166E-1,-8.238604E-2,1.0574431E-3,8.487837E-1,-1.5830386E-1,-1.3385205E-1,-5.340708E-1,-7.2531425E-3,6.6947174E-1,-2.6586168E0,-3.811212E-1,9.760999E-1,8.084421E-2,-4.5433175E-2,2.3006797E-1,-2.9320428E-1,-9.686916E-2,-2.5884032E-3,7.309229E-1,-2.1767591E-1,-6.1664034E-2,-6.7500986E-2,-1.10044226E-1,1.180742E0,7.656163E-1,-1.7340954E-2,2.750308E-1,2.141599E-2,-1.9785247E-3,-7.6944575E-2,-2.4804655E-3,3.89599E-2,1.90181E-2,-1.2745167E-2,2.011681E-2,7.034142E-2,4.7300905E-2,1.246202E-2,4.5551673E-2,2.1649458E-2,4.1346787E-3],"categories":[],"categories_nodes":[],"categories_segments":[],"categories_sizes":[],"default_left":[0,0,0,0,0,0,0,0,0,0,0,0,0,0,0,0,0,0,0,0,0,0,0,0,0,0,0,0,0,0,0,0,0,0,0,0,0,0,0,0,0,0,0,0,0,0,0,0,0,0,0],"id":20,"left_children":[1,3,5,7,9,11,13,15,17,19,-1,-1,-1,21,23,-1,25,-1,27,29,31,33,35,-1,37,39,-1,-1,41,-1,-1,-1,43,45,47,-1,49,-1,-1,-1,-1,-1,-1,-1,-1,-1,-1,-1,-1,-1,-1],"loss_changes":[1.055385E2,1.3316354E2,3.5192432E1,7.877737E1,8.4503876E1,1.0434974E1,1.4824158E1,3.4153305E1,5.6219444E0,5.1650578E1,0E0,0E0,0E0,1.3609055E1,5.1631694E0,0E0,1.5994489E1,0E0,4.0267296E0,2.8452148E1,9.569342E0,4.264862E0,1.8393618E0,0E0,6.584245E-1,1.2971712E1,0E0,0E0,1.1082649E0,0E0,0E0,0E0,2.329246E0,1.8001175E0,4.4285088E0,0E0,4.1991365E-1,0E0,0E0,0E0,0E0,0E0,0E0,0E0,0E0,0E0,0E0,0E0,0E0,0E0,0E0],"parents":[2147483647,0,0,1,1,2,2,3,3,4,4,5,5,6,6,7,7,8,8,9,9,13,13,14,14,16,16,18,18,19,19,20,20,21,21,22,22,24,24,25,25,28,28,32,32,33,33,34,34,36,36],"right_children":[2,4,6,8,10,12,14,16,18,20,-1,-1,-1,22,24,-1,26,-1,28,30,32,34,36,-1,38,40,-1,-1,42,-1,-1,-1,44,46,48,-1,50,-1,-1,-1,-1,-1,-1,-1,-1,-1,-1,-1,-1,-1,-1],"split_conditions":[1.0862222E2,9.422222E1,5.7988167E-1,3.5082873E-8,1.3541667E-1,3.8190475E1,1.144376E0,2.417484E2,6.1233413E-1,4.3243244E-1,-1.9254166E-1,-8.238604E-2,1.0574431E-3,4.2821045E1,1.4E1,-1.3385205E-1,7E0,-7.2531425E-3,6.5E1,5.481E0,1.05E0,1.6805E1,1.28216E1,-4.5433175E-2,1.8133333E1,1.3E1,-9.686916E-2,-2.5884032E-3,1.9564E3,-2.1767591E-1,-6.1664034E-2,-6.7500986E-2,5.9E1,8.7405E0,1.020585E1,-1.7340954E-2,1.2945E1,2.141599E-2,-1.9785247E-3,-7.6944575E-2,-2.4804655E-3,3.89599E-2,1.90181E-2,-1.2745167E-2,2.011681E-2,7.034142E-2,4.7300905E-2,1.246202E-2,4.5551673E-2,2.1649458E-2,4.1346787E-3],"split_indices":[39,130,106,123,117,10,88,22,88,63,0,0,0,16,2,0,97,0,132,134,46,110,133,0,3,2,0,0,20,0,0,0,2,133,133,0,133,0,0,0,0,0,0,0,0,0,0,0,0,0,0],"split_type":[0,0,0,0,0,0,0,0,0,0,0,0,0,0,0,0,0,0,0,0,0,0,0,0,0,0,0,0,0,0,0,0,0,0,0,0,0,0,0,0,0,0,0,0,0,0,0,0,0,0,0],"sum_hessian":[3.85E2,2.16E2,1.69E2,1.54E2,6.2E1,1.4E1,1.55E2,5.6E1,9.8E1,4.9E1,1.3E1,7E0,7E0,1.39E2,1.6E1,8E0,4.8E1,9E0,8.9E1,1.3E1,3.6E1,1.19E2,2E1,5E0,1.1E1,4.2E1,6E0,7E0,8.2E1,5E0,8E0,7E0,2.9E1,5.8E1,6.1E1,6E0,1.4E1,6E0,5E0,6E0,3.6E1,7.1E1,1.1E1,2.3E1,6E0,2.7E1,3.1E1,1.4E1,4.7E1,7E0,7E0],"tree_param":{"num_deleted":"0","num_feature":"139","num_nodes":"51","size_leaf_vector":"1"}},{"base_weights":[-9.714008E-2,-1.6522002E-1,-1.1809192E-2,5.331822E-2,-1.7309375E-1,4.2880535E-1,-3.432086E-1,5.554785E-1,-7.47156E-1,-1.1936425E0,3.1239805E-1,6.829126E-1,-3.502241E-1,-1.07126765E-1,-9.576808E-2,-1.5816622E0,3.145272E-1,5.0372344E-1,-8.436258E-1,4.0105645E-2,1.3076283E-2,1.1366273E-2,-5.330081E-2,1.3822001E-2,-3.1905945E-2,-5.5759616E-2,-1.9712171E-1,-2.0225557E-2,8.5009135E-2,4.5619067E-3,3.457826E-2,2.3306409E-2,-1.4429724E-1],"categories":[],"categories_nodes":[],"categories_segments":[],"categories_sizes":[],"default_left":[0,0,0,0,0,0,0,0,0,0,0,0,0,0,0,0,0,0,0,0,0,0,0,0,0,0,0,0,0,0,0,0,0],"id":21,"left_children":[1,-1,3,5,-1,7,9,11,13,15,17,19,21,-1,23,25,27,29,31,-1,-1,-1,-1,-1,-1,-1,-1,-1,-1,-1,-1,-1,-1],"loss_changes":[1.0560083E2,0E0,8.489416E1,5.5385628E1,0E0,2.886692E1,1.0128947E2,2.0206383E1,1.706454E1,4.672824E1,2.3206156E1,7.4250946E0,9.337253E0,0E0,3.0025449E0,6.4980865E1,1.7625513E1,6.832798E0,4.146925E1,0E0,0E0,0E0,0E0,0E0,0E0,0E0,0E0,0E0,0E0,0E0,0E0,0E0,0E0],"parents":[2147483647,0,0,2,2,3,3,5,5,6,6,7,7,8,8,9,9,10,10,11,11,12,12,14,14,15,15,16,16,17,17,18,18],"right_children":[2,-1,4,6,-1,8,10,12,14,16,18,20,22,-1,24,26,28,30,32,-1,-1,-1,-1,-1,-1,-1,-1,-1,-1,-1,-1,-1,-1],"split_conditions":[2.4609564E2,-1.6522002E-1,3.03E0,8.097507E-1,-1.7309375E-1,1.9395162E0,2.07E2,4.75536E2,2.860989E0,2.9130435E0,4.844912E1,1.2166667E1,6.4E1,-1.07126765E-1,2.128E3,6.905462E1,2.4489796E0,2.7427795E0,3.1480158E1,4.0105645E-2,1.3076283E-2,1.1366273E-2,-5.330081E-2,1.3822001E-2,-3.1905945E-2,-5.5759616E-2,-1.9712171E-1,-2.0225557E-2,8.5009135E-2,4.5619067E-3,3.457826E-2,2.3306409E-2,-1.4429724E-1],"split_indices":[21,0,44,46,0,51,37,21,45,57,40,3,126,0,19,9,76,94,16,0,0,0,0,0,0,0,0,0,0,0,0,0,0],"split_type":[0,0,0,0,0,0,0,0,0,0,0,0,0,0,0,0,0,0,0,0,0,0,0,0,0,0,0,0,0,0,0,0,0],"sum_hessian":[3.85E2,9E0,3.76E2,3.7E2,6E0,1.9E2,1.8E2,1.72E2,1.8E1,7.8E1,1.02E2,1.51E2,2.1E1,5E0,1.3E1,6.2E1,1.6E1,8.8E1,1.4E1,1.17E2,3.4E1,1.2E1,9E0,8E0,5E0,5.3E1,9E0,1.1E1,5E0,2.8E1,6E1,9E0,5E0],"tree_param":{"num_deleted":"0","num_feature":"139","num_nodes":"33","size_leaf_vector":"1"}},{"base_weights":[-8.427651E-2,-5.5109525E-1,4.5198292E-1,-1.6188871E0,3.5668415E-1,-3.373926E-1,6.365059E-1,-9.839128E-2,-2.0341134E0,-8.837931E-2,4.9623424E-1,8.588832E-3,-9.7670205E-2,7.1824443E-1,-6.747825E-2,2.0941982E-1,-4.5141116E-2,-2.9001384E0,-9.5543367E-1,6.7588836E-1,-6.872381E-2,-5.390221E-2,4.0333772E-1,8.491684E-1,1.7357285E-1,2.4087636E-2,-1.07760425E-4,-3.5669572E0,-2.7149303E-2,-1.9351968E-1,-1.7037322E-1,8.9528865E-1,5.8634096E-1,4.9041465E-1,-5.11453E-1,6.864127E-2,-2.4871418E-1,1.2049029E0,7.3718524E-1,2.7192874E-2,3.0441407E-2,-1.12257086E-1,-2.0028241E-1,3.4402702E-2,-2.6823658E-2,7.070496E-2,2.3362188E-2,3.246826E-2,5.1695495E-3,3.5212837E-2,1.1853111E-2,-3.7152257E-2,-2.0112E-3,-4.162846E-2,8.407871E-3,3.8691085E-2,6.501532E-2,-1.3314441E-3,4.0217593E-2,-1.0676262E-2,7.6881507E-3],"categories":[],"categories_nodes":[],"categories_segments":[],"categories_sizes":[],"default_left":[0,0,0,0,0,0,0,0,0,0,0,0,0,0,0,0,0,0,0,0,0,0,0,0,0,0,0,0,0,0,0,0,0,0,0,0,0,0,0,0,0,0,0,0,0,0,0,0,0,0,0,0,0,0,0,0,0,0,0,0,0],"id":22,"left_children":[1,3,5,7,9,11,13,15,17,-1,19,21,-1,23,-1,25,-1,27,29,31,33,-1,35,37,39,-1,-1,41,-1,43,-1,45,47,49,51,-1,53,55,57,59,-1,-1,-1,-1,-1,-1,-1,-1,-1,-1,-1,-1,-1,-1,-1,-1,-1,-1,-1,-1,-1],"loss_changes":[9.462575E1,1.9637997E2,2.5850548E1,5.851541E1,3.3485767E1,1.9026516E1,2.4183727E1,5.388938E0,6.5423035E1,0E0,1.0602144E1,1.2874285E1,0E0,9.693466E0,0E0,9.229398E-1,0E0,6.0934967E1,6.2860626E1,1.0271454E0,6.6870437E0,0E0,1.42488785E1,3.5335846E0,1.7673986E0,0E0,0E0,8.9826355E0,0E0,8.53227E0,0E0,4.0028286E0,1.7286739E0,4.8317647E-1,1.6071055E0,0E0,3.547499E0,2.1961212E-2,4.4847603E0,7.031222E-1,0E0,0E0,0E0,0E0,0E0,0E0,0E0,0E0,0E0,0E0,0E0,0E0,0E0,0E0,0E0,0E0,0E0,0E0,0E0,0E0,0E0],"parents":[2147483647,0,0,1,1,2,2,3,3,4,4,5,5,6,6,7,7,8,8,10,10,11,11,13,13,15,15,17,17,18,18,19,19,20,20,22,22,23,23,24,24,27,27,29,29,31,31,32,32,33,33,34,34,36,36,37,37,38,38,39,39],"right_children":[2,4,6,8,10,12,14,16,18,-1,20,22,-1,24,-1,26,-1,28,30,32,34,-1,36,38,40,-1,-1,42,-1,44,-1,46,48,50,52,-1,54,56,58,60,-1,-1,-1,-1,-1,-1,-1,-1,-1,-1,-1,-1,-1,-1,-1,-1,-1,-1,-1,-1,-1],"split_conditions":[1.08478264E2,1.9094567E0,9.256E0,1.6129032E0,1.7204301E-1,5.1E1,1.7E1,5.5771E0,2.6170213E0,-8.837931E-2,1.9444444E0,5.7988167E-1,-9.7670205E-2,5.3301385E2,-6.747825E-2,4.8696855E-1,-4.5141116E-2,2.9130435E0,3.5E0,4.676807E0,1.8875E3,-5.390221E-2,4.395085E-1,8.743E0,2.2832563E0,2.4087636E-2,-1.07760425E-4,6.5108E0,-2.7149303E-2,8E0,-1.7037322E-1,2.08588E1,1.2048067E1,6.525E1,1.00125E2,6.864127E-2,1.2064187E1,1.7591037E0,4.6219883E1,1.875E1,3.0441407E-2,-1.12257086E-1,-2.0028241E-1,3.4402702E-2,-2.6823658E-2,7.070496E-2,2.3362188E-2,3.246826E-2,5.1695495E-3,3.5212837E-2,1.1853111E-2,-3.7152257E-2,-2.0112E-3,-4.162846E-2,8.407871E-3,3.8691085E-2,6.501532E-2,-1.3314441E-3,4.0217593E-2,-1.0676262E-2,7.6881507E-3],"split_indices":[39,51,135,51,63,1,5,135,105,0,51,106,0,21,0,52,0,57,105,112,20,0,52,134,106,0,0,134,0,104,0,135,4,9,39,0,3,105,22,4,0,0,0,0,0,0,0,0,0,0,0,0,0,0,0,0,0,0,0,0,0],"split_type":[0,0,0,0,0,0,0,0,0,0,0,0,0,0,0,0,0,0,0,0,0,0,0,0,0,0,0,0,0,0,0,0,0,0,0,0,0,0,0,0,0,0,0,0,0,0,0,0,0,0,0,0,0,0,0,0,0,0,0,0,0],"sum_hessian":[3.76E2,2.01E2,1.75E2,9.2E1,1.09E2,3.3E1,1.42E2,2E1,7.2E1,6E0,1.03E2,2.8E1,5E0,1.37E2,5E0,1.5E1,5E0,3.9E1,3.3E1,7.8E1,2.5E1,7E0,2.1E1,1.1E2,2.7E1,6E0,9E0,3E1,9E0,2.6E1,7E0,2E1,5.8E1,1.1E1,1.4E1,8E0,1.3E1,2.4E1,8.6E1,2.1E1,6E0,9E0,2.1E1,7E0,1.9E1,8E0,1.2E1,5.1E1,7E0,5E0,6E0,9E0,5E0,5E0,8E0,6E0,1.8E1,7E0,7.9E1,7E0,1.4E1],"tree_param":{"num_deleted":"0","num_feature":"139","num_nodes":"61","size_leaf_vector":"1"}},{"base_weights":[-7.078442E-2,-5.645507E-1,3.7538698E-1,-9.860937E-2,-1.7633493E0,8.609628E-2,7.780473E-1,-1.1048161E0,5.2545446E-1,-3.5137422E0,-9.5876455E-1,1.9889075E-1,-1.0544731E-1,8.854712E-1,4.181059E-2,-1.6017184E-1,-2.1186252E0,6.4927286E-1,9.677184E-2,-1.9865441E-1,-1.0429919E-1,-1.0740356E-1,-2.7234828E0,4.0513137E-1,-1.7413159E-1,1.1623459E0,7.23787E-1,-8.885086E-3,1.1199553E-2,-7.7569836E-1,5.1267285E-2,-2.6970677E0,-1.2295287E-2,5.4610443E-1,5.8104444E-2,2.3293492E-1,-1.29882265E-2,-6.598783E-1,6.0907472E-2,-7.669301E-2,-1.6770452E-1,5.451966E-1,-7.3078154E-3,-7.103492E-2,1.6096349E-1,6.2262207E-2,3.392388E-2,8.051579E-1,4.3025774E-1,-6.2157072E-2,-5.909517E-3,-2.0928732E-1,-9.332075E-2,3.2828595E-2,1.7251915E-3,-7.5046485E-4,2.5922198E-2,-5.9321065E-2,1.0621041E-2,3.7977975E-2,2.3795886E-2,-1.0869174E-2,1.6748933E-2,-6.993517E-3,1.7692722E-2,2.095235E-2,4.2548057E-2,1.05172E-3,3.416965E-2],"categories":[],"categories_nodes":[],"categories_segments":[],"categories_sizes":[],"default_left":[0,0,0,0,0,0,0,0,0,0,0,0,0,0,0,0,0,0,0,0,0,0,0,0,0,0,0,0,0,0,0,0,0,0,0,0,0,0,0,0,0,0,0,0,0,0,0,0,0,0,0,0,0,0,0,0,0,0,0,0,0,0,0,0,0,0,0,0,0],"id":23,"left_children":[1,3,5,7,9,11,13,15,17,19,21,23,-1,25,27,29,31,33,35,-1,-1,37,39,41,43,45,47,-1,-1,49,-1,51,-1,53,-1,55,-1,57,-1,-1,-1,59,61,-1,63,-1,-1,65,67,-1,-1,-1,-1,-1,-1,-1,-1,-1,-1,-1,-1,-1,-1,-1,-1,-1,-1,-1,-1],"loss_changes":[8.635094E1,1.0372009E2,2.3929104E1,8.535206E1,6.986481E1,3.0377676E1,6.7646675E0,4.9460476E1,4.3957863E0,2.2055664E0,5.529675E1,8.9946995E0,0E0,2.5161781E0,5.1969385E-1,2.122745E1,2.6418304E1,2.8042965E0,1.0314499E0,0E0,0E0,1.9844532E1,3.857521E0,4.3366137E0,1.7772854E1,1.980362E-1,8.4781075E-1,0E0,0E0,5.6926765E0,0E0,1.5682571E1,0E0,3.1421986E0,0E0,1.0696361E0,0E0,8.978778E0,0E0,0E0,0E0,4.7015953E-1,1.5109401E0,0E0,2.02245E0,0E0,0E0,3.1544304E-1,1.3322806E0,0E0,0E0,0E0,0E0,0E0,0E0,0E0,0E0,0E0,0E0,0E0,0E0,0E0,0E0,0E0,0E0,0E0,0E0,0E0,0E0],"parents":[2147483647,0,0,1,1,2,2,3,3,4,4,5,5,6,6,7,7,8,8,9,9,10,10,11,11,13,13,14,14,15,15,16,16,17,17,18,18,21,21,22,22,23,23,24,24,25,25,26,26,29,29,31,31,33,33,35,35,37,37,41,41,42,42,44,44,47,47,48,48],"right_children":[2,4,6,8,10,12,14,16,18,20,22,24,-1,26,28,30,32,34,36,-1,-1,38,40,42,44,46,48,-1,-1,50,-1,52,-1,54,-1,56,-1,58,-1,-1,-1,60,62,-1,64,-1,-1,66,68,-1,-1,-1,-1,-1,-1,-1,-1,-1,-1,-1,-1,-1,-1,-1,-1,-1,-1,-1,-1],"split_conditions":[1.2167E1,2.5333333E0,9.981892E-1,4.642857E-1,2.576087E0,7.907438E0,2.88E0,1.0249908E0,1.0660322E0,5E0,7.4254823E0,5.5301886E0,-1.0544731E-1,8.752E0,4.9831577E1,1.64E2,2.2623906E0,3.408284E0,4.2469135E1,-1.9865441E-1,-1.0429919E-1,2.88E0,9.8397E0,2.128E3,2.6590405E1,9.919354E0,1.29727E1,-8.885086E-3,1.1199553E-2,5.7272728E1,5.1267285E-2,5.8748E0,-1.2295287E-2,1.00617E1,5.8104444E-2,9.7744364E-1,-1.29882265E-2,1.29E2,6.0907472E-2,-7.669301E-2,-1.6770452E-1,5.252525E-1,2.1269841E0,-7.103492E-2,1.28216E1,6.2262207E-2,3.392388E-2,1.7065669E0,3E0,-6.2157072E-2,-5.909517E-3,-2.0928732E-1,-9.332075E-2,3.2828595E-2,1.7251915E-3,-7.5046485E-4,2.5922198E-2,-5.9321065E-2,1.0621041E-2,3.7977975E-2,2.3795886E-2,-1.0869174E-2,1.6748933E-2,-6.993517E-3,1.7692722E-2,2.095235E-2,4.2548057E-2,1.05172E-3,3.416965E-2],"split_indices":[135,57,88,63,33,112,76,46,88,104,112,112,0,133,9,132,76,76,10,0,0,57,134,19,15,27,133,0,0,9,0,133,0,133,0,63,0,132,0,0,0,34,76,0,135,0,0,51,61,0,0,0,0,0,0,0,0,0,0,0,0,0,0,0,0,0,0,0,0],"split_type":[0,0,0,0,0,0,0,0,0,0,0,0,0,0,0,0,0,0,0,0,0,0,0,0,0,0,0,0,0,0,0,0,0,0,0,0,0,0,0,0,0,0,0,0,0,0,0,0,0,0,0,0,0,0,0,0,0,0,0,0,0,0,0,0,0,0,0,0,0],"sum_hessian":[3.9E2,1.85E2,2.05E2,1.34E2,5.1E1,1.2E2,8.5E1,5.1E1,8.3E1,1.5E1,3.6E1,1.15E2,5E0,7.4E1,1.1E1,2.7E1,2.4E1,6.4E1,1.9E1,1E1,5E0,2.5E1,1.1E1,7.4E1,4.1E1,2.5E1,4.9E1,5E0,6E0,1.8E1,9E0,1.8E1,6E0,5.5E1,9E0,1.4E1,5E0,1.8E1,7E0,5E0,6E0,5.5E1,1.9E1,8E0,3.3E1,2E1,5E0,3.7E1,1.2E1,1E1,8E0,5E0,1.3E1,4.5E1,1E1,8E0,6E0,1.1E1,7E0,1.1E1,4.4E1,1.2E1,7E0,1.3E1,2E1,5E0,3.2E1,5E0,7E0],"tree_param":{"num_deleted":"0","num_feature":"139","num_nodes":"69","size_leaf_vector":"1"}},{"base_weights":[-5.840414E-2,-9.1506493E-1,2.0559537E-1,-1.7700325E-1,-5.916713E-1,2.6718345E-1,-1.43864E-1,-1.5668316E-2,-1.1953899E0,3.2384667E-1,-1.0632783E-1,-3.307383E-1,9.596088E-1,-9.6602745E-2,-1.8947494E0,3.8117027E-1,-1.0281531E-1,-8.845414E-2,-2.1745041E-2,2.2318838E-2,6.56453E-2,1.1660481E-2,-2.0784074E-2,-1.2350341E0,-1.7073636E-1,5.1817465E-1,-2.4098598E-3,-1.1328709E-2,1.9504389E-2,-1.0199149E-1,-5.708451E-3,3.7045162E-2,1.42019335E-2,-8.159985E-2,1.2042402E-2],"categories":[],"categories_nodes":[],"categories_segments":[],"categories_sizes":[],"default_left":[0,0,0,0,0,0,0,0,0,0,0,0,0,0,0,0,0,0,0,0,0,0,0,0,0,0,0,0,0,0,0,0,0,0,0],"id":24,"left_children":[1,3,5,-1,7,9,-1,11,13,15,-1,17,19,21,23,25,-1,-1,27,-1,-1,-1,-1,29,-1,31,33,-1,-1,-1,-1,-1,-1,-1,-1],"loss_changes":[8.92944E1,7.68539E1,5.8109005E1,0E0,2.919174E1,4.0972866E1,0E0,1.3837724E1,3.13233E1,4.0487522E1,0E0,1.5072447E1,1.4085073E0,1.8859547E0,2.085151E1,1.4978615E1,0E0,0E0,2.5346892E0,0E0,0E0,0E0,0E0,1.6906391E1,0E0,1.0740799E1,3.0520218E1,0E0,0E0,0E0,0E0,0E0,0E0,0E0,0E0],"parents":[2147483647,0,0,1,1,2,2,4,4,5,5,7,7,8,8,9,9,11,11,12,12,13,13,14,14,15,15,18,18,23,23,25,25,26,26],"right_children":[2,4,6,-1,8,10,-1,12,14,16,-1,18,20,22,24,26,-1,-1,28,-1,-1,-1,-1,30,-1,32,34,-1,-1,-1,-1,-1,-1,-1,-1],"split_conditions":[6.5E1,2.4609564E2,3.03E0,-1.7700325E-1,1.9310344E0,2.142857E0,-1.43864E-1,9.147E1,1.3660281E0,7.345679E-1,-1.0632783E-1,7.025E0,9.8826E1,5.9E1,2.7142856E0,5.408291E2,-1.0281531E-1,-8.845414E-2,2.1512571E1,2.2318838E-2,6.56453E-2,1.1660481E-2,-2.0784074E-2,4E0,-1.7073636E-1,1.0040816E1,8.9019E1,-1.1328709E-2,1.9504389E-2,-1.0199149E-1,-5.708451E-3,3.7045162E-2,1.42019335E-2,-8.159985E-2,1.2042402E-2],"split_indices":[132,21,44,0,105,63,0,137,76,100,0,28,137,132,57,22,0,0,111,0,0,0,0,85,0,27,14,0,0,0,0,0,0,0,0],"split_type":[0,0,0,0,0,0,0,0,0,0,0,0,0,0,0,0,0,0,0,0,0,0,0,0,0,0,0,0,0,0,0,0,0,0,0],"sum_hessian":[3.93E2,9.2E1,3.01E2,9E0,8.3E1,2.96E2,5E0,4.3E1,4E1,2.9E2,6E0,3.3E1,1E1,1.6E1,2.4E1,2.84E2,6E0,5E0,2.8E1,5E0,5E0,8E0,8E0,1.8E1,6E0,2.09E2,7.5E1,1.9E1,9E0,1E1,8E0,1.06E2,1.03E2,9E0,6.6E1],"tree_param":{"num_deleted":"0","num_feature":"139","num_nodes":"35","size_leaf_vector":"1"}},{"base_weights":[-4.1295435E-2,8.399494E-2,-1.5070732E0,-1.3941729E0,2.069256E-1,-3.8479653E-1,-1.7562973E-1,-8.2980394E-2,-2.5250077E0,-3.1122833E-1,3.8921726E-1,-8.920463E-2,2.9386133E-1,1.5382322E-2,-3.275453E-2,-5.2378356E-2,-1.6967858E-1,-1.657733E0,-1.17346555E-1,4.4587135E-1,-9.897929E-2,1.4446471E-3,2.962774E-2,-1.5772998E-2,-1.3618587E-1,9.001803E-2,-7.682138E-2,2.4639599E-1,6.989716E-1,-6.5327995E-2,1.0977033E-2,-3.5184443E-2,1.7123256E-2,3.748986E-2,-1.4077904E-2],"categories":[],"categories_nodes":[],"categories_segments":[],"categories_sizes":[],"default_left":[0,0,0,0,0,0,0,0,0,0,0,0,0,0,0,0,0,0,0,0,0,0,0,0,0,0,0,0,0,0,0,0,0,0,0],"id":25,"left_children":[1,3,5,7,9,11,-1,13,15,17,19,-1,21,-1,-1,-1,-1,23,25,27,-1,-1,-1,-1,-1,29,-1,31,33,-1,-1,-1,-1,-1,-1],"loss_changes":[7.230019E1,6.625E1,6.8421616E1,4.130725E1,3.1858063E1,2.0466782E1,0E0,3.3302784E0,1.5693779E1,2.2778992E1,3.4299038E1,0E0,1.1700443E0,0E0,0E0,0E0,0E0,1.4880037E1,2.309114E1,1.2146675E1,0E0,0E0,0E0,0E0,0E0,1.2768146E1,0E0,1.2836774E1,5.54356E0,0E0,0E0,0E0,0E0,0E0,0E0],"parents":[2147483647,0,0,1,1,2,2,3,3,4,4,5,5,7,7,8,8,9,9,10,10,12,12,17,17,18,18,19,19,25,25,27,27,28,28],"right_children":[2,4,6,8,10,12,-1,14,16,18,20,-1,22,-1,-1,-1,-1,24,26,28,-1,-1,-1,-1,-1,30,-1,32,34,-1,-1,-1,-1,-1,-1],"split_conditions":[7.8226895E0,3.7968552E0,3.83E-1,1.6064258E0,1.37E2,1.41E2,-1.7562973E-1,4.9070248E-1,2.6997808E1,1.4166666E0,2.7777777E0,-8.920463E-2,1.840909E1,1.5382322E-2,-3.275453E-2,-5.2378356E-2,-1.6967858E-1,2.6590405E1,1.9567474E0,6.9056E0,-9.897929E-2,1.4446471E-3,2.962774E-2,-1.5772998E-2,-1.3618587E-1,2.893508E2,-7.682138E-2,4.3516207E0,1.29727E1,-6.5327995E-2,1.0977033E-2,-3.5184443E-2,1.7123256E-2,3.748986E-2,-1.4077904E-2],"split_indices":[112,4,115,51,132,132,0,52,40,58,64,0,3,0,0,0,0,15,58,28,0,0,0,0,0,21,0,112,134,0,0,0,0,0,0],"split_type":[0,0,0,0,0,0,0,0,0,0,0,0,0,0,0,0,0,0,0,0,0,0,0,0,0,0,0,0,0,0,0,0,0,0,0],"sum_hessian":[3.92E2,3.62E2,3E1,2.7E1,3.35E2,2E1,1E1,1.3E1,1.4E1,8.7E1,2.48E2,6E0,1.4E1,8E0,5E0,6E0,8E0,1E1,7.7E1,2.43E2,5E0,8E0,6E0,5E0,5E0,6.8E1,9E0,1.37E2,1.06E2,5E0,6.3E1,1.2E1,1.25E2,1.01E2,5E0],"tree_param":{"num_deleted":"0","num_feature":"139","num_nodes":"35","size_leaf_vector":"1"}},{"base_weights":[-6.519249E-2,-5.508074E-1,2.639243E-1,-1.6180309E0,2.9689586E-1,3.7485838E-1,-7.170179E-1,-4.985853E-1,-2.5681484E0,-2.5956243E-1,5.330795E-1,-4.2726353E-2,4.3693647E-1,-9.637046E-2,1.987628E-1,3.194957E-1,-9.42318E-1,-3.005141E0,5.883606E-3,1.0027921E-1,-6.2530056E-2,7.433233E-1,1.3614371E-1,7.617409E-1,2.5267485E-1,-1.3155575E-2,3.4911226E-2,-9.042727E-3,4.249942E-2,-8.583245E-2,-2.1851575E-1,-7.643282E-2,-1.6491756E-1,-2.7629385E-2,3.5474068E-1,5.6644153E-2,6.062471E-1,3.9904782E-1,-1.4397266E-2,9.143162E-1,1.9919065E-1,-8.3474106E-1,3.6591658E-1,3.740856E-4,-2.2288008E-2,2.1224413E-2,8.968565E-3,1.3362168E-2,3.3058077E-2,6.635201E-3,2.9110884E-2,5.9204567E-2,3.7326857E-2,-1.3754407E-2,3.5392772E-2,-8.113231E-3,-7.400867E-2,-3.4367047E-2,2.1052139E-2],"categories":[],"categories_nodes":[],"categories_segments":[],"categories_sizes":[],"default_left":[0,0,0,0,0,0,0,0,0,0,0,0,0,0,0,0,0,0,0,0,0,0,0,0,0,0,0,0,0,0,0,0,0,0,0,0,0,0,0,0,0,0,0,0,0,0,0,0,0,0,0,0,0,0,0,0,0,0,0],"id":26,"left_children":[1,3,5,7,9,11,13,15,17,19,21,-1,23,-1,25,27,29,31,-1,33,-1,35,37,39,41,-1,-1,-1,-1,-1,43,-1,-1,-1,45,-1,47,49,-1,51,53,55,57,-1,-1,-1,-1,-1,-1,-1,-1,-1,-1,-1,-1,-1,-1,-1,-1],"loss_changes":[5.9759735E1,1.3708841E2,2.4535618E1,6.998108E1,1.1309607E1,1.5713278E1,2.5877514E1,1.1917364E1,4.260623E1,9.3974495E0,4.9059963E0,0E0,1.1298534E1,0E0,3.41335E0,3.3389099E0,1.1394598E1,8.378479E0,0E0,3.5186148E0,0E0,1.3957691E0,2.5677886E0,5.7402344E0,1.5574914E1,0E0,0E0,0E0,0E0,0E0,6.196149E-1,0E0,0E0,0E0,1.0733271E-1,0E0,4.0041065E-1,6.0574365E-1,0E0,1.5602112E0,4.054705E0,4.968277E0,6.8504143E0,0E0,0E0,0E0,0E0,0E0,0E0,0E0,0E0,0E0,0E0,0E0,0E0,0E0,0E0,0E0,0E0],"parents":[2147483647,0,0,1,1,2,2,3,3,4,4,5,5,6,6,7,7,8,8,9,9,10,10,12,12,14,14,15,15,16,16,17,17,19,19,21,21,22,22,23,23,24,24,30,30,34,34,36,36,37,37,39,39,40,40,41,41,42,42],"right_children":[2,4,6,8,10,12,14,16,18,20,22,-1,24,-1,26,28,30,32,-1,34,-1,36,38,40,42,-1,-1,-1,-1,-1,44,-1,-1,-1,46,-1,48,50,-1,52,54,56,58,-1,-1,-1,-1,-1,-1,-1,-1,-1,-1,-1,-1,-1,-1,-1,-1],"split_conditions":[1.042173E2,2.9130435E0,2E0,2.3E0,6.8817204E-1,5.7988167E-1,1.018054E1,9.861364E1,1.3333334E0,1.14819E2,1.75E2,-4.2726353E-2,1.7714286E0,-9.637046E-2,2.278644E0,2.8512E1,4.457143E-1,1.3004606E1,5.883606E-3,7.534426E1,-6.2530056E-2,2.8441048E0,2.8506284E0,1.14819E2,2.6958175E0,-1.3155575E-2,3.4911226E-2,-9.042727E-3,4.249942E-2,-8.583245E-2,4.0145627E2,-7.643282E-2,-1.6491756E-1,-2.7629385E-2,7.92623E1,5.6644153E-2,2.6639345E-1,2.834317E0,-1.4397266E-2,8.7297E0,4.2777338E2,4.3903155E0,3.8654E0,3.740856E-4,-2.2288008E-2,2.1224413E-2,8.968565E-3,1.3362168E-2,3.3058077E-2,6.635201E-3,2.9110884E-2,5.9204567E-2,3.7326857E-2,-1.3754407E-2,3.5392772E-2,-8.113231E-3,-7.400867E-2,-3.4367047E-2,2.1052139E-2],"split_indices":[39,57,58,57,93,106,134,39,93,14,37,0,105,0,45,14,63,111,0,9,0,45,45,14,33,0,0,0,0,0,21,0,0,0,9,0,117,45,0,133,21,112,134,0,0,0,0,0,0,0,0,0,0,0,0,0,0,0,0],"split_type":[0,0,0,0,0,0,0,0,0,0,0,0,0,0,0,0,0,0,0,0,0,0,0,0,0,0,0,0,0,0,0,0,0,0,0,0,0,0,0,0,0,0,0,0,0,0,0,0,0,0,0,0,0,0,0,0,0,0,0],"sum_hessian":[3.72E2,1.5E2,2.22E2,6.6E1,8.4E1,2E2,2.2E1,3.1E1,3.5E1,2.5E1,5.9E1,9E0,1.91E2,9E0,1.3E1,1.1E1,2E1,3E1,5E0,1.9E1,6E0,3.8E1,2.1E1,6.8E1,1.23E2,7E0,6E0,6E0,5E0,9E0,1.1E1,6E0,2.4E1,5E0,1.4E1,8E0,3E1,1.3E1,8E0,5.3E1,1.5E1,1.1E1,1.12E2,6E0,5E0,9E0,5E0,5E0,2.5E1,6E0,7E0,1.8E1,3.5E1,8E0,7E0,6E0,5E0,5E0,1.07E2],"tree_param":{"num_deleted":"0","num_feature":"139","num_nodes":"59","size_leaf_vector":"1"}},{"base_weights":[-7.2056256E-2,-1.0991697E0,8.177026E-2,-2.4567378E0,1.0371599E-1,-2.0061304E-1,5.0889665E-1,-1.6173711E0,-2.1320732E-1,6.670053E-1,-7.0292026E-1,3.2765892E-1,-8.2130617E-1,-4.933479E-2,5.9770167E-1,-3.969784E-2,-1.17628396E-1,-4.4233142E-3,9.891574E-1,-4.86817E-2,-1.3496709E-2,-3.1032774E-1,5.051817E-1,-1.3409171E0,-1.3368014E-1,6.8622476E-1,1.3685491E-2,2.803165E-2,6.621214E-2,9.0562104E-4,-6.480255E-2,5.4909825E-1,-9.326359E-3,-2.0777756E-1,-2.174931E0,-7.305215E-2,8.518088E-2,2.9038095E-1,7.5400335E-1,1.733921E-2,-1.7897239E-2,8.818571E-3,-1.7507767E-2,2.4182413E-2,6.5421626E-2,1.36884E-2,-3.1814914E-2,-5.4031927E-2,-1.5666452E-1,-1.1357357E-3,3.232136E-2,2.3120116E-2,8.776978E-4,4.0057153E-2,1.0727062E-2],"categories":[],"categories_nodes":[],"categories_segments":[],"categories_sizes":[],"default_left":[0,0,0,0,0,0,0,0,0,0,0,0,0,0,0,0,0,0,0,0,0,0,0,0,0,0,0,0,0,0,0,0,0,0,0,0,0,0,0,0,0,0,0,0,0,0,0,0,0,0,0,0,0,0,0],"id":27,"left_children":[1,3,5,7,9,11,13,15,-1,17,19,21,23,-1,25,-1,-1,-1,27,-1,-1,29,31,33,35,37,39,-1,-1,41,-1,43,-1,45,47,-1,49,51,53,-1,-1,-1,-1,-1,-1,-1,-1,-1,-1,-1,-1,-1,-1,-1,-1],"loss_changes":[6.186682E1,8.353775E1,4.1231247E1,2.9513199E1,1.3191201E1,6.781543E1,1.8652733E1,9.028847E0,0E0,4.2249107E0,1.1437659E0,1.28415785E1,3.3764053E1,0E0,6.659775E0,0E0,0E0,0E0,9.806938E-1,0E0,0E0,7.6709228E0,2.7756367E0,5.058103E1,1.23257885E1,2.7859802E0,2.3523414E0,0E0,0E0,1.2937412E0,0E0,3.4921513E0,0E0,5.126652E0,2.9124527E1,0E0,2.2552557E0,8.366604E-1,2.2439804E0,0E0,0E0,0E0,0E0,0E0,0E0,0E0,0E0,0E0,0E0,0E0,0E0,0E0,0E0,0E0,0E0],"parents":[2147483647,0,0,1,1,2,2,3,3,4,4,5,5,6,6,7,7,9,9,10,10,11,11,12,12,14,14,18,18,21,21,22,22,23,23,24,24,25,25,26,26,29,29,31,31,33,33,34,34,36,36,37,37,38,38],"right_children":[2,4,6,8,10,12,14,16,-1,18,20,22,24,-1,26,-1,-1,-1,28,-1,-1,30,32,34,36,38,40,-1,-1,42,-1,44,-1,46,48,-1,50,52,54,-1,-1,-1,-1,-1,-1,-1,-1,-1,-1,-1,-1,-1,-1,-1,-1],"split_conditions":[2E0,1.13208336E2,1.0973278E2,7.679E0,4.9070248E-1,1.6528925E-1,7.3130196E-1,6.212E0,-2.1320732E-1,4.086858E-1,2.2734268E0,3.5625877E0,1.0554E1,-4.933479E-2,4.1407654E1,-3.969784E-2,-1.17628396E-1,-4.4233142E-3,9.9415755E-1,-4.86817E-2,-1.3496709E-2,8.8306E0,9.0702945E-1,8.703951E1,9.861364E1,2.0065713E0,4.0123457E-1,2.803165E-2,6.621214E-2,2.128E3,-6.480255E-2,6.801105E0,-9.326359E-3,6E0,2.510204E0,-7.305215E-2,7.4E1,1.29697E1,1.144376E0,1.733921E-2,-1.7897239E-2,8.818571E-3,-1.7507767E-2,2.4182413E-2,6.5421626E-2,1.36884E-2,-3.1814914E-2,-5.4031927E-2,-1.5666452E-1,-1.1357357E-3,3.232136E-2,2.3120116E-2,8.776978E-4,4.0057153E-2,1.0727062E-2],"split_indices":[61,129,39,135,52,52,88,134,0,52,76,28,133,0,15,0,0,0,118,0,0,133,64,129,39,76,52,0,0,19,0,75,0,74,33,0,1,133,88,0,0,0,0,0,0,0,0,0,0,0,0,0,0,0,0],"split_type":[0,0,0,0,0,0,0,0,0,0,0,0,0,0,0,0,0,0,0,0,0,0,0,0,0,0,0,0,0,0,0,0,0,0,0,0,0,0,0,0,0,0,0,0,0,0,0,0,0,0,0,0,0,0,0],"sum_hessian":[3.9E2,5E1,3.4E2,2.3E1,2.7E1,2.05E2,1.35E2,1.7E1,6E0,1.6E1,1.1E1,1.11E2,9.4E1,7E0,1.28E2,9E0,8E0,5E0,1.1E1,6E0,5E0,2.4E1,8.7E1,5.3E1,4.1E1,1.11E2,1.7E1,6E0,5E0,1.9E1,5E0,8.2E1,5E0,2.3E1,3E1,5E0,3.6E1,1.7E1,9.4E1,9E0,8E0,1.3E1,6E0,7.7E1,5E0,1.1E1,1.2E1,1.5E1,1.5E1,3.1E1,5E0,1E1,7E0,8.6E1,8E0],"tree_param":{"num_deleted":"0","num_feature":"139","num_nodes":"55","size_leaf_vector":"1"}},{"base_weights":[-6.7315795E-2,-8.453746E-1,1.5750982E-1,-8.705637E-2,-2.8527813E0,-7.788208E-1,3.4566906E-1,4.9296084E-1,-9.0911716E-1,-1.9630706E-2,-2.0693481E-1,-2.456266E0,-2.857255E-1,4.122374E-1,-8.30653E-2,5.7031494E-2,2.1083787E-1,-1.2370422E0,1.950701E-2,-6.9550745E-2,-1.5560697E-1,-1.0429597E0,2.3100258E-1,5.3104174E-1,1.501235E-1,-2.115578E-2,3.7415072E-1,-1.5019609E0,-1.622094E-2,-1.2911218E0,-2.0708462E-2,3.9285615E-1,-1.6001709E-2,6.078278E-1,1.06013805E-1,2.9663604E-1,-2.9731533E-1,3.0843783E-2,9.569413E-3,-4.382413E-2,-1.0904678E-1,-8.625724E-2,-3.2095596E-2,1.0505286E-2,3.380638E-2,3.193438E-2,-2.8262257E-3,-3.1471022E-3,2.160731E-2,-4.000578E-3,2.5119592E-2,-4.157944E-2,-2.3552077E-3],"categories":[],"categories_nodes":[],"categories_segments":[],"categories_sizes":[],"default_left":[0,0,0,0,0,0,0,0,0,0,0,0,0,0,0,0,0,0,0,0,0,0,0,0,0,0,0,0,0,0,0,0,0,0,0,0,0,0,0,0,0,0,0,0,0,0,0,0,0,0,0,0,0],"id":28,"left_children":[1,3,5,7,9,11,13,15,17,-1,-1,19,21,23,-1,-1,25,27,-1,-1,-1,29,31,33,35,-1,37,39,-1,41,-1,43,-1,45,47,49,51,-1,-1,-1,-1,-1,-1,-1,-1,-1,-1,-1,-1,-1,-1,-1,-1],"loss_changes":[6.555606E1,1.2762091E2,5.1537376E1,3.0010342E1,7.113707E1,3.982806E1,3.3149902E1,6.520237E0,1.156016E1,0E0,0E0,3.3563385E0,1.5501011E1,7.2693825E0,0E0,0E0,2.953693E0,4.589924E0,0E0,0E0,0E0,1.9619274E0,2.266222E0,5.2226295E0,5.004849E0,0E0,8.5787916E-1,4.8833923E0,0E0,1.9921017E0,0E0,8.415332E-1,0E0,2.8448486E0,1.4598515E0,4.457549E0,2.5007715E0,0E0,0E0,0E0,0E0,0E0,0E0,0E0,0E0,0E0,0E0,0E0,0E0,0E0,0E0,0E0,0E0],"parents":[2147483647,0,0,1,1,2,2,3,3,4,4,5,5,6,6,7,7,8,8,11,11,12,12,13,13,16,16,17,17,21,21,22,22,23,23,24,24,26,26,27,27,29,29,31,31,33,33,34,34,35,35,36,36],"right_children":[2,4,6,8,10,12,14,16,18,-1,-1,20,22,24,-1,-1,26,28,-1,-1,-1,30,32,34,36,-1,38,40,-1,42,-1,44,-1,46,48,50,52,-1,-1,-1,-1,-1,-1,-1,-1,-1,-1,-1,-1,-1,-1,-1,-1],"split_conditions":[8.25247E0,7.984E0,9.80192E0,3.0713436E1,8.6333334E-1,1.6162174E0,2.62E0,4.05E0,4.217284E1,-1.9630706E-2,-2.0693481E-1,6.96E1,3.2E1,5.3038673E0,-8.30653E-2,5.7031494E-2,1.8050847E0,5.0946106E2,1.950701E-2,-6.9550745E-2,-1.5560697E-1,6.3743933E2,6.50236E0,5.176846E2,4.513889E-1,-2.115578E-2,3.871E0,2.2551863E-1,-1.622094E-2,3.968975E1,-2.0708462E-2,2.1459267E1,-1.6001709E-2,2.2515972E1,1.7088187E0,1.9139785E0,8.511E0,3.0843783E-2,9.569413E-3,-4.382413E-2,-1.0904678E-1,-8.625724E-2,-3.2095596E-2,1.0505286E-2,3.380638E-2,3.193438E-2,-2.8262257E-3,-3.1471022E-3,2.160731E-2,-4.000578E-3,2.5119592E-2,-4.157944E-2,-2.3552077E-3],"split_indices":[133,135,135,10,46,58,44,135,10,0,0,9,1,75,0,0,93,21,0,0,0,22,135,21,118,0,133,63,0,10,0,111,0,111,51,51,133,0,0,0,0,0,0,0,0,0,0,0,0,0,0,0,0],"split_type":[0,0,0,0,0,0,0,0,0,0,0,0,0,0,0,0,0,0,0,0,0,0,0,0,0,0,0,0,0,0,0,0,0,0,0,0,0,0,0,0,0,0,0,0,0,0,0,0,0,0,0,0,0],"sum_hessian":[3.73E2,8.3E1,2.9E2,6.1E1,2.2E1,4.8E1,2.42E2,3.6E1,2.5E1,8E0,1.4E1,1E1,3.8E1,2.35E2,7E0,1E1,2.6E1,2E1,5E0,5E0,5E0,1.5E1,2.3E1,1.61E2,7.4E1,5E0,2.1E1,1.5E1,5E0,1E1,5E0,1.8E1,5E0,1.36E2,2.5E1,5.6E1,1.8E1,8E0,1.3E1,9E0,6E0,5E0,5E0,1.2E1,6E0,1.3E2,6E0,1.7E1,8E0,2E1,3.6E1,5E0,1.3E1],"tree_param":{"num_deleted":"0","num_feature":"139","num_nodes":"53","size_leaf_vector":"1"}},{"base_weights":[8.578886E-3,3.5910287E-1,-3.365964E-1,-1.8341878E-1,5.030784E-1,-1.0497166E0,2.8464672E-1,9.8404184E-2,-6.7911945E-2,7.430709E-1,3.2949394E-1,-1.3192897E0,4.0407324E-1,3.5484934E-1,-4.664189E-2,4.8520107E-2,-1.6361019E-1,8.4452087E-1,2.8791562E-1,4.5073983E-1,-9.034931E-2,-7.4272996E-1,-2.1508708E0,-1.980379E-2,8.351547E-2,7.083596E-1,2.3389399E-1,-4.4737935E-1,4.520726E-2,5.406218E-1,9.448983E-1,-2.1413108E-3,2.4999127E-2,6.115921E-1,3.0720106E-1,1.7696442E-2,-2.5130677E-1,-1.7594876E0,-3.4385628E-1,-2.7135948E-2,-2.597302E0,7.717767E-1,1.8945469E-2,-6.1809182E-2,3.5483164E-1,-5.830751E-2,-1.7104801E-3,1.0779095E-2,3.407918E-2,2.4140716E-2,5.0100546E-2,3.7997074E-2,1.8328784E-2,-3.1365157E-4,1.8219322E-2,7.196834E-3,-2.2202402E-2,-3.1290948E-3,-1.4061154E-1,-3.4322113E-2,-5.510859E-3,-4.1855205E-2,-1.5082268E-1,4.2490423E-2,2.240339E-2,3.7506086E-4,2.7171755E-2],"categories":[],"categories_nodes":[],"categories_segments":[],"categories_sizes":[],"default_left":[0,0,0,0,0,0,0,0,0,0,0,0,0,0,0,0,0,0,0,0,0,0,0,0,0,0,0,0,0,0,0,0,0,0,0,0,0,0,0,0,0,0,0,0,0,0,0,0,0,0,0,0,0,0,0,0,0,0,0,0,0,0,0,0,0,0,0],"id":29,"left_children":[1,3,5,7,9,11,13,15,-1,17,19,21,23,25,-1,-1,27,29,31,33,35,37,39,-1,-1,41,43,45,-1,47,49,-1,-1,51,53,-1,55,57,59,-1,61,63,-1,-1,65,-1,-1,-1,-1,-1,-1,-1,-1,-1,-1,-1,-1,-1,-1,-1,-1,-1,-1,-1,-1,-1,-1],"loss_changes":[4.682387E1,1.5089365E1,8.668789E1,1.37084E1,6.087326E0,3.6196236E1,9.3054285E0,7.9269514E0,0E0,2.665905E0,4.6221094E0,3.5320602E1,1.5859234E1,4.110214E0,0E0,0E0,8.585389E0,1.0449028E0,9.3322444E-1,1.4283152E0,1.5906525E0,1.845621E1,2.0846207E1,0E0,0E0,2.2988605E-1,1.3950502E1,6.493542E0,0E0,5.4033613E-1,4.9267578E-1,0E0,0E0,8.8456154E-1,7.014055E-1,0E0,1.2827904E0,2.3047283E1,2.7257934E0,0E0,1.51818695E1,1.24420166E-1,0E0,0E0,4.6469717E0,0E0,0E0,0E0,0E0,0E0,0E0,0E0,0E0,0E0,0E0,0E0,0E0,0E0,0E0,0E0,0E0,0E0,0E0,0E0,0E0,0E0,0E0],"parents":[2147483647,0,0,1,1,2,2,3,3,4,4,5,5,6,6,7,7,9,9,10,10,11,11,12,12,13,13,16,16,17,17,18,18,19,19,20,20,21,21,22,22,25,25,26,26,27,27,29,29,30,30,33,33,34,34,36,36,37,37,38,38,40,40,41,41,44,44],"right_children":[2,4,6,8,10,12,14,16,-1,18,20,22,24,26,-1,-1,28,30,