{"learner":{"attributes":{"scikit_learn":"{\"_estimator_type\": \"regressor\"}"},"feature_names":["MagpieData minimum Number","MagpieData maximum Number","MagpieData range Number","MagpieData mean Number","MagpieData avg_dev Number","MagpieData mode Number","MagpieData minimum MendeleevNumber","MagpieData maximum MendeleevNumber","MagpieData range MendeleevNumber","MagpieData mean MendeleevNumber","MagpieData avg_dev MendeleevNumber","MagpieData mode MendeleevNumber","MagpieData minimum AtomicWeight","MagpieData maximum AtomicWeight","MagpieData range AtomicWeight","MagpieData mean AtomicWeight","MagpieData avg_dev AtomicWeight","MagpieData mode AtomicWeight","MagpieData minimum MeltingT","MagpieData maximum MeltingT","MagpieData range MeltingT","MagpieData mean MeltingT","MagpieData avg_dev MeltingT","MagpieData mode MeltingT","MagpieData minimum Column","MagpieData maximum Column","MagpieData range Column","MagpieData mean Column","MagpieData avg_dev Column","MagpieData mode Column","MagpieData minimum Row","MagpieData maximum Row","MagpieData range Row","MagpieData mean Row","MagpieData avg_dev Row","MagpieData mode Row","MagpieData minimum CovalentRadius","MagpieData maximum CovalentRadius","MagpieData range CovalentRadius","MagpieData mean CovalentRadius","MagpieData avg_dev CovalentRadius","MagpieData mode CovalentRadius","MagpieData minimum Electronegativity","MagpieData maximum Electronegativity","MagpieData range Electronegativity","MagpieData mean Electronegativity","MagpieData avg_dev Electronegativity","MagpieData mode Electronegativity","MagpieData minimum NsValence","MagpieData maximum NsValence","MagpieData range NsValence","MagpieData mean NsValence","MagpieData avg_dev NsValence","MagpieData mode NsValence","MagpieData minimum NpValence","MagpieData maximum NpValence","MagpieData range NpValence","MagpieData mean NpValence","MagpieData avg_dev NpValence","MagpieData mode NpValence","MagpieData minimum NdValence","MagpieData maximum NdValence","MagpieData range NdValence","MagpieData mean NdValence","MagpieData avg_dev NdValence","MagpieData mode NdValence","MagpieData minimum NfValence","MagpieData maximum NfValence","MagpieData range NfValence","MagpieData mean NfValence","MagpieData avg_dev NfValence","MagpieData mode NfValence","MagpieData minimum NValence","MagpieData maximum NValence","MagpieData range NValence","MagpieData mean NValence","MagpieData avg_dev NValence","MagpieData mode NValence","MagpieData minimum NsUnfilled","MagpieData maximum NsUnfilled","MagpieData range NsUnfilled","MagpieData mean NsUnfilled","MagpieData avg_dev NsUnfilled","MagpieData mode NsUnfilled","MagpieData minimum NpUnfilled","MagpieData maximum NpUnfilled","MagpieData range NpUnfilled","MagpieData mean NpUnfilled","MagpieData avg_dev NpUnfilled","MagpieData mode NpUnfilled","MagpieData minimum NdUnfilled","MagpieData maximum NdUnfilled","MagpieData range NdUnfilled","MagpieData mean NdUnfilled","MagpieData avg_dev NdUnfilled","MagpieData mode NdUnfilled","MagpieData minimum NfUnfilled","MagpieData maximum NfUnfilled","MagpieData range NfUnfilled","MagpieData mean NfUnfilled","MagpieData avg_dev NfUnfilled","MagpieData mode NfUnfilled","MagpieData minimum NUnfilled","MagpieData maximum NUnfilled","MagpieData range NUnfilled","MagpieData mean NUnfilled","MagpieData avg_dev NUnfilled","MagpieData mode NUnfilled","MagpieData minimum GSvolume_pa","MagpieData maximum GSvolume_pa","MagpieData range GSvolume_pa","MagpieData mean GSvolume_pa","MagpieData avg_dev GSvolume_pa","MagpieData mode GSvolume_pa","MagpieData minimum GSbandgap","MagpieData maximum GSbandgap","MagpieData range GSbandgap","MagpieData mean GSbandgap","MagpieData avg_dev GSbandgap","MagpieData mode GSbandgap","MagpieData minimum GSmagmom","MagpieData maximum GSmagmom","MagpieData range GSmagmom","MagpieData mean GSmagmom","MagpieData avg_dev GSmagmom","MagpieData mode GSmagmom","MagpieData minimum SpaceGroupNumber","MagpieData maximum SpaceGroupNumber","MagpieData range SpaceGroupNumber","MagpieData mean SpaceGroupNumber","MagpieData avg_dev SpaceGroupNumber","MagpieData mode SpaceGroupNumber"],"feature_types":["float","float","float","float","float","float","float","float","float","float","float","float","float","float","float","float","float","float","float","float","float","float","float","float","float","float","float","float","float","float","float","float","float","float","float","float","float","float","float","float","float","float","float","float","float","float","float","float","float","float","float","float","float","float","float","float","float","float","float","float","float","float","float","float","float","float","float","float","float","float","float","float","float","float","float","float","float","float","float","float","float","float","float","float","float","float","float","float","float","float","float","float","float","float","float","float","float","float","float","float","float","float","float","float","float","float","float","float","float","float","float","float","float","float","float","float","float","float","float","float","float","float","float","float","float","float","float","float","float","float","float","float"],"gradient_booster":{"model":{"cats":{"enc":[],"feature_segments":[],"sorted_idx":[]},"gbtree_model_param":{"num_parallel_tree":"1","num_trees":"500"},"iteration_indptr":[0,1,2,3,4,5,6,7,8,9,10,11,12,13,14,15,16,17,18,19,20,21,22,23,24,25,26,27,28,29,30,31,32,33,34,35,36,37,38,39,40,41,42,43,44,45,46,47,48,49,50,51,52,53,54,55,56,57,58,59,60,61,62,63,64,65,66,67,68,69,70,71,72,73,74,75,76,77,78,79,80,81,82,83,84,85,86,87,88,89,90,91,92,93,94,95,96,97,98,99,100,101,102,103,104,105,106,107,108,109,110,111,112,113,114,115,116,117,118,119,120,121,122,123,124,125,126,127,128,129,130,131,132,133,134,135,136,137,138,139,140,141,142,143,144,145,146,147,148,149,150,151,152,153,154,155,156,157,158,159,160,161,162,163,164,165,166,167,168,169,170,171,172,173,174,175,176,177,178,179,180,181,182,183,184,185,186,187,188,189,190,191,192,193,194,195,196,197,198,199,200,201,202,203,204,205,206,207,208,209,210,211,212,213,214,215,216,217,218,219,220,221,222,223,224,225,226,227,228,229,230,231,232,233,234,235,236,237,238,239,240,241,242,243,244,245,246,247,248,249,250,251,252,253,254,255,256,257,258,259,260,261,262,263,264,265,266,267,268,269,270,271,272,273,274,275,276,277,278,279,280,281,282,283,284,285,286,287,288,289,290,291,292,293,294,295,296,297,298,299,300,301,302,303,304,305,306,307,308,309,310,311,312,313,314,315,316,317,318,319,320,321,322,323,324,325,326,327,328,329,330,331,332,333,334,335,336,337,338,339,340,341,342,343,344,345,346,347,348,349,350,351,352,353,354,355,356,357,358,359,360,361,362,363,364,365,366,367,368,369,370,371,372,373,374,375,376,377,378,379,380,381,382,383,384,385,386,387,388,389,390,391,392,393,394,395,396,397,398,399,400,401,402,403,404,405,406,407,408,409,410,411,412,413,414,415,416,417,418,419,420,421,422,423,424,425,426,427,428,429,430,431,432,433,434,435,436,437,438,439,440,441,442,443,444,445,446,447,448,449,450,451,452,453,454,455,456,457,458,459,460,461,462,463,464,465,466,467,468,469,470,471,472,473,474,475,476,477,478,479,480,481,482,483,484,485,486,487,488,489,490,491,492,493,494,495,496,497,498,499,500],"tree_info":[0,0,0,0,0,0,0,0,0,0,0,0,0,0,0,0,0,0,0,0,0,0,0,0,0,0,0,0,0,0,0,0,0,0,0,0,0,0,0,0,0,0,0,0,0,0,0,0,0,0,0,0,0,0,0,0,0,0,0,0,0,0,0,0,0,0,0,0,0,0,0,0,0,0,0,0,0,0,0,0,0,0,0,0,0,0,0,0,0,0,0,0,0,0,0,0,0,0,0,0,0,0,0,0,0,0,0,0,0,0,0,0,0,0,0,0,0,0,0,0,0,0,0,0,0,0,0,0,0,0,0,0,0,0,0,0,0,0,0,0,0,0,0,0,0,0,0,0,0,0,0,0,0,0,0,0,0,0,0,0,0,0,0,0,0,0,0,0,0,0,0,0,0,0,0,0,0,0,0,0,0,0,0,0,0,0,0,0,0,0,0,0,0,0,0,0,0,0,0,0,0,0,0,0,0,0,0,0,0,0,0,0,0,0,0,0,0,0,0,0,0,0,0,0,0,0,0,0,0,0,0,0,0,0,0,0,0,0,0,0,0,0,0,0,0,0,0,0,0,0,0,0,0,0,0,0,0,0,0,0,0,0,0,0,0,0,0,0,0,0,0,0,0,0,0,0,0,0,0,0,0,0,0,0,0,0,0,0,0,0,0,0,0,0,0,0,0,0,0,0,0,0,0,0,0,0,0,0,0,0,0,0,0,0,0,0,0,0,0,0,0,0,0,0,0,0,0,0,0,0,0,0,0,0,0,0,0,0,0,0,0,0,0,0,0,0,0,0,0,0,0,0,0,0,0,0,0,0,0,0,0,0,0,0,0,0,0,0,0,0,0,0,0,0,0,0,0,0,0,0,0,0,0,0,0,0,0,0,0,0,0,0,0,0,0,0,0,0,0,0,0,0,0,0,0,0,0,0,0,0,0,0,0,0,0,0,0,0,0,0,0,0,0,0,0,0,0,0,0,0,0,0,0,0,0,0,0,0,0,0,0,0,0,0,0,0,0,0,0,0,0,0,0,0,0,0,0,0,0,0,0,0,0,0,0,0,0,0,0,0,0,0,0,0,0,0,0,0,0,0,0,0,0,0,0,0,0,0,0,0,0,0,0,0,0,0,0,0,0,0],"trees":[{"base_weights":[-1.1124212E-2,-1.7523729E0,1.2647729E0,9.1893107E-1,-4.609072E0,6.280666E-1,1.9379447E0,1.647485E0,-7.4164814E-1,-6.047545E0,-9.68852E-1,-1.7390273E0,1.0653543E0,2.3071995E0,2.503554E-2,3.4518383E-2,1.7663248E0,-2.2749038E-1,-2.347262E-1,-8.013467E0,-2.7344131E0,-2.2390282E0,7.620488E-3,-7.4434495E-1,-2.088166E-1,1.5293788E0,4.3065187E-2,2.6295469E0,1.4815421E0,-1.3057123E0,6.373011E-1,2.3052737E-2,-4.1790675E-2,1.819978E0,-2.6932491E-2,-7.2448885E-1,8.3536017E-1,-8.326511E0,-1.0015875E-1,-3.9474242E0,-5.4368377E-1,-1.2833948E-1,-3.0932745E-2,-3.5296392E-1,7.2726524E-1,-1.1931393E-1,1.5105641E-1,1.8215191E0,5.8017886E-1,-2.4002615E-1,3.6453554E-1,-2.965182E-2,2.6920981E0,6.451393E-1,1.9355943E0,-8.489529E-2,-1.737752E-2,7.281714E-1,4.583812E-3,4.024117E-2,9.3239546E-2,-5.8146615E-2,3.3996005E-3,-2.5683881E-3,4.846869E-2,-2.1865249E-1,-4.535327E-1,-2.113997E-1,-7.5003984E-3,-8.946761E-2,1.8868793E-2,-3.3730965E-2,5.1807645E-3,3.7942529E-3,4.355695E-2,-6.661822E-2,6.810322E-2,9.4667256E-2,-4.2448904E-2,6.09284E-2,1.4500772E-2,3.6710646E-2,-1.1109602E-1,1.3580191E-1,3.1392075E-2,2.1802036E-2,4.0442474E-2,1.00393556E-1,1.9479131E-2,4.2963397E-2,4.607908E-3],"categories":[],"categories_nodes":[],"categories_segments":[],"categories_sizes":[],"default_left":[0,0,0,0,0,0,0,0,0,0,0,0,0,0,0,0,0,0,0,0,0,0,0,0,0,0,0,0,0,0,0,0,0,0,0,0,0,0,0,0,0,0,0,0,0,0,0,0,0,0,0,0,0,0,0,0,0,0,0,0,0,0,0,0,0,0,0,0,0,0,0,0,0,0,0,0,0,0,0,0,0,0,0,0,0,0,0,0,0,0,0],"id":0,"left_children":[1,3,5,7,9,11,13,15,17,19,21,23,25,27,29,31,33,-1,35,37,39,41,43,45,-1,47,49,51,53,55,57,-1,-1,59,-1,61,63,65,-1,67,69,-1,-1,71,73,-1,75,77,79,-1,81,-1,83,85,87,-1,-1,89,-1,-1,-1,-1,-1,-1,-1,-1,-1,-1,-1,-1,-1,-1,-1,-1,-1,-1,-1,-1,-1,-1,-1,-1,-1,-1,-1,-1,-1,-1,-1,-1,-1],"loss_changes":[8.353367E2,1.2175823E3,9.179175E1,1.0163704E2,3.9734033E2,1.1881911E2,7.41091E1,1.1056732E1,4.9123474E1,3.3632263E2,2.8543783E1,4.0529564E1,4.5473373E1,1.95253E1,1.5498012E1,2.2414968E0,7.658493E0,0E0,1.3183329E1,4.7291016E1,5.6316177E1,3.7229996E0,3.8895957E0,2.0943117E1,0E0,1.724498E1,5.001913E1,1.4094238E1,9.005081E0,1.6646004E0,5.7779884E-1,0E0,0E0,9.1023254E-1,0E0,5.985856E0,1.000464E0,5.4475586E1,0E0,1.4281937E1,1.1001272E1,0E0,0E0,1.5385125E0,4.0247607E-1,0E0,1.9779106E1,1.1197968E1,2.7956285E0,0E0,3.0315985E1,0E0,1.3092651E0,2.3856163E-2,1.117363E0,0E0,0E0,8.379812E-1,0E0,0E0,0E0,0E0,0E0,0E0,0E0,0E0,0E0,0E0,0E0,0E0,0E0,0E0,0E0,0E0,0E0,0E0,0E0,0E0,0E0,0E0,0E0,0E0,0E0,0E0,0E0,0E0,0E0,0E0,0E0,0E0,0E0],"parents":[2147483647,0,0,1,1,2,2,3,3,4,4,5,5,6,6,7,7,8,8,9,9,10,10,11,11,12,12,13,13,14,14,15,15,16,16,18,18,19,19,20,20,21,21,22,22,23,23,25,25,26,26,27,27,28,28,29,29,30,30,33,33,35,35,36,36,37,37,39,39,40,40,43,43,44,44,46,46,47,47,48,48,50,50,52,52,53,53,54,54,57,57],"right_children":[2,4,6,8,10,12,14,16,18,20,22,24,26,28,30,32,34,-1,36,38,40,42,44,46,-1,48,50,52,54,56,58,-1,-1,60,-1,62,64,66,-1,68,70,-1,-1,72,74,-1,76,78,80,-1,82,-1,84,86,88,-1,-1,90,-1,-1,-1,-1,-1,-1,-1,-1,-1,-1,-1,-1,-1,-1,-1,-1,-1,-1,-1,-1,-1,-1,-1,-1,-1,-1,-1,-1,-1,-1,-1,-1,-1],"split_conditions":[1.042173E2,7.529187E-1,1.0059172E0,5.5E0,3.805668E-1,3.205E1,1.144376E0,1.05141886E-1,4.6537396E-1,2.6170213E0,2.192E0,4.463034E2,6.998503E0,4.6281943E0,1.1715151E2,2.3E1,7.2E-1,-2.2749038E-1,6.35E-6,8.3E1,1.7872341E0,4.0289256E-1,1.27790695E2,1.3855715E0,-2.088166E-1,1.01973335E2,7.0317106E0,3.7624615E1,4.3040662E2,1.0086957E1,5.3301385E2,2.3052737E-2,-4.1790675E-2,1.7204301E-1,-2.6932491E-2,2.426E1,5.1E1,1.2554633E1,-1.0015875E-1,9.4E1,2.3E1,-1.2833948E-1,-3.0932745E-2,1.805411E0,4.8444443E1,-1.1931393E-1,7.3130196E-1,7E0,5.3617554E2,-2.4002615E-1,1.4264373E0,-2.965182E-2,4.8553186E2,4.4071064E1,1.6285715E1,-8.489529E-2,-1.737752E-2,1.78125E0,4.583812E-3,4.024117E-2,9.3239546E-2,-5.8146615E-2,3.3996005E-3,-2.5683881E-3,4.846869E-2,-2.1865249E-1,-4.535327E-1,-2.113997E-1,-7.5003984E-3,-8.946761E-2,1.8868793E-2,-3.3730965E-2,5.1807645E-3,3.7942529E-3,4.355695E-2,-6.661822E-2,6.810322E-2,9.4667256E-2,-4.2448904E-2,6.09284E-2,1.4500772E-2,3.6710646E-2,-1.1109602E-1,1.3580191E-1,3.1392075E-2,2.1802036E-2,4.0442474E-2,1.00393556E-1,1.9479131E-2,4.2963397E-2,4.607908E-3],"split_indices":[39,88,88,4,81,109,88,52,88,105,45,21,112,112,39,1,88,0,121,1,93,34,129,117,0,130,112,22,21,3,21,0,0,63,0,109,1,111,0,7,1,0,0,58,9,0,88,97,21,0,34,0,21,22,3,0,0,58,0,0,0,0,0,0,0,0,0,0,0,0,0,0,0,0,0,0,0,0,0,0,0,0,0,0,0,0,0,0,0,0,0],"split_type":[0,0,0,0,0,0,0,0,0,0,0,0,0,0,0,0,0,0,0,0,0,0,0,0,0,0,0,0,0,0,0,0,0,0,0,0,0,0,0,0,0,0,0,0,0,0,0,0,0,0,0,0,0,0,0,0,0,0,0,0,0,0,0,0,0,0,0,0,0,0,0,0,0,0,0,0,0,0,0,0,0,0,0,0,0,0,0,0,0,0,0],"sum_hessian":[3.74E2,1.58E2,2.16E2,8.2E1,7.6E1,1.12E2,1.04E2,5.7E1,2.5E1,5.4E1,2.2E1,1.7E1,9.5E1,8.7E1,1.7E1,4E0,5.3E1,2E0,2.3E1,3.3E1,2.1E1,9E0,1.3E1,1.3E1,4E0,6.5E1,3E1,6.1E1,2.6E1,5E0,1.2E1,3E0,1E0,5.2E1,1E0,1.6E1,7E0,3.1E1,2E0,1.3E1,8E0,7E0,2E0,9E0,4E0,4E0,9E0,4.9E1,1.6E1,1E0,2.9E1,1E0,6E1,1E1,1.6E1,3E0,2E0,1E1,2E0,3E0,4.9E1,1E1,6E0,1E0,6E0,6E0,2.5E1,1.2E1,1E0,3E0,5E0,5E0,4E0,1E0,3E0,4E0,5E0,4.8E1,1E0,4E0,1.2E1,2.6E1,3E0,5.9E1,1E0,6E0,4E0,1.5E1,1E0,8E0,2E0],"tree_param":{"num_deleted":"0","num_feature":"132","num_nodes":"91","size_leaf_vector":"1"}},{"base_weights":[-2.2812758E-3,-1.3437623E0,1.0306069E0,8.1642514E-1,-3.7950964E0,-9.211562E-1,1.343228E0,1.4380885E0,-1.2354578E0,-1.990662E0,-6.2703743E0,1.52343605E-2,-5.606156E0,1.9387631E0,1.40098E-1,-6.139921E-1,1.5759373E0,-2.3433891E-1,-8.2855284E-1,-3.4894857E0,-4.7134495E-1,-2.2855108E0,-4.2735082E-1,1.1660484E0,-1.0544668E0,-3.5220858E-1,3.647697E-3,2.4591968E0,1.509589E0,-3.1815548E0,4.2403188E-1,8.015001E-3,-4.238201E-2,1.7344644E0,6.544458E-1,1.5113541E-1,-1.6438556E0,-4.6303473E0,-1.5433309E0,-1.0373136E0,1.3994466E0,-1.8491022E-1,-2.10011E-2,1.0023867E-1,1.6074517E-1,2.431597E-2,-1.3517911E0,4.4990722E-2,1.2509345E-1,-3.3499798E-1,1.6566341E0,2.4263477E-2,-2.1097891E-1,-2.7314448E0,5.855033E-1,3.5921376E-2,8.900723E-2,-2.5864998E-2,4.861558E-2,2.4577612E-2,-1.4379593E-2,-1.0781034E-1,-4.2876415E-2,-3.2410023E-1,-1.4407133E-1,-2.1732617E-2,-9.781929E-2,-1.1099517E-1,1.2280551E-3,7.9374135E-2,1.1481655E-2,1.1086713E-2,-3.0866945E-2,5.2257E-2,-3.8191795E-2,-4.5901407E-2,-1.1735355E-1,-3.3934556E-2,3.4586694E-2,8.874387E-2,-5.863033E-3,-2.3402551E-1,2.916714E-2,3.6804505E-2,-1.160113E-1],"categories":[],"categories_nodes":[],"categories_segments":[],"categories_sizes":[],"default_left":[0,0,0,0,0,0,0,0,0,0,0,0,0,0,0,0,0,0,0,0,0,0,0,0,0,0,0,0,0,0,0,0,0,0,0,0,0,0,0,0,0,0,0,0,0,0,0,0,0,0,0,0,0,0,0,0,0,0,0,0,0,0,0,0,0,0,0,0,0,0,0,0,0,0,0,0,0,0,0,0,0,0,0,0,0],"id":1,"left_children":[1,3,5,7,9,11,13,15,17,19,21,23,25,27,29,31,33,-1,35,37,39,41,-1,43,45,-1,-1,47,49,51,53,-1,-1,55,57,59,61,63,65,67,69,-1,71,-1,73,-1,75,-1,-1,77,79,-1,-1,81,83,-1,-1,-1,-1,-1,-1,-1,-1,-1,-1,-1,-1,-1,-1,-1,-1,-1,-1,-1,-1,-1,-1,-1,-1,-1,-1,-1,-1,-1,-1],"loss_changes":[5.2237036E2,8.715344E2,1.312019E2,1.140278E2,3.314364E2,1.316951E2,1.3156552E2,2.0203217E1,2.56083E1,1.0310591E2,2.707732E2,3.3236267E1,4.1347153E1,2.3760468E1,5.9823128E1,1.0404358E0,8.214111E0,0E0,1.6223293E1,4.3920563E1,2.686309E1,4.1510086E1,0E0,1.06389885E1,7.0709877E0,0E0,0E0,1.3420715E0,1.9541595E1,2.1078876E1,3.1151386E1,0E0,0E0,1.2273712E0,4.6000133E0,1.6348675E0,2.5826244E0,2.6660217E1,3.729103E0,2.3914005E1,9.552641E-1,0E0,1.0053986E0,0E0,6.5221786E0,0E0,3.0259075E0,0E0,0E0,2.5867577E0,1.3841949E1,0E0,0E0,2.2112555E1,2.6211498E1,0E0,0E0,0E0,0E0,0E0,0E0,0E0,0E0,0E0,0E0,0E0,0E0,0E0,0E0,0E0,0E0,0E0,0E0,0E0,0E0,0E0,0E0,0E0,0E0,0E0,0E0,0E0,0E0,0E0,0E0],"parents":[2147483647,0,0,1,1,2,2,3,3,4,4,5,5,6,6,7,7,8,8,9,9,10,10,11,11,12,12,13,13,14,14,15,15,16,16,18,18,19,19,20,20,21,21,23,23,24,24,27,27,28,28,29,29,30,30,33,33,34,34,35,35,36,36,37,37,38,38,39,39,40,40,42,42,44,44,46,46,49,49,50,50,53,53,54,54],"right_children":[2,4,6,8,10,12,14,16,18,20,22,24,26,28,30,32,34,-1,36,38,40,42,-1,44,46,-1,-1,48,50,52,54,-1,-1,56,58,60,62,64,66,68,70,-1,72,-1,74,-1,76,-1,-1,78,80,-1,-1,82,84,-1,-1,-1,-1,-1,-1,-1,-1,-1,-1,-1,-1,-1,-1,-1,-1,-1,-1,-1,-1,-1,-1,-1,-1,-1,-1,-1,-1,-1,-1],"split_conditions":[1.0496523E2,6.3865433E1,6.4068027E0,4.513889E-1,2.5238094E0,4.7436E0,1.6285715E1,2.7989473E0,2E0,2.3005E1,3.83E-1,1.7714286E0,1.4086957E1,8.698225E0,2.9166666E-1,2.128E3,1.1207547E1,-2.3433891E-1,2.128E3,1.3617286E1,6.1714797E0,4.549778E1,-4.2735082E-1,1.0659341E1,1.2320329E0,-3.5220858E-1,3.647697E-3,6.346453E-1,4.94E2,1.6495726E1,1.6297873E1,8.015001E-3,-4.238201E-2,3.739229E0,1.3103003E1,7.9666664E1,5.3E1,1.2E1,1.7777778E0,1.04937614E2,7.4E1,-1.8491022E-1,2.2170214E1,1.0023867E-1,1.1375E2,2.431597E-2,1.8461539E0,4.4990722E-2,1.2509345E-1,1.3037037E1,1.033E2,2.4263477E-2,-2.1097891E-1,1.3769376E1,2.5531914E0,3.5921376E-2,8.900723E-2,-2.5864998E-2,4.861558E-2,2.4577612E-2,-1.4379593E-2,-1.0781034E-1,-4.2876415E-2,-3.2410023E-1,-1.4407133E-1,-2.1732617E-2,-9.781929E-2,-1.1099517E-1,1.2280551E-3,7.9374135E-2,1.1481655E-2,1.1086713E-2,-3.0866945E-2,5.2257E-2,-3.8191795E-2,-4.5901407E-2,-1.1735355E-1,-3.3934556E-2,3.4586694E-2,8.874387E-2,-5.863033E-3,-2.3402551E-1,2.916714E-2,3.6804505E-2,-1.160113E-1],"split_indices":[39,129,4,118,57,112,3,45,61,109,115,105,3,4,63,19,3,0,19,111,112,40,0,3,87,0,0,46,19,3,3,0,0,4,111,9,1,126,105,130,1,0,3,0,39,0,105,0,0,3,130,0,0,4,57,0,0,0,0,0,0,0,0,0,0,0,0,0,0,0,0,0,0,0,0,0,0,0,0,0,0,0,0,0,0],"split_type":[0,0,0,0,0,0,0,0,0,0,0,0,0,0,0,0,0,0,0,0,0,0,0,0,0,0,0,0,0,0,0,0,0,0,0,0,0,0,0,0,0,0,0,0,0,0,0,0,0,0,0,0,0,0,0,0,0,0,0,0,0,0,0,0,0,0,0,0,0,0,0,0,0,0,0,0,0,0,0,0,0,0,0,0,0],"sum_hessian":[3.75E2,1.63E2,2.12E2,8.7E1,7.6E1,2.9E1,1.83E2,6.7E1,2E1,4.5E1,3.1E1,2.5E1,4E0,1.22E2,6.1E1,4E0,6.3E1,1E0,1.9E1,2.2E1,2.3E1,1.2E1,1.9E1,1.2E1,1.3E1,3E0,1E0,5.3E1,6.9E1,4E0,5.7E1,1E0,3E0,5.3E1,1E1,9E0,1E1,1.3E1,9E0,1.8E1,5E0,7E0,5E0,6E0,6E0,2E0,1.1E1,2E0,5.1E1,5E0,6.4E1,1E0,3E0,2E0,5.5E1,3E0,5E1,2E0,8E0,5E0,4E0,5E0,5E0,5E0,8E0,3E0,6E0,8E0,1E1,4E0,1E0,4E0,1E0,3E0,3E0,9E0,2E0,4E0,1E0,6E1,4E0,1E0,1E0,5.3E1,2E0],"tree_param":{"num_deleted":"0","num_feature":"132","num_nodes":"85","size_leaf_vector":"1"}},{"base_weights":[-2.432828E-1,-6.400357E0,-3.165241E-3,-2.5367653E-1,-4.026831E-1,1.0408683E0,-9.427787E-1,-3.199785E-2,8.840259E-2,2.0489957E0,3.3881152E-1,-3.3912861E0,9.47674E-1,8.774889E-3,-2.1446943E-3,2.9912353E-1,2.1505163E0,-7.764102E-1,1.469257E0,-1.7545624E0,-4.873016E0,-2.1265486E-1,1.0859252E0,-2.7955735E-2,3.2673087E-2,2.263001E0,8.791453E-1,-2.6399934E0,-2.6984292E-1,1.04421176E-1,8.244573E-2,-3.526911E0,-2.1416287E-1,-4.5694444E-1,-5.869348E0,1.3575025E0,3.8509327E-1,1.1464745E-1,1.2401938E-2,8.886385E-3,4.832135E-2,-6.309706E-2,-2.9470763E-1,-7.148565E-2,1.4969966E-2,1.8774785E-2,-3.805065E-2,-2.8885493E-1,-1.1553115E-1,-5.278757E-2,4.9273863E-2,-6.749101E-2,4.983026E-2,-1.7955945E-1,-4.0351352E-1,8.318619E-2,2.6512226E-2,-4.736185E-3,2.2984277E-2],"categories":[],"categories_nodes":[],"categories_segments":[],"categories_sizes":[],"default_left":[0,0,0,0,0,0,0,0,0,0,0,0,0,0,0,0,0,0,0,0,0,0,0,0,0,0,0,0,0,0,0,0,0,0,0,0,0,0,0,0,0,0,0,0,0,0,0,0,0,0,0,0,0,0,0,0,0,0,0],"id":2,"left_children":[1,3,5,7,-1,9,11,-1,13,15,17,19,21,-1,-1,23,25,27,29,31,33,-1,35,-1,-1,37,39,41,43,45,-1,47,49,51,53,55,57,-1,-1,-1,-1,-1,-1,-1,-1,-1,-1,-1,-1,-1,-1,-1,-1,-1,-1,-1,-1,-1,-1],"loss_changes":[5.514309E2,1.402298E2,3.54137E2,5.851277E-1,0E0,1.20333206E2,8.8268335E2,0E0,4.1833654E-2,1.1792114E1,1.2973187E2,1.9274017E2,8.2271996E1,0E0,0E0,1.8858932E0,7.4491577E0,4.837719E1,1.2333176E1,1.1117982E2,1.8651251E2,0E0,1.9652222E1,0E0,0E0,3.05188E0,2.5678587E-1,4.1890343E1,2.815843E1,1.9279374E0,0E0,3.8651947E1,2.4261293E1,1.3025791E1,1.4651013E2,1.8370438E1,1.1530533E0,0E0,0E0,0E0,0E0,0E0,0E0,0E0,0E0,0E0,0E0,0E0,0E0,0E0,0E0,0E0,0E0,0E0,0E0,0E0,0E0,0E0,0E0],"parents":[2147483647,0,0,1,1,2,2,3,3,5,5,6,6,8,8,9,9,10,10,11,11,12,12,15,15,16,16,17,17,18,18,19,19,20,20,22,22,25,25,26,26,27,27,28,28,29,29,31,31,32,32,33,33,34,34,35,35,36,36],"right_children":[2,4,6,8,-1,10,12,-1,14,16,18,20,22,-1,-1,24,26,28,30,32,34,-1,36,-1,-1,38,40,42,44,46,-1,48,50,52,54,56,58,-1,-1,-1,-1,-1,-1,-1,-1,-1,-1,-1,-1,-1,-1,-1,-1,-1,-1,-1,-1,-1,-1],"split_conditions":[2.4609564E2,6.9861126E-1,8.097507E-1,3E0,-4.026831E-1,1.7714286E0,2.07E2,-3.199785E-2,1.2714286E1,3.785461E1,2.5037036E-7,4.7436E0,4.711321E1,8.774889E-3,-2.1446943E-3,1.7E1,2.2486134E1,1.1365114E-1,1.05141886E-1,2.2623906E0,7.510204E1,-2.1265486E-1,5E0,-2.7955735E-2,3.2673087E-2,1.3526316E1,3.8E1,6.2434965E-1,1.7E1,2.128E3,8.244573E-2,2.319149E0,1.768E3,1.3037037E1,3.83E-1,4.1319445E-1,2.8209255E0,1.1464745E-1,1.2401938E-2,8.886385E-3,4.832135E-2,-6.309706E-2,-2.9470763E-1,-7.148565E-2,1.4969966E-2,1.8774785E-2,-3.805065E-2,-2.8885493E-1,-1.1553115E-1,-5.278757E-2,4.9273863E-2,-6.749101E-2,4.983026E-2,-1.7955945E-1,-4.0351352E-1,8.318619E-2,2.6512226E-2,-4.736185E-3,2.2984277E-2],"split_indices":[21,46,46,0,0,105,37,0,3,22,123,112,9,0,0,1,111,52,52,76,130,0,75,0,0,3,1,88,1,19,0,105,19,3,115,52,33,0,0,0,0,0,0,0,0,0,0,0,0,0,0,0,0,0,0,0,0,0,0],"split_type":[0,0,0,0,0,0,0,0,0,0,0,0,0,0,0,0,0,0,0,0,0,0,0,0,0,0,0,0,0,0,0,0,0,0,0,0,0,0,0,0,0,0,0,0,0,0,0,0,0,0,0,0,0,0,0,0,0,0,0],"sum_hessian":[3.72E2,1.3E1,3.59E2,3E0,1E1,1.7E2,1.89E2,1E0,2E0,6.9E1,1.01E2,8.2E1,1.07E2,1E0,1E0,4E0,6.5E1,5.1E1,5E1,4E1,4.2E1,2E0,1.05E2,1E0,3E0,5.9E1,6E0,1E1,4.1E1,6E0,4.4E1,1.8E1,2.2E1,8E0,3.4E1,7.5E1,3E1,5.8E1,1E0,1E0,5E0,8E0,2E0,1.3E1,2.8E1,5E0,1E0,5E0,1.3E1,1.3E1,9E0,5E0,3E0,1.8E1,1.6E1,5.4E1,2.1E1,4E0,2.6E1],"tree_param":{"num_deleted":"0","num_feature":"132","num_nodes":"59","size_leaf_vector":"1"}},{"base_weights":[-1.737146E-1,-1.518788E0,7.981712E-1,5.102307E-1,-4.2315407E0,-1.81528E0,1.0932518E0,1.1262678E0,-1.2104409E0,-5.523996E-1,-5.51923E0,-4.221744E0,-7.1760184E-1,4.673024E-1,1.6842785E0,-5.0765563E-2,1.3844349E0,-5.8174956E-1,-1.804428E-1,-1.8701451E0,1.9964798E-1,-6.796923E0,-1.6569746E0,-5.9507668E-2,-2.2643252E-1,-1.992142E-1,-1.6425245E-2,-2.0208542E0,8.012862E-1,1.9269085E0,-1.4369151E-1,4.1180134E-2,1.4520382E0,-8.612327E-1,6.911133E-2,-1.06437184E-1,-7.963848E-3,2.288788E-2,3.906095E-2,-4.616137E-1,-7.528677E0,-2.529177E0,2.0941257E-2,6.5083003E-1,-1.1257797E0,2.165485E-1,-2.598264E-1,5.312065E-1,1.5414592E0,1.9856886E0,1.5201986E-1,-7.450951E-2,2.3659827E-1,1.4730192E-2,-1.7977273E-2,7.940563E-2,4.506096E-2,-7.862329E-2,5.187232E-3,-1.1700855E-2,1.0156087E-2,-9.0577155E-2,5.210935E-2,-3.8934365E-1,-1.1325135E-1,-3.679148E-2,-1.3233395E-1,1.4817158E-2,6.895925E-2,-7.1873896E-2,-1.6746124E-2,-8.482429E-2,8.5183315E-2,3.40537E-2,-2.3025452E-1,8.513158E-2,1.7511655E-2,1.0386249E-1,4.0520996E-2,-1.3931525E-2,1.9422341E-2,3.707855E-2,2.0992677E-3],"categories":[],"categories_nodes":[],"categories_segments":[],"categories_sizes":[],"default_left":[0,0,0,0,0,0,0,0,0,0,0,0,0,0,0,0,0,0,0,0,0,0,0,0,0,0,0,0,0,0,0,0,0,0,0,0,0,0,0,0,0,0,0,0,0,0,0,0,0,0,0,0,0,0,0,0,0,0,0,0,0,0,0,0,0,0,0,0,0,0,0,0,0,0,0,0,0,0,0,0,0,0,0],"id":3,"left_children":[1,3,5,7,9,11,13,15,17,19,21,23,25,27,29,-1,31,33,-1,35,37,39,41,-1,-1,-1,43,45,47,49,51,53,55,57,-1,-1,-1,59,-1,61,63,65,-1,67,69,71,-1,73,75,77,79,-1,81,-1,-1,-1,-1,-1,-1,-1,-1,-1,-1,-1,-1,-1,-1,-1,-1,-1,-1,-1,-1,-1,-1,-1,-1,-1,-1,-1,-1,-1,-1],"loss_changes":[5.0189194E2,8.883395E2,1.7395744E2,9.994304E1,3.2384485E2,5.7725502E1,7.3573456E1,3.9554733E1,3.5597122E1,1.920251E1,2.4041138E2,1.1231155E0,3.887342E1,8.388868E1,4.5959442E1,0E0,5.5703125E0,1.2717279E1,0E0,2.7579365E0,1.3185008E0,1.7268835E2,2.6406532E1,0E0,0E0,0E0,1.1836031E1,8.638843E1,1.6772873E1,9.191986E0,7.0093527E0,5.1213694E-1,2.9909515E0,1.3203287E1,0E0,0E0,0E0,5.5686665E-1,0E0,1.203809E1,2.857019E1,1.5971756E-1,0E0,2.1732106E0,9.9760914E-1,2.5649502E1,0E0,5.3940826E1,3.8195152E0,7.7861633E0,5.155025E-1,0E0,1.0498813E0,0E0,0E0,0E0,0E0,0E0,0E0,0E0,0E0,0E0,0E0,0E0,0E0,0E0,0E0,0E0,0E0,0E0,0E0,0E0,0E0,0E0,0E0,0E0,0E0,0E0,0E0,0E0,0E0,0E0,0E0],"parents":[2147483647,0,0,1,1,2,2,3,3,4,4,5,5,6,6,7,7,8,8,9,9,10,10,11,11,12,12,13,13,14,14,16,16,17,17,19,19,20,20,21,21,22,22,26,26,27,27,28,28,29,29,30,30,31,31,32,32,33,33,37,37,39,39,40,40,41,41,43,43,44,44,45,45,47,47,48,48,49,49,50,50,52,52],"right_children":[2,4,6,8,10,12,14,16,18,20,22,24,26,28,30,-1,32,34,-1,36,38,40,42,-1,-1,-1,44,46,48,50,52,54,56,58,-1,-1,-1,60,-1,62,64,66,-1,68,70,72,-1,74,76,78,80,-1,82,-1,-1,-1,-1,-1,-1,-1,-1,-1,-1,-1,-1,-1,-1,-1,-1,-1,-1,-1,-1,-1,-1,-1,-1,-1,-1,-1,-1,-1,-1],"split_conditions":[1.042173E2,7.822222E1,1.0084034E0,4.513889E-1,1.6129032E0,4.711321E1,6.9454923E0,3.0601504E0,1.2476754E0,4.7687023E1,1.3333334E0,7E0,1.6702127E0,2.9166666E-1,1.4E1,-5.0765563E-2,1.7204301E-1,3.783929E0,-1.804428E-1,5.3E1,8.8E1,1.2384035E1,2.07E2,-5.9507668E-2,-2.2643252E-1,-1.992142E-1,8E0,1.7623318E0,2.43E0,5.27374E2,1.7E1,2.3E1,6.111111E0,2.5037036E-7,6.911133E-2,-1.06437184E-1,-7.963848E-3,1.0771228E2,3.906095E-2,6.6E1,9E0,6.057143E1,2.0941257E-2,3.8286736E1,5E1,1.1062295E1,-2.598264E-1,2.4285715E0,6.558403E1,2.2515972E1,1.7E1,-7.450951E-2,4.435373E2,1.4730192E-2,-1.7977273E-2,7.940563E-2,4.506096E-2,-7.862329E-2,5.187232E-3,-1.1700855E-2,1.0156087E-2,-9.0577155E-2,5.210935E-2,-3.8934365E-1,-1.1325135E-1,-3.679148E-2,-1.3233395E-1,1.4817158E-2,6.895925E-2,-7.1873896E-2,-1.6746124E-2,-8.482429E-2,8.5183315E-2,3.40537E-2,-2.3025452E-1,8.513158E-2,1.7511655E-2,1.0386249E-1,4.0520996E-2,-1.3931525E-2,1.9422341E-2,3.707855E-2,2.0992677E-3],"split_indices":[39,130,87,118,51,9,28,57,106,9,93,5,51,63,126,0,63,28,0,1,38,111,37,0,0,0,73,51,93,21,1,1,75,123,0,0,0,130,0,9,91,9,0,10,1,16,0,93,9,111,1,0,21,0,0,0,0,0,0,0,0,0,0,0,0,0,0,0,0,0,0,0,0,0,0,0,0,0,0,0,0,0,0],"split_type":[0,0,0,0,0,0,0,0,0,0,0,0,0,0,0,0,0,0,0,0,0,0,0,0,0,0,0,0,0,0,0,0,0,0,0,0,0,0,0,0,0,0,0,0,0,0,0,0,0,0,0,0,0,0,0,0,0,0,0,0,0,0,0,0,0,0,0,0,0,0,0,0,0,0,0,0,0,0,0,0,0,0,0],"sum_hessian":[3.82E2,1.6E2,2.22E2,9.2E1,6.8E1,2.2E1,2E2,6.8E1,2.4E1,1.8E1,5E1,6E0,1.6E1,9.8E1,1.02E2,7E0,6.1E1,2E1,4E0,6E0,1.2E1,3.7E1,1.3E1,1E0,5E0,2E0,1.4E1,1.1E1,8.7E1,9E1,1.2E1,3E0,5.8E1,1.8E1,2E0,5E0,1E0,1E1,2E0,4E0,3.3E1,9E0,4E0,9E0,5E0,7E0,4E0,6.5E1,2.2E1,8.7E1,3E0,2E0,1E1,2E0,1E0,4.5E1,1.3E1,1E1,8E0,4E0,6E0,2E0,2E0,3.1E1,2E0,1E0,8E0,7E0,2E0,3E0,2E0,3E0,4E0,6.4E1,1E0,1.9E1,3E0,8E1,7E0,1E0,2E0,2E0,8E0],"tree_param":{"num_deleted":"0","num_feature":"132","num_nodes":"83","size_leaf_vector":"1"}},{"base_weights":[-1.2143378E-2,-1.1728216E0,8.083884E-1,7.00106E-1,-3.5171576E0,-7.689659E-1,1.083131E0,-1.4135934E0,1.0658236E0,-4.654145E0,-8.4309185E-1,6.255749E-1,-3.8684707E0,1.5639929E0,3.111278E-3,-2.1390228E-1,-8.6417055E-1,-8.051661E-1,1.2589082E0,-6.395457E0,-2.0680768E0,-1.8034015E0,3.433097E-2,1.2982297E0,-8.604351E-2,-4.359383E0,2.6016295E-2,1.7316782E0,3.592018E-1,1.4919889E-1,-2.2270583E-1,8.502444E-2,-1.4680455E0,1.0771036E-2,-4.9086932E-2,1.4930564E0,4.1354313E-1,-4.807307E-2,-6.7492614E0,-3.294713E0,-5.4192126E-1,-1.090576E-1,-6.901646E-2,-3.2149443E-1,6.679505E-1,-4.7652042E-1,1.6394515E0,-2.8139785E-1,-1.287837E-1,1.8389794E0,7.070473E-1,-2.2449815E-1,9.0856224E-1,-1.6713032E0,3.7818643E-1,1.0567427E-2,-5.5874586E-3,-8.320578E-2,-2.932783E-2,3.0930234E-2,7.65441E-2,-2.6282286E-2,3.2617204E-2,-8.755792E-2,-3.5331893E-1,-2.7127692E-1,-9.908002E-2,1.7073615E-2,-1.08661406E-1,2.5885224E-3,-7.7647567E-3,-3.3522945E-2,4.588447E-3,2.7293682E-3,4.038222E-2,-3.6936752E-2,7.7530863E-3,8.879376E-2,-1.3583231E-2,9.6704535E-2,3.5673928E-2,1.4030735E-2,5.788914E-2,8.37194E-2,1.69311E-2,-2.7181903E-2,-2.1093236E-1,1.1842083E-2,8.72133E-2],"categories":[],"categories_nodes":[],"categories_segments":[],"categories_sizes":[],"default_left":[0,0,0,0,0,0,0,0,0,0,0,0,0,0,0,0,0,0,0,0,0,0,0,0,0,0,0,0,0,0,0,0,0,0,0,0,0,0,0,0,0,0,0,0,0,0,0,0,0,0,0,0,0,0,0,0,0,0,0,0,0,0,0,0,0,0,0,0,0,0,0,0,0,0,0,0,0,0,0,0,0,0,0,0,0,0,0,0,0],"id":4,"left_children":[1,3,5,7,9,11,13,15,17,19,21,23,25,27,29,-1,31,33,35,37,39,41,43,45,-1,47,-1,49,51,53,-1,55,57,-1,-1,59,61,-1,63,65,67,-1,69,71,73,75,77,-1,-1,79,81,-1,83,85,87,-1,-1,-1,-1,-1,-1,-1,-1,-1,-1,-1,-1,-1,-1,-1,-1,-1,-1,-1,-1,-1,-1,-1,-1,-1,-1,-1,-1,-1,-1,-1,-1,-1,-1],"loss_changes":[3.771356E2,7.225488E2,1.01373856E2,7.262421E1,2.1802393E2,1.5370352E2,1.02824524E2,1.8336176E1,2.9553116E1,2.1643445E2,1.944166E1,4.1692772E1,2.5967957E1,2.7055542E1,4.1035587E1,0E0,7.576356E0,1.6531472E0,1.3634293E1,5.1187866E1,3.939936E1,7.0562744E0,3.1456952E0,1.2892902E1,0E0,8.131882E0,0E0,1.1893036E1,5.2030323E1,2.6061275E1,0E0,1.7276151E-1,4.0657234E-1,0E0,0E0,9.0527344E-1,4.155647E0,0E0,3.200525E1,2.282492E1,1.6594042E1,0E0,3.93037E-2,1.3594551E0,3.8432837E-1,7.7698994E-1,4.914711E0,0E0,0E0,1.0181244E1,2.1738176E0,0E0,6.8530903E0,1.7814438E1,1.0206735E1,0E0,0E0,0E0,0E0,0E0,0E0,0E0,0E0,0E0,0E0,0E0,0E0,0E0,0E0,0E0,0E0,0E0,0E0,0E0,0E0,0E0,0E0,0E0,0E0,0E0,0E0,0E0,0E0,0E0,0E0,0E0,0E0,0E0,0E0],"parents":[2147483647,0,0,1,1,2,2,3,3,4,4,5,5,6,6,7,7,8,8,9,9,10,10,11,11,12,12,13,13,14,14,16,16,17,17,18,18,19,19,20,20,21,21,22,22,23,23,25,25,27,27,28,28,29,29,31,31,32,32,35,35,36,36,38,38,39,39,40,40,42,42,43,43,44,44,45,45,46,46,49,49,50,50,52,52,53,53,54,54],"right_children":[2,4,6,8,10,12,14,16,18,20,22,24,26,28,30,-1,32,34,36,38,40,42,44,46,-1,48,-1,50,52,54,-1,56,58,-1,-1,60,62,-1,64,66,68,-1,70,72,74,76,78,-1,-1,80,82,-1,84,86,88,-1,-1,-1,-1,-1,-1,-1,-1,-1,-1,-1,-1,-1,-1,-1,-1,-1,-1,-1,-1,-1,-1,-1,-1,-1,-1,-1,-1,-1,-1,-1,-1,-1,-1],"split_conditions":[1.042173E2,6.3865433E1,4.3246543E-1,4.3213295E1,3.805668E-1,1.8333334E0,5E0,1.5332E3,2.8079786E0,2.598131E0,2.192E0,3.8836E2,5.8E1,6.998503E0,1.4285715E0,-2.1390228E-1,1.8875E3,2.642839E2,1.1207547E1,5.123457E-1,2.33399E3,1.0662648E2,1.257E2,1E0,-8.604351E-2,1.8087559E1,2.6016295E-2,1.1765385E2,1.5233625E1,9.3333334E-1,-2.2270583E-1,1.1384615E1,2.9841188E1,1.0771036E-2,-4.9086932E-2,8.293312E0,5.300231E0,-4.807307E-2,1.233721E1,1.4285715E-1,7E0,-1.090576E-1,1.6E1,1.8073722E0,3.8687985E2,1.2340659E1,5.0643027E2,-2.8139785E-1,-1.287837E-1,1.01973335E2,1.1872727E2,-2.2449815E-1,5.27374E2,4.8004797E-1,8.9E1,1.0567427E-2,-5.5874586E-3,-8.320578E-2,-2.932783E-2,3.0930234E-2,7.65441E-2,-2.6282286E-2,3.2617204E-2,-8.755792E-2,-3.5331893E-1,-2.7127692E-1,-9.908002E-2,1.7073615E-2,-1.08661406E-1,2.5885224E-3,-7.7647567E-3,-3.3522945E-2,4.588447E-3,2.7293682E-3,4.038222E-2,-3.6936752E-2,7.7530863E-3,8.879376E-2,-1.3583231E-2,9.6704535E-2,3.5673928E-2,1.4030735E-2,5.788914E-2,8.37194E-2,1.69311E-2,-2.7181903E-2,-2.1093236E-1,1.1842083E-2,8.72133E-2],"split_indices":[39,129,64,129,81,105,75,20,45,105,45,18,1,112,99,0,20,21,3,106,20,130,129,102,0,111,0,39,111,87,0,3,40,0,0,16,112,0,111,81,97,0,1,58,21,3,21,0,0,130,39,0,21,82,8,0,0,0,0,0,0,0,0,0,0,0,0,0,0,0,0,0,0,0,0,0,0,0,0,0,0,0,0,0,0,0,0,0,0],"split_type":[0,0,0,0,0,0,0,0,0,0,0,0,0,0,0,0,0,0,0,0,0,0,0,0,0,0,0,0,0,0,0,0,0,0,0,0,0,0,0,0,0,0,0,0,0,0,0,0,0,0,0,0,0,0,0,0,0,0,0,0,0,0,0,0,0,0,0,0,0,0,0,0,0,0,0,0,0,0,0,0,0,0,0,0,0,0,0,0,0],"sum_hessian":[3.94E2,1.63E2,2.31E2,9.1E1,7.2E1,3.4E1,1.97E2,1.3E1,7.8E1,5E1,2.2E1,2.4E1,1E1,1.36E2,6.1E1,1E0,1.2E1,7E0,7.1E1,2.9E1,2.1E1,1E1,1.2E1,1.9E1,5E0,9E0,1E0,1.19E2,1.7E1,6E1,1E0,5E0,7E0,1E0,6E0,5.5E1,1.6E1,2E0,2.7E1,1.1E1,1E1,8E0,2E0,8E0,4E0,3E0,1.6E1,4E0,5E0,1.07E2,1.2E1,1E0,1.6E1,6E0,5.4E1,3E0,2E0,5E0,2E0,3E0,5.2E1,3E0,1.3E1,2E0,2.5E1,3E0,8E0,7E0,3E0,1E0,1E0,4E0,4E0,1E0,3E0,2E0,1E0,1.5E1,1E0,9.8E1,9E0,7E0,5E0,6E0,1E1,5E0,1E0,5E1,4E0],"tree_param":{"num_deleted":"0","num_feature":"132","num_nodes":"89","size_leaf_vector":"1"}},{"base_weights":[-9.4991304E-2,-1.3585043E0,8.173484E-1,6.2853855E-1,-3.4514322E0,-7.20289E-1,1.0604994E0,1.3135262E0,-8.372761E-1,-4.661985E0,-5.533148E-1,-5.173575E0,1.0066528E-1,1.4267554E0,2.4647817E-2,1.387613E0,-2.6598325E-2,-3.0932412E0,-2.1236011E-1,-5.8613415E0,-1.2223009E0,-1.5435998E0,2.0978183E-1,-3.112279E-1,-2.4241103E-2,6.850988E-1,-1.446056E0,6.856767E-1,1.7682056E0,1.9215117E-1,-2.1713817E-1,1.2353341E-3,1.4367241E0,-1.8965559E-1,-5.6450028E-2,1.5272255E-1,-1.0686523E0,-2.9796376E0,-6.66876E0,-2.1522636E0,2.808318E-1,-2.0488427E0,-5.2753985E-1,-1.4463663E-1,6.102959E-2,1.4837589E0,-1.1241869E0,-1.9400942E-1,-1.07924104E-1,8.464553E-1,-1.0040771E-1,1.8279357E0,2.6774722E-1,-2.0084426E0,4.6898973E-1,5.9019565E-3,7.294791E-2,-2.0657703E-2,3.5081502E-2,-1.403966E-2,-5.7658166E-2,-1.7949691E-1,7.808419E-2,-3.4238887E-1,-2.7980436E-2,-1.3100989E-1,-5.8014512E-2,-2.2757053E-3,1.7140424E-2,-2.6505888E-2,-1.10680535E-1,2.5238039E-3,-3.423314E-2,5.571601E-3,-2.6270956E-2,8.096579E-2,2.0087982E-2,-6.713418E-2,-1.9264834E-2,-3.790469E-2,1.2335833E-2,-3.1403046E-2,5.4166712E-2,7.7770114E-2,1.1621982E-1,-1.3370951E-2,3.568322E-2,-6.673181E-3,-1.1783729E-1,6.1178245E-3,5.3674903E-2],"categories":[],"categories_nodes":[],"categories_segments":[],"categories_sizes":[],"default_left":[0,0,0,0,0,0,0,0,0,0,0,0,0,0,0,0,0,0,0,0,0,0,0,0,0,0,0,0,0,0,0,0,0,0,0,0,0,0,0,0,0,0,0,0,0,0,0,0,0,0,0,0,0,0,0,0,0,0,0,0,0,0,0,0,0,0,0,0,0,0,0,0,0,0,0,0,0,0,0,0,0,0,0,0,0,0,0,0,0,0,0],"id":5,"left_children":[1,3,5,7,9,11,13,15,17,19,21,23,25,27,29,31,-1,33,35,37,39,41,43,-1,-1,45,47,49,51,53,-1,-1,55,-1,-1,57,59,61,63,65,67,69,71,73,-1,75,77,79,-1,81,-1,83,85,87,89,-1,-1,-1,-1,-1,-1,-1,-1,-1,-1,-1,-1,-1,-1,-1,-1,-1,-1,-1,-1,-1,-1,-1,-1,-1,-1,-1,-1,-1,-1,-1,-1,-1,-1,-1,-1],"loss_changes":[4.5644785E2,6.925198E2,8.675581E1,8.744936E1,2.815948E2,1.17510994E2,7.5462814E1,8.805054E0,3.88172E1,2.2798376E2,1.9215899E1,2.16212E1,2.6301456E1,3.598471E1,3.9606937E1,3.7797241E0,0E0,3.9658585E0,7.353409E0,7.785266E1,2.2970146E1,4.56608E0,5.5502877E0,0E0,0E0,3.2013115E1,6.7171574E0,2.2489109E1,8.472778E0,3.2620815E1,0E0,0E0,1.4403839E0,0E0,0E0,5.5703173E0,1.4227867E-1,3.609362E1,3.116455E1,1.601593E0,1.5718347E-1,5.7818604E-1,4.8865712E-1,1.228626E0,0E0,1.549511E0,6.1278343E-1,1.1814612E0,0E0,1.6747368E1,0E0,9.373627E0,1.3840463E0,3.6038265E0,9.7171545E0,0E0,0E0,0E0,0E0,0E0,0E0,0E0,0E0,0E0,0E0,0E0,0E0,0E0,0E0,0E0,0E0,0E0,0E0,0E0,0E0,0E0,0E0,0E0,0E0,0E0,0E0,0E0,0E0,0E0,0E0,0E0,0E0,0E0,0E0,0E0,0E0],"parents":[2147483647,0,0,1,1,2,2,3,3,4,4,5,5,6,6,7,7,8,8,9,9,10,10,11,11,12,12,13,13,14,14,15,15,17,17,18,18,19,19,20,20,21,21,22,22,25,25,26,26,27,27,28,28,29,29,32,32,35,35,36,36,37,37,38,38,39,39,40,40,41,41,42,42,43,43,45,45,46,46,47,47,49,49,51,51,52,52,53,53,54,54],"right_children":[2,4,6,8,10,12,14,16,18,20,22,24,26,28,30,32,-1,34,36,38,40,42,44,-1,-1,46,48,50,52,54,-1,-1,56,-1,-1,58,60,62,64,66,68,70,72,74,-1,76,78,80,-1,82,-1,84,86,88,90,-1,-1,-1,-1,-1,-1,-1,-1,-1,-1,-1,-1,-1,-1,-1,-1,-1,-1,-1,-1,-1,-1,-1,-1,-1,-1,-1,-1,-1,-1,-1,-1,-1,-1,-1,-1],"split_conditions":[1.0435107E2,7.529187E-1,6.32E0,5.5E0,3.805668E-1,1.301E1,5E0,7.2E-1,1E0,2.1463754E0,1.5E1,1.4086957E1,1.5E0,7E0,1.4285715E0,1.05141886E-1,-2.6598325E-2,6.35E-6,1.4201184E-1,8.7918365E-1,2.07E2,9.085714E0,2.28495E3,-3.112279E-1,-2.4241103E-2,7.183884E0,1E0,1.6896551E1,1.1103454E0,5.714286E-1,-2.1713817E-1,1.2353341E-3,3.739229E0,-1.8965559E-1,-5.6450028E-2,1.5703704E1,1.1172933E1,3.2352E3,7.4E1,2.171518E0,1.4466666E1,3E0,6.5306125E0,3.0394266E0,6.102959E-2,6.1719847E0,1.0086957E1,1.2064187E1,-1.07924104E-1,2.0189035E0,-1.0040771E-1,1.03125E0,1.1872727E2,1.0406593E1,1.119E1,5.9019565E-3,7.294791E-2,-2.0657703E-2,3.5081502E-2,-1.403966E-2,-5.7658166E-2,-1.7949691E-1,7.808419E-2,-3.4238887E-1,-2.7980436E-2,-1.3100989E-1,-5.8014512E-2,-2.2757053E-3,1.7140424E-2,-2.6505888E-2,-1.10680535E-1,2.5238039E-3,-3.423314E-2,5.571601E-3,-2.6270956E-2,8.096579E-2,2.0087982E-2,-6.713418E-2,-1.9264834E-2,-3.790469E-2,1.2335833E-2,-3.1403046E-2,5.4166712E-2,7.7770114E-2,1.1621982E-1,-1.3370951E-2,3.568322E-2,-6.673181E-3,-1.1783729E-1,6.1178245E-3,5.3674903E-2],"split_indices":[39,88,4,4,81,108,75,88,76,94,2,3,87,73,99,52,0,121,52,46,37,27,20,0,0,28,102,3,88,106,0,0,4,0,0,10,3,20,1,106,4,27,3,76,0,4,3,3,0,106,0,88,39,3,108,0,0,0,0,0,0,0,0,0,0,0,0,0,0,0,0,0,0,0,0,0,0,0,0,0,0,0,0,0,0,0,0,0,0,0,0],"split_type":[0,0,0,0,0,0,0,0,0,0,0,0,0,0,0,0,0,0,0,0,0,0,0,0,0,0,0,0,0,0,0,0,0,0,0,0,0,0,0,0,0,0,0,0,0,0,0,0,0,0,0,0,0,0,0,0,0,0,0,0,0,0,0,0,0,0,0,0,0,0,0,0,0,0,0,0,0,0,0,0,0,0,0,0,0,0,0,0,0,0,0],"sum_hessian":[3.94E2,1.65E2,2.29E2,8.5E1,8E1,3.1E1,1.98E2,5.8E1,2.7E1,5.6E1,2.4E1,4E0,2.7E1,1.46E2,5.2E1,5.6E1,2E0,5E0,2.2E1,4.1E1,1.5E1,1E1,1.4E1,3E0,1E0,2E1,7E0,4.7E1,9.9E1,5.1E1,1E0,2E0,5.4E1,3E0,2E0,1.6E1,6E0,1E1,3.1E1,9E0,6E0,6E0,4E0,1.1E1,3E0,1.4E1,6E0,3E0,4E0,4.5E1,2E0,9.5E1,4E0,5E0,4.6E1,1E0,5.3E1,8E0,8E0,1E0,5E0,9E0,1E0,3E1,1E0,5E0,4E0,1E0,5E0,1E0,5E0,1E0,3E0,7E0,4E0,1.2E1,2E0,4E0,2E0,1E0,2E0,6E0,3.9E1,6.4E1,3.1E1,2E0,2E0,1E0,4E0,3E1,1.6E1],"tree_param":{"num_deleted":"0","num_feature":"132","num_nodes":"91","size_leaf_vector":"1"}},{"base_weights":[3.48518E-2,1.537244E-1,-3.152169E-1,-4.8109283E0,3.0374494E-1,-3.479057E-1,-8.4268296E-1,1.5069172E0,-3.6246374E-2,-7.523515E-2,1.0023133E-1,1.8713073E0,2.385435E-1,-1.36701E0,5.2950937E-1,9.081972E-3,-1.5646219E-3,3.4415036E-1,1.9431263E0,-1.2863021E0,6.0484594E-1,-6.7371625E-1,-3.5865285E0,-5.130527E0,7.009489E-1,2.486015E-2,-2.875185E-3,7.6595135E-2,1.1002203E-1,-9.0587385E-2,7.250869E-3,4.0615484E-2,6.184401E-3,-1.724854E-2,-2.8415146E-1,-2.4617593E-1,-4.828017E-2,-1.04594484E-1,-3.0634364E-1,4.041067E-2,-1.14766434E-1],"categories":[],"categories_nodes":[],"categories_segments":[],"categories_sizes":[],"default_left":[0,0,0,0,0,0,0,0,0,0,0,0,0,0,0,0,0,0,0,0,0,0,0,0,0,0,0,0,0,0,0,0,0,0,0,0,0,0,0,0,0],"id":6,"left_children":[1,3,-1,5,7,-1,9,11,13,-1,15,17,19,21,23,-1,-1,25,27,29,31,33,35,37,39,-1,-1,-1,-1,-1,-1,-1,-1,-1,-1,-1,-1,-1,-1,-1,-1],"loss_changes":[2.865668E2,2.7927164E2,0E0,8.7862656E1,1.4854636E2,0E0,3.2719586E0,3.652823E1,2.145438E2,0E0,3.7805237E-2,6.131378E0,1.1390553E1,1.2837982E2,1.9766704E2,0E0,0E0,2.7448776E-1,2.8721466E0,3.2710567E0,1.4966927E0,1.0672761E2,6.532886E1,5.348465E0,6.4527E1,0E0,0E0,0E0,0E0,0E0,0E0,0E0,0E0,0E0,0E0,0E0,0E0,0E0,0E0,0E0,0E0],"parents":[2147483647,0,0,1,1,3,3,4,4,6,6,7,7,8,8,10,10,11,11,12,12,13,13,14,14,17,17,18,18,19,19,20,20,21,21,22,22,23,23,24,24],"right_children":[2,4,-1,6,8,-1,10,12,14,-1,16,18,20,22,24,-1,-1,26,28,30,32,34,36,38,40,-1,-1,-1,-1,-1,-1,-1,-1,-1,-1,-1,-1,-1,-1,-1,-1],"split_conditions":[3.03E0,2.4609564E2,-3.152169E-1,4E0,9.117018E1,-3.479057E-1,3.2E1,2.2515972E1,8E0,-7.523515E-2,1.2714286E1,7.5E1,1.7E1,6.925249E-1,4.8534885E1,9.081972E-3,-1.5646219E-3,3.1E1,2.6363637E0,4.101194E2,8.40965E1,2.49E0,5.946371E0,8.977556E0,2.4289235E-1,2.486015E-2,-2.875185E-3,7.6595135E-2,1.1002203E-1,-9.0587385E-2,7.250869E-3,4.0615484E-2,6.184401E-3,-1.724854E-2,-2.8415146E-1,-2.4617593E-1,-4.828017E-2,-1.04594484E-1,-3.0634364E-1,4.041067E-2,-1.14766434E-1],"split_indices":[44,21,0,85,22,0,1,111,91,0,3,130,1,34,9,0,0,1,33,21,130,44,28,27,100,0,0,0,0,0,0,0,0,0,0,0,0,0,0,0,0],"split_type":[0,0,0,0,0,0,0,0,0,0,0,0,0,0,0,0,0,0,0,0,0,0,0,0,0,0,0,0,0,0,0,0,0,0,0,0,0,0,0,0,0],"sum_hessian":[3.78E2,3.72E2,6E0,1E1,3.62E2,6E0,4E0,7.9E1,2.83E2,2E0,2E0,6.1E1,1.8E1,8.4E1,1.99E2,1E0,1E0,3E0,5.8E1,3E0,1.5E1,6.5E1,1.9E1,5E0,1.94E2,2E0,1E0,2.5E1,3.3E1,2E0,1E0,1E1,5E0,6.2E1,3E0,1.2E1,7E0,2E0,3E0,1.88E2,6E0],"tree_param":{"num_deleted":"0","num_feature":"132","num_nodes":"41","size_leaf_vector":"1"}},{"base_weights":[-9.4350375E-2,-1.2461146E0,7.0072865E-1,6.410101E-1,-3.9560163E0,-5.660259E-1,9.637258E-1,1.0341668E0,-5.4878736E-1,-5.4985017E-1,-4.880261E0,1.7570473E-1,-4.7984505E0,1.0714166E0,-1.3211026E0,-4.4927508E-2,1.1629641E0,1.6820595E-1,-1.4114345E0,-1.3189703E0,-3.3393096E-2,-6.430085E0,-1.9316051E0,1.3316905E0,-7.578692E-1,-3.829155E-2,-5.451808E0,1.2841874E0,2.3133273E-1,-1.8276598E-1,-1.3199496E-1,1.3521938E0,6.1374193E-1,-5.942305E-1,8.1431204E-1,-8.598223E-2,-3.4882665E-2,-3.2302577E-2,-8.8826925E-2,-1.7147828E-2,1.4827074E-1,-7.155083E-2,-6.706444E0,1.1563953E0,-2.3629227E0,1.6656065E0,-3.3524048E-2,-9.719336E-2,3.8920805E-1,-3.025878E-1,-7.6300405E-2,-5.9208226E-1,1.3554262E0,-4.8957455E-1,5.062844E-1,-7.751148E-2,7.4534476E-1,2.8033644E-2,6.9581315E-2,-1.2651957E-2,3.960392E-2,-4.873112E-2,-3.2640458E-3,6.649284E-2,2.1041049E-2,1.4670834E-2,-7.153138E-3,-3.4186855E-1,-6.946566E-2,4.4431686E-3,8.2286485E-2,-1.5785901E-1,8.736572E-3,8.655609E-2,2.0347727E-2,-5.502913E-2,9.0706535E-2,-5.268688E-2,1.104095E-2,7.0542626E-2,-4.4088997E-2,-7.904532E-2,-1.11175375E-2,4.006515E-2,1.1746953E-2,6.0262043E-2,1.6453028E-2],"categories":[],"categories_nodes":[],"categories_segments":[],"categories_sizes":[],"default_left":[0,0,0,0,0,0,0,0,0,0,0,0,0,0,0,0,0,0,0,0,0,0,0,0,0,0,0,0,0,0,0,0,0,0,0,0,0,0,0,0,0,0,0,0,0,0,0,0,0,0,0,0,0,0,0,0,0,0,0,0,0,0,0,0,0,0,0,0,0,0,0,0,0,0,0,0,0,0,0,0,0,0,0,0,0,0,0],"id":7,"left_children":[1,3,5,7,9,11,13,15,17,19,21,23,25,27,29,-1,31,33,35,37,39,41,43,45,47,-1,49,51,53,-1,55,57,59,61,63,-1,-1,-1,-1,-1,65,-1,67,69,71,73,-1,-1,75,-1,-1,77,79,81,83,-1,85,-1,-1,-1,-1,-1,-1,-1,-1,-1,-1,-1,-1,-1,-1,-1,-1,-1,-1,-1,-1,-1,-1,-1,-1,-1,-1,-1,-1,-1,-1],"loss_changes":[3.5435022E2,8.1053564E2,7.6837494E1,4.4538567E1,2.0194513E2,1.2641586E2,4.8165924E1,1.8718918E1,1.5081703E1,5.9142194E0,2.2064441E2,3.8781185E1,1.16332855E1,3.2234573E1,2.4498236E1,0E0,6.133354E0,7.3804965E0,1.2202263E0,6.997013E-1,6.132152E-1,3.5993652E1,2.8038734E1,1.1813665E1,2.7965195E1,0E0,2.5413513E0,2.018367E1,7.7800217E0,0E0,9.865371E0,7.491226E-1,3.1374202E0,1.3448327E0,1.0632663E0,0E0,0E0,0E0,0E0,0E0,3.3797818E-1,0E0,1.2081665E1,1.4208946E0,3.4816E1,4.4996643E-1,0E0,0E0,2.5347801E1,0E0,0E0,2.4843667E0,1.8604065E1,2.856413E0,2.053196E0,0E0,5.606401E-1,0E0,0E0,0E0,0E0,0E0,0E0,0E0,0E0,0E0,0E0,0E0,0E0,0E0,0E0,0E0,0E0,0E0,0E0,0E0,0E0,0E0,0E0,0E0,0E0,0E0,0E0,0E0,0E0,0E0,0E0],"parents":[2147483647,0,0,1,1,2,2,3,3,4,4,5,5,6,6,7,7,8,8,9,9,10,10,11,11,12,12,13,13,14,14,16,16,17,17,18,18,19,19,20,20,21,21,22,22,23,23,24,24,26,26,27,27,28,28,30,30,31,31,32,32,33,33,34,34,40,40,42,42,43,43,44,44,45,45,48,48,51,51,52,52,53,53,54,54,56,56],"right_children":[2,4,6,8,10,12,14,16,18,20,22,24,26,28,30,-1,32,34,36,38,40,42,44,46,48,-1,50,52,54,-1,56,58,60,62,64,-1,-1,-1,-1,-1,66,-1,68,70,72,74,-1,-1,76,-1,-1,78,80,82,84,-1,86,-1,-1,-1,-1,-1,-1,-1,-1,-1,-1,-1,-1,-1,-1,-1,-1,-1,-1,-1,-1,-1,-1,-1,-1,-1,-1,-1,-1,-1,-1],"split_conditions":[1.042173E2,7.822222E1,2.9166666E-1,4.513889E-1,1.6129032E0,3.4444444E0,1.0996908E0,1.3212766E1,8.672853E1,3.2E1,2.6170213E0,1.7714286E0,4E1,1.01973335E2,1.6260163E0,-4.4927508E-2,1.1037037E1,8.9581656E-1,2.0745E3,1.6E1,1.805411E0,1.233721E1,1.44E0,1.0040816E1,1.1523077E1,-3.829155E-2,1.9159193E1,7.2E0,4.5058514E1,-1.8276598E-1,6.37E0,3.739229E0,5.300231E0,8.253591E1,3E0,-8.598223E-2,-3.4882665E-2,-3.2302577E-2,-8.8826925E-2,-1.7147828E-2,8.363636E0,-7.155083E-2,8.3E1,2.1E1,2.07E2,4.8199857E2,-3.3524048E-2,-9.719336E-2,1.1252941E2,-3.025878E-1,-7.6300405E-2,5.136822E1,7E0,1.178048E1,4.6066116E1,-7.751148E-2,2.8242435E2,2.8033644E-2,6.9581315E-2,-1.2651957E-2,3.960392E-2,-4.873112E-2,-3.2640458E-3,6.649284E-2,2.1041049E-2,1.4670834E-2,-7.153138E-3,-3.4186855E-1,-6.946566E-2,4.4431686E-3,8.2286485E-2,-1.5785901E-1,8.736572E-3,8.655609E-2,2.0347727E-2,-5.502913E-2,9.0706535E-2,-5.268688E-2,1.104095E-2,7.0542626E-2,-4.4088997E-2,-7.904532E-2,-1.11175375E-2,4.006515E-2,1.1746953E-2,6.0262043E-2,1.6453028E-2],"split_indices":[39,130,63,118,51,105,118,27,39,1,105,105,1,130,51,0,3,58,20,1,58,111,106,27,3,0,3,40,40,0,28,4,112,39,0,0,0,0,0,0,3,0,1,1,37,21,0,0,129,0,0,15,97,3,40,0,21,0,0,0,0,0,0,0,0,0,0,0,0,0,0,0,0,0,0,0,0,0,0,0,0,0,0,0,0,0,0],"split_type":[0,0,0,0,0,0,0,0,0,0,0,0,0,0,0,0,0,0,0,0,0,0,0,0,0,0,0,0,0,0,0,0,0,0,0,0,0,0,0,0,0,0,0,0,0,0,0,0,0,0,0,0,0,0,0,0,0,0,0,0,0,0,0,0,0,0,0,0,0,0,0,0,0,0,0,0,0,0,0,0,0,0,0,0,0,0,0],"sum_hessian":[3.85E2,1.57E2,2.28E2,9.3E1,6.4E1,3.9E1,1.89E2,7E1,2.3E1,1.4E1,5E1,3.4E1,5E0,1.81E2,8E0,4E0,6.6E1,1.3E1,1E1,5E0,9E0,3.2E1,1.8E1,1.5E1,1.9E1,1E0,4E0,1.44E2,3.7E1,2E0,6E0,4.8E1,1.8E1,6E0,7E0,6E0,4E0,3E0,2E0,3E0,6E0,2E0,3E1,2E0,1.6E1,1.3E1,2E0,9E0,1E1,3E0,1E0,5E0,1.39E2,1E1,2.7E1,2E0,4E0,3E0,4.5E1,3E0,1.5E1,3E0,3E0,2E0,5E0,4E0,2E0,2.9E1,1E0,1E0,1E0,1.2E1,4E0,1.2E1,1E0,5E0,5E0,3E0,2E0,1.36E2,3E0,1E0,9E0,1.2E1,1.5E1,1E0,3E0],"tree_param":{"num_deleted":"0","num_feature":"132","num_nodes":"87","size_leaf_vector":"1"}},{"base_weights":[1.01704046E-1,-2.4264522E0,3.7434107E-1,-2.7405673E-1,-1.1397395E0,1.0869842E0,-1.9841044E-1,-2.4344747E0,1.4466265E-1,1.2893398E0,-7.768587E-1,-1.8961852E0,4.2784286E-1,-1.0045028E0,-2.0868436E-1,8.8072795E-1,-3.114428E-1,9.4254786E-1,1.761224E0,-1.6889518E0,1.0247885E0,-4.4721637E0,-1.0331631E0,-2.7070055E0,6.819883E-1,-7.624941E-2,-2.8311682E-1,1.3317132E-2,5.606675E-2,-7.4584675E-1,1.0246762E-1,-5.130536E-1,1.0610949E0,1.9002694E0,2.1627855E-1,-6.4635974E-1,-2.4500518E0,1.2338034E-1,7.223237E-2,-3.0582502E-1,-1.0944735E-1,-3.5171156E0,-4.1831645E-1,-4.3883505E0,1.8827876E-1,-1.8252878E0,7.9331905E-1,5.3543807E-3,-2.8947448E-2,1.5107167E-2,-5.4169007E-2,1.4955229E-2,-9.693543E-3,-6.314916E-2,4.5392346E-2,5.847319E-2,-1.0257071E-2,4.507274E-2,9.810728E-2,1.8562837E-2,5.551579E-3,-4.2473968E-2,9.230948E-3,-6.985193E-2,-1.9287798E-1,1.3820398E-2,-4.566872E-3,-2.6995817E-1,-6.540272E-2,-6.400505E-2,1.6470673E-2,-9.3802236E-2,-2.5090322E-1,-8.1545986E-2,5.2540418E-2,8.3367823E-4,-1.0985074E-1,5.5716503E-2,2.3005156E-2],"categories":[],"categories_nodes":[],"categories_segments":[],"categories_sizes":[],"default_left":[0,0,0,0,0,0,0,0,0,0,0,0,0,0,0,0,0,0,0,0,0,0,0,0,0,0,0,0,0,0,0,0,0,0,0,0,0,0,0,0,0,0,0,0,0,0,0,0,0,0,0,0,0,0,0,0,0,0,0,0,0,0,0,0,0,0,0,0,0,0,0,0,0,0,0,0,0,0,0],"id":8,"left_children":[1,3,5,-1,7,9,11,13,15,17,19,21,23,25,-1,27,29,31,33,35,37,39,41,43,45,-1,47,-1,-1,49,51,53,55,57,59,61,63,65,-1,-1,-1,67,69,71,73,75,77,-1,-1,-1,-1,-1,-1,-1,-1,-1,-1,-1,-1,-1,-1,-1,-1,-1,-1,-1,-1,-1,-1,-1,-1,-1,-1,-1,-1,-1,-1,-1,-1],"loss_changes":[2.6903397E2,1.4311185E2,1.438906E2,0E0,4.691508E1,6.0215607E1,2.0920573E2,3.062587E1,5.310148E0,2.1577621E1,2.802314E1,1.1320523E2,1.1657201E2,2.9474878E0,0E0,5.8829355E-1,1.8744683E0,1.50392E1,1.2263245E1,7.145071E0,2.092544E0,3.5418213E1,6.1145977E1,5.437393E1,3.885239E1,0E0,6.391734E-1,0E0,0E0,2.095994E0,4.0761426E-1,8.605623E0,1.0943108E1,1.5685577E0,5.664465E-2,1.1695583E0,3.5035858E0,1.2381965E-1,0E0,0E0,0E0,2.6198074E1,2.2330671E1,1.6601105E0,9.559346E0,4.1448746E0,1.3285904E1,0E0,0E0,0E0,0E0,0E0,0E0,0E0,0E0,0E0,0E0,0E0,0E0,0E0,0E0,0E0,0E0,0E0,0E0,0E0,0E0,0E0,0E0,0E0,0E0,0E0,0E0,0E0,0E0,0E0,0E0,0E0,0E0],"parents":[2147483647,0,0,1,1,2,2,4,4,5,5,6,6,7,7,8,8,9,9,10,10,11,11,12,12,13,13,15,15,16,16,17,17,18,18,19,19,20,20,21,21,22,22,23,23,24,24,26,26,29,29,30,30,31,31,32,32,33,33,34,34,35,35,36,36,37,37,41,41,42,42,43,43,44,44,45,45,46,46],"right_children":[2,4,6,-1,8,10,12,14,16,18,20,22,24,26,-1,28,30,32,34,36,38,40,42,44,46,-1,48,-1,-1,50,52,54,56,58,60,62,64,66,-1,-1,-1,68,70,72,74,76,78,-1,-1,-1,-1,-1,-1,-1,-1,-1,-1,-1,-1,-1,-1,-1,-1,-1,-1,-1,-1,-1,-1,-1,-1,-1,-1,-1,-1,-1,-1,-1,-1],"split_conditions":[4.4444445E-1,9.235714E1,6.4E-1,-2.7405673E-1,3.7968552E0,1.4E1,1.02465515E2,6.848485E0,1.7714286E0,1.8077611E0,2.4489796E0,1E0,2.9166666E-1,1.5E1,-2.0868436E-1,3.75E-1,4.291498E0,4.173913E0,9.6E1,4.086858E-1,1.4347826E1,1.2795699E0,1.768E3,2.128E3,1.5155E1,-7.624941E-2,2.1142857E0,1.3317132E-2,5.606675E-2,4.078175E0,4.0774967E1,1.7E1,8.087574E-1,2.1245796E1,1.178048E1,3.7120766E1,1.7E1,2.6E1,7.223237E-2,-3.0582502E-1,-1.0944735E-1,2.2666666E1,1.6401384E0,1E0,4.1E1,3.5E1,5.3301385E2,5.3543807E-3,-2.8947448E-2,1.5107167E-2,-5.4169007E-2,1.4955229E-2,-9.693543E-3,-6.314916E-2,4.5392346E-2,5.847319E-2,-1.0257071E-2,4.507274E-2,9.810728E-2,1.8562837E-2,5.551579E-3,-4.2473968E-2,9.230948E-3,-6.985193E-2,-1.9287798E-1,1.3820398E-2,-4.566872E-3,-2.6995817E-1,-6.540272E-2,-6.400505E-2,1.6470673E-2,-9.3802236E-2,-2.5090322E-1,-8.1545986E-2,5.2540418E-2,8.3367823E-4,-1.0985074E-1,5.5716503E-2,2.3005156E-2],"split_indices":[34,129,34,0,4,126,39,3,105,58,76,102,63,1,0,34,75,75,7,52,3,93,19,19,110,0,33,0,0,4,10,1,46,15,3,10,1,1,0,0,0,10,76,102,1,1,21,0,0,0,0,0,0,0,0,0,0,0,0,0,0,0,0,0,0,0,0,0,0,0,0,0,0,0,0,0,0,0,0],"split_type":[0,0,0,0,0,0,0,0,0,0,0,0,0,0,0,0,0,0,0,0,0,0,0,0,0,0,0,0,0,0,0,0,0,0,0,0,0,0,0,0,0,0,0,0,0,0,0,0,0,0,0,0,0,0,0,0,0,0,0,0,0,0,0,0,0,0,0,0,0,0,0,0,0,0,0,0,0,0,0],"sum_hessian":[3.88E2,3.7E1,3.51E2,1E1,2.7E1,1.56E2,1.95E2,1.3E1,1.4E1,1.41E2,1.5E1,5.2E1,1.43E2,8E0,5E0,5E0,9E0,8.3E1,5.8E1,1E1,5E0,1.2E1,4E1,1E1,1.33E2,4E0,4E0,2E0,3E0,4E0,5E0,6E0,7.7E1,5.3E1,5E0,5E0,5E0,2E0,3E0,6E0,6E0,7E0,3.3E1,6E0,4E0,5E0,1.28E2,2E0,2E0,1E0,3E0,3E0,2E0,4E0,2E0,7.1E1,6E0,4E0,4.9E1,1E0,4E0,4E0,1E0,4E0,1E0,1E0,1E0,3E0,4E0,1.5E1,1.8E1,2E0,4E0,1E0,3E0,1E0,4E0,6.4E1,6.4E1],"tree_param":{"num_deleted":"0","num_feature":"132","num_nodes":"79","size_leaf_vector":"1"}},{"base_weights":[-7.092936E-2,8.473861E-1,-9.521576E-1,1.0044843E0,-1.0733384E0,-2.8245273E0,5.143972E-1,-7.584061E-1,1.1479752E0,8.0327064E-1,-1.6094298E0,-3.5016165E0,-4.9754715E-1,-4.2143607E0,7.2659343E-1,1.0256672E-1,-1.4169565E0,1.868996E-1,1.3264E0,4.873283E-2,7.2278264E-3,-1.73955E0,-4.4527054E-3,-7.009352E-1,-4.214739E0,-1.3528017E0,1.3282499E-1,-2.6052126E-1,-9.067548E-2,1.109146E0,3.3083013E-1,-3.7981868E-3,2.554555E-1,-9.1373295E-2,-2.7479036E-2,-4.6320942E-1,8.2365865E-1,1.1482174E0,1.9626716E0,-2.9907346E-2,-9.633672E-2,-1.0254624E0,9.3899435E-1,-5.190591E0,-2.2962604E0,-1.7096542E0,-6.92118E-2,-2.9956135E-1,8.845554E-1,1.3016008E0,-1.9134415E-2,-2.6866407E0,4.9538827E-1,1.6926225E-2,1.5621186E-4,-8.407403E-2,2.002195E-2,7.484753E-2,-3.1741653E-3,6.046876E-2,3.3410105E-3,1.0244848E-1,4.5553394E-2,-7.0478305E-2,-6.4491653E-3,1.3474894E-2,5.6949683E-2,-2.7860788E-1,-4.2020537E-2,-1.768471E-1,-1.9343896E-2,-1.0325567E-1,-2.7366892E-2,3.5656213E-3,-8.756506E-3,8.445746E-3,-2.8097598E-2,9.00017E-3,5.0784625E-2,7.005061E-2,1.9439412E-2,-1.1660656E-2,1.5338361E-2,-2.2358882E-1,2.2090768E-2,4.5982778E-2,8.231454E-3],"categories":[],"categories_nodes":[],"categories_segments":[],"categories_sizes":[],"default_left":[0,0,0,0,0,0,0,0,0,0,0,0,0,0,0,0,0,0,0,0,0,0,0,0,0,0,0,0,0,0,0,0,0,0,0,0,0,0,0,0,0,0,0,0,0,0,0,0,0,0,0,0,0,0,0,0,0,0,0,0,0,0,0,0,0,0,0,0,0,0,0,0,0,0,0,0,0,0,0,0,0,0,0,0,0,0,0],"id":9,"left_children":[1,3,5,7,9,11,13,15,17,19,21,23,25,27,29,31,33,35,37,-1,-1,39,-1,41,43,45,47,-1,-1,49,51,-1,53,-1,-1,55,57,59,61,-1,-1,63,65,67,69,71,73,75,77,79,81,83,85,-1,-1,-1,-1,-1,-1,-1,-1,-1,-1,-1,-1,-1,-1,-1,-1,-1,-1,-1,-1,-1,-1,-1,-1,-1,-1,-1,-1,-1,-1,-1,-1,-1,-1],"loss_changes":[3.1722186E2,5.901268E1,5.506395E2,4.5897263E1,1.6383322E1,1.369082E2,1.1644912E2,8.083247E0,2.804625E1,3.106842E-1,2.2190647E0,1.3285718E2,1.1501388E1,2.5078583E0,1.6135689E1,2.104725E-1,1.8441887E0,1.1558521E1,1.35052185E1,0E0,0E0,1.197712E0,0E0,8.9459305E0,8.9177185E1,4.004141E0,4.490472E0,0E0,0E0,1.1967773E1,2.864115E1,0E0,8.2785994E-2,0E0,0E0,1.5403542E1,8.45731E0,7.260269E0,7.650223E-1,0E0,0E0,4.2946205E0,9.4739914E-2,5.3413025E1,4.601036E1,1.7617779E0,5.714123E-2,1.201236E0,2.7913713E-1,3.7202606E0,6.994595E-1,1.8729853E1,7.286104E0,0E0,0E0,0E0,0E0,0E0,0E0,0E0,0E0,0E0,0E0,0E0,0E0,0E0,0E0,0E0,0E0,0E0,0E0,0E0,0E0,0E0,0E0,0E0,0E0,0E0,0E0,0E0,0E0,0E0,0E0,0E0,0E0,0E0,0E0],"parents":[2147483647,0,0,1,1,2,2,3,3,4,4,5,5,6,6,7,7,8,8,9,9,10,10,11,11,12,12,13,13,14,14,15,15,16,16,17,17,18,18,21,21,23,23,24,24,25,25,26,26,29,29,30,30,32,32,35,35,36,36,37,37,38,38,41,41,42,42,43,43,44,44,45,45,46,46,47,47,48,48,49,49,50,50,51,51,52,52],"right_children":[2,4,6,8,10,12,14,16,18,20,22,24,26,28,30,32,34,36,38,-1,-1,40,-1,42,44,46,48,-1,-1,50,52,-1,54,-1,-1,56,58,60,62,-1,-1,64,66,68,70,72,74,76,78,80,82,84,86,-1,-1,-1,-1,-1,-1,-1,-1,-1,-1,-1,-1,-1,-1,-1,-1,-1,-1,-1,-1,-1,-1,-1,-1,-1,-1,-1,-1,-1,-1,-1,-1,-1,-1],"split_conditions":[8.097507E-1,7E1,2.07E2,4.3213295E1,5.444E2,7.0503545E0,2E0,2.128E3,7.2074074E-1,3.0713436E1,4.217284E1,7.92E1,2.192E0,9E0,1.6285715E1,4E0,5E1,1.1175E2,1.1682E0,4.873283E-2,7.2278264E-3,7.0903687E0,-4.4527054E-3,2.4489796E0,2.6170213E0,1.04937614E2,5.434568E0,-2.6052126E-1,-9.067548E-2,3.724E1,1.6297873E1,-3.7981868E-3,1.2714286E1,-9.1373295E-2,-2.7479036E-2,5.93161E-1,3.86775E1,4.7000922E2,1.3646922E0,-2.9907346E-2,-9.633672E-2,2.79E0,2.3E1,4E1,6.635506E2,1.5397738E1,1.3E1,4.8555557E1,2.1E1,2E0,5.1304348E1,1.3769376E1,5.037815E0,1.6926225E-2,1.5621186E-4,-8.407403E-2,2.002195E-2,7.484753E-2,-3.1741653E-3,6.046876E-2,3.3410105E-3,1.0244848E-1,4.5553394E-2,-7.0478305E-2,-6.4491653E-3,1.3474894E-2,5.6949683E-2,-2.7860788E-1,-4.2020537E-2,-1.768471E-1,-1.9343896E-2,-1.0325567E-1,-2.7366892E-2,3.5656213E-3,-8.756506E-3,8.445746E-3,-2.8097598E-2,9.00017E-3,5.0784625E-2,7.005061E-2,1.9439412E-2,-1.1660656E-2,1.5338361E-2,-2.2358882E-1,2.2090768E-2,4.5982778E-2,8.231454E-3],"split_indices":[46,126,37,129,19,28,62,19,46,10,10,130,45,104,3,86,2,129,117,0,0,16,0,76,105,130,4,0,0,109,3,0,3,0,0,106,10,21,87,0,0,45,2,10,22,110,2,9,2,58,9,4,75,0,0,0,0,0,0,0,0,0,0,0,0,0,0,0,0,0,0,0,0,0,0,0,0,0,0,0,0,0,0,0,0,0,0],"split_type":[0,0,0,0,0,0,0,0,0,0,0,0,0,0,0,0,0,0,0,0,0,0,0,0,0,0,0,0,0,0,0,0,0,0,0,0,0,0,0,0,0,0,0,0,0,0,0,0,0,0,0,0,0,0,0,0,0,0,0,0,0,0,0,0,0,0,0,0,0,0,0,0,0,0,0,0,0,0,0,0,0,0,0,0,0,0,0],"sum_hessian":[3.9E2,1.91E2,1.99E2,1.77E2,1.4E1,8.7E1,1.12E2,1.3E1,1.64E2,3E0,1.1E1,6.7E1,2E1,4E0,1.08E2,6E0,7E0,2.6E1,1.38E2,2E0,1E0,1E1,1E0,1.4E1,5.3E1,8E0,1.2E1,2E0,2E0,5.4E1,5.4E1,3E0,3E0,4E0,3E0,1.3E1,1.3E1,1.1E2,2.8E1,2E0,8E0,1.2E1,2E0,3.4E1,1.9E1,6E0,2E0,8E0,4E0,4.6E1,8E0,2E0,5.2E1,2E0,1E0,5E0,8E0,7E0,6E0,1.04E2,6E0,2.5E1,3E0,8E0,4E0,1E0,1E0,3.1E1,3E0,1.1E1,8E0,4E0,2E0,1E0,1E0,3E0,5E0,1E0,3E0,4.1E1,5E0,5E0,3E0,1E0,1E0,2.2E1,3E1],"tree_param":{"num_deleted":"0","num_feature":"132","num_nodes":"87","size_leaf_vector":"1"}},{"base_weights":[6.9179334E-4,-2.1958861E0,2.4475409E-1,-2.636585E-1,-1.1323789E0,9.0605E-1,-3.9271402E-1,-2.0069666E0,-1.8701774E-1,-2.982758E0,1.013206E0,-1.8252169E0,5.658259E-1,-2.7065858E-1,-3.0216854E0,-6.350191E-2,5.8416467E-2,1.287756E-1,-2.5500196E-1,-9.047729E-1,1.1617807E0,-3.1019375E0,-5.999051E-1,6.981812E-1,-1.5746127E-1,4.1429337E-2,-5.9196395E-1,-7.453469E-2,-1.8969487E-1,4.5530796E-2,-1.5950143E-1,9.505868E-3,1.5230179E-4,6.180506E-2,-1.3412304E0,1.5495511E0,8.615879E-1,-2.1367095E0,-5.1013913E0,-9.972103E-1,1.0643041E0,9.588467E-1,1.2711188E-1,-3.690843E-2,3.4764768E-3,2.821003E-3,-3.0272473E-2,-3.6557615E-3,1.5037156E-2,-8.771836E-2,-3.2992374E-2,2.218466E-2,8.540174E-2,1.5072608E-2,5.6839682E-2,-1.2893449E-1,1.1767273E-2,-2.0934546E-2,-2.7638963E-1,-3.6683127E-2,-1.6501422E-1,-1.1910233E-2,7.690873E-2,1.8357934E-2,6.266176E-2,-2.179991E-1,1.9366E-2],"categories":[],"categories_nodes":[],"categories_segments":[],"categories_sizes":[],"default_left":[0,0,0,0,0,0,0,0,0,0,0,0,0,0,0,0,0,0,0,0,0,0,0,0,0,0,0,0,0,0,0,0,0,0,0,0,0,0,0,0,0,0,0,0,0,0,0,0,0,0,0,0,0,0,0,0,0,0,0,0,0,0,0,0,0,0,0],"id":10,"left_children":[1,3,5,-1,7,9,11,13,15,17,19,21,23,25,27,-1,29,31,-1,33,35,37,39,41,-1,-1,43,-1,-1,-1,45,-1,-1,47,49,51,53,55,57,59,61,63,65,-1,-1,-1,-1,-1,-1,-1,-1,-1,-1,-1,-1,-1,-1,-1,-1,-1,-1,-1,-1,-1,-1,-1,-1],"loss_changes":[2.1444211E2,1.249373E2,1.5211566E2,0E0,2.5255497E1,7.677965E1,2.536852E2,2.7371986E1,4.327155E0,3.3596718E1,5.0349762E1,1.1390332E2,5.677819E1,2.9628472E0,6.1669617E0,0E0,2.7451777E0,2.2558317E-2,0E0,5.5672064E0,1.740628E1,5.857727E1,2.6848099E1,1.5954796E1,0E0,0E0,6.316049E-1,0E0,0E0,0E0,1.1896365E0,0E0,0E0,1.8317685E-1,1.3759251E0,1.1335144E1,1.3993492E1,2.7865303E1,1.9649353E1,1.7001747E1,5.304162E0,1.2429642E1,4.2553947E1,0E0,0E0,0E0,0E0,0E0,0E0,0E0,0E0,0E0,0E0,0E0,0E0,0E0,0E0,0E0,0E0,0E0,0E0,0E0,0E0,0E0,0E0,0E0,0E0],"parents":[2147483647,0,0,1,1,2,2,4,4,5,5,6,6,7,7,8,8,9,9,10,10,11,11,12,12,13,13,14,14,16,16,17,17,19,19,20,20,21,21,22,22,23,23,26,26,30,30,33,33,34,34,35,35,36,36,37,37,38,38,39,39,40,40,41,41,42,42],"right_children":[2,4,6,-1,8,10,12,14,16,18,20,22,24,26,28,-1,30,32,-1,34,36,38,40,42,-1,-1,44,-1,-1,-1,46,-1,-1,48,50,52,54,56,58,60,62,64,66,-1,-1,-1,-1,-1,-1,-1,-1,-1,-1,-1,-1,-1,-1,-1,-1,-1,-1,-1,-1,-1,-1,-1,-1],"split_conditions":[4.4444445E-1,9.235714E1,1.2E1,-2.636585E-1,2.289E1,2.4609564E2,2.07E2,1.7872341E0,4.7687023E1,5.1E1,6.1233413E-1,1.5781087E1,1.11041664E2,8E0,1.0345481E2,-6.350191E-2,9.024857E0,1.2714286E1,-2.5500196E-1,1.8875E3,1.1699248E1,9.379592E-2,6E0,6.998503E0,-1.5746127E-1,4.1429337E-2,2.9138323E1,-7.453469E-2,-1.8969487E-1,4.5530796E-2,4.0815276E-1,9.505868E-3,1.5230179E-4,4E0,5.3E1,1.7991936E0,1.1020408E0,1.0321361E0,3E0,1.6274E3,1.4620689E1,1.7966101E0,7.0317106E0,-3.690843E-2,3.4764768E-3,2.821003E-3,-3.0272473E-2,-3.6557615E-3,1.5037156E-2,-8.771836E-2,-3.2992374E-2,2.218466E-2,8.540174E-2,1.5072608E-2,5.6839682E-2,-1.2893449E-1,1.1767273E-2,-2.0934546E-2,-2.7638963E-1,-3.6683127E-2,-1.6501422E-1,-1.1910233E-2,7.690873E-2,1.8357934E-2,6.266176E-2,-2.179991E-1,1.9366E-2],"split_indices":[34,129,126,0,109,21,37,105,9,1,88,111,39,1,130,0,27,3,0,20,40,118,91,112,0,0,40,0,0,0,34,0,0,85,1,58,106,88,0,20,3,93,112,0,0,0,0,0,0,0,0,0,0,0,0,0,0,0,0,0,0,0,0,0,0,0,0],"split_type":[0,0,0,0,0,0,0,0,0,0,0,0,0,0,0,0,0,0,0,0,0,0,0,0,0,0,0,0,0,0,0,0,0,0,0,0,0,0,0,0,0,0,0,0,0,0,0,0,0,0,0,0,0,0,0,0,0,0,0,0,0,0,0,0,0,0,0],"sum_hessian":[3.98E2,3.9E1,3.59E2,9E0,3E1,1.76E2,1.83E2,1.5E1,1.5E1,4E0,1.72E2,7.3E1,1.1E2,6E0,9E0,2E0,1.3E1,2E0,2E0,1.2E1,1.6E2,3.5E1,3.8E1,1.07E2,3E0,1E0,5E0,4E0,5E0,2E0,1.1E1,1E0,1E0,4E0,8E0,6.8E1,9.2E1,2.5E1,1E1,3.1E1,7E0,7.3E1,3.4E1,4E0,1E0,8E0,3E0,3E0,1E0,4E0,4E0,9E0,5.9E1,3.1E1,6.1E1,2.1E1,4E0,1E0,9E0,2.9E1,2E0,2E0,5E0,2.5E1,4.8E1,1E0,3.3E1],"tree_param":{"num_deleted":"0","num_feature":"132","num_nodes":"67","size_leaf_vector":"1"}},{"base_weights":[-4.039221E-3,-4.0203567E0,1.4181599E-1,-5.0394354E0,-4.6757078E-1,2.9141742E-1,-2.2728078E0,4.546324E-2,-2.9007158E-1,-5.61738E-2,1.255563E-1,-1.8625231E0,4.2554718E-1,-7.552846E-1,-2.599978E-1,9.268224E-3,1.4849902E-4,-8.5747856E-1,-3.6065376E0,9.160636E-1,-1.194022E-1,-2.6840487E0,4.775023E-1,-1.7949541E0,-3.02993E-1,-2.132818E-1,8.701312E-3,1.1484652E0,-1.07532576E-1,-1.6128352E0,7.440169E-1,1.4955609E-2,-4.250407E0,-4.2205095E-2,5.0282534E-2,-2.1514034E-2,-1.0142761E-1,-6.133268E-2,4.062693E-3,1.6413039E-2,6.429327E-2,2.1407396E-2,-5.8455892E-2,-1.3201846E-1,-1.1653917E-2,5.6363728E-2,1.806046E-2,-2.394642E-1,-6.584442E-2,9.322437E-3,-1.015721E-2],"categories":[],"categories_nodes":[],"categories_segments":[],"categories_sizes":[],"default_left":[0,0,0,0,0,0,0,0,0,0,0,0,0,0,0,0,0,0,0,0,0,0,0,0,0,0,0,0,0,0,0,0,0,0,0,0,0,0,0,0,0,0,0,0,0,0,0,0,0,0,0],"id":11,"left_children":[1,3,5,7,9,11,13,-1,-1,-1,15,17,19,21,-1,-1,-1,23,25,27,29,31,33,35,37,-1,-1,39,41,43,45,-1,47,49,-1,-1,-1,-1,-1,-1,-1,-1,-1,-1,-1,-1,-1,-1,-1,-1,-1],"loss_changes":[2.1731644E2,4.471109E1,1.299831E2,5.0603928E1,1.6972001E0,9.844333E1,8.935489E1,0E0,0E0,0E0,2.1444466E-2,3.1963715E1,8.53802E1,3.694796E1,0E0,0E0,0E0,6.733575E0,1.818467E1,4.0088226E1,1.9719766E2,2.930754E1,2.78727E0,7.210789E-1,3.648807E0,0E0,0E0,1.5017303E1,1.8698011E1,7.877841E1,1.3824066E1,0E0,1.6273499E-2,2.5867203E-1,0E0,0E0,0E0,0E0,0E0,0E0,0E0,0E0,0E0,0E0,0E0,0E0,0E0,0E0,0E0,0E0,0E0],"parents":[2147483647,0,0,1,1,2,2,3,3,4,4,5,5,6,6,10,10,11,11,12,12,13,13,17,17,18,18,19,19,20,20,21,21,22,22,23,23,24,24,27,27,28,28,29,29,30,30,32,32,33,33],"right_children":[2,4,6,8,10,12,14,-1,-1,-1,16,18,20,22,-1,-1,-1,24,26,28,30,32,34,36,38,-1,-1,40,42,44,46,-1,48,50,-1,-1,-1,-1,-1,-1,-1,-1,-1,-1,-1,-1,-1,-1,-1,-1,-1],"split_conditions":[2.4609564E2,6.802721E-1,7.876408E0,6.6295004E0,3.2E1,8.145204E0,2.6091666E0,4.546324E-2,-2.9007158E-1,-5.61738E-2,1.2714286E1,7E1,1.2E1,4.8701825E0,-2.599978E-1,9.268224E-3,1.4849902E-4,1.007284E0,7.952381E0,2.128E3,2.07E2,1.6071575E1,5.729915E2,1.5E1,1.625E0,-2.132818E-1,8.701312E-3,7.17037E-1,7.6666664E1,7.02439E0,1.6285715E1,1.4955609E-2,1.9159193E1,5.4625E1,5.0282534E-2,-2.1514034E-2,-1.0142761E-1,-6.133268E-2,4.062693E-3,1.6413039E-2,6.429327E-2,2.1407396E-2,-5.8455892E-2,-1.3201846E-1,-1.1653917E-2,5.6363728E-2,1.806046E-2,-2.394642E-1,-6.584442E-2,9.322437E-3,-1.015721E-2],"split_indices":[21,63,112,3,1,16,45,0,0,0,3,38,126,75,0,0,0,88,16,19,37,3,21,1,115,0,0,46,9,28,3,0,3,9,0,0,0,0,0,0,0,0,0,0,0,0,0,0,0,0,0],"split_type":[0,0,0,0,0,0,0,0,0,0,0,0,0,0,0,0,0,0,0,0,0,0,0,0,0,0,0,0,0,0,0,0,0,0,0,0,0,0,0,0,0,0,0,0,0,0,0,0,0,0,0],"sum_hessian":[3.69E2,1.2E1,3.57E2,9E0,3E0,3.37E2,2E1,1E0,8E0,1E0,2E0,1.9E1,3.18E2,1.4E1,6E0,1E0,1E0,1.3E1,6E0,1.67E2,1.51E2,5E0,9E0,4E0,9E0,5E0,1E0,1.36E2,3.1E1,5.5E1,9.6E1,2E0,3E0,5E0,4E0,1E0,3E0,2E0,7E0,2E1,1.16E2,2.1E1,1E1,3.1E1,2.4E1,4.7E1,4.9E1,2E0,1E0,2E0,3E0],"tree_param":{"num_deleted":"0","num_feature":"132","num_nodes":"51","size_leaf_vector":"1"}},{"base_weights":[3.5633456E-2,-8.0946314E-1,6.337743E-1,4.0119582E-1,-2.4119437E0,-1.7957292E-2,9.576009E-1,9.5016664E-1,-6.090904E-1,-1.248167E0,-3.8832479E0,-5.777399E-1,9.091987E-1,1.2871433E0,1.5274216E-1,1.0107949E0,-2.693504E-2,-2.4579294E0,-2.6932192E-1,-2.1444004E0,-4.1741255E-1,-5.2015696E0,-1.4723015E0,1.6283806E-1,-3.8050041E0,7.104426E-2,3.3689886E-1,1.3680369E0,5.3273386E-1,-1.5984329E0,3.625747E-1,-3.1950165E-2,1.0509492E0,-4.2997543E-2,-1.618299E-1,-6.712528E-1,2.7699706E-1,-1.1239713E0,-1.703497E-1,1.484517E-1,-1.4262314E0,-2.7345854E-1,-9.618628E-3,1.8759549E-1,-2.6847415E0,5.04338E-1,-1.0694773E0,-3.508428E-1,-4.741787E0,5.831392E-1,4.8546195E-2,1.6130373E0,1.0418308E0,9.091031E-1,4.8474073E-3,-7.339013E-3,-9.6232556E-2,1.442853E-1,8.780836E-1,4.350146E-3,5.4221E-2,-4.2845484E-2,2.4039125E-2,-2.1142889E-2,2.213425E-2,-7.787657E-2,-1.0274048E-2,-6.21533E-3,6.404602E-2,-7.905882E-2,-8.540428E-3,7.834497E-2,-2.008226E-2,-1.6360539E-1,-4.054418E-2,-5.210301E-2,3.8123425E-2,1.1007372E-2,-7.346956E-2,-1.2927294E-3,-2.502048E-2,-2.3042286E-2,-2.689235E-1,4.6211244E-3,3.200192E-2,-1.5579303E-3,9.588687E-3,4.519482E-2,8.340376E-2,4.65557E-3,5.80537E-2,2.0952795E-2,5.8593728E-2,2.5977448E-2,-1.911953E-2,-2.6295925E-2,1.3381061E-2,8.619265E-3,6.787636E-2],"categories":[],"categories_nodes":[],"categories_segments":[],"categories_sizes":[],"default_left":[0,0,0,0,0,0,0,0,0,0,0,0,0,0,0,0,0,0,0,0,0,0,0,0,0,0,0,0,0,0,0,0,0,0,0,0,0,0,0,0,0,0,0,0,0,0,0,0,0,0,0,0,0,0,0,0,0,0,0,0,0,0,0,0,0,0,0,0,0,0,0,0,0,0,0,0,0,0,0,0,0,0,0,0,0,0,0,0,0,0,0,0,0,0,0,0,0,0,0],"id":12,"left_children":[1,3,5,7,9,11,13,15,17,19,21,23,25,27,29,31,-1,33,35,37,39,41,43,45,47,-1,49,51,53,55,57,-1,59,-1,-1,61,63,65,-1,67,69,-1,-1,71,73,75,77,79,81,83,85,87,89,91,93,-1,-1,95,97,-1,-1,-1,-1,-1,-1,-1,-1,-1,-1,-1,-1,-1,-1,-1,-1,-1,-1,-1,-1,-1,-1,-1,-1,-1,-1,-1,-1,-1,-1,-1,-1,-1,-1,-1,-1,-1,-1,-1,-1],"loss_changes":[1.9512543E2,3.1137686E2,4.7714043E1,5.160356E1,1.1329965E2,3.9969723E1,3.9853912E1,5.960552E0,2.0067871E1,2.8886894E1,8.769382E1,1.1534157E2,8.013613E0,5.801071E0,1.7114956E1,4.5138664E0,0E0,3.4381618E0,6.5538263E0,2.0649986E1,1.2770525E1,2.441681E1,2.4653952E1,1.7372805E1,2.7458572E1,0E0,1.0367515E0,5.991852E0,2.379756E0,2.0852766E0,4.4870405E0,0E0,1.7446938E0,0E0,0E0,4.048003E0,1.6946403E0,4.458606E0,0E0,4.79258E0,1.2860928E0,0E0,0E0,5.5057893E0,5.0511856E0,1.356806E1,4.9651318E0,1.328845E-1,1.660057E1,1.6421723E-1,9.730279E-2,5.608063E-1,4.8695374E0,4.1031218E-1,1.3945428E0,0E0,0E0,2.620553E0,3.8260937E0,0E0,0E0,0E0,0E0,0E0,0E0,0E0,0E0,0E0,0E0,0E0,0E0,0E0,0E0,0E0,0E0,0E0,0E0,0E0,0E0,0E0,0E0,0E0,0E0,0E0,0E0,0E0,0E0,0E0,0E0,0E0,0E0,0E0,0E0,0E0,0E0,0E0,0E0,0E0,0E0],"parents":[2147483647,0,0,1,1,2,2,3,3,4,4,5,5,6,6,7,7,8,8,9,9,10,10,11,11,12,12,13,13,14,14,15,15,17,17,18,18,19,19,20,20,21,21,22,22,23,23,24,24,26,26,27,27,28,28,29,29,30,30,32,32,35,35,36,36,37,37,39,39,40,40,43,43,44,44,45,45,46,46,47,47,48,48,49,49,50,50,51,51,52,52,53,53,54,54,57,57,58,58],"right_children":[2,4,6,8,10,12,14,16,18,20,22,24,26,28,30,32,-1,34,36,38,40,42,44,46,48,-1,50,52,54,56,58,-1,60,-1,-1,62,64,66,-1,68,70,-1,-1,72,74,76,78,80,82,84,86,88,90,92,94,-1,-1,96,98,-1,-1,-1,-1,-1,-1,-1,-1,-1,-1,-1,-1,-1,-1,-1,-1,-1,-1,-1,-1,-1,-1,-1,-1,-1,-1,-1,-1,-1,-1,-1,-1,-1,-1,-1,-1,-1,-1,-1,-1],"split_conditions":[1.0435107E2,7.529187E-1,6E0,5.465303E0,2.5333333E0,4.457143E-1,5.142857E0,7.2E-1,8.958333E-1,1.0452675E0,7E0,2.6666667E0,1.05954544E2,1.0468491E0,5.714286E-1,8.958333E-1,-2.693504E-2,6.8742986E0,6.35E-6,3.1749132E-1,6.305E1,8.3E1,2.4444445E1,1.15166664E2,2.8093952E1,7.104426E-2,3.7646675E1,1.1699248E1,2.7106194E0,7E0,2.1459267E1,-3.1950165E-2,3.739229E0,-4.2997543E-2,-1.618299E-1,9E0,1.212838E0,5.465303E0,-1.703497E-1,1.78825E1,6.2E1,-2.7345854E-1,-9.618628E-3,2.034349E1,1.3333334E0,6.718519E-1,1.2E1,6E1,4E1,3.5207993E1,3.7963867E1,4.775023E-1,5.968779E-1,2.4E1,7.327169E-1,-7.339013E-3,-9.6232556E-2,2.4489796E0,9.511111E0,4.350146E-3,5.4221E-2,-4.2845484E-2,2.4039125E-2,-2.1142889E-2,2.213425E-2,-7.787657E-2,-1.0274048E-2,-6.21533E-3,6.404602E-2,-7.905882E-2,-8.540428E-3,7.834497E-2,-2.008226E-2,-1.6360539E-1,-4.054418E-2,-5.210301E-2,3.8123425E-2,1.1007372E-2,-7.346956E-2,-1.2927294E-3,-2.502048E-2,-2.3042286E-2,-2.689235E-1,4.6211244E-3,3.200192E-2,-1.5579303E-3,9.588687E-3,4.519482E-2,8.340376E-2,4.65557E-3,5.80537E-2,2.0952795E-2,5.8593728E-2,2.5977448E-2,-1.911953E-2,-2.6295925E-2,1.3381061E-2,8.619265E-3,6.787636E-2],"split_indices":[39,88,74,4,57,63,75,88,76,88,91,106,39,118,106,76,0,4,121,52,23,1,10,39,10,0,15,40,76,5,111,0,4,0,0,91,76,4,0,110,1,0,0,10,93,46,126,1,1,15,15,52,106,1,46,0,0,76,40,0,0,0,0,0,0,0,0,0,0,0,0,0,0,0,0,0,0,0,0,0,0,0,0,0,0,0,0,0,0,0,0,0,0,0,0,0,0,0,0],"split_type":[0,0,0,0,0,0,0,0,0,0,0,0,0,0,0,0,0,0,0,0,0,0,0,0,0,0,0,0,0,0,0,0,0,0,0,0,0,0,0,0,0,0,0,0,0,0,0,0,0,0,0,0,0,0,0,0,0,0,0,0,0,0,0,0,0,0,0,0,0,0,0,0,0,0,0,0,0,0,0,0,0,0,0,0,0,0,0,0,0,0,0,0,0,0,0,0,0,0,0],"sum_hessian":[3.84E2,1.59E2,2.25E2,9.1E1,6.8E1,7.5E1,1.5E2,5.9E1,3.2E1,3.9E1,2.9E1,4.7E1,2.8E1,1.06E2,4.4E1,5.7E1,2E0,4E0,2.8E1,1.8E1,2.1E1,1.8E1,1.1E1,3.9E1,8E0,1.4E1,1.4E1,9.5E1,1.1E1,4E0,4E1,1E0,5.6E1,2E0,2E0,1.6E1,1.2E1,1.1E1,7E0,1.4E1,7E0,1.7E1,1E0,5E0,6E0,3.1E1,8E0,2E0,6E0,7E0,7E0,5.2E1,4.3E1,6E0,5E0,1E0,3E0,2.9E1,1.1E1,2E0,5.4E1,1.4E1,2E0,2E0,1E1,7E0,4E0,1.2E1,2E0,6E0,1E0,1E0,4E0,4E0,2E0,4E0,2.7E1,2E0,6E0,1E0,1E0,1E0,5E0,1E0,6E0,5E0,2E0,5E0,4.7E1,5E0,3.8E1,3E0,3E0,2E0,3E0,4E0,2.5E1,5E0,6E0],"tree_param":{"num_deleted":"0","num_feature":"132","num_nodes":"99","size_leaf_vector":"1"}},{"base_weights":[-3.865008E-2,-4.2467356E0,1.0211783E-1,-2.4527858E-1,-6.350381E-1,2.7946565E-1,-2.7656457E0,-4.7219288E-2,-4.08566E-4,8.008639E-1,-3.0196136E-1,-4.534607E0,-7.452619E-1,9.4299465E-1,-4.4565767E-1,-1.7839137E0,5.0540286E-1,-2.5413215E-2,-4.886415E0,-7.560223E-2,4.7728628E-1,1.052797E0,-3.8804692E-1,3.8892952E-1,-1.0879874E0,-7.3531616E-1,-2.770997E0,-3.2357755E0,6.8560576E-1,-4.6564102E-2,-2.6111993E-1,1.2590337E-1,4.707045E-2,-1.0385205E-2,5.6289393E-2,4.009414E-2,-3.386481E-2,-4.3827235E-3,3.2091532E-2,-8.3902866E-2,-2.2146036E-3,-9.963951E-2,-1.2231468E-2,-3.347508E-2,-1.769843E-1,-4.826991E-2,-2.2137804E-1,4.363654E-2,8.32875E-3,1.0772999E-2,-3.569162E-3],"categories":[],"categories_nodes":[],"categories_segments":[],"categories_sizes":[],"default_left":[0,0,0,0,0,0,0,0,0,0,0,0,0,0,0,0,0,0,0,0,0,0,0,0,0,0,0,0,0,0,0,0,0,0,0,0,0,0,0,0,0,0,0,0,0,0,0,0,0,0,0],"id":13,"left_children":[1,3,5,-1,7,9,11,-1,-1,13,15,17,19,21,23,25,27,-1,29,-1,31,33,35,37,39,41,43,45,47,-1,-1,49,-1,-1,-1,-1,-1,-1,-1,-1,-1,-1,-1,-1,-1,-1,-1,-1,-1,-1,-1],"loss_changes":[2.1960812E2,2.5438965E1,1.833573E2,0E0,5.7404244E-1,1.0301138E2,7.167413E1,0E0,0E0,3.2133514E1,1.9353413E2,1.30979E1,1.1033397E1,2.393892E1,1.0608674E1,5.696048E1,7.300642E1,0E0,8.425064E0,0E0,6.968974E-1,1.3942596E1,5.0175343E0,1.1410167E0,6.7000628E0,1.7406258E1,4.4476654E1,9.254662E0,9.664124E0,0E0,0E0,8.6053506E-2,0E0,0E0,0E0,0E0,0E0,0E0,0E0,0E0,0E0,0E0,0E0,0E0,0E0,0E0,0E0,0E0,0E0,0E0,0E0],"parents":[2147483647,0,0,1,1,2,2,4,4,5,5,6,6,9,9,10,10,11,11,12,12,13,13,14,14,15,15,16,16,18,18,20,20,21,21,22,22,23,23,24,24,25,25,26,26,27,27,28,28,31,31],"right_children":[2,4,6,-1,8,10,12,-1,-1,14,16,18,20,22,24,26,28,-1,30,-1,32,34,36,38,40,42,44,46,48,-1,-1,50,-1,-1,-1,-1,-1,-1,-1,-1,-1,-1,-1,-1,-1,-1,-1,-1,-1,-1,-1],"split_conditions":[2.4609564E2,6.558403E1,7.736903E2,-2.4527858E-1,3E0,8.097507E-1,1.7190082E0,-4.7219288E-2,-4.08566E-4,3.8836E2,9E0,9E0,2.49E0,1.9442148E0,5.2908638E1,2.31925E0,4.8534885E1,-2.5413215E-2,1.6862745E0,-7.560223E-2,5.8E1,3.785461E1,2.3E1,1.7922223E0,4.2082466E1,3.83E-1,1.3496681E0,4.6924812E1,1.2644628E0,-4.6564102E-2,-2.6111993E-1,1.816842E1,4.707045E-2,-1.0385205E-2,5.6289393E-2,4.009414E-2,-3.386481E-2,-4.3827235E-3,3.2091532E-2,-8.3902866E-2,-2.2146036E-3,-9.963951E-2,-1.2231468E-2,-3.347508E-2,-1.769843E-1,-4.826991E-2,-2.2137804E-1,4.363654E-2,8.32875E-3,1.0772999E-2,-3.569162E-3],"split_indices":[21,9,22,0,0,46,106,0,0,18,91,1,44,51,22,45,9,0,51,0,1,22,1,45,10,115,76,9,34,0,0,3,0,0,0,0,0,0,0,0,0,0,0,0,0,0,0,0,0,0,0],"split_type":[0,0,0,0,0,0,0,0,0,0,0,0,0,0,0,0,0,0,0,0,0,0,0,0,0,0,0,0,0,0,0,0,0,0,0,0,0,0,0,0,0,0,0,0,0,0,0,0,0,0,0],"sum_hessian":[3.69E2,1.1E1,3.58E2,9E0,2E0,3.38E2,2E1,1E0,1E0,1.78E2,1.6E2,1E1,1E1,1.6E2,1.8E1,5.6E1,1.04E2,1E0,9E0,6E0,4E0,1.48E2,1.2E1,8E0,1E1,2.8E1,2.8E1,4E0,1E2,1E0,8E0,3E0,1E0,8E0,1.4E2,2E0,1E1,3E0,5E0,6E0,4E0,7E0,2.1E1,8E0,2E1,2E0,2E0,7.3E1,2.7E1,2E0,1E0],"tree_param":{"num_deleted":"0","num_feature":"132","num_nodes":"51","size_leaf_vector":"1"}},{"base_weights":[-8.749909E-3,-3.6459773E0,1.1387784E-1,-3.794378E-1,-4.692664E0,2.0482205E-1,-2.2248004E-1,-4.6038806E-2,1.0793368E-1,4.9103092E-2,-2.7623814E-1,-7.139015E-2,9.91749E-1,8.493376E-3,-3.9834977E-4,-1.237379E0,3.3979446E-1,1.125292E-1,1.270449E0,-7.2462374E-1,-3.3509874E0,-2.528686E0,3.9839512E-1,-6.97083E-2,4.0824178E-1,1.4550831E0,6.200927E-1,-2.6534865E-2,-1.9868796E-1,-2.3947732E-1,-4.5691896E-3,-2.1259487E-2,-1.5440609E-1,2.1854894E-2,-1.729106E-1,7.9753764E-2,5.248632E-3,-6.321486E-3,7.597911E-2,6.12095E-3,5.823366E-2],"categories":[],"categories_nodes":[],"categories_segments":[],"categories_sizes":[],"default_left":[0,0,0,0,0,0,0,0,0,0,0,0,0,0,0,0,0,0,0,0,0,0,0,0,0,0,0,0,0,0,0,0,0,0,0,0,0,0,0,0,0],"id":14,"left_children":[1,3,5,7,9,11,-1,-1,13,-1,-1,15,17,-1,-1,19,21,23,25,27,29,31,33,-1,35,37,39,-1,-1,-1,-1,-1,-1,-1,-1,-1,-1,-1,-1,-1,-1],"loss_changes":[1.6410638E2,3.9247955E1,1.486592E2,1.1547142E0,4.7923035E1,7.6146385E1,0E0,0E0,2.2887856E-2,0E0,0E0,1.25073975E2,2.2155548E1,0E0,0E0,7.1267715E1,3.344973E1,1.0816778E1,7.383095E0,3.317637E1,6.0521027E1,3.394043E0,2.9871216E1,0E0,7.0311604E0,5.5984497E0,4.4648194E0,0E0,0E0,0E0,0E0,0E0,0E0,0E0,0E0,0E0,0E0,0E0,0E0,0E0,0E0],"parents":[2147483647,0,0,1,1,2,2,3,3,4,4,5,5,8,8,11,11,12,12,15,15,16,16,17,17,18,18,19,19,20,20,21,21,22,22,24,24,25,25,26,26],"right_children":[2,4,6,8,10,12,-1,-1,14,-1,-1,16,18,-1,-1,20,22,24,26,28,30,32,34,-1,36,38,40,-1,-1,-1,-1,-1,-1,-1,-1,-1,-1,-1,-1,-1,-1],"split_conditions":[2.4609564E2,6.9861126E-1,3.03E0,3E0,3E0,2.1316753E1,-2.2248004E-1,-4.6038806E-2,7.9666664E1,4.9103092E-2,-2.7623814E-1,8E0,1.7982763E0,8.493376E-3,-3.9834977E-4,6.9012344E-1,4.8534885E1,2.3534443E1,1.6805E1,2.49E0,3.8888888E0,4E1,1.3636364E0,-6.97083E-2,2.7142856E0,3.6163265E1,5.2908638E1,-2.6534865E-2,-1.9868796E-1,-2.3947732E-1,-4.5691896E-3,-2.1259487E-2,-1.5440609E-1,2.1854894E-2,-1.729106E-1,7.9753764E-2,5.248632E-3,-6.321486E-3,7.597911E-2,6.12095E-3,5.823366E-2],"split_indices":[21,46,44,0,0,111,0,0,9,0,0,91,58,0,0,34,9,15,110,44,70,1,99,0,33,10,22,0,0,0,0,0,0,0,0,0,0,0,0,0,0],"split_type":[0,0,0,0,0,0,0,0,0,0,0,0,0,0,0,0,0,0,0,0,0,0,0,0,0,0,0,0,0,0,0,0,0,0,0,0,0,0,0,0,0],"sum_hessian":[3.66E2,1.1E1,3.55E2,3E0,8E0,3.49E2,6E0,1E0,2E0,1E0,7E0,2.59E2,9E1,1E0,1E0,6.7E1,1.92E2,2.2E1,6.8E1,5.5E1,1.2E1,3E0,1.89E2,3E0,1.9E1,5.2E1,1.6E1,5.3E1,2E0,8E0,4E0,1E0,2E0,1.88E2,1E0,3E0,1.6E1,2E0,5E1,9E0,7E0],"tree_param":{"num_deleted":"0","num_feature":"132","num_nodes":"41","size_leaf_vector":"1"}},{"base_weights":[-5.3972155E-2,-8.8408244E-1,4.948571E-1,2.932714E-1,-2.5519834E0,-9.010472E-1,6.6186076E-1,4.39492E-1,-1.4801721E-1,-1.1759267E0,-3.6910927E0,-3.8570353E-1,-1.7550878E-1,6.979845E-1,-1.6858783E-1,7.511739E-1,-4.0997204E-1,-2.2013586E0,-3.7000772E-1,-4.5669184E0,-1.7048362E0,1.4575186E-1,-2.2218022E0,-1.6604316E-1,8.4129614E-1,-6.281156E-1,8.787089E-1,-1.0139041E0,1.9980812E-2,-8.513505E-1,-1.6184434E-1,-6.472613E-2,-1.339473E-2,1.9170046E-3,-4.777991E0,-5.937588E-1,-1.8892758E-1,4.9510035E-1,-8.615743E-1,-1.5728857E-1,-5.572324E-1,-1.3093423E0,1.1499036E-1,1.1076971E0,3.577867E-1,-5.6979577E-3,-4.2835202E-2,4.8091672E-2,-2.523557E-2,-6.1905514E-2,2.50988E-2,1.2690568E-2,-2.4922129E-2,-5.7821926E-2,-2.954356E-3,-1.7345428E-2,1.0521807E-2,-2.465221E-1,-3.9413072E-2,-5.4156076E-2,8.302858E-2,5.382169E-2,2.6266775E-3,-1.5626924E-2,-5.6170937E-2,-6.186378E-3,-3.5606053E-2,-1.1069315E-1,-1.5180814E-2,1.6810393E-2,-8.0967024E-2,5.822867E-2,-3.6666293E-2,-2.0679859E-4,5.4953165E-2],"categories":[],"categories_nodes":[],"categories_segments":[],"categories_sizes":[],"default_left":[0,0,0,0,0,0,0,0,0,0,0,0,0,0,0,0,0,0,0,0,0,0,0,0,0,0,0,0,0,0,0,0,0,0,0,0,0,0,0,0,0,0,0,0,0,0,0,0,0,0,0,0,0,0,0,0,0,0,0,0,0,0,0,0,0,0,0,0,0,0,0,0,0,0,0],"id":15,"left_children":[1,3,5,7,9,11,13,15,-1,17,19,21,-1,23,-1,25,27,29,31,33,35,37,39,41,43,45,47,49,51,53,-1,-1,55,-1,57,59,-1,61,63,-1,65,67,69,71,73,-1,-1,-1,-1,-1,-1,-1,-1,-1,-1,-1,-1,-1,-1,-1,-1,-1,-1,-1,-1,-1,-1,-1,-1,-1,-1,-1,-1,-1,-1],"loss_changes":[1.7401683E2,2.9923227E2,5.421422E1,4.4118145E1,9.4410706E1,3.2261063E1,3.236959E1,2.3342308E1,0E0,2.3977928E1,5.1361084E1,2.1791533E1,0E0,2.5523865E1,0E0,1.181002E1,6.2521534E0,1.5417908E1,5.9171524E0,2.2540161E1,2.5405151E1,6.7609076E0,5.93713E0,9.789722E0,2.227378E1,6.075518E-1,7.2702217E0,4.020199E0,1.9448587E0,1.6236391E0,0E0,0E0,1.1181117E0,0E0,9.4947815E0,1.1727267E1,0E0,3.5453556E0,3.676982E-1,0E0,1.13325834E-1,4.7860346E0,1.0136043E1,1.2686295E1,1.7174774E1,0E0,0E0,0E0,0E0,0E0,0E0,0E0,0E0,0E0,0E0,0E0,0E0,0E0,0E0,0E0,0E0,0E0,0E0,0E0,0E0,0E0,0E0,0E0,0E0,0E0,0E0,0E0,0E0,0E0,0E0],"parents":[2147483647,0,0,1,1,2,2,3,3,4,4,5,5,6,6,7,7,9,9,10,10,11,11,13,13,15,15,16,16,17,17,18,18,19,19,20,20,21,21,22,22,23,23,24,24,25,25,26,26,27,27,28,28,29,29,32,32,34,34,35,35,37,37,38,38,40,40,41,41,42,42,43,43,44,44],"right_children":[2,4,6,8,10,12,14,16,-1,18,20,22,-1,24,-1,26,28,30,32,34,36,38,40,42,44,46,48,50,52,54,-1,-1,56,-1,58,60,-1,62,64,-1,66,68,70,72,74,-1,-1,-1,-1,-1,-1,-1,-1,-1,-1,-1,-1,-1,-1,-1,-1,-1,-1,-1,-1,-1,-1,-1,-1,-1,-1,-1,-1,-1,-1],"split_conditions":[1.042173E2,7.822222E1,1.0084034E0,1.3333334E0,2.5238094E0,1.7931818E0,1.4285715E0,5.5E0,-1.4801721E-1,1.04E0,1.1428572E0,4.2344046E-1,-1.7550878E-1,1.7959183E0,-1.6858783E-1,8.958333E-1,6.0774655E0,1.0175826E2,2.2235E1,7.3130196E-1,8.8E1,6.2617706E1,7.9952664E0,3.9998523E2,5.3301385E2,2.7663326E1,8.087574E-1,1.76E2,2.7186036E-1,6.462343E2,-1.6184434E-1,-6.472613E-2,1.090681E0,1.9170046E-3,4.0556177E-1,7.0570366E1,-1.8892758E-1,4.8553186E2,3.2E1,-1.5728857E-1,1.0406593E1,1.7E1,5.1E1,1.144376E0,2.43E0,-5.6979577E-3,-4.2835202E-2,4.8091672E-2,-2.523557E-2,-6.1905514E-2,2.50988E-2,1.2690568E-2,-2.4922129E-2,-5.7821926E-2,-2.954356E-3,-1.7345428E-2,1.0521807E-2,-2.465221E-1,-3.9413072E-2,-5.4156076E-2,8.302858E-2,5.382169E-2,2.6266775E-3,-1.5626924E-2,-5.6170937E-2,-6.186378E-3,-3.5606053E-2,-1.1069315E-1,-1.5180814E-2,1.6810393E-2,-8.0967024E-2,5.822867E-2,-3.6666293E-2,-2.0679859E-4,5.4953165E-2],"split_indices":[39,130,87,106,57,93,99,4,0,88,93,52,0,58,0,76,75,130,109,88,7,9,4,21,21,40,46,37,117,22,0,0,88,0,52,9,0,21,1,0,3,1,1,88,93,0,0,0,0,0,0,0,0,0,0,0,0,0,0,0,0,0,0,0,0,0,0,0,0,0,0,0,0,0,0],"split_type":[0,0,0,0,0,0,0,0,0,0,0,0,0,0,0,0,0,0,0,0,0,0,0,0,0,0,0,0,0,0,0,0,0,0,0,0,0,0,0,0,0,0,0,0,0,0,0,0,0,0,0,0,0,0,0,0,0,0,0,0,0,0,0,0,0,0,0,0,0,0,0,0,0,0,0],"sum_hessian":[3.8E2,1.51E2,2.29E2,8.9E1,6.2E1,2.4E1,2.05E2,8.6E1,3E0,2.9E1,3.3E1,2.1E1,3E0,2.04E2,1E0,6.3E1,2.3E1,1.2E1,1.7E1,2.2E1,1.1E1,1.7E1,4E0,2.9E1,1.75E2,5E0,5.8E1,9E0,1.4E1,6E0,6E0,4E0,1.3E1,1E0,2.1E1,8E0,3E0,1.3E1,4E0,2E0,2E0,5E0,2.4E1,1.12E2,6.3E1,2E0,3E0,5.5E1,3E0,8E0,1E0,1E1,4E0,4E0,2E0,5E0,8E0,2E1,1E0,7E0,1E0,5E0,8E0,2E0,2E0,1E0,1E0,2E0,3E0,2.2E1,2E0,1.09E2,3E0,4.3E1,2E1],"tree_param":{"num_deleted":"0","num_feature":"132","num_nodes":"75","size_leaf_vector":"1"}},{"base_weights":[4.7909804E-2,-6.8915E-1,5.390612E-1,5.3225017E-1,-2.0620716E0,6.658246E-1,-8.1031847E-1,7.855067E-1,-4.8238462E-1,-1.5452822E0,-4.5994987E0,7.025797E-1,-1.6437314E-1,-2.006763E0,5.4837663E-2,8.5337836E-1,-1.589056E-1,6.466839E-2,-9.1505563E-1,-3.702165E-1,-2.1539955E0,-4.7035065E-2,-2.4356544E-1,7.9834116E-1,-2.9406765E-1,-5.361057E-1,-2.7819362E0,6.9323385E-1,-9.7756374E-1,8.79312E-1,-1.5620887E-2,-3.2195758E-2,1.2332559E-1,1.3093884E-2,-1.9801033E-1,-6.476466E-2,-2.5452733E-2,-1.2078263E0,2.3814537E-1,-2.5707788E0,4.9731305E-1,3.6512348E-1,1.0837722E0,-1.1260419E0,3.3773792E-1,-6.1496247E-2,5.257118E-3,-2.1133463E-1,-4.098676E-1,1.1869316E-1,6.1905064E-2,-6.031716E-3,-5.8081876E-2,5.712166E-2,3.7438314E-2,1.8690825E-3,6.975651E-3,-1.7201329E-2,-1.7331362E-3,-1.9838572E-2,-7.7361256E-2,-4.8979125E-3,3.977514E-2,-1.5785347E-1,-6.408407E-2,-2.5423577E-3,8.095285E-2,-1.5258352E-1,2.5217623E-2,5.581066E-2,-5.968553E-2,-7.0868105E-2,-8.402697E-3,2.746107E-2,-1.2943269E-3,9.743941E-3,-4.048401E-2,-1.0437787E-2,1.2637216E-2],"categories":[],"categories_nodes":[],"categories_segments":[],"categories_sizes":[],"default_left":[0,0,0,0,0,0,0,0,0,0,0,0,0,0,0,0,0,0,0,0,0,0,0,0,0,0,0,0,0,0,0,0,0,0,0,0,0,0,0,0,0,0,0,0,0,0,0,0,0,0,0,0,0,0,0,0,0,0,0,0,0,0,0,0,0,0,0,0,0,0,0,0,0,0,0,0,0,0,0],"id":16,"left_children":[1,3,5,7,9,11,13,15,17,19,21,23,-1,25,27,29,31,33,35,37,39,-1,-1,41,43,45,47,49,51,53,-1,-1,55,-1,57,-1,-1,59,61,63,65,67,69,71,73,-1,-1,-1,75,77,-1,-1,-1,-1,-1,-1,-1,-1,-1,-1,-1,-1,-1,-1,-1,-1,-1,-1,-1,-1,-1,-1,-1,-1,-1,-1,-1,-1,-1],"loss_changes":[1.3033234E2,2.4256921E2,3.748675E1,2.0165058E1,8.206189E1,3.107978E1,1.977716E1,4.1097336E0,3.8462784E0,4.0688675E1,6.357025E0,1.9036537E1,0E0,7.6286964E0,8.586654E0,2.028244E0,7.638353E-1,4.6627596E-1,7.300167E-1,1.0988605E1,4.3269302E1,0E0,0E0,2.1861961E1,9.841933E0,1.9089582E0,1.5402924E1,2.3574338E0,6.4855814E-1,1.1024971E0,0E0,0E0,3.4962222E-4,0E0,8.3480716E-2,0E0,0E0,1.8635454E0,2.513214E0,2.0894562E1,3.771697E0,3.6266445E1,9.311897E0,1.9944572E0,8.601235E-1,0E0,0E0,0E0,8.831453E-1,2.7223635E-1,0E0,0E0,0E0,0E0,0E0,0E0,0E0,0E0,0E0,0E0,0E0,0E0,0E0,0E0,0E0,0E0,0E0,0E0,0E0,0E0,0E0,0E0,0E0,0E0,0E0,0E0,0E0,0E0,0E0],"parents":[2147483647,0,0,1,1,2,2,3,3,4,4,5,5,6,6,7,7,8,8,9,9,10,10,11,11,13,13,14,14,15,15,16,16,17,17,18,18,19,19,20,20,23,23,24,24,25,25,26,26,27,27,28,28,29,29,32,32,34,34,37,37,38,38,39,39,40,40,41,41,42,42,43,43,44,44,48,48,49,49],"right_children":[2,4,6,8,10,12,14,16,18,20,22,24,-1,26,28,30,32,34,36,38,40,-1,-1,42,44,46,48,50,52,54,-1,-1,56,-1,58,-1,-1,60,62,64,66,68,70,72,74,-1,-1,-1,76,78,-1,-1,-1,-1,-1,-1,-1,-1,-1,-1,-1,-1,-1,-1,-1,-1,-1,-1,-1,-1,-1,-1,-1,-1,-1,-1,-1,-1,-1],"split_conditions":[1.042173E2,7.3130196E-1,2E0,4.513889E-1,1.5159429E1,1.4285715E0,2.3737025E0,1.3438445E1,2.128E3,1.6129032E0,8E0,3.8836E2,-1.6437314E-1,2.7563026E0,1.0150375E0,7.3E1,5E1,7.9666664E1,5.3E1,2.1354053E0,1.768E1,-4.7035065E-2,-2.4356544E-1,1.1003191E2,9.409576E0,4.1E1,7.02439E0,3.7905483E1,1.0406593E1,4.070523E0,-1.5620887E-2,-3.2195758E-2,5.3E1,1.3093884E-2,3.4E1,-6.476466E-2,-2.5452733E-2,1.0743802E0,2.968404E2,8E0,6.927556E1,4.1E1,1.8525E1,4.2082466E1,1.3265306E1,-6.1496247E-2,5.257118E-3,-2.1133463E-1,2.4E1,6.2735043E0,6.1905064E-2,-6.031716E-3,-5.8081876E-2,5.712166E-2,3.7438314E-2,1.8690825E-3,6.975651E-3,-1.7201329E-2,-1.7331362E-3,-1.9838572E-2,-7.7361256E-2,-4.8979125E-3,3.977514E-2,-1.5785347E-1,-6.408407E-2,-2.5423577E-3,8.095285E-2,-1.5258352E-1,2.5217623E-2,5.581066E-2,-5.968553E-2,-7.0868105E-2,-8.402697E-3,2.746107E-2,-1.2943269E-3,9.743941E-3,-4.048401E-2,-1.0437787E-2,1.2637216E-2],"split_indices":[39,88,58,118,111,99,76,111,19,51,5,18,0,33,63,1,1,9,1,45,3,0,0,39,4,1,28,10,3,4,0,0,1,0,1,0,0,88,22,91,9,1,3,10,4,0,0,0,1,4,0,0,0,0,0,0,0,0,0,0,0,0,0,0,0,0,0,0,0,0,0,0,0,0,0,0,0,0,0],"split_type":[0,0,0,0,0,0,0,0,0,0,0,0,0,0,0,0,0,0,0,0,0,0,0,0,0,0,0,0,0,0,0,0,0,0,0,0,0,0,0,0,0,0,0,0,0,0,0,0,0,0,0,0,0,0,0,0,0,0,0,0,0,0,0,0,0,0,0,0,0,0,0,0,0,0,0,0,0,0,0],"sum_hessian":[3.58E2,1.43E2,2.15E2,7.6E1,6.7E1,1.97E2,1.8E1,6.1E1,1.5E1,5.7E1,1E1,1.96E2,1E0,7E0,1.1E1,5.7E1,4E0,7E0,8E0,2E1,3.7E1,1E0,9E0,1.79E2,1.7E1,3E0,4E0,7E0,4E0,5.6E1,1E0,1E0,3E0,4E0,3E0,3E0,5E0,8E0,1.2E1,3.2E1,5E0,7.2E1,1.07E2,7E0,1E1,1E0,2E0,2E0,2E0,4E0,3E0,1E0,3E0,1.6E1,4E1,1E0,2E0,1E0,2E0,3E0,5E0,8E0,4E0,2.1E1,1.1E1,4E0,1E0,2E0,7E1,1.06E2,1E0,5E0,2E0,6E0,4E0,1E0,1E0,1E0,3E0],"tree_param":{"num_deleted":"0","num_feature":"132","num_nodes":"79","size_leaf_vector":"1"}},{"base_weights":[-4.829121E-2,5.9140575E-1,-6.605101E-1,-4.126348E-1,7.560099E-1,-2.0400686E0,3.5806954E-1,4.2046404E-1,-1.1567526E0,-3.20201E-1,8.9974713E-1,-3.3745083E-1,-2.6403656E0,-1.1653111E-1,4.5615157E-1,-1.9799544E-2,5.215012E-1,-8.3437705E-1,-1.3369088E-1,4.5517397E-1,-8.104342E-1,-2.674711E-1,9.5524925E-1,-7.508202E-1,8.552082E-2,-3.5238388E0,-5.949565E-1,-5.696606E-1,5.9316653E-1,1.1894444E-2,2.9480327E-2,-5.6880444E-1,-7.650088E-2,1.17702484E-1,3.170582E-2,-1.3150263E-1,-7.337244E-2,7.867861E-2,-6.593014E-2,1.1205387E0,6.0296005E-1,-4.3985668E-1,-1.5870409E-1,-4.390127E0,-1.8958802E0,-1.7653602E0,-5.0858054E-2,-6.812038E-2,-3.0166957E-1,9.12286E-1,1.7634524E-1,-6.8890653E-3,-3.246392E-2,-1.571703E-3,8.894634E-3,-2.237134E-2,1.086486E-2,5.9370704E-2,1.5167937E-2,3.6999714E-2,-5.30965E-3,-3.431694E-2,2.9720753E-2,-2.2521003E-1,-3.8457464E-2,1.6563574E-2,-1.21766046E-1,-9.664353E-2,-2.319522E-2,-3.205347E-2,1.2466672E-2,7.268924E-3,-2.4374245E-2,4.9007006E-2,1.0870272E-2,-1.2731645E-1,1.8806858E-2],"categories":[],"categories_nodes":[],"categories_segments":[],"categories_sizes":[],"default_left":[0,0,0,0,0,0,0,0,0,0,0,0,0,0,0,0,0,0,0,0,0,0,0,0,0,0,0,0,0,0,0,0,0,0,0,0,0,0,0,0,0,0,0,0,0,0,0,0,0,0,0,0,0,0,0,0,0,0,0,0,0,0,0,0,0,0,0,0,0,0,0,0,0,0,0,0,0],"id":17,"left_children":[1,3,5,7,9,11,13,15,17,19,21,23,25,-1,27,-1,29,31,-1,33,35,37,39,41,-1,43,45,47,49,-1,-1,51,-1,53,-1,55,-1,-1,-1,57,59,61,-1,63,65,67,69,-1,71,73,75,-1,-1,-1,-1,-1,-1,-1,-1,-1,-1,-1,-1,-1,-1,-1,-1,-1,-1,-1,-1,-1,-1,-1,-1,-1,-1],"loss_changes":[1.4412051E2,3.0060425E1,2.6490625E2,1.6604391E1,2.426529E1,8.087512E1,2.980777E1,1.2789092E0,4.6159325E0,7.5910654E0,9.130783E0,1.990778E1,1.0452023E2,0E0,1.523638E1,0E0,9.152508E-2,1.5313787E0,0E0,4.0846646E-1,5.1598415E0,1.562117E1,6.952446E0,1.2921233E1,0E0,4.9498352E1,1.2009699E1,2.3508425E0,1.2342606E1,0E0,0E0,2.9208875E-1,0E0,4.149812E-2,0E0,8.6858463E-1,0E0,0E0,0E0,4.448921E0,4.3544226E0,4.9966984E0,0E0,7.2750244E0,2.0029411E1,4.1137505E-1,2.6403103E0,0E0,9.846219E-1,2.2858887E0,2.3804438E1,0E0,0E0,0E0,0E0,0E0,0E0,0E0,0E0,0E0,0E0,0E0,0E0,0E0,0E0,0E0,0E0,0E0,0E0,0E0,0E0,0E0,0E0,0E0,0E0,0E0,0E0],"parents":[2147483647,0,0,1,1,2,2,3,3,4,4,5,5,6,6,7,7,8,8,9,9,10,10,11,11,12,12,14,14,16,16,17,17,19,19,20,20,21,21,22,22,23,23,25,25,26,26,27,27,28,28,31,31,33,33,35,35,39,39,40,40,41,41,43,43,44,44,45,45,46,46,48,48,49,49,50,50],"right_children":[2,4,6,8,10,12,14,16,18,20,22,24,26,-1,28,-1,30,32,-1,34,36,38,40,42,-1,44,46,48,50,-1,-1,52,-1,54,-1,56,-1,-1,-1,58,60,62,-1,64,66,68,70,-1,72,74,76,-1,-1,-1,-1,-1,-1,-1,-1,-1,-1,-1,-1,-1,-1,-1,-1,-1,-1,-1,-1,-1,-1,-1,-1,-1,-1],"split_conditions":[8.097507E-1,1.1160135E0,2.01E2,5.6804734E-1,2.17E2,8.2653064E-1,2.2469049E0,1.5E1,7.4E1,4.5417383E2,5.7988167E-1,8.918919E-1,4.7147143E-1,-1.1653111E-1,4.448742E1,-1.9799544E-2,2.3E1,1.8836565E-1,-1.3369088E-1,6.7407405E-1,9.205362E-1,5.457788E-1,4.676807E0,4.463034E2,8.552082E-2,2.6170213E0,1.04937614E2,2.5777779E1,1.6285715E1,1.1894444E-2,2.9480327E-2,1.3346939E1,-7.650088E-2,1.2064187E1,3.170582E-2,5.168126E2,-7.337244E-2,7.867861E-2,-6.593014E-2,1.1292591E0,1.9805247E0,7.822222E1,-1.5870409E-1,7.4E1,2.8695652E0,4.1E1,2.3037415E0,-6.812038E-2,3.457097E2,2E0,1.6297873E1,-6.8890653E-3,-3.246392E-2,-1.571703E-3,8.894634E-3,-2.237134E-2,1.086486E-2,5.9370704E-2,1.5167937E-2,3.6999714E-2,-5.30965E-3,-3.431694E-2,2.9720753E-2,-2.2521003E-1,-3.8457464E-2,1.6563574E-2,-1.21766046E-1,-9.664353E-2,-2.319522E-2,-3.205347E-2,1.2466672E-2,7.268924E-3,-2.4374245E-2,4.9007006E-2,1.0870272E-2,-1.2731645E-1,1.8806858E-2],"split_indices":[46,58,37,34,128,88,45,1,1,21,106,93,52,0,40,0,1,52,0,34,117,106,112,21,0,105,130,10,3,0,0,10,0,3,0,21,0,0,0,88,58,130,0,1,105,1,76,0,21,58,3,0,0,0,0,0,0,0,0,0,0,0,0,0,0,0,0,0,0,0,0,0,0,0,0,0,0],"split_type":[0,0,0,0,0,0,0,0,0,0,0,0,0,0,0,0,0,0,0,0,0,0,0,0,0,0,0,0,0,0,0,0,0,0,0,0,0,0,0,0,0,0,0,0,0,0,0,0,0,0,0,0,0,0,0,0,0,0,0,0,0,0,0,0,0,0,0,0,0,0,0,0,0,0,0,0,0],"sum_hessian":[3.66E2,1.79E2,1.87E2,2.5E1,1.54E2,7.9E1,1.08E2,1.2E1,1.3E1,1.8E1,1.36E2,2.1E1,5.8E1,3E0,1.05E2,1E0,1.1E1,1.2E1,1E0,7E0,1.1E1,6E0,1.3E2,1.8E1,3E0,4E1,1.8E1,1.2E1,9.3E1,3E0,8E0,1E1,2E0,3E0,4E0,6E0,5E0,2E0,4E0,8.7E1,4.3E1,1.7E1,1E0,2.5E1,1.5E1,5E0,1.3E1,2E0,1E1,5.2E1,4.1E1,2E0,8E0,1E0,2E0,3E0,3E0,8E1,7E0,3.6E1,7E0,1.4E1,3E0,2.4E1,1E0,3E0,1.2E1,4E0,1E0,4E0,9E0,3E0,7E0,4.7E1,5E0,2E0,3.9E1],"tree_param":{"num_deleted":"0","num_feature":"132","num_nodes":"77","size_leaf_vector":"1"}},{"base_weights":[-4.4016976E-2,5.4135054E-1,-6.23155E-1,6.520567E-1,-1.1828048E0,-1.8700633E0,2.6052085E-1,7.644038E-1,-7.507093E-1,-1.4891961E-1,-7.4880666E-1,-2.3652418E0,-5.1851547E-1,-3.3737667E0,4.5638633E-1,8.7580705E-1,1.1800122E-1,4.1788197E-1,-1.259934E0,-5.1608484E-4,-9.117676E-1,-2.9289954E0,8.687532E-2,-1.62276E0,-2.0063451E-1,-3.655864E-2,-1.8780255E-1,7.818894E-1,1.0434815E-1,-2.522762E-1,9.2668223E-1,-7.0955865E-2,2.3625065E-1,7.69693E-2,3.0975033E-2,-8.0721265E-1,-8.686065E-2,-5.193407E-2,-1.5585638E-2,-1.650494E0,-3.9473236E0,-4.3661886E-1,9.014487E-2,-8.919645E-2,-2.4452114E-2,-7.7034134E-1,3.8913578E-1,-4.8096117E-2,9.595054E-1,-2.4614513E0,2.5036836E-1,7.605599E-2,-6.329293E-2,6.188879E-2,3.7884068E-2,-7.1799955E-3,1.6919663E-2,-1.5324116E-3,7.3051094E-3,-9.9394685E-3,-4.3774247E-2,-1.1330974E-1,2.3584547E-2,-2.1002245E-1,-3.032721E-2,8.353424E-3,-3.0421212E-2,-7.6627173E-3,-6.783887E-2,3.554456E-2,-3.7398913E-3,7.541181E-3,-2.1695578E-2,6.779313E-3,4.9655553E-2,-2.053572E-1,2.0748353E-2,-6.584971E-2,1.6970137E-2],"categories":[],"categories_nodes":[],"categories_segments":[],"categories_sizes":[],"default_left":[0,0,0,0,0,0,0,0,0,0,0,0,0,0,0,0,0,0,0,0,0,0,0,0,0,0,0,0,0,0,0,0,0,0,0,0,0,0,0,0,0,0,0,0,0,0,0,0,0,0,0,0,0,0,0,0,0,0,0,0,0,0,0,0,0,0,0,0,0,0,0,0,0,0,0,0,0,0,0],"id":18,"left_children":[1,3,5,7,9,11,13,15,17,-1,19,21,23,25,27,29,31,33,35,-1,37,39,41,43,45,-1,-1,47,49,51,53,-1,55,57,-1,59,-1,-1,-1,61,63,65,-1,-1,-1,67,69,71,73,75,77,-1,-1,-1,-1,-1,-1,-1,-1,-1,-1,-1,-1,-1,-1,-1,-1,-1,-1,-1,-1,-1,-1,-1,-1,-1,-1,-1,-1],"loss_changes":[1.3153368E2,3.761005E1,2.1535042E2,2.9256454E1,7.1211395E0,5.298343E1,8.3400375E1,1.2066559E1,8.857561E0,0E0,1.3143749E0,8.181546E1,7.7478395E0,3.31501E0,1.2523256E1,8.498146E0,5.061115E0,2.9598922E-1,7.5844383E-1,0E0,3.616271E-1,5.5977814E1,1.1567111E1,4.1184425E-2,6.683695E0,0E0,0E0,8.449013E0,2.084783E1,1.4507902E1,6.317528E0,0E0,1.0185667E0,2.6797505E-2,0E0,1.1673212E-1,0E0,0E0,0E0,3.112146E1,1.9438812E1,1.138816E0,0E0,0E0,0E0,3.4108891E0,1.5459048E0,9.096535E-1,1.1666946E0,1.5905432E1,7.703547E0,0E0,0E0,0E0,0E0,0E0,0E0,0E0,0E0,0E0,0E0,0E0,0E0,0E0,0E0,0E0,0E0,0E0,0E0,0E0,0E0,0E0,0E0,0E0,0E0,0E0,0E0,0E0,0E0],"parents":[2147483647,0,0,1,1,2,2,3,3,4,4,5,5,6,6,7,7,8,8,10,10,11,11,12,12,13,13,14,14,15,15,16,16,17,17,18,18,20,20,21,21,22,22,23,23,24,24,27,27,28,28,29,29,30,30,32,32,33,33,35,35,39,39,40,40,41,41,45,45,46,46,47,47,48,48,49,49,50,50],"right_children":[2,4,6,8,10,12,14,16,18,-1,20,22,24,26,28,30,32,34,36,-1,38,40,42,44,46,-1,-1,48,50,52,54,-1,56,58,-1,60,-1,-1,-1,62,64,66,-1,-1,-1,68,70,72,74,76,78,-1,-1,-1,-1,-1,-1,-1,-1,-1,-1,-1,-1,-1,-1,-1,-1,-1,-1,-1,-1,-1,-1,-1,-1,-1,-1,-1,-1],"split_conditions":[8.097507E-1,2.7777777E0,9E0,7E1,1.3E1,7.02439E0,4.8534885E1,5.9473686E0,5.2908638E1,-1.4891961E-1,3.7412766E2,2.9130435E0,2.2681358E0,3.8220334E2,1.6285715E1,5.7988167E-1,1E0,3.142857E0,1.1773077E2,-5.1608484E-4,7.72906E-1,2.4948025E0,1.6E1,9.507549E0,2.9138323E1,-3.655864E-2,-1.8780255E-1,2.7578948E0,1.6297873E1,3.5828148E1,4.3777776E0,-7.0955865E-2,6E0,1.2064187E1,3.0975033E-2,2.1944444E0,-8.686065E-2,-5.193407E-2,-1.5585638E-2,1.41552E1,2.2956522E1,4.8872182E-1,9.014487E-2,-8.919645E-2,-2.4452114E-2,1.05E2,4.8979592E-1,4.6351926E2,9.8E-1,1.3769376E1,9.76E1,7.605599E-2,-6.329293E-2,6.188879E-2,3.7884068E-2,-7.1799955E-3,1.6919663E-2,-1.5324116E-3,7.3051094E-3,-9.9394685E-3,-4.3774247E-2,-1.1330974E-1,2.3584547E-2,-2.1002245E-1,-3.032721E-2,8.353424E-3,-3.0421212E-2,-7.6627173E-3,-6.783887E-2,3.554456E-2,-3.7398913E-3,7.541181E-3,-2.1695578E-2,6.779313E-3,4.9655553E-2,-2.053572E-1,2.0748353E-2,-6.584971E-2,1.6970137E-2],"split_indices":[46,105,91,126,1,28,9,75,22,0,22,57,76,22,3,106,76,76,39,0,46,57,3,27,40,0,0,33,3,22,75,0,61,3,0,4,0,0,0,4,3,93,0,0,0,41,52,22,42,4,39,0,0,0,0,0,0,0,0,0,0,0,0,0,0,0,0,0,0,0,0,0,0,0,0,0,0,0,0],"split_type":[0,0,0,0,0,0,0,0,0,0,0,0,0,0,0,0,0,0,0,0,0,0,0,0,0,0,0,0,0,0,0,0,0,0,0,0,0,0,0,0,0,0,0,0,0,0,0,0,0,0,0,0,0,0,0,0,0,0,0,0,0,0,0,0,0,0,0,0,0,0,0,0,0,0,0,0,0,0,0],"sum_hessian":[3.86E2,1.92E2,1.94E2,1.81E2,1.1E1,8E1,1.14E2,1.68E2,1.3E1,1E0,1E1,5.8E1,2.2E1,5E0,1.09E2,1.43E2,2.5E1,4E0,9E0,2E0,8E0,4.7E1,1.1E1,4E0,1.8E1,1E0,4E0,5.6E1,5.3E1,6E0,1.37E2,1E0,2.4E1,2E0,2E0,6E0,3E0,6E0,2E0,2.2E1,2.5E1,9E0,2E0,3E0,1E0,9E0,9E0,1E1,4.6E1,2E0,5.1E1,2E0,4E0,4.6E1,9.1E1,5E0,1.9E1,1E0,1E0,1E0,5E0,1.7E1,5E0,2.3E1,2E0,2E0,7E0,5E0,4E0,5E0,4E0,7E0,3E0,2E0,4.4E1,1E0,1E0,2E0,4.9E1],"tree_param":{"num_deleted":"0","num_feature":"132","num_nodes":"79","size_leaf_vector":"1"}},{"base_weights":[-7.375619E-2,-1.41346E0,1.319461E-1,-2.1758638E-1,-5.7009995E-1,-1.1396962E0,3.5560986E-1,-1.7959057E-1,-3.2677474E0,-3.4531863E0,1.9725743E-1,6.070159E-1,-1.4296171E-1,1.0760572E0,-5.197834E-1,-7.274839E-2,-1.9956389E-1,-2.1018119E-1,-1.2517076E0,3.3443335E-1,-6.201272E-2,7.8481364E-1,-2.3571332E-1,6.334951E-2,-3.8279712E0,-9.690977E-3,6.425784E-2,-1.22823104E-1,-1.2617257E0,-1.1745465E-2,-7.040427E-2,5.497766E-1,-8.750283E-2,1.016267E0,4.5582658E-1,2.6894084E-1,-1.2694708E0,-1.9055842E0,3.6162615E-1,-2.5122055E-1,2.3944711E-2,-2.4315912E-2,3.1085664E-2,-6.76909E-2,-1.0822332E-2,3.9534587E-2,4.4783684E-3,-1.38593195E-2,9.777737E-3,2.1414695E-2,5.556029E-2,2.8803647E-2,-2.3646886E-2,-3.3601742E-2,3.2029066E-2,-3.1346608E-2,-1.3869649E-1,3.026978E-3,-1.1524315E-1,-1.3923769E-2,2.9909417E-2],"categories":[],"categories_nodes":[],"categories_segments":[],"categories_sizes":[],"default_left":[0,0,0,0,0,0,0,0,0,0,0,0,0,0,0,0,0,0,0,0,0,0,0,0,0,0,0,0,0,0,0,0,0,0,0,0,0,0,0,0,0,0,0,0,0,0,0,0,0,0,0,0,0,0,0,0,0,0,0,0,0],"id":19,"left_children":[1,3,5,-1,7,9,11,13,15,17,19,21,23,25,27,-1,-1,-1,29,31,-1,33,35,37,39,-1,-1,41,43,-1,-1,45,47,49,51,53,55,57,59,-1,-1,-1,-1,-1,-1,-1,-1,-1,-1,-1,-1,-1,-1,-1,-1,-1,-1,-1,-1,-1,-1],"loss_changes":[1.0352905E2,1.2141996E2,9.312631E1,0E0,4.1551403E1,1.522396E2,3.4932384E1,1.5937163E1,7.50824E-1,2.4475586E1,6.7249274E0,2.7904526E1,7.170683E1,2.373333E0,8.386158E0,0E0,0E0,0E0,6.232557E-1,2.77394E0,0E0,1.1186966E1,1.755718E1,5.3544933E1,2.8170685E1,0E0,0E0,5.715058E0,6.695938E-1,0E0,0E0,2.1466074E0,6.448101E-1,4.492195E0,7.53168E0,8.473701E0,8.894339E0,9.559914E0,1.2129065E1,0E0,0E0,0E0,0E0,0E0,0E0,0E0,0E0,0E0,0E0,0E0,0E0,0E0,0E0,0E0,0E0,0E0,0E0,0E0,0E0,0E0,0E0],"parents":[2147483647,0,0,1,1,2,2,4,4,5,5,6,6,7,7,8,8,9,9,10,10,11,11,12,12,13,13,14,14,18,18,19,19,21,21,22,22,23,23,24,24,27,27,28,28,31,31,32,32,33,33,34,34,35,35,36,36,37,37,38,38],"right_children":[2,4,6,-1,8,10,12,14,16,18,20,22,24,26,28,-1,-1,-1,30,32,-1,34,36,38,40,-1,-1,42,44,-1,-1,46,48,50,52,54,56,58,60,-1,-1,-1,-1,-1,-1,-1,-1,-1,-1,-1,-1,-1,-1,-1,-1,-1,-1,-1,-1,-1,-1],"split_conditions":[2E0,9.235714E1,1E0,-2.1758638E-1,1.130046E0,1.042173E2,9.05679E1,7.6666665E0,1.9968E0,1.3333334E0,2.2170214E1,2.0084E3,2.7346938E0,4E0,1.94E2,-7.274839E-2,-1.9956389E-1,-2.1018119E-1,1.0425414E1,1.03703705E2,-6.201272E-2,5.2340426E0,2.7083334E-1,1.3384784E1,6.0102856E1,-9.690977E-3,6.425784E-2,1.8073722E0,4.331361E1,-1.1745465E-2,-7.040427E-2,4.6066116E1,4.7288143E1,4.94E2,8.1632656E-1,7.234042E-1,1.3309292E1,4.9255825E1,4.432514E1,-2.5122055E-1,2.3944711E-2,-2.4315912E-2,3.1085664E-2,-6.76909E-2,-1.0822332E-2,3.9534587E-2,4.4783684E-3,-1.38593195E-2,9.777737E-3,2.1414695E-2,5.556029E-2,2.8803647E-2,-2.3646886E-2,-3.3601742E-2,3.2029066E-2,-3.1346608E-2,-1.3869649E-1,3.026978E-3,-1.1524315E-1,-1.3923769E-2,2.9909417E-2],"split_indices":[61,129,102,0,46,39,130,27,58,93,3,20,106,3,131,0,0,0,3,130,0,75,117,111,9,0,0,58,10,0,0,40,16,19,34,93,111,9,40,0,0,0,0,0,0,0,0,0,0,0,0,0,0,0,0,0,0,0,0,0,0],"split_type":[0,0,0,0,0,0,0,0,0,0,0,0,0,0,0,0,0,0,0,0,0,0,0,0,0,0,0,0,0,0,0,0,0,0,0,0,0,0,0,0,0,0,0,0,0,0,0,0,0,0,0,0,0,0,0,0,0,0,0,0,0],"sum_hessian":[3.74E2,4.9E1,3.25E2,1E1,3.9E1,4.8E1,2.77E2,3.5E1,4E0,1.7E1,3.1E1,1.84E2,9.3E1,7E0,2.8E1,2E0,2E0,1.2E1,5E0,2.9E1,2E0,1.52E2,3.2E1,8.9E1,4E0,1E0,6E0,1.9E1,9E0,1E0,4E0,1.9E1,1E1,8.8E1,6.4E1,2.2E1,1E1,1.1E1,7.8E1,3E0,1E0,1.3E1,6E0,8E0,1E0,1.2E1,7E0,6E0,4E0,1.3E1,7.5E1,5.7E1,7E0,6E0,1.6E1,8E0,2E0,2E0,9E0,2.1E1,5.7E1],"tree_param":{"num_deleted":"0","num_feature":"132","num_nodes":"61","size_leaf_vector":"1"}},{"base_weights":[-1.1328666E-3,-2.7875347E0,1.1122509E-1,-3.1173747E0,4.5755636E-2,1.6572005E-1,-1.6202936E-1,-2.1030617E-1,-9.646892E-1,-1.8538879E-1,5.7368374E-1,-1.4973575E0,6.70983E-2,-1.0177579E0,3.4147847E-1,-7.516774E-1,6.9744486E-1,-8.650375E-3,-9.405692E-2,6.6655637E-3,-1.6331911E-3,-7.962006E-1,-2.4310641E-1,-1.7140542E-1,4.328725E-1,-1.5437139E0,1.3431877E-1,8.1035817E-1,-2.734557E-1,-1.5392613E-1,-3.109016E-2,3.35796E-2,-2.7499426E-2,-1.16879465E-2,-8.487281E-2,7.433131E-2,-2.8211072E-2,4.7298416E-2,-1.5727167E-4,-5.3134818E-2,7.1976283E-3],"categories":[],"categories_nodes":[],"categories_segments":[],"categories_sizes":[],"default_left":[0,0,0,0,0,0,0,0,0,0,0,0,0,0,0,0,0,0,0,0,0,0,0,0,0,0,0,0,0,0,0,0,0,0,0,0,0,0,0,0,0],"id":20,"left_children":[1,3,5,7,-1,9,-1,-1,11,13,15,17,19,21,23,25,27,-1,-1,-1,-1,29,-1,-1,31,33,35,37,39,-1,-1,-1,-1,-1,-1,-1,-1,-1,-1,-1,-1],"loss_changes":[1.2115677E2,2.1171974E1,6.8485374E1,2.875467E1,0E0,5.26753E1,0E0,0E0,3.3980737E0,8.7180046E1,2.840905E1,1.7075891E0,2.4171095E-2,6.171338E1,4.35151E1,1.0733469E1,1.7323502E1,0E0,0E0,0E0,0E0,2.754005E1,0E0,0E0,2.8524736E1,1.2143707E0,8.395917E0,1.5447678E1,5.753382E0,0E0,0E0,0E0,0E0,0E0,0E0,0E0,0E0,0E0,0E0,0E0,0E0],"parents":[2147483647,0,0,1,1,2,2,3,3,5,5,8,8,9,9,10,10,11,11,12,12,13,13,14,14,15,15,16,16,21,21,24,24,25,25,26,26,27,27,28,28],"right_children":[2,4,6,8,-1,10,-1,-1,12,14,16,18,20,22,24,26,28,-1,-1,-1,-1,30,-1,-1,32,34,36,38,40,-1,-1,-1,-1,-1,-1,-1,-1,-1,-1,-1,-1],"split_conditions":[2.4609564E2,9.3E1,3.03E0,4E0,4.5755636E-2,1.0862222E2,-1.6202936E-1,-2.1030617E-1,2.9E1,1.9E0,5.7988167E-1,6.3723927E1,1.2714286E1,2.8989298E0,1E0,3.8190475E1,1.144376E0,-8.650375E-3,-9.405692E-2,6.6655637E-3,-1.6331911E-3,3.5555556E0,-2.4310641E-1,-1.7140542E-1,1.9444444E0,2.658E2,5.691358E0,1.8E1,1.4E1,-1.5392613E-1,-3.109016E-2,3.35796E-2,-2.7499426E-2,-1.16879465E-2,-8.487281E-2,7.433131E-2,-2.8211072E-2,4.7298416E-2,-1.5727167E-4,-5.3134818E-2,7.1976283E-3],"split_indices":[21,7,44,85,0,39,0,0,2,51,106,9,3,94,62,10,88,0,0,0,0,28,0,0,51,18,4,4,2,0,0,0,0,0,0,0,0,0,0,0,0],"split_type":[0,0,0,0,0,0,0,0,0,0,0,0,0,0,0,0,0,0,0,0,0,0,0,0,0,0,0,0,0,0,0,0,0,0,0,0,0,0,0,0,0],"sum_hessian":[3.85E2,1.4E1,3.71E2,1.3E1,1E0,3.66E2,5E0,8E0,5E0,1.97E2,1.69E2,3E0,2E0,7.6E1,1.21E2,1.4E1,1.55E2,1E0,2E0,1E0,1E0,7.3E1,3E0,2E0,1.19E2,7E0,7E0,1.39E2,1.6E1,4E0,6.9E1,9.6E1,2.3E1,1E0,6E0,2E0,5E0,1.19E2,2E1,5E0,1.1E1],"tree_param":{"num_deleted":"0","num_feature":"132","num_nodes":"41","size_leaf_vector":"1"}},{"base_weights":[-1.0895052E-1,-3.0691452E0,-3.0141773E-2,4.461174E-2,-3.6084356E0,1.1652505E-1,-1.3810402E0,-2.009611E-1,-1.4471235E0,-1.3580676E0,2.0290504E-1,-3.272812E0,-2.1996354E-1,-8.434105E-3,-1.0010016E-1,-5.4382426E-1,-1.5158121E-1,5.4140157E-1,-2.0605275E-1,-3.554065E0,9.586967E-3,1.7346372E-1,-2.230466E0,-1.6400139E-1,-1.1947052E0,-5.689601E-1,6.3288736E-1,-1.5418433E0,2.0951116E-1,2.8002262E-3,-1.9297855E-1,7.299122E-4,6.048116E-2,-3.0651642E-2,-1.282633E-1,2.9584227E-2,-2.8619656E-2,-6.6900745E-2,-1.5536666E-2,1.0334807E-2,-5.1142324E-2,3.9699588E-2,1.5400374E-2,-3.0908434E-2,-1.4416002E-1,1.732319E-2,-6.1787374E-2,-1.9066222E-2,1.0319767E-2],"categories":[],"categories_nodes":[],"categories_segments":[],"categories_sizes":[],"default_left":[0,0,0,0,0,0,0,0,0,0,0,0,0,0,0,0,0,0,0,0,0,0,0,0,0,0,0,0,0,0,0,0,0,0,0,0,0,0,0,0,0,0,0,0,0,0,0,0,0],"id":21,"left_children":[1,3,5,-1,7,9,11,-1,13,15,17,19,21,-1,-1,23,-1,25,27,29,-1,31,33,35,37,39,41,43,45,-1,-1,47,-1,-1,-1,-1,-1,-1,-1,-1,-1,-1,-1,-1,-1,-1,-1,-1,-1],"loss_changes":[8.995713E1,2.4582916E1,7.485668E1,0E0,2.1742249E0,4.371054E1,8.05503E1,0E0,1.7904415E0,2.424229E1,4.4824707E1,1.4323288E1,1.9370579E1,0E0,0E0,3.2651396E0,0E0,1.8340149E1,8.192367E1,1.4553833E1,0E0,3.757692E0,5.9347534E-1,3.4248352E0,2.176423E-1,5.140256E0,8.339134E0,4.15819E1,2.2794455E1,0E0,0E0,1.5716356E0,0E0,0E0,0E0,0E0,0E0,0E0,0E0,0E0,0E0,0E0,0E0,0E0,0E0,0E0,0E0,0E0,0E0],"parents":[2147483647,0,0,1,1,2,2,4,4,5,5,6,6,8,8,9,9,10,10,11,11,12,12,15,15,17,17,18,18,19,19,21,21,22,22,23,23,24,24,25,25,26,26,27,27,28,28,31,31],"right_children":[2,4,6,-1,8,10,12,-1,14,16,18,20,22,-1,-1,24,-1,26,28,30,-1,32,34,36,38,40,42,44,46,-1,-1,48,-1,-1,-1,-1,-1,-1,-1,-1,-1,-1,-1,-1,-1,-1,-1,-1,-1],"split_conditions":[2.4609564E2,3E0,7.485833E0,4.461174E-2,6.802721E-1,8.145204E0,1.042173E2,-2.009611E-1,9.310345E0,7E1,1.2E1,3.695E3,1.1288362E2,-8.434105E-3,-1.0010016E-1,1.6462E0,-1.5158121E-1,6.1233413E-1,1.4086957E1,7.3130196E-1,9.586967E-3,7.278225E2,1.8565514E1,2.1142857E0,6.462575E2,2.128E3,4.7436E0,2.278644E0,3.888889E-1,2.8002262E-3,-1.9297855E-1,2.49E0,6.048116E-2,-3.0651642E-2,-1.282633E-1,2.9584227E-2,-2.8619656E-2,-6.6900745E-2,-1.5536666E-2,1.0334807E-2,-5.1142324E-2,3.9699588E-2,1.5400374E-2,-3.0908434E-2,-1.4416002E-1,1.732319E-2,-6.1787374E-2,-1.9066222E-2,1.0319767E-2],"split_indices":[21,0,112,0,63,16,39,0,3,38,126,19,39,0,0,117,0,88,3,88,0,21,3,33,21,19,112,45,99,0,0,44,0,0,0,0,0,0,0,0,0,0,0,0,0,0,0,0,0],"split_type":[0,0,0,0,0,0,0,0,0,0,0,0,0,0,0,0,0,0,0,0,0,0,0,0,0,0,0,0,0,0,0,0,0,0,0,0,0,0,0,0,0,0,0,0,0,0,0,0,0],"sum_hessian":[3.85E2,9E0,3.76E2,1E0,8E0,3.4E2,3.6E1,6E0,2E0,1.8E1,3.22E2,1.3E1,2.3E1,1E0,1E0,1.3E1,5E0,1.76E2,1.46E2,1.2E1,1E0,2E1,3E0,9E0,4E0,1.3E1,1.63E2,3.4E1,1.12E2,1E0,1.1E1,1.8E1,2E0,1E0,2E0,3E0,6E0,3E0,1E0,5E0,8E0,1.08E2,5.5E1,2.1E1,1.3E1,1.03E2,9E0,6E0,1.2E1],"tree_param":{"num_deleted":"0","num_feature":"132","num_nodes":"49","size_leaf_vector":"1"}},{"base_weights":[-8.62697E-2,4.2119035E-1,-5.4716134E-1,4.8780254E-1,-1.8357652E-1,-1.6101793E0,2.1816331E-1,5.8380145E-1,-4.5570493E-1,-2.0699644E0,-3.2074136E-1,-2.0241494E-1,3.6725786E-1,-2.2400118E-1,7.328458E-1,-1.0806174E0,8.9795545E-2,-2.5324926E0,2.9732982E-2,-9.726575E-1,2.5263071E-2,5.4974395E-1,-1.3318096E-1,2.2880456E-1,-8.62264E-1,-1.1526868E-1,7.863355E-1,-6.9124125E-2,2.5810957E-2,2.553448E-1,-2.2236454E-1,-3.1831744E0,-1.0821587E0,-4.6728736E-1,8.382782E-2,-6.72971E-2,-2.6288748E-1,-7.59205E-1,3.5001948E-1,8.0983657E-1,2.0449814E-1,2.4367867E-1,-8.405329E-1,-1.4908827E-2,1.8667612E-2,-2.4050457E-2,-7.046039E-2,-5.7570793E-2,2.9735377E-2,3.3111207E-2,5.6365985E-2,1.8886074E-2,-1.686565E-3,-2.292517E-2,1.2151301E-2,1.34756565E-2,-1.7036949E-1,-1.0505992E-1,-1.6765047E-2,1.0352827E-2,-2.8261036E-2,-2.0623779E-2,-3.7766458E-3,-1.3567741E-2,-4.969934E-2,4.3454673E-2,7.964768E-3,-5.534632E-3,4.490207E-2,-1.12727225E-1,2.047152E-2,4.313816E-2,4.6283314E-3,-1.2895103E-2,-6.415375E-2],"categories":[],"categories_nodes":[],"categories_segments":[],"categories_sizes":[],"default_left":[0,0,0,0,0,0,0,0,0,0,0,0,0,0,0,0,0,0,0,0,0,0,0,0,0,0,0,0,0,0,0,0,0,0,0,0,0,0,0,0,0,0,0,0,0,0,0,0,0,0,0,0,0,0,0,0,0,0,0,0,0,0,0,0,0,0,0,0,0,0,0,0,0,0,0],"id":22,"left_children":[1,3,5,7,-1,9,11,13,15,17,19,-1,21,23,25,27,29,31,33,35,37,39,41,43,45,47,49,-1,-1,51,53,55,57,59,-1,-1,61,63,65,67,69,71,73,-1,-1,-1,-1,-1,-1,-1,-1,-1,-1,-1,-1,-1,-1,-1,-1,-1,-1,-1,-1,-1,-1,-1,-1,-1,-1,-1,-1,-1,-1,-1,-1],"loss_changes":[8.8404755E1,5.086351E1,1.6143494E2,1.6388515E1,0E0,4.8543823E1,7.527509E1,1.9668697E1,5.892165E0,5.931662E1,5.2125874E0,0E0,1.0392731E1,7.7115254E0,6.30571E0,4.5698977E0,5.7355833E-1,